	-0.03776378184556961, -0.09872522205114365, -0.013369269669055939,
	-0.09520865976810455, 0.08804481476545334, -0.031526170670986176,
	-0.00767996720969677, -0.053308576345443726, -0.09942134469747543,
	0.002110968343913555, 0.028208503499627113, -0.08660923689603806,
	0.057847633957862854, -0.011846238747239113, 0.05747342109680176,
	0.06985440105199814, -0.10525978356599808, -0.01672695018351078,
	0.052635956555604935, -0.04799477010965347, 0.05774490162730217,
	0.06854135543107986, -0.00660198787227273, -0.02806331031024456,
	0.03730021044611931, -0.00284969131462276, -0.07366350293159485,
	0.03459998592734337, 0.10035398602485657, -0.10321995615959167,
	0.03581445664167404, 0.01440064050257206, -0.027041791006922722,
	-0.07041267305612564, 0.061003122478723526, -0.049913447350263596,
	0.01056203618645668, -0.06946562975645065, -0.10658131539821625,
	-0.08916395157575607, -0.00952477753162384, 0.023100079968571663,
	0.010118335485458374, -0.04365038499236107, 0.01964510791003704,
	0.027156392112374306, 0.06557086855173111, 0.05330686271190643,
	0.040903959423303604, 0.047644928097724915, -0.07089506834745407,
	0.07821273803710938, -0.004010611213743687, 0.09834248572587967,
	-0.0525214821100235, 0.012845625169575214, -0.08556684106588364,
	-0.03152304142713547, -0.09404981136322021, 0.041820228099823,
	-0.08545830100774765, 0.04585892707109451, -0.012091129086911678,
	-0.02122543193399906, 0.07781847566366196, -0.04250200837850571,
	-0.06917116791009903, 0.008706985972821712, 0.05913276970386505,
	0.10024967044591904, 0.09046246856451035, 0.0722663551568985,
	-0.07530175894498825, -0.030861036852002144, -0.08159828931093216,
	0.022374654188752174, -0.029785972088575363, -0.06877057254314423,
	0.08780281990766525, 0.06137877330183983, 0.0866418406367302,
	-0.003310488536953926, -0.06723961234092712, -0.01488258596509695,
	-0.04249870032072067, -0.018204648047685623, -0.023226432502269745,
	-0.0545363686978817, 0.0355234332382679, 0.08228964358568192,
	-0.0898473933339119, 0.091070257127285, -0.0748705118894577,
	-0.0127653693780303, -0.038545042276382446, -0.06255004554986954,
	-0.08537887036800385, -0.012885174714028835, -0.012046152725815773,
	-0.03426533192396164, 0.04985231161117554, 0.09559393674135208,
	-0.08527088165283203, -0.03236488252878189, -0.09553305059671402,
	-0.015452640131115913, 0.03453414514660835, -0.062188077718019485,
	-0.07098483294248581, -0.03996710479259491, 0.08300773799419403,
	0.019996510818600655, -0.09131717681884766, 0.07555760443210602,
	-0.03923093155026436, -0.08139876276254654, 0.0654621422290802,
	-0.02207016386091709, -0.06573203951120377, -0.05278760567307472,
	0.06828964501619339, 0.09806206822395325, 0.04726778715848923,
	0.07131247967481613, 0.12314940243959427, 0.07545265555381775,
	-0.007698338013142347, 0.1324046403169632, 0.097403883934021,
	0.22127428650856018, 0.37097710371017456, 0.09345967322587967,
	0.12213877588510513, -0.035551220178604126, 0.09961547702550888,
	-0.008680405095219612, 0.06538034975528717, -0.10243263095617294,
	-0.019863752648234367, -0.013335994444787502, 0.050195708870887756,
	-0.09542955458164215, 0.050223786383867264, -0.09280773997306824,
	-0.005601025652140379, 0.0860527902841568, -0.10017707198858261,
	-0.020350785925984383, 0.0034358121920377016, 0.016281532123684883,
	0.0865626186132431, 0.07812561839818954, 0.11005324870347977,
	0.012241964228451252, 0.03690775856375694, 0.10285467654466629,
	-0.08427753299474716, -0.06639853864908218, -0.08738461881875992,
	-0.0978822335600853, 0.042455464601516724, 0.0905713215470314,
	0.049515556544065475, 0.07925490289926529, 0.046822670847177505,
	0.015981163829565048, 0.16897521913051605, 0.1275206357240677,
	0.008416591212153435, 0.09053695201873779, -0.06998953968286514,
	0.0828995332121849, -0.02069214917719364, -0.10319071263074875,
	0.08120410889387131, 0.008260151371359825, 0.02863617241382599,
	-0.06818033754825592, 0.11069336533546448, 0.07723043859004974,
	-0.10556009411811829, -0.10368309915065765, -0.052619047462940216,
	-0.087478868663311, 0.04284171015024185, -0.04410242661833763,
	0.0673375129699707, -0.04225961118936539, 0.06386753171682358,
	-0.040741924196481705, 0.07489033043384552, 0.009460406377911568,
	0.060890987515449524, -0.02805398963391781, 0.04645809158682823,
	-0.07896881550550461, -0.09573978930711746, -0.06842302531003952,
	-0.0575883574783802, -0.1038551852107048, 0.019009418785572052,
	0.05379713326692581, -0.09167087823152542, 0.022631561383605003,
	0.016047043725848198, 0.01257591787725687, -0.009053022600710392,
	0.052436407655477524, 0.016277484595775604, -0.006071869749575853,
	-0.0008974809315986931, -0.07341184467077255, -0.0641411617398262,
	-0.04442782700061798, 0.10070275515317917, -0.054392002522945404,
	-0.09090804308652878, 0.033837828785181046, 0.14107054471969604,
	-0.06186383217573166, 0.28824299573898315, 0.32152584195137024,
	-0.09975424408912659, 0.0651058480143547, 0.1540597677230835,
	0.024127276614308357, -0.03505977988243103, -0.00972371269017458,
	-0.07826147228479385, -0.034354984760284424, 0.08835683017969131,
	0.009079362265765667, -0.047496870160102844, 0.03742629289627075,
	0.02949918620288372, 0.04234635829925537, -0.08637969940900803,
	0.023808959871530533, 0.0678287222981453, -0.07730258256196976,
	-0.0775323435664177, -0.0004891962744295597, 0.01028717402368784,
	0.07187961041927338, 0.04338674619793892, -0.04167167469859123,
	-0.005229780450463295, 0.10356491804122925, 0.07788293808698654,
	0.08618362993001938, -0.07588448375463486, 0.052961576730012894,
	0.02901449240744114, 0.005560391116887331, -0.0421929694712162,
	0.03789736330509186, 0.032183218747377396, 0.10847526043653488,
	-0.08077464252710342, 0.11363000422716141, -0.05955735966563225,
	-0.09128950536251068, -0.1227475181221962, 0.05026504024863243,
	-0.009883197955787182, 0.10322397947311401, -0.04415713995695114,
	-0.048888299614191055, 0.07590701431035995, -0.008045054972171783,
	-0.024027178063988686, -0.02401750534772873, -0.0766407921910286,
	0.08442987501621246, -0.0934666320681572, -0.041654642671346664,
	0.00542612886056304, 0.009637226350605488, -0.05010586231946945,
	-0.01742737367749214, -0.032077137380838394, 0.06993496417999268,
	-0.051200468093156815, 0.07997148483991623, -0.09614143520593643,
	-0.10018738359212875, 0.047256991267204285, 0.028529293835163116,
	0.04109393060207367, 0.00228462484665215, 0.035147860646247864,
	-0.04738568142056465, -0.03943762928247452, -0.023910146206617355,
	0.06260338425636292, 0.0867999792098999, -0.09106602519750595,
	-0.02614063210785389, -0.09900514036417007, -0.004319238942116499,
	-0.03765665739774704, 0.03039049729704857, 0.036719921976327896,
	-0.08632893115282059, -0.06636115908622742, 0.023101594299077988,
	-0.022153889760375023, 0.0910499095916748, 0.16942796111106873,
	0.15555445849895477, 0.2581971287727356, 0.3165750801563263,
	-0.16059640049934387, 0.04980200529098511, 0.003575708018615842,
	-0.077595055103302, -0.022998714819550514, -0.11265773326158524,
	-0.09558350592851639, 0.05562475696206093, -0.045852188020944595,
	0.008798752911388874, 0.04580499604344368, 0.0984506905078888,
	0.04046520218253136, 0.031940411776304245, 0.08943261206150055,
	0.06571119278669357, -0.0946180522441864, 0.09756739437580109,
	0.08638254553079605, 0.047286249697208405, 0.06750749796628952,
	0.015918973833322525, -0.05355360731482506, 0.07334709167480469,
	0.0733652114868164, -0.008969331160187721, 0.08815471082925797,
	0.04467153921723366, 0.04184437543153763, 0.06118008494377136,
	0.07017883658409119, 0.1354672610759735, 0.09622460603713989,
	0.11926767975091934, 0.16014118492603302, 0.05720265209674835,
	-0.10977878421545029, 0.058463260531425476, -0.062495581805706024,
	-0.05539567768573761, -0.024723507463932037, -0.007967081852257252,
	-0.04307634383440018, 0.09777345508337021, -0.05856575444340706,
	0.019590647891163826, 0.02497246116399765, -0.028254477307200432,
	-0.10284851491451263, 0.002128537045791745, -0.0372045561671257,
	-0.04315152019262314, 0.09711436927318573, -0.005570535082370043,
	-0.06897854059934616, -0.0986086055636406, -0.06569758802652359,
	-0.06598781794309616, -0.05156482756137848, 0.0637027844786644,
	-0.03216281905770302, 0.06526847928762436, 0.03784545511007309,
	-0.07681000232696533, 0.08629340678453445, 0.09859074652194977,
	0.06566297262907028, 0.0504603236913681, 0.04258909076452255,
	0.026736153289675713, -0.020667869597673416, -0.03730052337050438,
	-0.08735843747854233, -0.06885524839162827, 0.013566927053034306,
	0.06820172071456909, -0.02229926362633705, -0.07798971980810165,
	-0.024155007675290108, 0.08470018953084946, 0.06454810500144958,
	0.04900205880403519, 0.09399061650037766, 0.006122126244008541,
	0.10180870443582535, 0.08655767142772675, 0.006987341679632664,
	0.03633024916052818, 0.09825293719768524, -0.16120193898677826,
	-0.02594270184636116, -0.04991370067000389, -0.11291296780109406,
	0.03364209830760956, -0.09728388488292694, -0.055641572922468185,
	-0.04166953265666962, -0.05191167816519737, 0.04740745946764946,
	-0.01882290467619896, -0.08504695445299149, 0.062056899070739746,
	-0.07135359197854996, -0.08548177778720856, 0.08077109605073929,
	0.00446484237909317, -0.0649355947971344, -0.07978538423776627,
	-0.06754612177610397, -0.00234702555462718, -0.008558149449527264,
	-0.045343656092882156, -0.10040976107120514, -0.0418645478785038,
	0.09196044504642487, -0.08415091782808304, -0.05571597442030907,
	-0.0028703741263598204, 0.0239736158400774, 0.009367985650897026,
	0.11932627856731415, -0.03530341386795044, -0.027460066601634026,
	-0.023371346294879913, 0.08273961395025253, -0.04207206889986992,
	0.09050767123699188, -0.001505157444626093, -0.007679167669266462,
	-0.08432608842849731, -0.06426260620355606, -0.09696058928966522,
	0.05622340738773346, 0.05805133655667305, -0.061553534120321274,
	0.031490445137023926, -0.05960157513618469, 0.09387151896953583,
	-0.0685938373208046, -0.005351044703274965, 0.09767889976501465,
	0.015013360418379307, 0.055970799177885056, -0.013285866938531399,
	-0.014632808975875378, 0.038994066417217255, 0.010137294419109821,
	0.023756280541419983, 0.07326647639274597, -0.09184765815734863,
	0.07304167747497559, 0.06342839449644089, -0.051108468323946,
	0.04017971083521843, -0.05477536469697952, -0.09564986079931259,
	-0.028992092236876488, 0.05855468660593033, -0.01585356891155243,
	0.09559445828199387, 0.06814397871494293, 0.08950444310903549,
	0.06266076117753983, 0.05891456827521324, 0.062302328646183014,
	0.005202954169362783, -0.10830028355121613, -0.006917500868439674,
	-0.09088011085987091, 0.03894822672009468, 0.05696588382124901,
	0.08807189762592316, 0.07731028646230698, 0.07486646622419357,
	0.026067646220326424, -0.017094410955905914, -0.0986294373869896,
	0.3259468376636505, 0.15623846650123596, -0.04233046993613243,
	0.26107466220855713, 0.13385441899299622, -0.07709524780511856,
	0.06965173035860062, -0.08816307783126831, 0.06802090257406235,
	-0.04840673506259918, -0.03025207296013832, 0.1030653566122055,
	0.03557071462273598, -0.01280954573303461, -0.09209800511598587,
	0.0673089399933815, -0.011895310133695602, -0.045042987912893295,
	0.08722934126853943, 0.04358106479048729, -0.09897751361131668,
	0.10559657961130142, 0.09713837504386902, 0.09283660352230072,
	-0.027932509779930115, -0.0475606843829155, 0.0756387785077095,
	0.07286563515663147, 0.0994618609547615, 0.07770197093486786,
	0.0482974648475647, 0.09543784707784653, -0.08531291782855988,
	0.018846986815333366, -0.07288813591003418, -0.057724665850400925,
	0.1198328509926796, 0.05848841369152069, 0.022403040900826454,
	0.08987250924110413, 0.023514719679951668, 0.06151421368122101,
	-0.04071210324764252, -0.003224582877010107, 0.0746755450963974,
	0.07286267727613449, -0.06425490975379944, 0.035878345370292664,
	0.014025273732841015, 0.00988056231290102, 0.05122552439570427,
	0.09044891595840454, -0.06012337654829025, 0.07097487151622772,
	-0.017785117030143738, -0.08839640766382217, -0.058403752744197845,
	-0.02764449268579483, -0.07028786838054657, 0.0069536264054477215,
	0.09584762156009674, -0.036727942526340485, -0.02703777886927128,
	-0.0010055385064333677, 0.06773272156715393, -0.03567900508642197,
	0.0929342582821846, 0.017172183841466904, 0.1019611731171608,
	-0.08202173560857773, -0.04430205747485161, 0.054810985922813416,
	-0.08685445785522461, -0.03229129686951637, 0.0680454894900322,
	0.011800277046859264, -0.03421078994870186, -0.1045016199350357,
	-0.024603746831417084, 0.058207638561725616, 0.07903692126274109,
	-0.009124639444053173, -0.012888139113783836, 0.034644726663827896,
	-0.013739320449531078, 0.061521630734205246, 0.019046621397137642,
	-0.2182362675666809, -0.0272369347512722, -0.13234509527683258,
	-0.06403133273124695, 0.01758968085050583, 0.19829757511615753,
	0.09852807968854904, 0.23108956217765808, 0.1352892965078354,
	-0.08397301286458969, 0.07627104222774506, 0.0350736640393734,
	0.0683760792016983, -0.08991066366434097, -0.06810463219881058,
	-0.04159020632505417, -0.036997437477111816, -0.06712307780981064,
	0.10315496474504471, -0.06531976908445358, 0.1024387776851654,
	-0.022009560838341713, 0.03940720483660698, -0.054837681353092194,
	-0.07177597284317017, 0.05190746858716011, 0.062390148639678955,
	-0.08309373259544373, -0.08815617114305496, -0.07120055705308914,
	-0.034640900790691376, 0.05529572814702988, 0.009029972366988659,
	0.033610764890909195, -0.053526706993579865, 0.09074370563030243,
	-0.12983952462673187, 0.028848588466644287, -0.05984043329954147,
	-0.019326375797390938, 0.07731065899133682, 0.013057876378297806,
	0.05134677514433861, 0.10300733894109726, 0.0026774073485285044,
	0.07150782644748688, 0.09032983332872391, -0.008100214414298534,
	-0.07486553490161896, -0.052310265600681305, 0.10214032232761383,
	-0.035253215581178665, 0.09020423144102097, 0.09415354579687119,
	0.10552649945020676, 0.046096790581941605, -0.0869792252779007,
	-0.03204922378063202, -0.0950164943933487, 0.08287850022315979,
	-0.08446318656206131, -0.07917311787605286, 0.021719155833125114,
	-0.06523134559392929, -0.045330602675676346, 0.08561615645885468,
	-0.10442886501550674, 0.06199066713452339, 0.05937592312693596,
	0.05932428315281868, -0.07590099424123764, 0.06155197694897652,
	0.06276997923851013, -0.07582398504018784, 0.0919986441731453,
	0.10391637682914734, -0.04469982907176018, -0.0349167175590992,
	0.02232838235795498, 0.014679322019219398, 0.05932295694947243,
	0.0824439525604248, 0.07040800154209137, 0.10234829038381577,
	0.004372599069029093, -0.03906514495611191, -0.09573930501937866,
	0.09838084876537323, -0.052243977785110474, -0.09767872095108032,
	0.011256825178861618, -0.06644788384437561, -0.019319919869303703,
	-0.07830629497766495, 0.019455572590231895, -0.02014741487801075,
	-0.0026477291248738766, 0.15390795469284058, 0.026478523388504982,
	0.05764038860797882, -0.03690454363822937, 0.05292369797825813,
	0.009513919241726398, -0.026847846806049347, 0.0060686953365802765,
	-0.03800410032272339, 0.032596562057733536, -0.04666000232100487,
	0.04689911752939224, 0.02403750643134117, -0.09753920882940292,
	-0.028319118544459343, 0.06933944672346115, 0.04260171577334404,
	-0.007891894318163395, 0.10135062038898468, 0.09801299124956131,
	-0.0223760474473238, 0.022670116275548935, -0.05151083692908287,
	0.028103239834308624, -0.06677524000406265, 0.01535653043538332,
	0.02168685756623745, 0.03605020046234131, 0.09578223526477814,
	-0.015138354152441025, -0.08527760952711105, -0.00044615124352276325,
	0.08526092767715454, 0.05955195054411888, 0.09625376760959625,
	0.08773797750473022, 0.019276773557066917, -0.045386362820863724,
	-0.05961109325289726, -0.08415937423706055, 0.02210068702697754,
	-0.09628905355930328, 0.020697928965091705, -0.06105837598443031,
	-0.04141656681895256, -0.013272929936647415, 0.006086391396820545,
	-0.022992722690105438, -0.07331784814596176, 0.01955886371433735,
	0.027515428140759468, 0.06138042360544205, 0.04638691246509552,
	-0.0829196572303772, -0.02428201586008072, 0.0835065022110939,
	-0.0579654760658741, -0.017982274293899536, 0.08716952800750732,
	-0.037604667246341705, 0.06498212367296219, 0.0847068801522255,
	-0.06127293407917023, 0.04278320074081421, -0.00427685771137476,
	0.038147229701280594, 0.0794154554605484, 0.0064948913641273975,
	0.04091485217213631, -0.011118903756141663, -0.00243279873393476,
	-0.09042694419622421, 0.08147457242012024, -0.018836427479982376,
	0.07412838190793991, 0.012204444967210293, -0.036394111812114716,
	0.02940192073583603, -0.009308185428380966, -0.04633914679288864,
	-0.09613156318664551, 0.038589440286159515, 0.046474117785692215,
	-0.0074918922036886215, 0.003707017982378602, 0.04038068652153015,
	-0.1529236137866974, 0.14678020775318146, 0.19654136896133423,
	-0.07680213451385498, 0.17663441598415375, 0.07143543660640717,
	-0.015076450072228909, -0.030011054128408432, -0.10104087740182877,
	-0.0625436007976532, -0.032399579882621765, -0.046548422425985336,
	0.01520511694252491, -0.030906490981578827, -0.025798596441745758,
	-0.03761299327015877, 0.04826454818248749, -0.08268103003501892,
	0.025535454973578453, -0.004362039268016815, 0.08814611285924911,
	0.036041442304849625, -0.026350965723395348, 0.0641266480088234,
	-0.027788296341896057, -0.06990142911672592, -0.04570098593831062,
	-0.037975672632455826, 0.056355755776166916, -0.07036419957876205,
	0.0944218710064888, 0.015042577870190144, 0.02962716482579708,
	-0.02200370840728283, 0.13956370949745178, -0.044349849224090576,
	0.02938041090965271, 0.14796988666057587, 0.07339919358491898,
	-0.004754878580570221, 0.026125183328986168, -0.039143942296504974,
	-0.05534273386001587, 0.07851122319698334, -0.011027957312762737,
	0.043813321739435196, -0.07905929535627365, 0.04444466531276703,
	0.03414945304393768, 0.11149308830499649, 0.0980263352394104,
	0.034221064299345016, -0.10417050868272781, 0.020519034937024117,
	-0.07170268148183823, -0.07491391152143478, 0.03647521883249283,
	-0.08824555575847626, 0.10860297083854675, -0.08626335859298706,
	0.026851803064346313, -0.0936635285615921, -0.052783336490392685,
	-0.04162810370326042, -0.08668389171361923, -0.06240631639957428,
	-0.07721103727817535, -0.031599048525094986, 0.10383091866970062,
	0.055142998695373535, 2.1385179934441112e-05, -0.09668562561273575,
	-0.009076743386685848, -0.05957399308681488, 0.07281424105167389,
	0.07646780461072922, 0.0444660559296608, 0.10402835160493851,
	-0.037366945296525955, -0.11696305871009827, 0.0037566041573882103,
	-0.07893139868974686, -0.016784941777586937, -0.07228843867778778,
	0.045663513243198395, 0.12483393400907516, 0.05624748766422272,
	-0.2874515652656555, -0.22843527793884277, -0.31496068835258484,
	0.36541464924812317, 0.6977635025978088, 0.4136785566806793,
	0.44389480352401733, 0.5133429169654846, 0.13002470135688782,
	-0.06984761357307434, 0.08484521508216858, -0.07836379110813141,
	0.05060170963406563, -0.06031584367156029, 0.0974615141749382,
	-0.09844595193862915, -0.05422082915902138, 0.06615418195724487,
	0.028085483238101006, 0.027616506442427635, 0.0847761407494545,
	-0.0222018975764513, -0.10907204449176788, -0.03274788334965706,
	-0.035079434514045715, -0.018138814717531204, -0.0622311532497406,
	-0.0037776532117277384, -0.058247242122888565, 0.10314781218767166,
	0.08824356645345688, -0.09669677168130875, 0.06725335121154785,
	0.028821563348174095, -0.021520214155316353, -0.04436156898736954,
	-0.011137080378830433, -0.1882009208202362, -0.09454585611820221,
	0.28702419996261597, 0.22879230976104736, 0.1750694364309311,
	0.23729193210601807, 0.1375788003206253, -0.021036306396126747,
	-0.12838304042816162, -0.10645370930433273, -0.09598473459482193,
	-0.01624763384461403, -0.05840533226728439, 0.002448488026857376,
	-0.07563458383083344, 0.04409663751721382, 0.12000104039907455,
	0.07376930117607117, -0.05090797320008278, -0.014190067537128925,
	-0.07491699606180191, -0.09712447226047516, 0.05092814192175865,
	-0.09297733008861542, -0.0919472724199295, 0.029278047382831573,
	-0.006007719319313765, 0.0705515593290329, -0.07667943090200424,
	0.05266411975026131, -0.07350043207406998, 0.09907598048448563,
	-0.011950909160077572, 0.01586669310927391, 0.001193307456560433,
	-0.04775596410036087, -0.10044310241937637, 0.09137950092554092,
	0.024038076400756836, -0.02338152937591076, 0.04809914529323578,
	0.0862269327044487, -0.01582157425582409, -0.07634145021438599,
	-0.09354393184185028, -0.04884091019630432, 0.013542951084673405,
	-0.004636699799448252, 0.07663954049348831, -0.011171010322868824,
	0.05140271782875061, 0.05766903981566429, -0.07806530594825745,
	0.07073220610618591, 0.06120898574590683, -0.15251247584819794,
	0.34873345494270325, 0.36454686522483826, 0.10567935556173325,
	0.25257986783981323, 0.1810268759727478, -0.09023721516132355,
	-0.052021414041519165, -0.08164306730031967, 0.023412393406033516,
	-0.05466693267226219, 0.010519429109990597, -0.09429923444986343,
	-0.03404596820473671, -0.10930635780096054, -0.0824398621916771,
	-0.012735802680253983, 0.014554427936673164, 0.06731346249580383,
	-0.08465976268053055, -0.10701194405555725, -0.010804667137563229,
	0.10556380450725555, -0.0027020920533686876, -0.009410073049366474,
	-0.05641978234052658, 0.04249187931418419, -0.08356692641973495,
	0.05221500247716904, 0.09116823971271515, 0.0071013313718140125,
	0.0019407388754189014, 0.08318084478378296, -0.047448523342609406,
	0.08162924647331238, -0.0857495591044426, -0.1026063784956932,
	0.16946734488010406, 0.12009263038635254, -0.056029703468084335,
	0.06435249000787735, -0.0005303221987560391, 0.002625612076371908,
	-0.12426094710826874, -0.052957210689783096, -0.10485516488552094,
	0.08646196871995926, 0.09135828912258148, 0.05245056003332138,
	-0.07792313396930695, 0.05113135650753975, 0.09326225519180298,
	0.03275865316390991, 0.08214510977268219, 0.026368411257863045,
	-0.07187207788228989, -0.08398665487766266, 0.04408960044384003,
	-0.0496622696518898, 0.058153148740530014, -0.06673143059015274,
	-0.06968187540769577, 0.04269469529390335, 0.09633386880159378,
	0.10201068967580795, -0.021211782470345497, -0.09496654570102692,
	0.039676547050476074, -0.07024656981229782, 0.002440403215587139,
	0.08674463629722595, -0.07953866571187973, -0.08555906265974045,
	-0.021878927946090698, 0.08655548095703125, 0.05128343775868416,
	-0.07366418093442917, -0.07121352851390839, 0.046719618141651154,
	0.018436657264828682, 0.06603920459747314, -0.053362783044576645,
	-0.018542442470788956, -0.04317060485482216, -0.05974302068352699,
	0.04608785733580589, 0.07544254511594772, -0.022773565724492073,
	0.15420643985271454, 0.1697157770395279, 0.13781873881816864,
	0.06169307231903076, 0.2477429360151291, 0.27178385853767395,
	0.07026459276676178, 0.12263181060552597, -0.018525172024965286,
	0.03260987251996994, -0.0389888621866703, -0.02251386269927025,
	-0.050268787890672684, -0.004439003299921751, -0.07207322865724564,
	0.06936957687139511, -0.008396515622735023, -0.04270109534263611,
	-0.02109360508620739, 0.002161539625376463, 0.08661451935768127,
	0.031457215547561646, -0.059373367577791214, 0.07821188122034073,
	0.04212626814842224, -0.0076668839901685715, -0.07255478948354721,
	0.05646255239844322, 0.02254197560250759, -0.030945930629968643,
	-0.04587484151124954, 0.030496632680296898, 0.05815978720784187,
	0.09582065790891647, 0.05356748402118683, -0.0938902348279953,
	0.08829211443662643, 0.0027357309591025114, -0.0505424328148365,
	0.11399886757135391, 0.0662035271525383, 0.02420436404645443,
	-0.08774694055318832, 0.06038926541805267, -0.04078781604766846,
	-0.03280920907855034, 0.006017215549945831, 0.08285949379205704,
	0.045341819524765015, 0.10157914459705353, -0.0428311824798584,
	0.047439947724342346, -0.03938733786344528, -0.061000943183898926,
