	-0.10646723210811615, 0.020628590136766434, 0.08595914393663406,
	0.08262646198272705, -0.10934270173311234, -0.01831039972603321,
	-0.08637426793575287, 0.02251422218978405, 0.12411718815565109,
	0.14993295073509216, 0.002853257115930319, -0.10214732587337494,
	-0.1337113231420517, -0.04117683321237564, 0.07721788436174393,
	0.0477403961122036, -0.022969067096710205, -0.08432240784168243,
	-0.07333806157112122, 0.13674351572990417, 0.046300243586301804,
	0.11027226597070694, 0.0495070144534111, 0.034830644726753235,
	-0.09966330230236053, -0.004943693522363901, -0.06686479598283768,
	-0.0949658527970314, -0.09349683672189713, -0.06978992372751236,
	0.114725261926651, 0.13620226085186005, 0.017507018521428108,
	0.099632628262043, 0.013383009470999241, 0.01518486998975277,
	0.14606973528862, -0.017563913017511368, -0.11085737496614456,
	-0.02510686218738556, 0.14691172540187836, -0.12898290157318115,
	-0.07411666959524155, -0.08409690111875534, -0.009491770528256893,
	-0.14883998036384583, 0.0057492670603096485, -0.011436871252954006,
	-0.07168511301279068, 0.11730177700519562, 0.10405628383159637,
	0.06837038695812225, 0.13700616359710693, 0.07798340171575546,
	0.06941234320402145, -0.0440264455974102, -0.059689510613679886,
	-0.07287658005952835, 0.1195746511220932, -0.10362985730171204,
	-0.08104996383190155, -0.04455195367336273, 0.04439561814069748,
	0.0945935845375061, 0.013669256120920181, -0.14608271420001984,
	0.05896889418363571, -0.1350252330303192, 0.11979839950799942,
	-0.007771745789796114, -0.039054494351148605, 0.08304665982723236,
	0.141551211476326, -0.0994558036327362, -0.13134458661079407,
	0.04680671915411949, 0.0023140672128647566, -0.03730418160557747,
	0.14350497722625732, 0.0058409119956195354, -0.06245441362261772,
	-0.13380518555641174, -0.09225448220968246, -0.09986448287963867,
	0.11328385025262833, -0.11723609268665314, 0.02296675369143486,
	-0.030670486390590668, 0.0034724113065749407, 0.12176553159952164,
	-0.13524587452411652, -0.05377533286809921, 0.13355208933353424,
	-0.06819639354944229, -0.030715009197592735, 0.08996394276618958,
	0.14737312495708466, -0.011536259204149246, 0.07664520293474197,
	-0.05949604511260986, -0.0070252493023872375, -0.10538171231746674,
	-0.12234329432249069, 0.05943944305181503, -0.12508781254291534,
	0.08010910451412201, -0.04467644914984703, -0.10375448316335678,
	0.09724166989326477, -0.014150154776871204, -0.14614801108837128,
	-0.04096269607543945, -0.07969501614570618, 0.027589039877057076,
	-0.0820813700556755, -0.018979467451572418, 0.11755010485649109,
	0.01749999076128006, 0.09058018028736115, 0.06361521780490875,
	-0.050269145518541336, 0.04574224352836609, 0.0414917878806591,
	0.07261378318071365, 0.11597354710102081, 0.03132743015885353,
	0.11584719270467758, -0.02437763288617134, 0.014648430980741978,
	0.06377535313367844, 0.06914500147104263, -0.02429894730448723,
	0.05916351452469826, -0.07984349876642227, 0.010353730991482735,
	-0.11945004016160965, 0.11928949505090714, 0.037461698055267334,
	0.09941036999225616, 0.11260213702917099, 0.03364146500825882,
	0.030777638778090477, 0.026946092024445534, -0.11448511481285095,
	0.1838078498840332, 0.060358721762895584, 0.04945959150791168,
	0.0479305274784565, 0.08004127442836761, 0.0622604675590992,
	-0.13704541325569153, -0.04470107704401016, -0.0516711063683033,
	0.17561215162277222, 0.0022244213614612818, -0.07875227183103561,
	0.10220228880643845, 0.08530785888433456, 0.009509801864624023,
	0.07603607326745987, -0.1732928454875946, 0.06216463819146156,
	0.05731043592095375, 0.12169559299945831, -0.09584103524684906,
	-0.030583476647734642, -1.9423208868829533e-05, 0.06399299949407578,
	0.10289251059293747, 0.02342088147997856, 0.03676344454288483,
	0.025647422298789024, -0.06757084280252457, -0.133561909198761,
	0.07362192869186401, 0.12829086184501648, 0.15071313083171844,
	0.0978468656539917, -0.10819610208272934, 0.00018498922872822732,
	-0.003662821836769581, -0.04804566502571106, 0.04547768458724022,
	-0.13967621326446533, -0.1061420887708664, 0.14904533326625824,
	-0.06489207595586777, 0.12474788725376129, -0.0032076253555715084,
	0.5852078795433044, 0.40812355279922485, 0.1934535950422287,
	0.4343271851539612, 0.602546215057373, 0.4680127799510956,
	0.4821937084197998, 0.23093722760677338, 0.1637435257434845,
	0.3952244818210602, 0.43676456809043884, 0.22220802307128906,
	0.5886908173561096, 0.3981459438800812, 0.4459810256958008,
	0.40613245964050293, 0.4636484384536743, 0.4640178084373474,
	0.08546056598424911, -0.10547160357236862, -0.03449126332998276,
	-0.010758142918348312, 0.10833342373371124, -0.042138613760471344,
	-0.10042552649974823, 0.059489671140909195, 0.08239395171403885,
	-0.1610545814037323, -0.13038872182369232, 0.05618766322731972,
	-0.08307987451553345, 0.030074719339609146, 0.04849012568593025,
	0.07327999919652939, -0.02045762538909912, -0.05551789328455925,
	0.08686883747577667, -0.025525353848934174, 0.023964647203683853,
	0.14211329817771912, 0.009776848368346691, -0.1377277672290802,
	-0.12057893723249435, 0.07695721089839935, 0.02505946159362793,
	0.06598017364740372, -0.05028048902750015, -0.05508727952837944,
	0.10134288668632507, -0.08428323268890381, -0.07991417497396469,
	-0.023179838433861732, 0.1482565999031067, -0.06316288560628891,
	-0.08060910552740097, 0.030260294675827026, 0.008745618164539337,
	-0.1247544065117836, 0.016936887055635452, 0.04562892019748688,
	-0.1384112685918808, -0.10394231230020523, -0.10151658207178116,
	0.10833396017551422, 0.0431315042078495, 0.022080929949879646,
	0.04470978304743767, 0.0975772887468338, 0.04903616011142731,
	-0.06712904572486877, 0.13187214732170105, 0.12126981467008591,
	0.11248604953289032, -0.05663023889064789, -0.06826338917016983,
	0.014865814708173275, 0.030415888875722885, 0.05199209973216057,
	0.0232743788510561, 0.037213440984487534, -0.034785471856594086,
	0.09050111472606659, -0.028472134843468666, 0.01657998375594616,
	-0.11456659436225891, -0.11120997369289398, -0.022375447675585747,
	0.0639474093914032, -0.05625895410776138, -0.02406911924481392,
	-0.09859170764684677, 0.16031578183174133, 0.13512927293777466,
	-0.13350388407707214, -0.06092116981744766, -0.10602962970733643,
	-0.09174059331417084, 0.010438477620482445, 0.03188271448016167,
	-0.0940394476056099, 0.11530464887619019, 0.16958267986774445,
	-0.03746767342090607, -0.023545466363430023, 0.05788346007466316,
	-0.1080530434846878, 0.005006288178265095, 0.022656509652733803,
	0.13554780185222626, -0.058790214359760284, -0.14403806626796722,
	0.0752350315451622, 0.11690948158502579, -0.02734311856329441,
	0.09591162204742432, -0.007486672140657902, 0.032694101333618164,
	0.11531181633472443, 0.09218283742666245, 0.016936594620347023,
	-0.0457477904856205, 0.0509076751768589, 0.06707005947828293,
	-0.1302826702594757, 0.10211209207773209, -0.1089312881231308,
	-0.10368333756923676, -0.018559832125902176, 0.05377398431301117,
	0.02829979918897152, 0.06642598658800125, -0.030466876924037933,
	-0.004506785422563553, 0.021321851760149002, -0.024405265226960182,
	-0.13508182764053345, -0.025938039645552635, 0.05933481454849243,
	0.007298503536731005, 0.0061992621049284935, -0.09069275110960007,
	-0.07434561103582382, 0.010017846710979939, -0.05602600425481796,
	-0.05344590172171593, -0.11774398386478424, 0.010344811715185642,
	-0.05483829602599144, -0.09938841313123703, -0.09185240417718887,
	0.09238182753324509, 0.04767190292477608, -0.019745517522096634,
	0.0710725262761116, 0.12019909918308258, 0.003919142764061689,
	-0.10090191662311554, -0.1412237584590912, 0.030366096645593643,
	0.05177493765950203, 0.12182747572660446, 0.02962121181190014,
	-0.061148278415203094, 0.05192945897579193, -0.053042877465486526,
	-0.05441618338227272, -0.06500715017318726, -0.021630221977829933,
	-0.03444410115480423, -0.0003022737510036677, 0.03884631395339966,
	0.11067948490381241, 0.11844286322593689, 0.05884278193116188,
	-0.06850004941225052, -0.12216708064079285, -0.12261699140071869,
	-0.07428143173456192, -0.13764618337154388, 0.11355547606945038,
	0.08657024800777435, 0.18053965270519257, 0.10838308930397034,
	0.33556222915649414, 0.2795901596546173, 0.2560969889163971,
	0.020563319325447083, 0.2060251086950302, 0.22846829891204834,
	-0.01758366823196411, 0.08934205025434494, 0.09648662060499191,
	0.04266374558210373, 0.20876973867416382, 0.2881138026714325,
	-0.026585392653942108, 0.029525935649871826, 0.27012237906455994,
	0.12261274456977844, -0.03857221081852913, 0.0006700431695207953,
	-0.06094099208712578, -0.0755402073264122, -0.09987470507621765,
	-0.1335190087556839, 0.020264558494091034, 0.02113977074623108,
	0.133449986577034, -0.11200951784849167, -0.0046791438944637775,
	-0.14040528237819672, -0.09363213181495667, 0.03752679005265236,
	-0.020711112767457962, -0.03905325010418892, 0.08170401304960251,
	0.02078629657626152, 0.11507118493318558, 0.029709946364164352,
	-0.0900692567229271, -0.08728893101215363, 0.13979536294937134,
	0.1353256106376648, 0.0005711360136047006, -0.14490309357643127,
	0.06619864702224731, 0.1958111971616745, 0.012012413702905178,
	-0.052374906837940216, -0.02546142414212227, -0.0014050777535885572,
	-0.050689201802015305, -0.13222233951091766, 0.08638767153024673,
	-0.021153612062335014, 0.025659717619419098, 0.13412123918533325,
	0.1633666604757309, 0.08709874749183655, 0.08146172761917114,
	0.03021877631545067, 0.12349420040845871, -0.15865406394004822,
	0.0949028804898262, -0.09857627004384995, 0.029148969799280167,
	0.0356830358505249, -0.09362927824258804, -0.014777766540646553,
	-0.13618117570877075, -0.03532152622938156, 0.10867185145616531,
	-0.05545174330472946, 0.05815163254737854, 0.08207309246063232,
	-0.10198434442281723, 0.005165983457118273, 0.10838565230369568,
	0.11969491094350815, 0.11971133202314377, 0.1445683389902115,
