	0.07658608257770538, 0.09475325047969818, 0.03178880363702774,
	0.06196657195687294, 0.04036078229546547, 0.09781914949417114,
	0.03284374997019768, -0.05828883871436119, 0.061231829226017,
	0.01152236107736826, -0.08605434000492096, -0.0855780839920044,
	-0.08785631507635117, -0.02906544879078865, -0.042096078395843506,
	-0.06121246516704559, 0.12396983057260513, 0.06828968971967697,
	-0.12118244171142578, 0.029722746461629868, 0.025466550141572952,
	-0.1194722056388855, -0.026343271136283875, 0.006817396730184555,
	0.03766744211316109, 0.006788937374949455, -0.07809299975633621,
	-0.14992576837539673, -0.06645487248897552, 0.06420231610536575,
	0.010124622844159603, 0.07027743011713028, -0.06670362502336502,
	0.07621382921934128, 0.09674599021673203, 0.0935027077794075,
	-0.05100024864077568, -0.059405673295259476, 0.030173268169164658,
	0.05156223475933075, -0.060140032321214676, -0.009863661602139473,
	-0.021605804562568665, -0.02270219475030899, 0.029649682343006134,
	-0.07118690758943558, -0.13216161727905273, -0.06634728610515594,
	-0.08595065027475357, 0.07187771797180176, -0.043584078550338745,
	-0.017789272591471672, -0.05031520873308182, 0.10088752955198288,
	0.027255868539214134, 0.003005517181009054, 0.07677137851715088,
	0.08020924031734467, 0.12592220306396484, 0.03513878211379051,
	0.12908394634723663, 0.10852926969528198, -0.08608080446720123,
	0.00848922599107027, 0.017002420499920845, 0.005242722574621439,
	-0.07544781267642975, -0.049636248499155045, -0.010018063709139824,
	0.09138967841863632, 0.08799679577350616, -0.0042749145068228245,
	0.000461253133835271, -0.007074054796248674, 0.015829019248485565,
	-0.07892969995737076, -0.027690518647432327, -0.01840614341199398,
	0.1330624222755432, 0.06916549056768417, -0.014561976306140423,
	-0.2311263382434845, -0.11749885976314545, 0.006076843943446875,
	0.0014387076953426003, -0.010421876795589924, 0.2516091465950012,
	0.1688825488090515, 0.24158875644207, 0.08324109017848969,
	-0.016604788601398468, -0.17098693549633026, -0.09256298094987869,
	-0.13601510226726532, -0.09639104455709457, -0.019854888319969177,
	-0.002564855618402362, 0.1458154171705246, 0.016615498811006546,
	-0.10793883353471756, -0.10921811312437057, -0.10504555702209473,
	-0.0090723792091012, -0.02067740447819233, -0.03125868737697601,
	-0.0027011700440198183, 0.09096834808588028, 0.08173578977584839,
	-0.007744622882455587, 0.08269665390253067, 0.05414256453514099,
	0.02162104658782482, -0.055162716656923294, -0.03334801271557808,
	0.06284202635288239, 0.03716384992003441, -0.026021858677268028,
	-0.17082548141479492, 0.06287247687578201, 0.04324394837021828,
	-0.09066976606845856, 0.10731472820043564, 0.12060561776161194,
	0.11190556734800339, 0.0997820794582367, -0.04364819824695587,
	-0.10734328627586365, 0.07123436778783798, 0.11151238530874252,
	0.11477351933717728, 0.09795142710208893, -0.04857458919286728,
	0.0658259466290474, -0.11504615098237991, 0.017085134983062744,
	-0.09104589372873306, 0.011224783025681973, 0.11819667369127274,
	-0.07564397156238556, 0.043221600353717804, 0.08030246198177338,
	0.13622941076755524, 0.07673957198858261, -0.08959729969501495,
	0.006682852748781443, -0.001486348221078515, -0.02251414954662323,
	0.04746927320957184, 0.0448349192738533, -0.027668144553899765,
	0.00045819798833690584, 0.11615127325057983, -0.04837973043322563,
	-0.049733176827430725, -0.0896097868680954, -0.024059224873781204,
	0.03151244670152664, 0.07996445894241333, 0.09809959679841995,
	0.10855352878570557, 0.06676623970270157, -0.0033275308087468147,
	-0.069736048579216, 0.03261198848485947, 0.08674617111682892,
	-0.01681872084736824, 0.020127076655626297, -0.08821312338113785,
	0.04747902229428291, 0.004252913407981396, -0.048831116408109665,
	0.09432701021432877, 0.05689733102917671, -0.06882049888372421,
	-0.06648822873830795, 0.020539458841085434, -0.07217679172754288,
	-0.02508927881717682, 0.032313160598278046, -0.0015158914029598236,
	0.09260384738445282, 0.13244178891181946, 0.038052912801504135,
	0.09244786202907562, 0.10505547374486923, -0.05801096931099892,
	0.07832100987434387, -0.09960398077964783, -0.0924866572022438,
	-0.16652794182300568, 0.14886754751205444, 0.12374208867549896,
	0.16128776967525482, 0.20142202079296112, -0.07647185772657394,
	0.0782349556684494, 0.020546142011880875, -0.0774349570274353,
	-0.09265238046646118, -0.012662647292017937, 0.05098279193043709,
	-0.04763829708099365, -0.037410300225019455, -0.020489143207669258,
	0.036514706909656525, -0.05373944714665413, -0.09357647597789764,
	-0.08770082145929337, -0.0514887310564518, 0.032638244330883026,
	-0.04258834570646286, 0.04243067651987076, 0.028706202283501625,
	0.048225678503513336, -0.07948276400566101, -0.08850319683551788,
	0.09420958161354065, 0.07637976109981537, -0.005566058214753866,
	0.07650020718574524, -0.06821387261152267, -0.01385520026087761,
	-0.052394505590200424, 0.04848689213395119, -0.020951921120285988,
	0.0424489863216877, -0.02252991870045662, -0.006978427525609732,
	0.1046556681394577, 0.014984994195401669, 0.08294863998889923,
	-0.007514148484915495, 0.01959090121090412, 0.0008293268037959933,
	0.0782422199845314, -0.06877186894416809, 0.022468987852334976,
	0.12013297528028488, -0.08584753423929214, -0.07915644347667694,
	0.09796591103076935, -0.03385494649410248, 0.02769515849649906,
	-0.03483466058969498, -0.06430023163557053, -0.10964790731668472,
	0.023878956213593483, 0.034383222460746765, -0.038889918476343155,
	-0.0020073968917131424, 0.06687572598457336, -0.04409554973244667,
	0.03162397816777229, -0.08058346807956696, 0.009930094704031944,
	-0.00923202559351921, 0.013606001622974873, -0.05961312726140022,
	0.04163395240902901, -0.00606377050280571, -0.10860584676265717,
	0.044809676706790924, 0.09744274616241455, -0.06809920072555542,
	-0.04772457480430603, 0.0813339352607727, 0.066844642162323,
	-0.08411566913127899, 0.13060106337070465, 0.011181439273059368,
	0.08312219381332397, -0.0048567261546850204, -0.10737983882427216,
	-0.010497121140360832, -0.11891810595989227, -0.08348076790571213,
	0.08487582951784134, -0.10875717550516129, 0.02368108741939068,
	0.026596225798130035, 0.05531903728842735, 0.003717099316418171,
	-0.03678375482559204, -0.081076480448246, -0.046842753887176514,
	0.04385882616043091, -0.02439170330762863, 0.020629046484827995,
	0.07493603229522705, -0.03264305740594864, -0.10514065623283386,
	0.1166352927684784, 0.016953544691205025, 0.02524643763899803,
	0.033080726861953735, 0.05241509899497032, -0.07664759457111359,
	0.12417852133512497, -0.02441178262233734, -0.08270858228206635,
	0.07359388470649719, 0.020824527367949486, -0.022520124912261963,
	0.009279550984501839, 0.0689942017197609, -0.08593650907278061,
	-0.07712870091199875, 0.07103736698627472, 0.015151905827224255,
	0.09463811665773392, 0.12958073616027832, -0.07851184904575348,
	0.0018827465828508139, 0.1581297069787979, 0.018961936235427856,
	0.07764320075511932, 0.004667895380407572, 0.048775311559438705,
	0.01911407895386219, -0.03236229717731476, 0.029111173003911972,
	-0.04543996602296829, -0.039821092039346695, 0.05251361429691315,
	0.0830313041806221, -0.03846025466918945, 0.0026481582317501307,
	-0.051450464874506, 0.09213189780712128, 0.08164867758750916,
	0.05939373001456261, -0.08265135437250137, -0.059807997196912766,
	-0.0769091248512268, 0.02713804505765438, -0.012481176294386387,
	0.12696973979473114, 0.11041932553052902, 0.03450743481516838,
	-0.11037634313106537, 0.04297218844294548, 0.08352687954902649,
	0.006355744320899248, -0.05061783641576767, -0.0218296330422163,
	0.04426770284771919, 0.1347806602716446, -0.020040256902575493,
	-0.09687475860118866, -0.07062035799026489, -0.051321446895599365,
	-0.1264469027519226, -0.0937742292881012, -0.08324841409921646,
	0.03127644583582878, 0.14938844740390778, 0.04615532234311104,
	0.049274787306785583, -0.009966039098799229, 0.03260135278105736,
	0.028467340394854546, -0.03462986275553703, -0.07930786907672882,
	-0.07428428530693054, -0.0343557707965374, -0.08921751379966736,
	-0.049847401678562164, 0.03955146297812462, 0.07120846956968307,
	0.05140915513038635, 0.06991500407457352, -0.05963360145688057,
	0.07854550331830978, 0.09684251993894577, 0.09877952188253403,
	-0.004448247607797384, -0.09789770096540451, 0.013792268000543118,
	0.11724452674388885, 0.1698026806116104, 0.12841296195983887,
	-0.021520808339118958, 0.10296612232923508, -0.014974655583500862,
	-0.04344848915934563, -0.05993422865867615, 0.01015712320804596,
	0.12214937061071396, 0.07698613405227661, 0.07127569615840912,
	-0.05569029599428177, -0.04846334829926491, -0.08720216155052185,
	-0.0318295918405056, 0.06637061387300491, -0.0757463350892067,
	-0.04485714063048363, -0.041392866522073746, 0.0291213970631361,
	-0.0020139184780418873, -0.07073444128036499, 0.07751132547855377,
	0.02017948217689991, -0.08070791512727737, 0.08306240290403366,
	0.16924652457237244, 0.16294138133525848, 0.1784149557352066,
	0.20478448271751404, 0.14592602849006653, 0.054603997617959976,
	-0.35278040170669556, -0.30042901635169983, -0.20500274002552032,
	0.037673722952604294, -0.06214017793536186, 0.053296204656362534,
	0.15043897926807404, 0.00571869732812047, -0.04551425948739052,
	-0.14786124229431152, -0.038545265793800354, -0.1176510825753212,
	-0.10126904398202896, -0.0793379470705986, -0.06820464134216309,
	0.05637349933385849, -0.03470307216048241, 0.0640830546617508,
	-0.0770367681980133, -0.08642081171274185, 0.10752242803573608,
	-0.08128371089696884, -0.09674954414367676, -0.012868208810687065,
	0.00443058367818594, 0.05917004123330116, 0.07192934304475784,
	-0.061060499399900436, 0.06301341205835342, -0.05090964213013649,
	0.04079747200012207, 0.03326835110783577, 0.02372703142464161,
	0.05881551280617714, -0.05521909520030022, -0.03722074627876282,
	0.022925198078155518, -0.09173617511987686, 0.0846802219748497,
	0.10033822804689407, -0.14739570021629333, 0.061863478273153305,
	-0.02644474431872368, -0.12933038175106049, 0.05596347525715828,
	0.07349488884210587, 0.07181975245475769, -0.04713939502835274,
	-0.039762530475854874, -0.05102800950407982, 0.0931604653596878,
	0.07747862488031387, -0.08151280134916306, 0.05802809074521065,
	-0.027141373604536057, 0.015199266374111176, 0.04413424804806709,
	0.07363000512123108, 0.0990055501461029, 0.04899390786886215,
	-0.0067779747769236565, 0.097255639731884, -0.05612625926733017,
	0.08434233069419861, 0.0864361971616745, 0.0238995049148798,
	-0.025317436084151268, 0.13188399374485016, -0.10500714182853699,
	0.14277580380439758, 0.09733913838863373, -0.04152671620249748,
	-0.008204014971852303, 0.013423513621091843, -0.10407111793756485,
	0.006173932459205389, -0.05820600688457489, 0.0028084944933652878,
	-0.0379229336977005, 0.0026033089961856604, 0.06756122410297394,
	0.08730603009462357, -0.08853667974472046, 0.015258108265697956,
	0.09847579896450043, -0.05796914920210838, -0.052767958492040634,
	0.010334215126931667, -0.0051779295317828655, -0.03090820647776127,
	-0.05026255548000336, 0.084677554666996, -0.07295870035886765,
	0.05800364166498184, -0.12468819320201874, -0.027036914601922035,
	0.05183565989136696, -0.08767134696245193, -0.05943020433187485,
	0.08757022023200989, 0.030200617387890816, 0.019248807802796364,
	0.14215895533561707, -0.03715924173593521, -0.17601226270198822,
	0.15067888796329498, -0.07655135542154312, -0.14036600291728973,
	0.0278152022510767, 0.057287052273750305, 0.00693337619304657,
	0.1492515206336975, -0.024692460894584656, -0.12103266268968582,
	0.16755181550979614, 0.00023466505808755755, -0.1229364424943924,
	0.010633647441864014, -0.03681154176592827, -0.06083099544048309,
	-0.020578501746058464, 0.013454591855406761, 0.05960037186741829,
	0.13782653212547302, -0.08820672333240509, 0.00371638429351151,
	0.008571718819439411, -0.005745349917560816, -0.0454101525247097,
	-0.08633869886398315, 0.08806978911161423, 0.06052345782518387,
	0.004661273211240768, -0.048033684492111206, -0.032247792929410934,
	0.013673960231244564, 0.0015693516470491886, -0.0050420030020177364,
	-0.06447947770357132, 0.0017232951940968633, -0.038424745202064514,
	0.12585797905921936, 0.008562932722270489, 0.04679255187511444,
	-0.05647717043757439, 0.0715232789516449, 0.06616634130477905,
	-0.05862267687916756, 0.009327721782028675, -0.12014453113079071,
	0.05490582808852196, 0.09627887606620789, -0.038812488317489624,
	-0.03728264197707176, 0.1457945555448532, 0.07719734311103821,
	0.08128777891397476, -0.119110606610775, -0.10498344898223877,
	0.021883759647607803, 0.03612581267952919, 0.021048985421657562,
	-0.03473978862166405, -0.021199215203523636, 0.11943794041872025,
	-0.08985595405101776, -0.04151322692632675, 0.010589075274765491,
	-0.09644943475723267, 0.031896743923425674, 0.03308679535984993,
	-0.016099821776151657, -0.028721153736114502, -0.038694221526384354,
	0.035706497728824615, 0.09405384957790375, 0.04820992797613144,
	-0.05254915729165077, 0.01446729525923729, 0.07305721193552017,
	-0.16229723393917084, -0.037388332188129425, 0.07792337238788605,
	0.047498926520347595, -0.06827912479639053, -0.05898686870932579,
	0.03761347755789757, -0.08118139207363129, -0.026302458718419075,
	-0.09993153065443039, -0.04319101572036743, -0.08459792286157608,
	0.018642375245690346, 0.03719469904899597, 0.022914912551641464,
	-0.05411330610513687, 0.025868982076644897, 0.038578614592552185,
	-0.05804065242409706, -0.00034363390295766294, -0.06567756831645966,
	-0.02274934947490692, -0.13828763365745544, -0.14073801040649414,
	0.028856312856078148, 0.003069099970161915, -0.07360301166772842,
	-0.08514858782291412, 0.11749672889709473, 0.03491578251123428,
	0.05746252462267876, 0.1086408868432045, -0.1853291243314743,
	-0.014824934303760529, 0.0984300896525383, 0.15916338562965393,
	-0.15334679186344147, -0.07316802442073822, 0.1746397465467453,
	-0.05020153522491455, 0.12391988933086395, -0.04594279080629349,
	0.08448132872581482, 0.15132012963294983, 0.09919100254774094,
	-0.02000199630856514, -0.07613524049520493, 0.0004262657603248954,
	-0.043592777103185654, -0.05447102710604668, -0.033335693180561066,
	0.09526516497135162, 0.09332981705665588, 0.012322996743023396,
	-0.013232788071036339, 0.0009597266907803714, 0.0073523325845599174,
	0.04244324564933777, -0.05000891536474228, -0.07864303886890411,
	0.061569035053253174, 0.03509911894798279, -0.009453633800148964,
	-0.02234310284256935, 0.043476127088069916, -0.012896677479147911,
	-0.040464889258146286, 0.023993410170078278, 0.03422991558909416,
	-0.03263748064637184, -0.05883410573005676, 0.09012694656848907,
	0.025944184511899948, -0.09230317920446396, 0.07800871133804321,
	0.006350432988256216, -0.026117004454135895, -0.008102325722575188,
	0.05031026154756546, -0.02440585382282734, 0.0924445316195488,
	0.0548202283680439, -0.07843852788209915, 0.08623528480529785,
	0.06141531839966774, -0.0737195760011673, -0.07528427988290787,
	0.018702764064073563, -0.07488389313220978, 0.037733208388090134,
	-0.0313403457403183, -0.05371423438191414, -0.03754538670182228,
	0.06649257987737656, -0.01166569348424673, 0.07563553005456924,
	-0.054171834141016006, 0.002572377910837531, -0.03911484032869339,
	-0.08483409136533737, -0.06496501713991165, 0.06682007014751434,
	0.08587240427732468, -0.057089220732450485, 0.09881355613470078,
	0.05686964839696884, -0.025519372895359993, -0.015622291713953018,
	-0.08833466470241547, -0.0033930812496691942, 0.06078222393989563,
	0.08981962502002716, -0.10000117868185043, -0.025887291878461838,
	0.04879791662096977, 0.05809731408953667, 0.0401335246860981,
	-0.005984591320157051, -0.08687327057123184, -0.08796706050634384,
	-0.06061631068587303, -0.09748688340187073, 0.07400058954954147,
	-0.02649310976266861, 0.02826566994190216, -0.05814853310585022,
	-0.00872437097132206, 0.04110162332653999, -0.055408742278814316,
	0.08066114783287048, -0.005996824242174625, -0.0554274283349514,
	-0.02456195093691349, 0.02295009046792984, 0.004239343572407961,
	0.023152317851781845, -0.07887335866689682, -0.049418166279792786,
	0.04926759749650955, 0.10028493404388428, 0.05464983358979225,
	0.037953928112983704, 0.06434158235788345, -0.04514602571725845,
	0.04004692658782005, 0.05218848958611488, -0.06394454836845398,
	0.04816748574376106, 0.03612309694290161, -0.036130793392658234,
	0.03615830838680267, 0.08493730425834656, 0.019143560901284218,
	0.008400767110288143, 0.09348199516534805, -0.058231841772794724,
	0.1234978660941124, 0.048103753477334976, 0.06984102725982666,
	-0.024410318583250046, 0.10336516797542572, -0.06773458421230316,
	-0.012128855101764202, -0.054068636149168015, -0.05244090035557747,
	-0.09742755442857742, 0.02082272246479988, -0.008752604946494102,
	-0.07952801883220673, -0.021202942356467247, -0.053396012634038925,
	0.013444040901958942, -0.04334622621536255, 0.0708329901099205,
	-0.03331723064184189, 0.03125844895839691, -0.016644736751914024,
	-0.013347060419619083, -0.07405085116624832, -0.06921744346618652,
	0.0920741930603981, 0.09224370867013931, -0.05442756414413452,
	-0.0020521508995443583, 0.020549066364765167, 0.03245558962225914,
	-0.010164818726480007, -0.06904124468564987, -0.014780228957533836,
	0.040433160960674286, 0.07046855986118317, -0.07635583728551865,
	-0.05839196592569351, 0.11450228095054626, 0.0474528931081295,
	-0.025673644617199898, -0.08229725807905197, 0.05688903480768204,
	0.0912209302186966, 0.034936271607875824, -0.024008717387914658,
	0.004574514925479889, 0.08801206946372986, 0.051931824535131454,
	0.035773567855358124, -0.03424296900629997, -0.010232197120785713,
	0.05382370576262474, -0.10743662714958191, -0.022144878283143044,
	-0.07268652319908142, -0.03990219533443451, -0.09551149606704712,
	0.0003046260681003332, -0.052627407014369965, -0.03153972327709198,
	0.10862870514392853, 0.1022651270031929, 0.058946069329977036,
	-0.02823055349290371, 0.054805316030979156, -0.11268264800310135,
	0.08473530411720276, -0.05905015021562576, 0.06869926303625107,
	0.060700733214616776, -0.07600995153188705, -0.08952727913856506,
	-0.062924325466156, -0.038416992872953415, -0.09019608050584793,
	0.08391651511192322, -0.062431517988443375, 0.0376562625169754,
	0.025346549227833748, -0.006784155499190092, 0.05382797122001648,
	0.018457917496562004, -0.005720880348235369, 0.027200162410736084,
	0.06444475799798965, 0.021625131368637085, -0.06380676478147507,
	0.11748713999986649, -0.0857570692896843, -0.0575830340385437,
	0.04818856716156006, -0.16566824913024902, -0.011028497479856014,
	0.07892227917909622, -0.10949647426605225, -0.060162678360939026,
	0.016673283651471138, 0.1281575709581375, 0.10862042009830475,
	0.04666275903582573, 0.00222068396396935, -0.08690094202756882,
	0.036202073097229004, -0.07482451945543289, 0.051948003470897675,
	0.09883378446102142, 0.07774485647678375, 0.07822680473327637,
	-0.03224020451307297, 0.11579349637031555, -0.040301237255334854,
	-0.029642898589372635, -0.06959549337625504, -0.05846107751131058,
	0.10245977342128754, -0.07493755966424942, -0.0848691314458847,
	-0.07162778079509735, 0.00918829906731844, -0.0912439227104187,
	-0.09615739434957504, -0.0026970775797963142, -0.09082622826099396,
	-0.02144523710012436, -0.09497178345918655, -0.08725740015506744,
	0.12262940406799316, 0.060585472732782364, -0.074055515229702,
	0.08097393810749054, 0.07482781261205673, -0.07061459869146347,
	-0.024655789136886597, -0.03407370299100876, -0.0733422040939331,
	0.03342362120747566, -0.07676194608211517, -0.007423884700983763,
	-0.0789724811911583, 0.01267288252711296, 0.09865476936101913,
	-0.07208047062158585, -0.037755824625492096, 0.09105601906776428,
	0.0002953735238406807, -0.06241053715348244, -0.09784999489784241,
	-0.03596387058496475, 0.015574685297906399, -0.09501717239618301,
	-0.010868181474506855, 0.04501897469162941, -0.022816238924860954,
	0.08238306641578674, -0.006683670915663242, 0.014894477091729641,
	0.05936305969953537, 0.08105996996164322, -0.10024821013212204,
	0.045874081552028656, -0.08971589803695679, -0.037203602492809296,
	0.09742746502161026, -0.06473278999328613, -0.11155138164758682,
	0.1598452776670456, 0.10483307391405106, -0.06443359702825546,
	0.1461590677499771, 0.07785670459270477, 0.0596424862742424,
	-0.037361737340688705, -0.05072622001171112, 0.057827290147542953,
	-0.014685464091598988, 0.055099014192819595, -0.004489656537771225,
	0.04041845723986626, -0.07609015703201294, -0.024695755913853645,
	-0.025654636323451996, -0.057372741401195526, 0.0063302707858383656,
	-0.03671986982226372, 0.012629561126232147, -0.03943014517426491,
	0.02102012000977993, -0.04094506800174713, 0.04522555321455002,
	-0.019755976274609566, 0.03449461981654167, -0.04241671785712242,
	-0.02999546378850937, 0.03856451064348221, 0.10070226341485977,
	0.08211492002010345, -0.0023415973410010338, -0.008714819326996803,
	0.054755669087171555, 0.01362642552703619, -0.14666977524757385,
	0.0924929529428482, 0.021511755883693695, -0.07170391082763672,
	0.022742701694369316, -0.051382116973400116, 0.12455274164676666,
	0.14424137771129608, -0.04606161639094353, -0.044643085449934006,
	0.012595348991453648, -0.014191274531185627, -0.08862799406051636,
	0.06273335218429565, -0.07927564531564713, -0.09591023623943329,
	0.12642772495746613, -0.07585360109806061, 0.02955516427755356,
	-0.027894683182239532, -0.07137645035982132, -0.04412069916725159,
	0.028688540682196617, 0.0532614029943943, 0.013809803873300552,
	0.08119332045316696, -0.03399527445435524, -0.019220130518078804,
	0.0001773069379851222, 0.01638122834265232, -0.09305219352245331,
	-0.019919393584132195, 0.07267991453409195, -0.08942539989948273,
	0.010205226950347424, -0.10746726393699646, -0.08918724209070206,
	0.06501691788434982, 0.08487754315137863, -0.03282910957932472,
	-0.049691516906023026, 0.009182821959257126, -0.04026029258966446,
	0.055706605315208435, -0.13539661467075348, 0.004518217872828245,
	0.12589305639266968, 0.051778629422187805, -0.0414159819483757,
	0.1513514518737793, 0.0005588253261521459, -0.07374057173728943,
	-0.010898521170020103, -0.014055946841835976, -0.10269151628017426,
	0.0577055960893631, -0.09896206855773926, -0.15498381853103638,
	0.05127187818288803, 0.06078030914068222, -0.09214015305042267,
	-0.04033058509230614, -0.028014257550239563, -0.11497918516397476,
	0.06178771331906319, 0.0904538705945015, -0.007996272295713425,
	0.0667719841003418, 0.07712531089782715, 0.03749290108680725,
	-0.08267688006162643, -0.03571309149265289, -0.005714035127311945,
	0.004276277497410774, 0.07487726956605911, 0.037657540291547775,
	-0.06855332106351852, 0.09011596441268921, 0.061207208782434464,
	-0.06331664323806763, -0.010398820973932743, -0.04722905158996582,
	0.01421438530087471, -0.017156967893242836, -0.07822228968143463,
	0.07238535583019257, 0.06724578142166138, 0.07121431082487106,
	0.06600910425186157, -0.08444327116012573, 0.0659579411149025,
	-0.02569504827260971, -0.04866885766386986, 0.035103023052215576,
	-0.0001358792360406369, -0.08640742301940918, -0.060587070882320404,
	0.0572403222322464, -0.06126786395907402, -0.020266348496079445,
	0.1303701251745224, -0.07073411345481873, -0.07982239872217178,
	0.11495416611433029, -0.05473592132329941, -0.06903564929962158,
	0.08482422679662704, 0.0759221762418747, -0.14189767837524414,
	0.05025129392743111, 0.12812091410160065, -0.004743707366287708,
	0.05423838272690773, 0.14740143716335297, 0.12732461094856262,
	-0.040461935102939606, -0.015697652474045753, -0.09826204925775528,
	0.0580681674182415, 0.1324194222688675, 0.06620028614997864,
	-0.026950569823384285, 0.12830568850040436, -0.013741402886807919,
	0.09410648047924042, -0.017778750509023666, -0.02252686396241188,
	0.061110761016607285, 0.04469473659992218, -0.002282016444951296,
	-0.008040450513362885, 0.12312439829111099, 0.028117671608924866,
	0.014175374060869217, 0.08941049128770828, -0.07173406332731247,
	0.012009465135633945, -0.0637565404176712, -0.04255519434809685,
	0.030368056148290634, -0.04911111295223236, -0.03845173493027687,
	-0.01254102773964405, -0.08733215928077698, 0.10177286714315414,
	0.043346893042325974, 0.09835353493690491, 0.005774916615337133,
	0.05323164165019989, -0.04468361288309097, -0.10016094893217087,
	0.06853683292865753, -0.03894661366939545, 0.10335111618041992,
	-0.08338058739900589, 0.023522064089775085, 0.05568835511803627,
	-0.0661388635635376, -0.03123391419649124, -0.0022076042369008064,
	-0.11692915111780167, 0.033948592841625214, 0.07191656529903412,
	0.0453886054456234, 0.10501043498516083, -0.0011167617049068213,
	0.039573073387145996, -0.14393793046474457, -0.11023581027984619,
	0.047662705183029175, 0.0619182325899601, 0.030374566093087196,
	-0.03186134621500969, -0.07043500244617462, 0.08126968145370483,
	0.01801563985645771, 0.05026014894247055, 0.009419883601367474,
	-0.06853608042001724, 0.09358099848031998, 0.10995686799287796,
	0.0335843600332737, -0.0699174702167511, -0.05457371473312378,
	-0.030214745551347733, 0.04849620163440704, -0.05284323915839195,
	-0.020662937313318253, 0.04775400459766388, -0.01158625353127718,
	0.05691852420568466, -0.0712386965751648, -0.06667187809944153,
	-0.11879047006368637, -0.06199192255735397, 0.05030006915330887,
	0.01575591042637825, -0.04334751144051552, -0.042657893151044846,
	0.07109034806489944, 0.07408323138952255, 0.07291623950004578,
	0.011288022622466087, 0.08646610379219055, -0.05859588459134102,
	-0.028069203719496727, 0.06196729093790054, 0.031652774661779404,
	0.05750841274857521, 0.030501335859298706, -0.06975624710321426,
	0.04820217192173004, -0.11957211047410965, 0.01747453399002552,
	0.127158522605896, 0.16879680752754211, 0.23302052915096283,
	0.17062170803546906, -0.08811001479625702, -0.13485173881053925,
	-0.14985843002796173, -0.19424258172512054, -0.20707213878631592,
	0.07092859596014023, 0.10146238654851913, 0.11660534143447876,
	0.14008526504039764, 0.06885659694671631, 0.0344768650829792,
	0.07428216934204102, -0.08122485131025314, 0.0008123497245833278,
	-0.02819785661995411, 0.015947118401527405, 0.07237589359283447,
	-0.05592763051390648, 0.0485224574804306, -0.051745813339948654,
	0.06487323343753815, 0.061087675392627716, -0.037016719579696655,
	0.035170406103134155, -0.0892949104309082, -0.07017696648836136,
	-0.08400865644216537, 0.03013123758137226, 0.05858650803565979,
	0.07716047018766403, -0.043246008455753326, 0.005841451231390238,
	0.17930123209953308, 0.08287839591503143, 0.05924314260482788,
	-0.064703568816185, -0.050634708255529404, 0.09204796701669693,
	-0.16694742441177368, -0.0050012776628136635, -0.0016395443817600608,
	0.09230124205350876, 0.022324027493596077, 0.00250142440199852,
	0.09666534513235092, -0.045983582735061646, 0.03229420259594917,
	-0.10938110202550888, -0.09163496643304825, -0.015009099617600441,
	0.14610162377357483, 0.11815991252660751, 0.0027292887680232525,
	-0.03358178585767746, 0.1545266956090927, 0.06648940593004227,
	-0.03926140069961548, 0.020298467949032784, 0.07950392365455627,
	0.015354763716459274, -0.04059109091758728, -0.05943233147263527,
	0.08402242511510849, 0.0017160294810310006, -0.06013215705752373,
	-0.08546119928359985, 0.008709953166544437, 0.061426397413015366,
	-0.03960522636771202, 0.05356312543153763, 0.13967689871788025,
	-0.07616003602743149, 0.04595256596803665, -0.05874069407582283,
	0.02268664538860321, -0.08717373758554459, -0.011538070626556873,
	0.022601131349802017, 0.0621306486427784, -0.009922645054757595,
	-0.12896087765693665, -0.13958032429218292, -0.08327802270650864,
	-0.07753795385360718, -0.02420235611498356, 0.08693303167819977,
	0.07527298480272293, -0.016824757680296898, 0.004857820458710194,
	-0.0903283953666687, -0.058182232081890106, -0.0846446081995964,
	-0.03868862986564636, -0.05241895094513893, -0.028574561700224876,
	-0.019820453599095345, 0.03536352515220642, 0.10129548609256744,
	-0.024483365938067436, -0.009141034446656704, -0.041299935430288315,
	0.024767260998487473, -0.057086456567049026, -0.00925652589648962,
	0.19379973411560059, 0.2121274173259735, 0.22511328756809235,
	-0.15670621395111084, -0.23684856295585632, -0.010889874771237373,
	-0.24382922053337097, -0.209580659866333, -0.010158775374293327,
	0.16586875915527344, 0.08531174063682556, 0.07323997467756271,
	-0.017859430983662605, 0.022343333810567856, -0.037541572004556656,
	-0.18745186924934387, -0.11611701548099518, -0.01511022262275219,
	0.1320044845342636, 0.04555758461356163, 0.08278615027666092,
	-0.06770060211420059, 0.1047339215874672, 0.15012910962104797,
	-0.09703102707862854, -0.0412786565721035, 0.0016597287030890584,
	0.006764639168977737, 0.000876032339874655, -0.033435579389333725,
	-0.08363603800535202, 0.09011279791593552, 0.03660674765706062,
	-0.020228641107678413, -0.05991177633404732, 0.0025684514548629522,
	-0.011748148128390312, -0.030103331431746483, -0.03825903683900833,
	-0.08487697690725327, -0.08823995292186737, -0.05503826215863228,
	-0.01698685996234417, -0.00604229886084795, 0.07393570244312286,
	-0.034270673990249634, -0.018206845968961716, -0.05028370022773743,
	-0.014224648475646973, 0.02096748910844326, -0.04225492477416992,
	-0.023060031235218048, -0.033350709825754166, 0.09375323355197906,
	-0.015884796157479286, 0.029842985793948174, 0.09440876543521881,
	0.01066169049590826, -0.05866675078868866, -0.08220101147890091,
	0.036653388291597366, 0.019981810823082924, -0.013676425442099571,
	0.0748966708779335, 0.060254309326410294, 0.04263134300708771,
	0.0014365118695423007, -0.06546404212713242, -0.05980829894542694,
	0.062191396951675415, 0.09671797603368759, -0.07209639996290207,
	-0.048770494759082794, -0.030387945473194122, -0.08995150774717331,
	0.0848303809762001, 0.05944301560521126, -0.022870974615216255,
	0.04027814790606499, -0.07927469909191132, -0.08294032514095306,
	-0.03184923529624939, -0.046902239322662354, -0.050961755216121674,
	0.006813041400164366, -0.03845596686005592, -0.008603958413004875,
	0.08522360026836395, 0.09037289023399353, -0.038048941642045975,
	-0.02610473893582821, 0.022320928052067757, 0.028345994651317596,
	-0.04605032131075859, -0.03301297873258591, 0.004675896838307381,
	0.06531378626823425, 0.025945262983441353, -0.014894941821694374,
	0.07555454224348068, -0.08370061963796616, -0.09401707351207733,
	0.024451754987239838, -0.07591116428375244, -0.0898953452706337,
	-0.09166020900011063, -0.08312107622623444, -0.09458358585834503,
	0.08926595002412796, -0.0474030077457428, 0.027468429878354073,
	0.07350464165210724, -0.08552564680576324, -0.047514576464891434,
	-0.010905210860073566, 0.0262523852288723, -0.09053413569927216,
	0.012119075283408165, -0.09231734275817871, -0.030890731140971184,
	-0.0024989042431116104, 0.0567174032330513, 0.05021560564637184,
	0.0649687647819519, 0.04275882616639137, -0.03164827451109886,
	0.020009862259030342, -0.0032144971191883087, 0.06706871837377548,
	-0.0627821609377861, -0.09108477830886841, -0.027434706687927246,
	-0.07385990768671036, 0.054636284708976746, 0.07566288113594055,
	0.09700962156057358, 0.07196623086929321, 0.0790112167596817,
	0.024592917412519455, 0.08778876066207886, 0.07549865543842316,
	0.021495435386896133, 0.06007421016693115, 0.051270559430122375,
	-0.0281855296343565, 0.05363696068525314, 0.08176515251398087,
	0.0727292001247406, 0.05535563454031944, 0.04593702778220177,
	-0.10343374311923981, 0.08001973479986191, -0.07443399727344513,
	0.07032479345798492, -0.043676432222127914, 0.1008363738656044,
	0.04513387754559517, 0.05601568520069122, 0.039004772901535034,
	0.04713728278875351, 0.08596418797969818, 0.052886828780174255,
	0.06831469386816025, 0.06751855462789536, -0.06023627892136574,
	0.04770008474588394, 0.04273931682109833, -0.048310015350580215,
	-0.05624691769480705, -0.008090581744909286, -0.015166734345257282,
	0.07566724717617035, 0.009197928011417389, 0.013620595447719097,
	0.02334689162671566, -0.05100477859377861, -0.06160454452037811,
	0.035226281732320786, -0.06903532147407532, 0.07018518447875977,
	-0.058584392070770264, 0.063812755048275, 0.09412947297096252,
	-0.03838532790541649, -0.054628368467092514, 0.05016040802001953,
	-0.10245952755212784, -0.07001232355833054, -0.013572455383837223,
	0.001242712838575244, -0.05353992432355881, 0.05901842936873436,
	-0.02420678175985813, 0.0013530822470784187, 0.02269369550049305,
	-0.08979661017656326, -0.021594583988189697, -0.10217291116714478,
	0.023092355579137802, 0.016208941116929054, -0.04236292839050293,
	-0.05064619705080986, 0.0738629400730133, 0.07623926550149918,
	0.004154701717197895, -0.05851605907082558, -0.04924192279577255,
	-0.04782027751207352, 0.09939872473478317, 0.0694270208477974,
	-0.06755505502223969, 0.07792709022760391, -0.07915773242712021,
	0.07789213210344315, 0.10174310952425003, -0.044614825397729874,
	0.10357362031936646, 0.08861791342496872, 0.13791024684906006,
	-0.15022234618663788, 0.07761043310165405, 0.0921141654253006,
	-0.10334882140159607, 0.11428891867399216, 0.08356461673974991,
	-0.0024413694627583027, 0.08456943929195404, 0.10266086459159851,
	-0.04702095314860344, -0.09525688737630844, 0.009693501517176628,
	-0.11365337669849396, -0.10197238624095917, 0.13187427818775177,
	-0.06219887360930443, 0.05241153761744499, -0.028544416651129723,
	0.05444007366895676, 0.06629683822393417, 0.10520270466804504,
	-0.12474829703569412, 0.10715556889772415, 0.0665021538734436,
	0.015201982110738754, 0.0009347189916297793, 0.08627687394618988,
	-0.02324865199625492, 0.041173771023750305, 0.008140044286847115,
	-0.04429897665977478, -0.05338647961616516, 0.019507844001054764,
	-0.11910320073366165, -0.011305532418191433, -0.12392541021108627,
	0.020549537613987923, 0.0524834580719471, 0.01039657462388277,
	0.10776270180940628, 0.07269752770662308, 0.14817415177822113,
	0.002888594986870885, -0.08421144634485245, -0.13059701025485992,
	-0.08222523331642151, 0.05660980939865112, 0.049955349415540695,
	0.10265462845563889, -0.01185065321624279, 0.09650880098342896,
	-0.10387391597032547, -0.13347919285297394, -0.045814864337444305,
	-0.025259675458073616, -0.11591970175504684, -0.0968448743224144,
	0.08392288535833359, 0.12167784571647644, 0.10147303342819214,
	0.060154352337121964, -0.07379299402236938, 0.008009732700884342,
	-0.07232081890106201, 0.05592722073197365, 0.055250801146030426,
	-0.04391555115580559, 0.026875820010900497, -0.02875605784356594,
	0.09365712106227875, 0.01549499947577715, 0.0156959667801857,
	-0.005355258472263813, -0.02455097995698452, -0.021896017715334892,
	0.049098338931798935, 0.11939243227243423, 0.07727017998695374,
	0.06540673226118088, 0.03528517857193947, 0.04397623613476753,
	0.007144037634134293, 0.07020524144172668, 0.11525227129459381,
	0.09137917309999466, 0.08524913340806961, -0.024198468774557114,
	-0.09433101862668991, 0.04873697832226753, 0.0738181620836258,
	-0.07290517538785934, -0.05585622042417526, -0.04358736425638199,
	-0.01522170938551426, -0.06011476367712021, -0.05117166042327881,
	-0.10617376863956451, -0.13241443037986755, -0.02484002523124218,
	-0.06747303158044815, -0.07208273559808731, -0.026605071499943733,
	-0.029524512588977814, 0.016575653105974197, -0.015949130058288574,
	-0.06882613152265549, -0.08956045657396317, -0.2917429804801941,
	0.22206999361515045, 0.10501360148191452, 0.20664164423942566,
	0.12490319460630417, 0.164694145321846, 0.0948985368013382,
	-0.034446049481630325, -0.016340337693691254, -0.06647976487874985,
	0.10650182515382767, -0.004609154537320137, -0.035372499376535416,
	0.11953094601631165, 0.18295207619667053, 0.12578237056732178,
	-0.06894242763519287, -0.08520450443029404, -0.14570657908916473,
	0.015576898120343685, -0.04808995500206947, -0.12303965538740158,
	0.012037107720971107, 0.008746899664402008, 0.043923284858465195,
