	-0.0978228896856308, -0.08467395603656769, 0.008828596211969852,
	-0.03199649229645729, -0.04478830844163895, -0.008946450427174568,
	-0.01283077523112297, 0.0524451918900013, -0.013557150028645992,
	-0.046684835106134415, 0.036985572427511215, 0.028248602524399757,
	0.03292445093393326, 0.07282932847738266, -0.019343622028827667,
	0.0016816908027976751, -0.057961903512477875, 0.041266996413469315,
	-0.052481699734926224, 0.07959636300802231, -0.07355882972478867,
	0.015133150853216648, 0.024439340457320213, 0.020047815516591072,
	-0.059612687677145004, -0.03371350094676018, -0.017636850476264954,
	0.032251812517642975, -0.02079564519226551, -0.048243869096040726,
	-0.08264116197824478, -0.06797291338443756, -0.034374136477708817,
	0.015126698650419712, 0.023694634437561035, 0.031501006335020065,
	0.048045627772808075, 0.05353948101401329, 0.07928641885519028,
	0.06432969123125076, -0.023944495245814323, -0.011140881106257439,
	0.07977171242237091, 0.05863935500383377, -0.04264761134982109,
	-0.05366559699177742, 0.0011720584006980062, -0.03622393310070038,
	-0.006777818314731121, -0.05892050638794899, -0.06812597811222076,
	-0.09927033632993698, 0.015365016646683216, 0.01959836855530739,
	-0.040570713579654694, -0.06584810465574265, 0.04172709956765175,
	0.08658063411712646, 0.06911911815404892, 0.10909656435251236,
	-0.10054052621126175, 0.005968891549855471, -0.04310489073395729,
	-0.04380952566862106, -0.020207202062010765, 0.0815858468413353,
	-0.0002150346408598125, -0.014016990549862385, 0.027112968266010284,
	-0.03502768650650978, -0.01891225576400757, 0.08558141440153122,
	-0.0697731077671051, -0.00955771654844284, -0.05122756585478783,
	0.058012548834085464, 0.04346497729420662, -0.01063480693846941,
	-0.01125972531735897, 0.06386292725801468, 0.0751892626285553,
	0.07832124084234238, 0.010796423070132732, -0.0134124169126153,
	0.01866215653717518, -0.05181604623794556, -0.03449862077832222,
	0.017078468576073647, 0.014641682617366314, -0.03395957872271538,
	-0.03243762627243996, 0.015962183475494385, -0.025175027549266815,
	-0.11858005821704865, 0.011155400425195694, -0.04139363393187523,
	-0.044122979044914246, 0.03763135150074959, 0.013246634043753147,
	-0.022284453734755516, 0.011057810857892036, -0.0266775693744421,
	-0.054084595292806625, 0.03372235596179962, -0.0720144733786583,
	0.017695289105176926, 0.013209558092057705, 0.002372835297137499,
	-0.003003844991326332, 0.009070612490177155, -0.01053761225193739,
	0.00778675964102149, -0.0012656147591769695, 0.0645834431052208,
	0.013557687401771545, -0.049513738602399826, 0.028175415471196175,
	-0.05356251448392868, -0.011543170548975468, 0.03413749486207962,
	-0.05483907088637352, 0.018759043887257576, -0.04896257817745209,
	-0.035930462181568146, -0.04085485637187958, 0.034695062786340714,
	0.02588793635368347, 0.011493454687297344, -0.02310776151716709,
	0.010919254273176193, -0.006660500541329384, -0.008522962220013142,
	0.02922658994793892, -0.012881080619990826, -0.016036974266171455,
	0.011118888854980469, 0.01705612987279892, -0.03994333744049072,
	0.04593239724636078, -0.03917655721306801, -0.003702322021126747,
	0.027109967544674873, 0.07161939144134521, 0.053584787994623184,
	0.006759355776011944, 0.08782194554805756, 0.09150006622076035,
	0.08693863451480865, 0.03707278147339821, -0.006092690397053957,
	0.011128507554531097, 0.03575541824102402, 0.03362046554684639,
	-0.06494484841823578, -0.0346769355237484, -0.04363081231713295,
	-0.0806407630443573, -0.047594230622053146, -0.034324780106544495,
	-0.11843617260456085, -0.09171589463949203, -0.03510725498199463,
	-0.031707763671875, 0.016371238976716995, -0.020034410059452057,
	0.01978827267885208, -0.005918743554502726, 0.012703586369752884,
	-0.01962742581963539, 0.025973359122872353, 0.08758044987916946,
	0.06070736050605774, -0.004089940804988146, -0.013957895338535309,
	0.03920214995741844, -0.004490073770284653, -0.030999986454844475,
	0.009663600474596024, -0.07946977019309998, -0.049310047179460526,
	-0.010472726076841354, 0.05551052838563919, 0.0334700383245945,
	-0.03834419697523117, 0.10250837355852127, 0.025349954143166542,
	0.046199098229408264, -0.04210352897644043, -0.13884253799915314,
	-0.016590246930718422, 0.04544246569275856, -0.060210324823856354,
	-0.05229276791214943, -0.04720750078558922, -0.04884995520114899,
	-0.02094416134059429, 0.002904497552663088, 0.030864516273140907,
	-0.04456629604101181, 0.0648406445980072, -0.035358279943466187,
	0.00864801462739706, -0.016750283539295197, -0.024396680295467377,
	0.022776223719120026, 0.04151305928826332, 0.027623582631349564,
	-0.00021883693989366293, 0.033366065472364426, 0.0347214937210083,
	0.009560657665133476, -0.003235714277252555, 0.02292034775018692,
	-0.042902931571006775, 0.06978960335254669, 0.00554968835785985,
	9.96564922388643e-05, -0.023260582238435745, 0.0773349180817604,
	0.053551431745290756, -0.08264156430959702, -0.026017233729362488,
	0.02367609739303589, -0.11788363754749298, 0.010210859589278698,
	0.0002261680638184771, 0.011934980750083923, 0.06691567599773407,
	-0.03741610422730446, -0.027948258444666862, -0.01252034492790699,
	0.024640053510665894, 0.006731651723384857, -0.029116231948137283,
	-0.02431291714310646, -0.08992189168930054, 0.022545596584677696,
	-0.039450012147426605, -0.07873193919658661, -0.07505252957344055,
	0.0545879602432251, -0.025559332221746445, -0.019168958067893982,
	0.015149342827498913, -0.01684272103011608, -0.022269152104854584,
	0.03175138682126999, -0.012384757399559021, -0.014788944274187088,
	-0.010623968206346035, -0.023279976099729538, 0.023549046367406845,
	0.10251010209321976, 0.14768721163272858, 0.07273087650537491,
	0.017862144857645035, -0.010637322440743446, -0.057914186269044876,
	0.05788329616189003, 0.01342586986720562, 0.035746019333601,
	-0.055232636630535126, 0.06964915990829468, -0.009216031059622765,
	-0.004514165222644806, -0.062041714787483215, -0.09101847559213638,
	-0.03642683103680611, 0.029777299612760544, -0.015433789230883121,
	0.07976412773132324, -0.0015102856559678912, 0.028743566945195198,
	-0.10233112424612045, -0.024856243282556534, -0.006169276777654886,
	0.03527362644672394, 0.033092763274908066, 0.007887677289545536,
	-0.08442344516515732, -0.04196050390601158, 0.03192500025033951,
	-0.0104136411100626, -0.04810301214456558, -0.0671418085694313,
	-0.041452959179878235, -0.02494037337601185, 0.04562986642122269,
	0.0828920304775238, 0.018720043823122978, -0.07678504288196564,
	0.06055501475930214, 0.020146753638982773, -0.010644234716892242,
	0.005993759259581566, -0.01747921109199524, -0.007794567849487066,
	0.1142238900065422, 0.09442859143018723, -0.08463506400585175,
	-0.01653577946126461, -0.011237566359341145, 0.020334351807832718,
	-0.025463920086622238, -0.05732514709234238, 0.07050634920597076,
	0.05022439360618591, -0.0008820596267469227, -0.059205472469329834,
	-0.0472618043422699, -0.026807652786374092, -0.05829108506441116,
	0.017267808318138123, -0.037299904972314835, 0.00634106295183301,
	0.013213230296969414, -0.05281902849674225, -0.07650544494390488,
	-0.0198940709233284, -0.014200160279870033, -0.05270626023411751,
	0.0009245945257134736, -0.06438841670751572, -0.03460053727030754,
	0.04934399202466011, -0.020403694361448288, -0.005102565977722406,
	0.03581424057483673, -0.05268270522356033, 0.04104873538017273,
	0.07687721401453018, -0.01761302724480629, -0.002729231957346201,
	-0.01683310605585575, -0.05159435048699379, -0.004887755028903484,
	0.08117759227752686, 0.05646536126732826, -0.020065415650606155,
	-0.011362187564373016, 0.03290431573987007, -0.04133779928088188,
	-0.0005892061162739992, 0.02701449580490589, -0.07153768092393875,
	0.005612470675259829, 0.029102396219968796, -0.05478561669588089,
	-0.047904714941978455, -0.08095251768827438, 0.07490421831607819,
	-0.06570444256067276, 0.004988199099898338, -0.0704084187746048,
	-0.05944216623902321, 0.042955003678798676, 0.01638084091246128,
	-0.021953226998448372, -0.01676124893128872, -0.023313645273447037,
	-0.021455910056829453, 0.03241511806845665, 0.029379116371273994,
	-0.03701738268136978, 0.060987625271081924, 0.04129954054951668,
	-0.06993687897920609, -0.06880178302526474, 0.037640281021595,
	-0.04772902652621269, 0.03943544626235962, 0.06730057299137115,
	0.03682950511574745, -0.03943367302417755, 0.03638095781207085,
	-0.015105655416846275, 0.0554034523665905, -0.08922719955444336,
	0.006211657077074051, 0.03173929080367088, 0.01705237291753292,
	-0.09135135263204575, -0.02395012602210045, 0.033268533647060394,
	0.023300139233469963, -0.054470863193273544, 0.007300545461475849,
	-0.031644247472286224, 0.018289536237716675, 0.12192749977111816,
	0.030306806787848473, -0.02652617357671261, -0.1467694491147995,
	-0.051329270005226135, -0.008425330743193626, -0.06453343480825424,
	0.05116300284862518, 0.03341567888855934, -0.03045913204550743,
	-0.029295306652784348, 0.06680389493703842, 0.004536930937319994,
	-0.0010490795830264688, 0.04816621541976929, 0.03309111297130585,
	-0.00960053876042366, 0.016054673120379448, 0.06514938920736313,
	-0.04940113425254822, 0.11378250271081924, 0.09085257351398468,
	-0.06523280590772629, -0.09362858533859253, 0.010527434758841991,
	0.042853571474552155, -0.07366828620433807, 0.04384760186076164,
	0.021100908517837524, -0.10934153944253922, -0.044467903673648834,
	-0.010326934978365898, -0.0008683346677571535, -0.046342842280864716,
	0.08522269874811172, 0.06906092911958694, 0.08383695036172867,
	0.09963172674179077, 0.058494046330451965, -0.08731620013713837,
	-0.03379218652844429, 0.007142539136111736, -0.02350246161222458,
	0.004020832013338804, 0.011287784203886986, -0.05622168257832527,
	-0.012192382477223873, -0.051067277789115906, -0.05522985756397247,
	-0.04752036929130554, 0.03387734293937683, -0.007656528614461422,
	-0.010210364125669003, 0.05385294929146767, -0.03522132709622383,
	0.019239818677306175, -0.02027435414493084, 0.022373242303729057,
	-0.0071982042863965034, 0.0302916057407856, 0.06652455776929855,
	0.07659345865249634, -0.05018484964966774, 0.011912641115486622,
	0.09009529650211334, -0.08017919957637787, -0.08244876563549042,
	-0.05843547731637955, 0.19296297430992126, 0.09215744584798813,
	-0.06810501217842102, -0.1250178962945938, -0.04920729994773865,
	0.001499346224591136, -0.013499678112566471, 0.04998127743601799,
	0.06673692911863327, -0.0377294197678566, -0.030793534591794014,
	-0.06696293503046036, 0.054568883031606674, 0.025187913328409195,
	0.004145127255469561, 0.026602335274219513, -0.006641122978180647,
	-0.05939935892820358, -0.07807999849319458, 0.06867813318967819,
	0.09298547357320786, -0.05378081277012825, -0.07865035533905029,
	-0.07687611132860184, -0.011723533272743225, -0.02277233451604843,
	0.003140597604215145, 0.022679826244711876, -0.0783512219786644,
	-0.0688777044415474, 0.02152952179312706, -0.01659156009554863,
	-0.0558813139796257, 0.051249705255031586, -0.06493604928255081,
	0.032972659915685654, 0.0899479016661644, -0.024269534274935722,
	-0.058731190860271454, -0.010002817958593369, 0.019603021442890167,
	0.05000802502036095, -0.04125460237264633, -0.056553296744823456,
	0.03620551899075508, -0.0307899359613657, -0.04536934569478035,
	-0.07384490221738815, -0.11411675065755844, -0.07660812884569168,
	0.03542497754096985, -0.07114840298891068, 0.029356539249420166,
	-0.012395501136779785, 0.028903761878609657, -0.019407786428928375,
	-0.03541635349392891, 0.026796910911798477, -0.037143055349588394,
	-0.04482424259185791, 0.07446689903736115, 0.08934032171964645,
	0.01875414326786995, -0.047049641609191895, -0.07224062830209732,
	-0.010923621244728565, 0.05431024357676506, 0.07414161413908005,
	0.0037521529011428356, -0.017890319228172302, 0.015619558282196522,
	-0.02825283445417881, -0.07491599023342133, 0.004169940482825041,
	0.027180073782801628, 0.016365300863981247, 0.057670313864946365,
	0.0012946315109729767, -0.04500988498330116, -0.04484419524669647,
	-0.03338956460356712, -0.013832309283316135, -0.03286944329738617,
	0.10940617322921753, 0.040097493678331375, 0.060418397188186646,
	0.049167223274707794, 0.06224239990115166, 0.049660153687000275,
	0.03418496251106262, -0.011199796572327614, 0.047751933336257935,
	-0.034968066960573196, -0.06338096410036087, 0.015838051214814186,
	-0.06881362199783325, -0.05336649343371391, 0.05076589807868004,
	-0.05040264129638672, -0.09250544011592865, -0.0020965745206922293,
	-0.027478104457259178, 0.05642964318394661, -0.021163340657949448,
	0.009630227461457253, 0.04579761624336243, -0.0952904149889946,
	-0.0576176680624485, 0.056364480406045914, 0.03835161775350571,
	0.06075408309698105, -0.06238407641649246, -0.07120312750339508,
	-0.04906322807073593, -0.023393312469124794, 0.13067857921123505,
	-0.03372578322887421, 0.016854718327522278, -0.01174311712384224,
	0.005820206832140684, -0.026687683537602425, 0.03116866573691368,
	-0.03238626942038536, -0.022512473165988922, -0.06854370981454849,
	-0.014003867283463478, 0.029883474111557007, -0.03574521839618683,
	-0.058550093322992325, 0.033183690160512924, -0.027965456247329712,
	0.04150635004043579, -0.05393335595726967, -0.04081830754876137,
	-0.0055039385333657265, -0.015384851023554802, -0.057957522571086884,
	-0.007676264736801386, -0.04254365712404251, -0.023360688239336014,
	-0.005008641630411148, 0.0339643619954586, 0.08795807510614395,
	0.0643567219376564, 0.07330594211816788, 0.032137785106897354,
	0.010551031678915024, 0.05290941521525383, 0.033663805574178696,
	-0.01604670099914074, -0.023761030286550522, -0.02750711515545845,
	-0.0034817561972886324, 0.053259409964084625, -0.0627932921051979,
	-0.010352123528718948, 0.02711038663983345, -0.01730453595519066,
	0.07335149496793747, 0.02628621831536293, -0.03438418358564377,
	-0.026732804253697395, 0.025697806850075722, 0.019898490980267525,
	0.004964618943631649, 0.06919673085212708, 0.06976430118083954,
	-0.020877020433545113, 0.02614770457148552, -0.021974215283989906,
	-0.10156656801700592, 0.0239289328455925, 0.02601875364780426,
	0.05813015624880791, -0.0078940624371171, -0.010772430337965488,
	-0.09819986671209335, -0.046279069036245346, 0.05421682819724083,
	0.09915599226951599, 0.04687773063778877, 0.08002741634845734,
	0.041324034333229065, -0.02618691325187683, -0.013518654741346836,
	-0.03566144406795502, 0.07323388755321503, -0.04110978916287422,
	0.04151403531432152, -0.03125139698386192, -0.02275252155959606,
	0.003549695247784257, -0.04128962755203247, -0.0332777239382267,
	0.025938350707292557, 0.05694340169429779, 0.03603861853480339,
	-0.010333102196455002, 0.010327443480491638, -0.0027810214087367058,
	0.03950135409832001, -0.06901390105485916, -0.018838198855519295,
	0.09408482909202576, 0.06090612709522247, 0.05513862147927284,
	0.006945377681404352, -0.007314931135624647, 0.025924017652869225,
	0.0441477969288826, 0.005251524969935417, 0.04192737489938736,
	0.05237557739019394, -0.005901305470615625, -0.031106214970350266,
	0.011984904296696186, 0.042215533554553986, -0.017888756468892097,
	-0.013467478565871716, -0.04871867224574089, 0.058959539979696274,
	0.004048498347401619, 0.021055031567811966, -0.0015509705990552902,
	-0.03400478884577751, 0.0041405921801924706, 0.04768779128789902,
	0.04829123988747597, -0.02194511517882347, -0.02202608436346054,
	0.03326784819364548, -0.037573233246803284, 0.045357316732406616,
	0.08292102068662643, -0.05058933049440384, -0.05305592715740204,
	0.016719866544008255, 0.014090669341385365, -0.07626614719629288,
	-0.13953247666358948, -0.030716437846422195, 0.010194491595029831,
	0.08614344149827957, 0.05648835748434067, 0.03256576135754585,
	-0.013111928477883339, 0.1311831772327423, -0.07924105226993561,
	-0.005045670550316572, -0.08298486471176147, 0.030743759125471115,
	0.08358033001422882, -0.03106805682182312, 0.025514720007777214,
	0.06964568048715591, 0.07594798505306244, -0.019384879618883133,
	-0.029169242829084396, -0.047814372926950455, 0.020298928022384644,
	0.020816728472709656, -0.015200660564005375, -0.051307592540979385,
	0.01293617021292448, -0.028112871572375298, -0.022552985697984695,
	0.02885207161307335, 0.004937360994517803, 0.03669965639710426,
	-0.03159076347947121, 0.034460749477148056, 0.05477345362305641,
	0.06121046096086502, 0.045499175786972046, 0.008763624355196953,
	-0.03007826767861843, 0.056354254484176636, 0.01290155854076147,
	0.05502822622656822, 0.0014119514962658286, -0.03170177713036537,
	0.03201489895582199, -0.05807219073176384, -0.04909924417734146,
	0.027394384145736694, 0.018618561327457428, -0.007330256514251232,
	-0.04421010985970497, -0.017140865325927734, 0.03586938977241516,
	0.02991184964776039, 0.03402964770793915, -0.02021215856075287,
	-0.053182367235422134, 0.04444476217031479, -0.06429018080234528,
	-0.05646992847323418, 0.036105602979660034, 0.011899303644895554,
	0.03223326429724693, 0.026179049164056778, 0.040331363677978516,
	0.049698229879140854, 0.05522824451327324, 0.05654901638627052,
	-0.03675910830497742, -0.017983635887503624, 0.03330468386411667,
	0.008659347891807556, -0.05025910213589668, -0.026771962642669678,
	-0.04564899951219559, -0.04662302881479263, -0.050149768590927124,
	-0.04037166386842728, 0.028933675959706306, 0.02583719789981842,
	0.02565649338066578, 0.05189862102270126, 0.044656988233327866,
	0.05152729153633118, 0.014938613399863243, -0.003771401708945632,
	-0.054603561758995056, 0.05699969828128815, -0.024607611820101738,
	0.027349844574928284, -0.031888168305158615, 0.041103795170784,
	-0.02079126425087452, 0.03638705611228943, 0.06023283302783966,
	0.00024297375057358295, 0.06012238189578056, -0.00428389385342598,
	0.00951062049716711, -0.04191317409276962, 0.007607290055602789,
	0.055322546511888504, -0.021410346031188965, -0.04100964963436127,
	-0.045543670654296875, -0.004366577137261629, -0.0011516037629917264,
	-0.042854879051446915, 0.03811802342534065, 0.007039584685117006,
	-0.03592577576637268, -0.06540389358997345, -0.05431815981864929,
	-0.04334615543484688, 0.030318882316350937, -0.050549764186143875,
	0.007602381054311991, -0.03061644546687603, 0.017693445086479187,
	-0.021968800574541092, -0.05296241119503975, -0.053405825048685074,
	0.021854180842638016, -0.04446946829557419, 0.01274897437542677,
	0.005406802985817194, -0.032226815819740295, 0.015332167968153954,
	0.034273453056812286, 0.035003673285245895, -0.05928174406290054,
	-0.014356696978211403, -0.003421145025640726, -0.024240385740995407,
	0.008332322351634502, -0.0003602644719649106, 0.002131450455635786,
	-0.04233064502477646, 0.008963183499872684, 0.058587174862623215,
	-0.06480050832033157, 0.049723491072654724, -0.0227900892496109,
	0.002738693729043007, 0.020329637452960014, 0.0621187798678875,
	0.03748508542776108, 0.05779729038476944, -0.011478244327008724,
	-0.0483408123254776, -0.05510863661766052, -0.04176769033074379,
	0.04855232313275337, 0.014383302070200443, 0.024869373068213463,
	-0.06433116644620895, 0.06260836124420166, -0.04724728316068649,
	-0.051971614360809326, -0.06383069604635239, -0.051949627697467804,
	0.05537058785557747, -0.02724137343466282, 0.007171219680458307,
	-0.01928066648542881, 0.03538196161389351, 0.00801402609795332,
	0.03430897369980812, -0.027466027066111565, 0.06308821588754654,
	0.016760913655161858, -0.011172860860824585, -0.05130735784769058,
	-0.06831961125135422, -0.049159325659275055, -0.06938629597425461,
	-0.05766062065958977, -0.01830095797777176, 0.010579489171504974,
	0.0060820202343165874, -0.04124078154563904, -0.043565697968006134,
	-0.0603630430996418, -0.042826589196920395, 0.04038713872432709,
	0.038060512393713, -0.029823079705238342, 0.03481603413820267,
	-0.05142394080758095, -0.03353935852646828, -0.0005188742070458829,
	0.010199123993515968, -0.03657910227775574, -0.044394686818122864,
	0.044340986758470535, 0.03546053543686867, 0.013980092480778694,
	-0.05754437297582626, 0.03311508148908615, -0.0062942299991846085,
	0.03952915221452713, -0.053252361714839935, 0.05014963820576668,
	-0.05192272737622261, 0.039656467735767365, 0.03809667378664017,
	-0.01189554762095213, -0.00012514556874521077, -0.003347918624058366,
	0.04292784631252289, -0.039869148284196854, 0.0010754454415291548,
	-0.03545287996530533, 0.044896338135004044, 0.020001467317342758,
	-0.051728419959545135, -0.0326012521982193, -0.027987122535705566,
	0.012367332354187965, -0.004725485108792782, 0.026891859248280525,
	0.05808080732822418, 0.01535293273627758, 0.05107634514570236,
	-0.06441494822502136, -0.039918769150972366, 0.032632213085889816,
	-0.04621768742799759, -0.012151545844972134, -0.03391479328274727,
	-7.456498860847205e-05, -0.04597048461437225, -0.02147609367966652,
	0.06389865279197693, -0.05783476680517197, -0.05958610400557518,
	0.048680055886507034, 0.02008313685655594, 0.026379575952887535,
	0.021082401275634766, -0.00624083774164319, 0.02550586126744747,
	-0.016946226358413696, -0.03462859243154526, 0.05042595416307449,
	-0.05993303656578064, 0.007483170833438635, -0.04937954246997833,
	-0.05510666221380234, 0.029732482507824898, 0.04257629066705704,
	0.002897275611758232, -0.035338107496500015, 0.04851984605193138,
	-0.022387884557247162, 0.025201499462127686, 0.012578240595757961,
	0.018175458535552025, 0.04733340069651604, -0.03831677511334419,
	0.0029612162616103888, -0.06468567997217178, -0.02321609854698181,
	-0.027414290234446526, 0.06089353933930397, 0.05355553328990936,
	0.013128405436873436, 0.012484937906265259, 0.03288598358631134,
	-0.02130397967994213, 0.023712879046797752, 0.016397004947066307,
	-0.02977479249238968, -0.03508889675140381, -0.031080791726708412,
	-0.06300504505634308, -0.04925614967942238, -0.0012614871375262737,
	-0.049271825700998306, 0.01914033107459545, 0.02962137758731842,
	-0.004208430647850037, -0.029579220339655876, 0.003578765317797661,
	-0.004336673300713301, -0.02981540560722351, 0.04803527146577835,
	-0.05986180156469345, 0.059657152742147446, 0.00823951419442892,
	0.0007503236993215978, -0.06227049604058266, 0.019087711349129677,
	0.04235328733921051, -0.01081889308989048, -0.04829065501689911,
	-0.01639430783689022, -0.0033160995226353407, -0.050170689821243286,
	0.026498544961214066, -0.0405077189207077, 0.04728751257061958,
	0.01643279194831848, 0.0313568152487278, -0.027843153104186058,
	0.0266647357493639, -0.03356631472706795, -0.015260132029652596,
	0.06075909733772278, -0.03663108870387077, 0.028933532536029816,
	0.0423068068921566, 0.05696767196059227, 0.003911010455340147,
	-0.05873369798064232, 0.013003464788198471, 0.05624651536345482,
	0.03459937125444412, 0.03348616138100624, 0.03480738028883934,
	-0.06365541368722916, 0.011240907944738865, -0.030374150723218918,
	-0.047996632754802704, -0.0625835657119751, -0.051841218024492264,
	-0.029679955914616585, -0.020939212292432785, 0.028320305049419403,
	0.011005977168679237, 0.038387347012758255, 0.004422247409820557,
	0.001572218257933855, 0.008610500022768974, 0.033854566514492035,
	0.062353335320949554, 0.04624340310692787, 0.0592709444463253,
	-0.011187240481376648, 0.03469761088490486, -0.006820932496339083,
	0.054296426475048065, -0.027938177809119225, -0.01167442835867405,
	-0.009565796703100204, -0.05023228004574776, 0.021862739697098732,
	0.05563083663582802, 0.0048509459011256695, 0.008119475096464157,
	-0.029286500066518784, 0.030956465750932693, 0.03344373777508736,
	0.04075739160180092, -0.025719022378325462, -0.024104135110974312,
	-0.03080926276743412, -0.005098049063235521, 0.0004954752512276173,
	0.058081068098545074, -0.061998844146728516, -0.041759591549634933,
	0.06390932947397232, 0.018569644540548325, -0.048280052840709686,
	-0.04842016100883484, -0.046167951077222824, -0.005646762438118458,
	-0.008437123149633408, 0.04107872396707535, 0.02778424695134163,
	-0.021204382181167603, -0.06563395261764526, 0.050340987741947174,
	0.012178758159279823, -0.0511772446334362, -0.06393007189035416,
	0.0445510670542717, -0.04137364402413368, 0.0025026043877005577,
	0.03046022355556488, -0.008757790550589561, -0.0497942790389061,
	-0.0058065797202289104, -0.0412679947912693, -0.05173269286751747,
	-0.01788877695798874, -0.03325556218624115, -0.05314965546131134,
	-0.04511968791484833, -0.005162613466382027, -0.04185647889971733,
	0.058871589601039886, -0.05147220194339752, -0.05251283198595047,
	0.04783530533313751, 0.0543874129652977, 0.018107576295733452,
	-0.05709229037165642, 0.053891055285930634, -0.005591257940977812,
	0.04631347954273224, 0.05382213369011879, -0.030303973704576492,
	-0.02715417370200157, -0.008000287227332592, -0.02179694175720215,
	0.04853784665465355, -0.019365083426237106, 0.038896284997463226,
	-0.01019816193729639, 0.01735839433968067, -0.025001002475619316,
	-0.009096435271203518, -0.06574087589979172, 0.043639782816171646,
	-0.05799190700054169, -0.015741165727376938, -0.06271309405565262,
	-0.04224075749516487, -0.00583768030628562, 0.04948810487985611,
	-0.022136123850941658, -0.03633873537182808, 0.012063628993928432,
	-0.017264090478420258, -0.04528777673840523, 0.004602906294167042,
	-0.009062841534614563, 0.0318915881216526, -0.02674761973321438,
	-0.05899186432361603, -0.027321722358465195, 0.05086198449134827,
	0.022296596318483353, 0.0030640861950814724, 0.001771605690009892,
	-0.00638020783662796, 0.011570839211344719, 0.0019189786398783326,
	-0.023065315559506416, -0.033014412969350815, -0.022032776847481728,
	0.05794713273644447, 0.054525408893823624, 0.03613629937171936,
	0.013892224989831448, -0.0336296409368515, 0.012906594201922417,
	-0.003114893799647689, 0.05695027485489845, -0.05421798676252365,
	0.03722770884633064, -0.03214811906218529, 0.02329002134501934,
	0.04928908869624138, 0.004083683248609304, 0.044540029019117355,
	0.019882051274180412, 0.019465669989585876, 0.05846976116299629,
	-0.04331178963184357, 0.030487222597002983, 0.057726263999938965,
	-0.010815837420523167, -0.04423642158508301, -0.03915245085954666,
	0.0425182469189167, 0.005630847066640854, -0.023660164326429367,
	0.05648701637983322, 0.03149063140153885, -0.01936224289238453,
	-0.05820208787918091, -0.011240322142839432, 0.01755109615623951,
	-0.04356765002012253, 0.009460248053073883, 0.012309696525335312,
	-0.04124011471867561, 0.008737992495298386, -0.02247564308345318,
	-0.060079485177993774, -0.04817304387688637, 0.041121963411569595,
	-0.018442999571561813, -0.03843668848276138, 0.04156970605254173,
	-0.029124025255441666, -0.012445874512195587, 0.042791519314050674,
	-0.02814689464867115, -0.04198424145579338, -0.01837657019495964,
	-0.005322860553860664, 0.028014739975333214, -0.05454574152827263,
	0.01925799995660782, -0.03396931290626526, 0.034469861537218094,
	-0.04881875589489937, 0.05926045775413513, 0.0425739586353302,
	-0.057426344603300095, -0.023256544023752213, -0.057966724038124084,
	0.07049316167831421, 0.009443697519600391, 0.08509097993373871,
	0.04854033887386322, 0.02837792970240116, 0.025167206302285194,
	-0.07398346066474915, -0.04303479939699173, -0.0943259447813034,
	-0.10930966585874557, 0.062296099960803986, 0.0013975473120808601,
	-0.05411272495985031, 0.051036786288022995, -0.013801755383610725,
	-0.04501151293516159, 0.024131381884217262, 0.06458783149719238,
	0.018332384526729584, 0.03367658331990242, 0.004925719927996397,
	0.03257611766457558, 0.03212965652346611, -0.022093787789344788,
	-0.08356747031211853, -0.09226441383361816, 0.01701444201171398,
	0.0514812245965004, -0.021259019151329994, 0.024848012253642082,
	0.07136782258749008, -0.03232327848672867, 0.004746100399643183,
	0.09278316050767899, -0.04129035770893097, 0.04175037890672684,
	0.011179842054843903, 0.09418950974941254, -0.05561644956469536,
	-0.017486361786723137, 0.05334610491991043, 0.04592398181557655,
	-0.01583278551697731, 0.06661815941333771, -0.08211207389831543,
	0.08121837675571442, 0.07413674145936966, -0.031900420784950256,
	-0.14028050005435944, -0.042064085602760315, 0.013749741949141026,
	0.05765145272016525, -0.022848177701234818, 0.0376412495970726,
	-0.05601534992456436, 0.006035850383341312, 0.02159917540848255,
	-0.01185490284115076, 0.05472421646118164, 0.0949707105755806,
	-0.03972989320755005, -0.009968684986233711, 0.07514332979917526,
	0.037623900920152664, 0.004937583114951849, 0.07756132632493973,
	0.03279944509267807, 0.04161982610821724, -0.02003861591219902,
	0.020053880289196968, 0.008054163306951523, -0.008981028571724892,
	-0.029503939673304558, -0.019777262583374977, 0.009374638088047504,
	-0.04027264565229416, -0.04448777064681053, -0.01846153289079666,
	0.0506642609834671, -0.02636535093188286, -0.1103089302778244,
	-0.008325919508934021, -0.06083068251609802, 0.060059115290641785,
	-0.025776538997888565, 0.00432505551725626, -0.07088430225849152,
	0.03822706267237663, 0.03782834857702255, 0.11139820516109467,
	0.06380579620599747, 0.003101570764556527, -0.03934994339942932,
	-0.025004219263792038, 0.04563940688967705, -0.006792464759200811,
	0.0032016639597713947, 0.007238435093313456, 0.016647882759571075,
	-0.03740772604942322, -0.05127759650349617, 0.03233562409877777,
	0.02482672780752182, -0.006923681125044823, -0.06916985660791397,
	0.0277303084731102, 0.026727769523859024, 0.0039356122724711895,
	0.03828417882323265, -0.007482388522475958, -0.05877899006009102,
	0.04526852071285248, -0.042467452585697174, -0.06175514683127403,
	-0.016711268573999405, 0.05108805373311043, -0.016487445682287216,
	0.03623577952384949, 0.05458923056721687, -0.020563790574669838,
	-0.027390243485569954, 0.07737645506858826, 0.028373144567012787,
	-0.06084619089961052, -0.008144251070916653, -0.033926986157894135,
	-0.062126316130161285, -0.04893022030591965, 0.019900772720575333,
	0.05135001242160797, 0.08481200784444809, 0.07709450274705887,
	-0.03225789591670036, 0.033819958567619324, 0.026205183938145638,
	0.006992843933403492, -0.023355143144726753, 0.08130354434251785,
	-0.011416196823120117, -0.011467908509075642, -0.009994318708777428,
	0.01821928285062313, -0.057865943759679794, -0.02726835571229458,
	-0.10301300883293152, -0.04160336032509804, -0.14241865277290344,
	0.04660208523273468, -0.045976679772138596, -0.007287224289029837,
	-0.09916425496339798, 0.042668864130973816, -0.0024397901725023985,
	0.01300223171710968, -0.010517889633774757, 0.04859150946140289,
	-0.06855016201734543, -0.04968089982867241, -0.055713385343551636,
	0.03244757652282715, -0.07206592708826065, 0.01710650883615017,
	-0.009754801169037819, 0.055124431848526, 0.02892284095287323,
	-0.008759105578064919, 0.030824581161141396, 0.014102311804890633,
	-0.04566868022084236, 0.006282799877226353, 0.05794377624988556,
	0.007681334391236305, -0.02638227306306362, 0.040590282529592514,
	0.038692232221364975, -0.01000925526022911, -0.10114719718694687,
	-0.09204640239477158, -0.1319793313741684, -0.009421567432582378,
	-0.10486340522766113, -0.11582668125629425, -0.05161430314183235,
	-0.0035828801337629557, -0.00530265225097537, -0.013462737202644348,
	0.014276748523116112, -0.08818651735782623, 0.08071853220462799,
	0.0336095355451107, 0.043787796050310135, 0.0458446703851223,
	-0.038657914847135544, -0.056460119783878326, -0.023515980690717697,
	-0.0037970468401908875, -0.0465533621609211, -0.02053307183086872,
	0.002393104135990143, -0.008453681133687496, 0.007925428450107574,
	0.02444581687450409, -0.03953985869884491, 0.033001258969306946,
	-0.02094428427517414, 0.014627768658101559, 0.04003599286079407,
	0.06395293772220612, 0.02273366041481495, -0.07798541337251663,
	-0.11282769590616226, 0.0006628907285630703, 0.11216853559017181,
	-0.09840395301580429, -0.10539252310991287, -0.04931142181158066,
	0.024402206763625145, 0.058749064803123474, 0.10107153654098511,
	0.09893776476383209, 0.03403998911380768, -0.013481473550200462,
	0.08575703203678131, -0.07256512343883514, -0.09088389575481415,
	-0.02302483841776848, -0.004209890961647034, -0.05228567495942116,
	-0.04614671692252159, 0.014373240992426872, 0.005225779954344034,
	0.10911879688501358, 0.005860288627445698, 0.06832487881183624,
	0.008125794120132923, -0.026907242834568024, -0.07984109222888947,
	-0.06141708418726921, -0.12358373403549194, -0.05207384377717972,
	0.05627817660570145, 0.021908780559897423, -0.1528114378452301,
	-0.022620324045419693, -0.040024273097515106, -0.06879758834838867,
	0.03339792788028717, 9.450414654565975e-05, 0.025500277057290077,
	-0.003216018434613943, -0.029430769383907318, 0.0522230863571167,
	0.08935725688934326, 0.01990330033004284, -0.10367756336927414,
	-0.033780477941036224, -0.005669145844876766, -0.040558118373155594,
	-0.02999778650701046, 0.06342713534832001, 0.01527959294617176,
	0.04038666933774948, -0.05318311229348183, 0.07206136733293533,
	0.040674638003110886, -0.01651998795568943, 0.07947613298892975,
	-0.021166639402508736, 0.01971113495528698, 0.009571381844580173,
	-0.07278495281934738, -0.015349376015365124, -0.05231134966015816,
	0.013142667710781097, -0.05674226954579353, 0.13343648612499237,
	0.014647006057202816, 0.03986714035272598, -0.031331390142440796,
	0.060822583734989166, 0.08434166759252548, -0.024197962135076523,
	0.07471688836812973, 0.05779534950852394, -0.05214190110564232,
	-0.09453524649143219, -0.04311545938253403, -0.020594077184796333,
	0.06092076748609543, 0.03589415177702904, 0.031988296657800674,
	-0.08467859029769897, 0.01736600138247013, -0.017188720405101776,
	0.04539952427148819, 0.01856512762606144, 0.07989319413900375,
	0.07558806985616684, 0.01363936997950077, 0.05176392197608948,
	0.08586180955171585, 0.006882918067276478, -0.028219979256391525,
	-0.07174929231405258, 0.021156493574380875, -0.015728730708360672,
	-0.003872823202982545, -0.041286829859018326, 0.020269570872187614,
	-0.001253717695362866, -0.052904706448316574, 0.06773944944143295,
	0.04048684611916542, -0.005356974899768829, -0.047132525593042374,
	0.06009136885404587, -0.04454997926950455, 0.0173268411308527,
	0.0731988251209259, -0.027272142469882965, 0.0033593913540244102,
	-0.02068905718624592, 0.051360439509153366, 0.03428354486823082,
	0.08021383732557297, -0.038554731756448746, -0.0194099098443985,
	0.012285818345844746, 0.11692531406879425, 0.020748436450958252,
	0.006069816183298826, -0.02503086067736149, -0.01874895766377449,
	-0.16515135765075684, 0.024947836995124817, -0.06296270340681076,
	-0.0436205230653286, 0.0007181461551226676, -0.003250058041885495,
	0.01542876847088337, -0.03106703795492649, -0.06403892487287521,
	-0.0698450431227684, 0.02222839929163456, 0.030034469440579414,
	0.01438638474792242, 0.020549535751342773, 0.06578429788351059,
	0.041782576590776443, -0.05971676483750343, 0.030637381598353386,
	0.001341731403954327, 0.011768830940127373, 0.008442615158855915,
	-0.028353258967399597, -0.04005229473114014, -0.024817274883389473,
	0.0252998024225235, -0.04902917519211769, -0.04055646061897278,
	0.03001120686531067, 0.047549523413181305, 0.057693567126989365,
	0.0017433930188417435, -0.035920724272727966, 0.02466614730656147,
	-0.011866502463817596, -0.009384105913341045, -0.029350193217396736,
	0.01793045364320278, -0.010718279518187046, -0.057401712983846664,
	-0.022748377174139023, -0.05536464601755142, 0.017801476642489433,
	-0.01437080092728138, -0.017303112894296646, -0.02402373030781746,
	0.0049913316033780575, 0.09541420638561249, -0.022029772400856018,
	0.060985058546066284, 0.023044779896736145, 0.024969562888145447,
	-0.061668168753385544, -0.04491535946726799, -0.027221612632274628,
	0.13838206231594086, 0.0075426590628921986, 0.0006035505211912096,
	-0.015561234205961227, 0.005552599672228098, 0.0808362290263176,
	0.05754827335476875, 0.004746138118207455, 0.012384608387947083,
	-0.05265018716454506, -0.1475629210472107, 0.032448701560497284,
	0.0025182797107845545, 0.003821661928668618, -0.03174205869436264,
	-0.07176223397254944, -0.0037723577115684748, -0.017367882654070854,
	-0.011532175354659557, 0.005961081478744745, 0.08433467894792557,
	-0.03202275559306145, -0.015228445641696453, 0.04839533194899559,
	0.05188595876097679, 0.01998806931078434, 0.02413126453757286,
	-0.02999616414308548, -0.0882049947977066, 0.009036174044013023,
	-0.037339482456445694, -0.026787960901856422, -0.11854769289493561,
	-0.00354947941377759, 0.006844620686024427, 0.0007403109921142459,
	-0.11478663980960846, 0.04452081024646759, 0.051353298127651215,
	-0.00034450076054781675, -0.0581204891204834, 0.004213408567011356,
	0.03663962706923485, -0.04634721949696541, -0.0004924358800053596,
	0.034337859600782394, 0.03571571409702301, 0.032734137028455734,
	-0.01783665269613266, 0.031818218529224396, 0.0016956343315541744,
	0.042088549584150314, 0.05530524253845215, 0.040578048676252365,
	-0.02992437593638897, 0.036645419895648956, 0.020245837047696114,
	-0.04338076710700989, 0.03095553070306778, -0.023763958364725113,
	-0.009113658219575882, 0.015146796591579914, -0.013663042336702347,
	0.09357611835002899, 0.25447574257850647, 0.07192636281251907,
	-0.02876269444823265, 0.023240333423018456, 0.049191705882549286,
	0.004276541993021965, 0.015897313132882118, 0.12860451638698578,
	-0.05862310901284218, 0.0031358252745121717, -0.05448342487215996,
	-0.05516795814037323, -0.02419024333357811, -0.002042340813204646,
	0.07306776940822601, -0.03378244861960411, 0.021136557683348656,
	-0.02294008806347847, 0.012884635478258133, -0.027708012610673904,
	-0.10229704529047012, 0.08030999451875687, 0.11263585835695267,
	-0.045652732253074646, -0.048181623220443726, 0.018067017197608948,
	-0.12926054000854492, -0.06804199516773224, 0.0046768756583333015,
	0.009105343371629715, 0.011338026262819767, -0.0303195808082819,
	0.060174647718667984, 0.06906731426715851, 0.03284817561507225,
	0.017090914770960808, 0.04087831452488899, -0.05400090292096138,
	0.03391304612159729, 0.031857896596193314, 0.058354925364255905,
	-0.04234146326780319, -0.03463538736104965, 0.02953733690083027,
	-0.005576770287007093, -0.042722348123788834, 0.029632387682795525,
	0.03511589765548706, -0.027077753096818924, 0.034847911447286606,
	0.040173716843128204, -0.006109094247221947, -0.02426101267337799,
	-0.01816975325345993, -0.004138330928981304, 0.0408296175301075,
	-0.014363281428813934, -0.031711604446172714, -0.0054088677279651165,
	0.029254058375954628, 0.035391125828027725, 0.020975075662136078,
	0.034624867141246796, -0.00135169574059546, -0.05902703106403351,
	0.013383178040385246, 0.03649269416928291, 0.04994814097881317,
	-0.0063153598457574844, 0.0004745875485241413, -0.061081524938344955,
	-0.03632941097021103, -0.020655374974012375, -0.0041176252998411655,
	-0.05898429453372955, -0.01961985044181347, -0.032729875296354294,
	-0.023290283977985382, -0.047703493386507034, -0.016108600422739983,
	-0.060734786093235016, -0.01426815614104271, 0.013632265850901604,
	0.06558965146541595, -0.05753427743911743, -0.03624240309000015,
	-0.04676190763711929, 0.04816315323114395, 0.03682715445756912,
	0.015159294940531254, 0.0637972503900528, -0.021432192996144295,
	-0.027652950957417488, -0.03415210172533989, 0.014385937713086605,
	0.06242910772562027, -0.061033762991428375, 0.034965015947818756,
	0.0003688594151753932, 0.030059607699513435, -0.04407048225402832,
	0.012877613306045532, 0.03322581946849823, -0.063337042927742,
	0.013797085732221603, -0.045049335807561874, 0.05443499982357025,
	0.0446343868970871, 0.047184258699417114, 0.054563671350479126,
	-0.05344295874238014, 0.002113809809088707, -0.014095227234065533,
	-0.010635050013661385, -0.029777847230434418, 0.005450403783470392,
	0.004243808798491955, 0.0271834135055542, -0.006623838096857071,
	0.0041862595826387405, -0.009186631999909878, 0.0662098228931427,
	-0.05164448916912079, 0.05615704879164696, -0.046234291046857834,
	0.048281412571668625, -0.052104391157627106, -0.03438100218772888,
	-0.02295660972595215, 0.01846403442323208, -0.020766565576195717,
	0.046457961201667786, -0.05355549603700638, 0.06160563603043556,
	0.05276143550872803, 0.056733980774879456, -0.0025559484492987394,
	0.06959892809391022, 0.01379383448511362, 0.0006534943822771311,
	-0.001966270385310054, -0.027325114235281944, -0.029511459171772003,
	0.010583077557384968, -0.06446400284767151, 0.055495671927928925,
	-0.0042353407479822636, 0.06175991892814636, -0.029280290007591248,
	-0.010958585888147354, -0.05955568701028824, 0.04247412830591202,
	0.04745939001441002, -0.007406030315905809, 0.0018034413224086165,
	-0.03622238337993622, -0.057474054396152496, -0.031588975340127945,
	-0.023859312757849693, 0.06294823437929153, 0.023422030732035637,
	0.036723148077726364, -0.023082232102751732, -0.01144369225949049,
	-0.025687845423817635, 0.03275200352072716, 0.005939680151641369,
	-0.03942776471376419, -0.046098001301288605, -0.060591407120227814,
	-0.048965904861688614, -0.026787685230374336, 0.054569683969020844,
	-0.046469129621982574, 0.02584480307996273, -0.05334975942969322,
	-0.04081474989652634, 0.05993608385324478, 0.056870829313993454,
	0.02619209513068199, -0.04830559343099594, -0.04221192002296448,
	0.010391629301011562, 0.0006493019172921777, 0.04907795414328575,
	-0.0030953700188547373, -0.014719792641699314, -0.03918075188994408,
	-0.07052244991064072, 0.043801188468933105, -0.008095329627394676,
	-0.017668558284640312, -0.004007295239716768, 0.04824339598417282,
	-0.03009065054357052, -0.021984940394759178, 0.05655615031719208,
	-0.03614961728453636, 0.03254746273159981, -0.05477307364344597,
	0.028346633538603783, 0.04315052926540375, -0.000965334998909384,
	-0.01358282845467329, -0.05719653517007828, -0.0328424908220768,
	-0.03103107213973999, 0.015308394096791744, -0.04022698849439621,
	0.03442451357841492, 0.05033494904637337, -0.06192294508218765,
	0.060816846787929535, 0.035797275602817535, 0.016658876091241837,
	-0.00432875519618392, 0.004638005048036575, 0.013572026044130325,
	0.01659335382282734, -0.043490197509527206, 0.016627686098217964,
	-0.041110724210739136, -0.024484330788254738, 0.026677079498767853,
	-0.027562469244003296, 0.025100383907556534, 0.05669456720352173,
	0.023602118715643883, -0.03131552413105965, 0.03255734592676163,
	-0.03225664421916008, 0.03488404303789139, 0.029990341514348984,
	0.009017345495522022, -0.05891891568899155, 0.027506623417139053,
	0.03686759993433952, 0.01827113889157772, 0.018996650353074074,
	-0.0408935509622097, 0.06212270259857178, -0.039408572018146515,
	-0.06877800077199936, 0.009660892188549042, -0.011132257990539074,
	-0.033364586532115936, 0.03969864547252655, 0.005329726729542017,
	-0.04515465348958969, -0.01937876269221306, 0.0427759550511837,
	-0.009214121848344803, -0.0009616612805984914, -0.029416436329483986,
	0.012682988308370113, -0.01429873425513506, 0.03307274729013443,
	-0.04233481362462044, 0.0529460683465004, 0.051623936742544174,
	-0.06407106667757034, 0.02569597028195858, 0.016737814992666245,
	0.06120624765753746, -0.047727447003126144, 0.042389411479234695,
	-0.021209634840488434, -0.04559057578444481, 0.03306068852543831,
	0.008089199662208557, 0.021359795704483986, 0.08821581304073334,
	0.013918828219175339, -0.03339105844497681, 0.04879763722419739,
	-0.05401267856359482, -0.07751229405403137, 0.021945105865597725,
	-0.009566604159772396, 0.017257733270525932, -0.08673081547021866,
	0.010410824790596962, 0.03054582141339779, 0.009582644328474998,
	-0.011380392126739025, -0.03945526108145714, -0.05868227407336235,
	-0.022297551855444908, -0.011301597580313683, -0.03426782041788101,
	0.05959508195519447, 0.02711617946624756, -0.08363161236047745,
	-8.793437154963613e-05, 0.061064671725034714, 0.05077395960688591,
	-0.09065748006105423, -0.019601717591285706, 0.03895830363035202,
	0.09123304486274719, -0.05073538422584534, -0.020209984853863716,
	-0.037138160318136215, -0.05149735137820244, -0.07581887394189835,
	-0.058139484375715256, 0.014514042995870113, -0.01684638112783432,
	0.0587163083255291, 0.041900746524333954, -0.03978762775659561,
	0.015985237434506416, -0.04318965598940849, 0.06598702073097229,
	-0.03687840700149536, -0.03898661956191063, -0.029660625383257866,
	-0.03609621524810791, -0.03972655162215233, 0.025784391909837723,
	0.07114453613758087, -0.054851338267326355, 0.08979518711566925,
	0.09161268174648285, 0.031689491122961044, 0.04374198988080025,
	-0.005529820453375578, 0.023482108488678932, -0.06697573512792587,
	0.04354231432080269, -0.05687764286994934, 0.04884512722492218,
	-0.0576036274433136, 0.0354888029396534, -0.016370603814721107,
	-0.007271308917552233, -0.09234490245580673, 0.04331209883093834,
	0.056049250066280365, -0.03717799857258797, -0.016070889309048653,
	-0.0026378491893410683, 0.02840440534055233, 0.04869633913040161,
	0.06579891592264175, -0.057992707937955856, 0.019238997250795364,
	0.008190893568098545, -0.006427223794162273, -0.06387708336114883,
	0.011164224706590176, -0.022898785769939423, -0.007948361337184906,
	-0.026364613324403763, 0.03013015165925026, 0.026942303404211998,
	-0.01117580197751522, 0.022411037236452103, 0.07832404226064682,
	0.04560521990060806, -0.054781801998615265, 0.03821083530783653,
	0.03183916211128235, -0.07361826300621033, -0.020850595086812973,
	0.04476476088166237, 0.02608570083975792, -0.049921661615371704,
	-0.019953493028879166, 0.009811022318899632, -0.03796513006091118,
	0.04598034918308258, 0.031277161091566086, 0.05583789944648743,
	0.025102848187088966, 0.00026862608501687646, 0.014146700501441956,
	0.04335543513298035, 0.019548991695046425, 0.03197873383760452,
	0.06262603402137756, 0.017893794924020767, -0.009944265708327293,
	-0.007633202243596315, 0.05641195550560951, 0.02425546757876873,
	-0.03758963197469711, 0.06511190533638, -0.016046639531850815,
	0.029890401288866997, 0.008794423192739487, 0.04111303389072418,
	0.02688552252948284, -0.05472907796502113, -0.029173707589507103,
	-0.06854338943958282, 0.044080473482608795, 0.010624629445374012,
	-0.0003760773397516459, 0.008460292592644691, -0.00205056881532073,
	-0.047546401619911194, 0.023474842309951782, 0.041148483753204346,
	0.004794902168214321, -0.0004456571477930993, -0.06354853510856628,
	0.03329448774456978, 0.01508912444114685, 0.04719660058617592,
	0.034586455672979355, -0.026120595633983612, 0.012515104375779629,
	-0.009968440048396587, 0.006018832325935364, 0.019393229857087135,
	-0.013981521129608154, -0.007874181494116783, -0.07269332557916641,
	0.005850677378475666, -0.055030182003974915, 0.038116246461868286,
	0.03660528361797333, 0.06144183129072189, -0.010109161026775837,
	0.020330563187599182, -0.00201146281324327, -0.008916795253753662,
	-0.0021737392526119947, -0.03289536014199257, -0.0749347135424614,
	-0.014248514547944069, 0.022109340876340866, -0.07852252572774887,
	0.07397651672363281, -0.00860263779759407, -0.007742296438664198,
	0.02354326657950878, -0.013942924328148365, -0.016287613660097122,
	-0.07377368211746216, 0.009442733600735664, 0.02701699733734131,
	0.06813567876815796, 0.02926555462181568, -0.04822159186005592,
	-0.10319792479276657, 0.013659164309501648, 0.044037114828825,
	-0.04106394946575165, -0.002309019910171628, 0.03937329351902008,
	0.02312150038778782, -0.021321117877960205, -0.028184683993458748,
	0.02615627646446228, -0.07984282821416855, 0.055294353514909744,
	0.058036282658576965, 0.06070207431912422, -0.053779441863298416,
	0.019919378682971, 0.050107695162296295, -0.02301074005663395,
	-0.05857803672552109, 0.041130803525447845, -0.05504864454269409,
	-0.03456218168139458, 0.011423025280237198, 0.017643973231315613,
	-0.04047783091664314, -0.013074493035674095, -0.03552393987774849,
	-0.057964444160461426, 0.007749488577246666, 0.05121136084198952,
	0.04784766584634781, -0.12639479339122772, -0.020792754366993904,
	-0.02571861445903778, -0.03427160531282425, -0.055010996758937836,
	0.10572437942028046, -0.006528750061988831, -0.006876721978187561,
	-0.005568197462707758, 0.039213813841342926, 0.02463281899690628,
	-0.10963708162307739, -0.04779506102204323, -0.0013074283488094807,
	-0.02327996864914894, -0.11422142386436462, -0.00010498315532458946,
	-0.0016470348928123713, 0.05868149176239967, 0.12688061594963074,
	0.07822322845458984, -0.038282353430986404, 0.018400000408291817,
	0.010461265221238136, -0.0026313106063753366, -0.033447254449129105,
	0.019777895882725716, -0.004947245586663485, 0.06098204478621483,
	0.056669119745492935, -0.021287482231855392, -0.04679610952734947,
	-0.05074654519557953, -0.015958761796355247, 0.024344362318515778,
	-0.034646954387426376, 0.08833503723144531, 0.01068070251494646,
	-0.0015639446210116148, 0.08833379298448563, 0.0629693865776062,
	0.02456704154610634, 0.0003282436227891594, 0.019111549481749535,
	0.012186617590487003, -0.02763477899134159, -0.06743934005498886,
	-0.013176854699850082, -0.0547921322286129, 0.003297136863693595,
	-0.04674721881747246, 0.036520250141620636, -0.06025460362434387,
	0.025145988911390305, 0.034789055585861206, 0.07707031816244125,
	0.05316714197397232, 0.11576194316148758, 0.08716168999671936,
	0.002288493560627103, 0.015512499958276749, 0.0037293077912181616,
	-0.03876263648271561, 0.0322442427277565, 0.03492502123117447,
	-0.0429331474006176, 0.0024236119352281094, 0.02569616213440895,
	-0.051114510744810104, -0.03240063786506653, 0.08585605025291443,
	4.651849303627387e-05, -0.034731000661849976, 0.0015174213331192732,
	0.020265141502022743, -0.05154616758227348, 0.025338396430015564,
	-0.003220677375793457, 0.027349209412932396, -0.02319171652197838,
	0.06978663057088852, 0.058151185512542725, 0.03468727692961693,
	-0.16190627217292786, 0.06081610172986984, 0.04428940638899803,
	-0.08589361608028412, -0.035320788621902466, -0.0422869548201561,
	0.02316204272210598, 0.0288674458861351, 0.054947856813669205,
	-0.0209793820977211, -0.09312411397695541, -0.03232280910015106,
	0.019446279853582382, 0.0083342669531703, -0.09717749804258347,
	0.024155905470252037, -0.012758526019752026, 0.011691837571561337,
	-0.006233634427189827, 0.05306273698806763, 0.038625191897153854,
	0.016885334625840187, -0.019177637994289398, 0.060956649482250214,
	-0.04123927280306816, 0.0335317924618721, 0.038256119936704636,
	-0.0017455023480579257, -0.011431785300374031, 0.046770405024290085,
	0.09788670390844345, 0.13776583969593048, 0.01231288444250822,
	0.04577900469303131, 0.08323366940021515, 0.02920864336192608,
	-0.06353110074996948, -0.029422175139188766, -0.03659277781844139,
	-0.0010734328534454107, -0.0183549951761961, -0.061638832092285156,
	-0.013114268891513348, -0.003358215792104602, -0.05449933931231499,
	-0.03481622785329819, -0.039876747876405716, 0.02296599932014942,
	-0.008490434847772121, -0.029590824618935585, 0.002832080703228712,
	-0.02792496420443058, 0.07095486670732498, -0.043057143688201904,
	0.00987930130213499, 0.03310631960630417, -0.04069359600543976,
	-0.035676367580890656, -0.02883705124258995, 0.05281147360801697,
	-0.04400118440389633, 0.0010050704004243016, 0.08115441352128983,
	0.05715494975447655, -0.07432577013969421, -0.030464360490441322,
	0.030372396111488342, -0.0024453657679259777, -0.0006271881866268814,
	-0.034981247037649155, -0.04261128231883049, -0.00822302047163248,
	0.05837416648864746, 0.059150803834199905, -0.017454834654927254,
	0.011616912670433521, 0.005800254642963409, 0.057896267622709274,
	-0.0707751139998436, 0.052948158234357834, 0.07346723228693008,
	-0.059893649071455, -0.06544346362352371, -0.018436701968312263,
	0.052884701639413834, -0.020186908543109894, -0.05432495102286339,
	-0.014159572310745716, -0.07570736855268478, -0.011430913582444191,
	0.03571850433945656, 0.029583478346467018, 0.048005033284425735,
	0.014241700060665607, 0.0027514260727912188, 0.045610565692186356,
	0.04763741418719292, -0.04099484905600548, -0.05063438415527344,
	0.03161263093352318, -0.03806354105472565, -0.047416139394044876,
	0.024951878935098648, 0.01934157870709896, 0.010865002870559692,
	-0.018096573650836945, 0.004651566967368126, 0.07217875123023987,
	-0.07708686590194702, 0.05546107888221741, -0.06532614678144455,
	-0.007481717504560947, -0.09137655794620514, 0.04436948895454407,
	0.056622784584760666, -0.034057967364788055, 0.08808402717113495,
	0.00933681707829237, 0.0523122102022171, 0.020266341045498848,
	0.07911108434200287, 0.03148879483342171, -0.08512407541275024,
	-0.017316358163952827, 0.024917446076869965, 0.10141550004482269,
	0.14781127870082855, -0.002411887515336275, -0.11359868943691254,
	0.10803934186697006, 0.06069837883114815, -0.0034319788683205843,
	-0.04988512396812439, -0.08721005171537399, 0.01078345812857151,
	0.021780693903565407, 0.02348562330007553, -0.09824506938457489,
	-0.03321031108498573, 0.02370397187769413, 0.03258510306477547,
	0.006261543836444616, 0.04299110174179077, 0.009889374487102032,
	0.029406975954771042, 0.0640675500035286, 0.026407362893223763,
	0.06017487123608589, 0.007209062110632658, 0.06372221559286118,
	0.031064588576555252, 0.009885325096547604, -0.06832477450370789,
	0.01699080690741539, -0.009791426360607147, 0.029571061953902245,
	-0.03630811348557472, 0.025527821853756905, 0.03876625373959541,
	0.14278526604175568, 0.017992310225963593, -0.07740483433008194,
	-0.01016644574701786, 0.12487608194351196, -0.0013602342223748565,
	-0.08405168354511261, -0.008692686446011066, -0.02567504532635212,
	-0.0544169656932354, -0.05794137343764305, 0.018202466890215874,
	0.013484681025147438, -0.01025844644755125, 0.04681070148944855,
	0.0027156758587807417, -0.026175564154982567, -0.06683798879384995,
	0.0594443716108799, 0.006147370673716068, 0.01300678588449955,
	-0.1515204906463623, 0.013374080881476402, -0.05054434388875961,
	0.06433560699224472, 0.009241579100489616, 0.00207264325581491,
	-0.04918982833623886, 0.08824441581964493, 0.023421917110681534,
	0.03825211152434349, -0.03402228280901909, 0.004012684803456068,
	0.009416942484676838, -0.015689970925450325, -0.06342103332281113,
	-0.04375937953591347, 0.03061516024172306, 0.05053474009037018,
	-0.034703899174928665, -0.0007315991097129881, -0.033172834664583206,
	0.10298365354537964, 0.07498038560152054, -0.05076079070568085,
	-0.005598601419478655, -0.00435030460357666, -0.0023914952762424946,
	0.016480781137943268, 0.03089096024632454, -0.03577743098139763,
	0.03310481086373329, -0.03372786566615105, 0.023646172136068344,
	0.04491426423192024, -0.027827022597193718, 0.015499246306717396,
	-0.06522351503372192, 0.010552532970905304, 0.0680055096745491,
	-0.04292815551161766, -0.052894990891218185, -0.0048568942584097385,
	0.008923879824578762, 0.014794514514505863, -0.0390610471367836,
	-0.02268409915268421, 0.009297394193708897, -0.050495315343141556,
	-0.04968384653329849, -0.018741685897111893, 0.02919844165444374,
	0.05471719056367874, -0.015885334461927414, -0.045999620109796524,
	-0.004922627937048674, -0.017184065654873848, -0.022944964468479156,
	0.006552947219461203, 0.06429930031299591, -0.04537680372595787,
	0.09489897638559341, -0.004263568669557571, 0.03880245238542557,
	0.0414489321410656, 0.06925882399082184, 0.05789034441113472,
	0.11612372100353241, 0.024294229224324226, -0.014532608911395073,
	0.04187421128153801, 0.020014526322484016, 0.022380946204066277,
	0.03663843497633934, 0.04845487326383591, 0.04018283635377884,
	0.007594194728881121, -0.031544946134090424, 0.01422018650919199,
	0.061516497284173965, 0.009889197535812855, 0.050603628158569336,
	-0.013050193898379803, -0.03169650584459305, -0.02843618392944336,
	-0.012121105566620827, 0.023499567061662674, -0.04122987389564514,
	-0.025515638291835785, -0.06806871294975281, 0.03971322998404503,
	-0.026732876896858215, 0.020838787779211998, -0.011679236777126789,
	0.07834747433662415, 0.1081148087978363, 0.06790946424007416,
	-0.006146975792944431, -0.03167659416794777, -0.06768559664487839,
	-0.024417025968432426, 0.0768033117055893, -0.03643306717276573,
	-0.014191961847245693, 0.053008273243904114, 0.03547731414437294,
	-0.05431993305683136, -0.003643361385911703, -0.014827453531324863,
	-0.018213734030723572, -0.01225926075130701, -0.010795324109494686,
	0.062045834958553314, -0.03174421563744545, -0.013304959051311016,
	-0.04779171571135521, 0.0052498020231723785, -0.06362737715244293,
	-0.01064800564199686, -0.050335779786109924, -0.0010818702867254615,
	-0.037856269627809525, 0.05995320528745651, -0.038807447999715805,
	0.020902952179312706, 0.0452839657664299, 0.011784463189542294,
	-0.024225428700447083, -0.025230007246136665, 0.032195884734392166,
	0.031464848667383194, -0.00032130329054780304, -0.03340212628245354,
	0.01922685094177723, 0.025227639824151993, 0.01733703538775444,
	0.005112258717417717, 0.06217355281114578, 0.04152406007051468,
	-0.01642485335469246, 0.013856666162610054, 0.015557163394987583,
	-0.04152762144804001, -0.04477272927761078, -0.05914418399333954,
	0.04854932799935341, -0.05243682116270065, -0.00046460350858978927,
	0.010433077812194824, 0.04871978238224983, -0.02416115812957287,
	-0.06391999870538712, 0.04390489682555199, -0.05308997631072998,
	-0.0020187897607684135, 0.0042269062250852585, -0.0014495296636596322,
	-0.11800200492143631, 0.02423187717795372, 0.01498977467417717,
	-0.03504183888435364, -0.013232544995844364, -0.05278237536549568,
	-0.036446742713451385, 0.025814643129706383, -0.012721625156700611,
	0.02027248404920101, -0.04026596620678902, 0.02806100621819496,
	0.05446242541074753, -0.01938854716718197, -0.0034232528414577246,
	0.07818443328142166, 0.10936414450407028, 0.007906013168394566,
	-0.0025687594898045063, 0.05570908263325691, 0.10633213818073273,
	-0.025662047788500786, 0.06572158634662628, 0.0015291273593902588,
	-0.037817519158124924, 0.050921954214572906, -0.06556519120931625,
	-0.05316612869501114, -0.0822015330195427, -0.007100316695868969,
	0.06275469064712524, -0.022336555644869804, -0.05115655064582825,
	0.05745453014969826, 0.045688286423683167, 0.02003413811326027,
	0.008154203183948994, 0.09031213074922562, 0.017136964946985245,
	0.047756377607584, 0.106080561876297, -0.000654467090498656,
	-0.05129258334636688, -0.0013611273607239127, -0.04963529855012894,
	0.047724649310112, -0.03417382389307022, 0.0429547056555748,
	-0.07112761586904526, 0.00880575180053711, -0.047676559537649155,
	-0.006190031301230192, 0.03096679598093033, -0.04497804865241051,
	-0.012092418037354946, 0.06583353877067566, -0.019272668287158012,
	0.021344594657421112, -0.02573266625404358, -0.044965799897909164,
	-0.05410218983888626, 0.021065574139356613, 0.048699572682380676,
	0.018555548042058945, -0.04580989480018616, -0.012347784824669361,
	0.13805918395519257, 0.06311395764350891, -0.031163213774561882,
	-0.0638980120420456, 0.0505705326795578, 0.016852442175149918,
	-0.07088842988014221, -0.10289742797613144, 0.0010001903865486383,
	-0.02678743191063404, 0.009362462908029556, 0.009038018994033337,
	0.07130825519561768, 0.03766893967986107, 0.03083726391196251,
	0.08467403054237366, 0.06961345672607422, 0.07737500965595245,
	0.01831645891070366, -0.03865260258316994, -0.02213657833635807,
	-0.026562334969639778, 0.06909269094467163, -0.051264382898807526,
	-0.038634490221738815, 0.012156931683421135, 0.051555097103118896,
	-0.005922558251768351, 0.04406794160604477, 0.047801192849874496,
	-0.050979964435100555, 0.022468049079179764, 0.02547616697847843,
	0.0015859596896916628, 0.051718100905418396, 0.016053924337029457,
	0.02644038200378418, 0.05622866377234459, -0.04791506752371788,
	0.05100413039326668, -0.03633645176887512, 0.05146025866270065,
	0.0231137964874506, -0.05410822480916977, -0.017676597461104393,
	0.037404805421829224, -0.051086775958538055, -0.022871604189276695,
	0.04958740621805191, -0.03073754906654358, -0.030513286590576172,
	0.01943531073629856, -0.041432254016399384, -0.04042160138487816,
	0.03420500084757805, 0.01364829484373331, -0.0221844669431448,
	-0.0429437980055809, 0.030921993777155876, -0.004426188766956329,
	-0.00743124820291996, 0.024626903235912323, -0.05934201553463936,
	-0.05054773390293121, -0.02038436010479927, -0.023387866094708443,
	-0.0434008426964283, 0.03490736708045006, -0.05992307886481285,
	0.05620545148849487, 0.012464477680623531, -0.0636928528547287,
	0.020169656723737717, 0.04763096943497658, 0.05505203828215599,
	-0.0405501052737236, -0.06381641328334808, 0.01136939600110054,
	0.0013160203816369176, -0.054398465901613235, -0.027143212035298347,
	0.008817194029688835, -0.0005930716870352626, -0.038279708474874496,
	0.01097720954567194, 0.024353964254260063, 0.02257446013391018,
	-0.011594293639063835, 0.01273477915674448, -0.008452929556369781,
	-0.008500434458255768, -0.02639228291809559, -0.05696742981672287,
	0.06274724006652832, -0.06394173204898834, 0.054912347346544266,
	0.000930648238863796, 0.048451460897922516, -0.04682750254869461,
	-0.05472894385457039, -0.05575009435415268, -0.029325250536203384,
	-0.04247994348406792, 0.05114073306322098, 0.01069608237594366,
	0.020921971648931503, 0.0021042937878519297, -0.012549742124974728,
	-0.058449823409318924, 0.058230165392160416, 0.007093894761055708,
	0.05851421877741814, -0.0062859333120286465, 0.02076142281293869,
	0.03983983024954796, -0.05785374343395233, -0.06181218847632408,
	0.02053356170654297, -0.05315716937184334, -0.043706439435482025,
	-0.04616429656744003, -0.032995808869600296, -0.04723409563302994,
	-0.03900853917002678, 0.012387478724122047, -0.010382487438619137,
	-0.029820922762155533, 0.021990258246660233, -0.02520105056464672,
	0.013091991655528545, 0.004962736740708351, -0.00744721619412303,
	0.032389454543590546, 0.05231136083602905, 0.035617560148239136,
	-0.02130480296909809, 0.017239855602383614, -0.018480319529771805,
	0.044425152242183685, 0.004786621313542128, -0.006681648548692465,
	0.029169421643018723, -0.04608598351478577, 0.011391531676054,
	-0.028209900483489037, -0.06385958194732666, -0.021059375256299973,
	0.047797899693250656, -0.01943865232169628, 0.04914035275578499,
	-0.0122024305164814, 0.010846622288227081, -0.05578485503792763,
	0.0574021078646183, 0.04250703379511833, -0.0037751265335828066,
	-0.03839832916855812, -0.03385716304183006, -0.06075919792056084,
	0.05546852573752403, 0.05088076367974281, -0.06480792164802551,
	0.02061331644654274, 0.018919415771961212, -0.013817846775054932,
	-0.020206991583108902, -0.0110766077414155, -0.02251495234668255,
	-0.020559823140501976, -0.04415493831038475, -0.032772403210401535,
	-0.00846802070736885, 0.0006403870065696537, -0.030363276600837708,
	0.01783277466893196, -0.005432069301605225, -0.05389585345983505,
	0.03995091840624809, -0.06351995468139648, -0.06731949001550674,
	0.03948080912232399, 0.004429122433066368, -0.0440620519220829,
	-0.002832362661138177, 0.020558347925543785, 0.019747577607631683,
	-0.06285495311021805, -0.012424162589013577, 0.06433475762605667,
	0.051382604986429214, -0.01668269746005535, -0.024585001170635223,
	0.027773424983024597, 0.031948648393154144, 0.003793956246227026,
	-0.006210559979081154, -0.06036655232310295, 0.01037354301661253,
	-0.05746765434741974, 0.04673567786812782, 0.0591079518198967,
	0.02785453014075756, 0.031076380982995033, -0.05891291797161102,
	0.06281871348619461, 0.016570834442973137, 0.06112699210643768,
	-0.0523473396897316, -0.005907398648560047, 0.012023895047605038,
	-0.031329426914453506, 0.004088480491191149, 0.005199308041483164,
	0.019017834216356277, -0.05215497687458992, -0.012149385176599026,
	-0.04355192184448242, -0.026951050385832787, 0.04261667653918266,
	0.043888259679079056, -0.022278936579823494, -0.010561024770140648,
	0.03047708049416542, -0.01588781736791134, -0.015279168263077736,
	-0.06238088384270668, -0.05834394320845604, -0.01114609744399786,
	0.05523236468434334, 0.04713626205921173, 0.029664427042007446,
	-0.04555915296077728, 0.037577394396066666, 0.021856654435396194,
	0.042928095906972885, -0.05547831952571869, 0.01580156199634075,
	0.05309343710541725, -0.012058005668222904, -0.04946758225560188,
	0.04095890372991562, -0.01227524783462286, -0.034088026732206345,
	0.020886588841676712, -0.05465446412563324, -0.03900732100009918,
	-0.0581076517701149, 0.03134189546108246, -0.01535903662443161,
	-0.04959062486886978, 0.010308602824807167, -0.03409896418452263,
	0.009278248064219952, -0.03782949224114418, -0.06294987350702286,
	0.05098778009414673, 0.016057590022683144, -0.05218125879764557,
	-0.030748946592211723, 0.048333872109651566, 0.058800484985113144,
	-0.022251175716519356, 0.06174193322658539, -0.024243317544460297,
	0.011470063589513302, 0.04887725040316582, -0.050619978457689285,
	-0.01676350086927414, 0.03683682531118393, 0.008079544641077518,
	0.03133539482951164, 0.04910295084118843, -0.005566795356571674,
	0.036502353847026825, -0.04154660925269127, -0.058941371738910675,
	-0.024648578837513924, 0.04025270417332649, 0.017490560188889503,
	-0.04567335173487663, -0.027182970196008682, -0.015125132165849209,
	-0.00875741895288229, 0.05078035220503807, -0.006973979063332081,
	-0.04056958109140396, 0.018415145576000214, -0.03190786391496658,
	-0.018565552309155464, 0.06355555355548859, -0.001200767932459712,
	0.03276662528514862, 0.00520059559494257, -0.04033667594194412,
	-0.010462842881679535, -0.04072178900241852, 0.016713932156562805,
	-0.05433855950832367, -0.007993956096470356, 0.021866869181394577,
	0.006607641465961933, 0.007443084381520748, 0.0007293708040378988,
	0.0027363665867596865, 0.04060467705130577, -0.020243391394615173,
	0.02618088573217392, -0.0213500764220953, 0.050458211451768875,
	-0.016354922205209732, -0.011469903402030468, -0.038583531975746155,
	0.002702106488868594, -0.010382493026554585, -0.02884121611714363,
	0.025686176493763924, -0.032297439873218536, -0.05479218810796738,
	-0.04286785051226616, -0.053025443106889725, -0.05900758132338524,
	-0.026489585638046265, -0.05379467457532883, -0.041037045419216156,
	-0.030318334698677063, -0.02852974832057953, -0.06039527431130409,
	-0.024009516462683678, -0.022247031331062317, -0.008444761857390404,
	-0.005001621786504984, -0.05595674738287926, 0.015517830848693848,
	0.0035466596018522978, -0.02710394375026226, 0.01227976381778717,
	-0.0005475353682413697, 0.039035774767398834, -0.03322886675596237,
	0.04744137078523636, -0.0565534383058548, 0.04973478987812996,
	-0.0544583722949028, 0.05284429341554642, -0.05255378410220146,
	-0.013143601827323437, 0.05072977393865585, 0.03413407877087593,
	0.0168062262237072, -0.014974275603890419, 0.01376858539879322,
	0.06299466639757156, 0.05407371371984482, -0.0038012617733329535,
	-0.05041663721203804, -0.0036949084606021643, -0.06015249341726303,
	0.03727042302489281, -0.01030190009623766, 0.04265804588794708,
	0.05398596078157425, -0.052106823772192, -0.003457198152318597,
	0.007764802780002356, -0.05009401962161064, -0.007742587011307478,
	0.02973749488592148, -0.04798676818609238, 0.024953151121735573,
	-0.032546959817409515, -0.03103753551840782, -0.04670080542564392,
	0.048058025538921356, 0.024449825286865234, 0.02832038141787052,
	-0.04031024128198624, -0.027953097596764565, -0.02145499363541603,
	-0.05147334560751915, -0.03954264149069786, -0.04138783738017082,
	-0.0585441030561924, -0.0468224361538887, -0.002608769340440631,
	-0.00828868430107832, -0.014255394227802753, -0.042652055621147156,
	-0.018229419365525246, 0.0005002073012292385, 0.018756970763206482,
	-0.042830951511859894, -0.028538329526782036, 0.0018116444116458297,
	0.05762256681919098, -0.05302314832806587, -0.013405206613242626,
	-0.04882173240184784, -0.04010585695505142, 0.04451853781938553,
	0.049960751086473465, -0.016311952844262123, -0.01774158887565136,
	0.029351118952035904, -0.03525402024388313, -0.03544893115758896,
	-0.019157148897647858, -0.06341602653265, -0.019212419167160988,
	0.03909352421760559, -0.0025521882344037294, -0.025822533294558525,
	-0.05529497191309929, 0.028941480442881584, 0.016038507223129272,
	-0.05381288006901741, -0.022843467071652412, -0.016271091997623444,
	-0.03466939553618431, 0.0008176985429599881, 0.015854353085160255,
	0.030581755563616753, -0.040792275220155716, 0.05684928596019745,
	0.025623049587011337, -0.032944682985544205, -0.042956095188856125,
	0.059907715767621994, -0.008777057752013206, -0.056925300508737564,
	0.02488931268453598, 0.04735963046550751, -0.04158702492713928,
	-0.022210078313946724, -0.017846696078777313, 0.05429300665855408,
	0.040312957018613815, -0.005239189136773348, 0.05902191624045372,
	0.0624484084546566, -0.06104988977313042, 0.02448701485991478,
	-0.0034149663988500834, -0.03567038103938103, 0.01692192442715168,
	-0.05244467034935951, 0.005241955630481243, -0.038991883397102356,
	0.03228846192359924, 0.026638399809598923, 0.015518620610237122,
	-0.04203175753355026, 0.038301024585962296, -0.03232230618596077,
	-0.006873069331049919, 0.04916878044605255, -0.05708931386470795,
	0.010739883407950401, -0.031814638525247574, 0.049640677869319916,
	0.03763725608587265, -0.048811741173267365, 0.04983256012201309,
	0.02392531931400299, 0.06150196120142937, 0.05813818424940109,
	-0.032357849180698395, -0.05916406214237213, 0.04643814265727997,
	-0.039561085402965546, -0.054382551461458206, 0.047781817615032196,
	-0.055921368300914764, -0.06296257674694061, 0.0267636738717556,
	0.05076099559664726, 0.04086722061038017, -0.014561801217496395,
	0.0020857229828834534, -0.03303078934550285, -0.04436413571238518,
	-0.027312498539686203, 0.05890476703643799, 0.006039907690137625,
	-0.010732147842645645, 0.0074081216007471085, -0.04753673076629639,
	0.018629200756549835, 0.0372932106256485, -0.005518173798918724,
	-0.03694009408354759, -0.03499013930559158, 0.04877883940935135,
	0.0505741648375988, -0.05605798959732056, 0.01276661641895771,
	0.0419926680624485, -0.043479662388563156, 0.057573188096284866,
	0.04492252320051193, 0.017233792692422867, -0.0147823765873909,
	0.010622670873999596, -0.0006796953966841102, 0.04349305108189583,
	0.020254485309123993, 0.006146424915641546, 0.021546311676502228,
	-0.023741591721773148, -0.026696665212512016, -0.0505303330719471,
	0.05575025454163551, -0.03075774759054184, 0.02074926346540451,
	0.0856768786907196, -0.003263687016442418, 0.051795799285173416,
	0.003539380617439747, -0.039339300245046616, -0.027375701814889908,
	0.05126757174730301, -0.016469869762659073, -0.040741004049777985,
	0.029428906738758087, 0.00743892602622509, -0.04124006628990173,
	0.0008246632060036063, 0.06846747547388077, -0.07568391412496567,
	-0.024722635746002197, 0.0452529601752758, -0.04008623585104942,
	-0.027652021497488022, 0.05760697275400162, -0.002049220958724618,
	0.032432880252599716, -0.007619543932378292, 0.0741252526640892,
	-0.04967629164457321, -0.04398106411099434, 0.06506562978029251,
	-0.04513167962431908, -0.004236165434122086, -0.08512964844703674,
	-0.0014752784045413136, -0.035958483815193176, -0.02241777442395687,
	-0.03971108794212341, -0.055309925228357315, -0.001974628772586584,
	0.043559569865465164, 0.029440147802233696, -0.024536725133657455,
	0.09371672570705414, 0.0034831950906664133, -0.05377940833568573,
	0.03619726002216339, 0.10289813578128815, 0.006051437463611364,
	-0.02891329675912857, -0.01838751509785652, -0.07782062888145447,
	-0.06674160063266754, -0.011122364550828934, 0.03920949995517731,
	-0.018800552934408188, 0.03624919801950455, 0.05010204389691353,
	-0.03289907053112984, 0.02303135208785534, 0.005987690296024084,
	0.019714804366230965, -0.062164030969142914, 0.019660312682390213,
	-0.04920202121138573, 0.02259424887597561, 0.02269459329545498,
	0.042430292814970016, -0.019557051360607147, 0.045113589614629745,
	0.02271772362291813, 0.04353136196732521, -0.018191082403063774,
	-0.045124687254428864, -0.0396784171462059, 0.07243788242340088,
	-0.03482217341661453, 0.02245444245636463, -0.0258172620087862,
	-0.04310373589396477, 0.01501598209142685, -0.03665654733777046,
	-0.08302834630012512, -0.032020438462495804, 0.03375880792737007,
	-0.023430654779076576, 0.03043142706155777, 0.002238886198028922,
	-0.014252692461013794, -0.038536351174116135, 0.07317718863487244,
	0.03375626355409622, -0.05068774148821831, 0.016443122178316116,
	0.004381372127681971, 0.06091538444161415, 0.017147373408079147,
	-0.007889489643275738, 0.00878765620291233, -0.046546511352062225,
	0.0405331552028656, -0.06409987807273865, -0.05418962612748146,
	-0.020866941660642624, 0.0722634419798851, 0.016515670344233513,
	-0.03029070794582367, 0.03706121817231178, -0.014590633101761341,
	-0.005250050686299801, 0.028802886605262756, -0.005668696481734514,
	0.03823096677660942, -0.017395835369825363, -0.02991746924817562,
	-0.036047644913196564, -0.0026257652789354324, 0.02722211182117462,
	-0.0024713599123060703, -0.02703726291656494, -0.053760237991809845,
	-0.010508681647479534, -0.03776627779006958, 0.0022956598550081253,
	-0.008885343559086323, -0.02665145881474018, 0.021114636212587357,
	0.006563269067555666, -0.061058398336172104, -0.013346746563911438,
	0.0002452807384543121, -0.027959875762462616, 0.056309930980205536,
	-0.03471120446920395, 0.008655122481286526, -0.06847424060106277,
	0.01458341907709837, -0.030328908935189247, -0.005106332246214151,
	0.020418671891093254, 0.03508615866303444, 0.02431745082139969,
	0.04311172291636467, 0.0056846668012440205, 0.05922990292310715,
	-0.06912489235401154, 0.025985760614275932, -0.009862801991403103,
	0.07670751959085464, -0.06638175994157791, -0.011831309646368027,
	-0.0068048289977014065, -0.01608297787606716, 0.05033981055021286,
	0.0582243949174881, 0.02265576459467411, 0.05158169940114021,
	-0.09712260216474533, -0.02087484858930111, 0.0028297617100179195,
	0.02476121298968792, 0.02018565684556961, 0.05044741556048393,
	-0.0496341772377491, -0.107674740254879, -0.02922382578253746,
	0.021970752626657486, -0.004524289630353451, -0.023022044450044632,
	-0.036436859518289566, 0.00506641436368227, 0.027516568079590797,
	-0.01706940494477749, 0.0543767586350441, 0.024984605610370636,
	0.02020936645567417, 0.09286849945783615, 0.05513405799865723,
	0.05969536677002907, 0.03757696598768234, 0.0013101695803925395,
	0.013990714214742184, -0.04051603749394417, -0.07283147424459457,
	-0.0028921053744852543, 0.06793683767318726, 0.0016314646927639842,
	0.016240837052464485, 0.03281073272228241, 0.00404002470895648,
	-0.05054300278425217, -0.030038882046937943, 0.040786631405353546,
	0.02526424638926983, -0.010172604583203793, 0.012176248244941235,
	-0.013294482603669167, 0.05494752153754234, -0.02906912751495838,
	0.023921120911836624, 0.01017164345830679, -0.011107172816991806,
	-0.008859892375767231, -0.005547787062823772, 0.027652481570839882,
	0.04158855229616165, 0.04771674796938896, -0.024645663797855377,
	0.009143276140093803, 0.006374124903231859, -0.0376194566488266,
	0.015773816034197807, 0.048659902065992355, -0.04386015608906746,
	-0.013381719589233398, 0.049179691821336746, -0.08497024327516556,
	-0.054102979600429535, 0.04407620429992676, -0.008901831693947315,
	-0.09639712423086166, -0.03779368847608566, -0.012416373938322067,
	0.035240642726421356, 0.06200295314192772, 0.073128342628479,
	0.013131804764270782, -0.05622496083378792, 0.019434146583080292,
	-0.048792071640491486, -0.042445387691259384, 0.04895491153001785,
	0.004658603109419346, 0.05564114823937416, -0.0110309524461627,
	-0.012621774338185787, -0.038169827312231064, 0.04531007260084152,
	0.006517183501273394, 0.04488614201545715, 0.04852289333939552,
	-0.04454689100384712, -0.012703164480626583, 0.05256294459104538,
	0.03171573951840401, 0.06355717033147812, -0.0025739686097949743,
	-0.020767832174897194, 0.0508139431476593, 0.05857696756720543,
	-0.026234110817313194, -0.04391251131892204, -0.03064632974565029,
	0.00904141552746296, -0.006214982829988003, -0.0069854469038546085,
	-0.02709425799548626, -0.05217404291033745, -0.006349960342049599,
	-0.013087118044495583, -0.008608276955783367, 0.05164804682135582,
	-0.01141029316931963, -0.047602780163288116, -0.054109904915094376,
	0.057595182210206985, 0.03803611546754837, -0.03955703601241112,
	0.03908025100827217, -0.03574686124920845, 0.06201638653874397,
	0.0443902350962162, 0.008006496354937553, -0.045925695449113846,
	0.04957064613699913, -0.03644691780209541, -0.02300221100449562,
	-0.009036197327077389, -0.059720270335674286, 0.010614437982439995,
	0.03483399748802185, -0.05806140974164009, 0.005935335997492075,
	0.05230766162276268, -0.03448557108640671, 0.011437572538852692,
	0.04973480477929115, -0.06108185276389122, -0.04169663414359093,
	-0.06302742660045624, -0.057521041482686996, -0.05115267634391785,
	-0.0006148588145151734, -0.0473826639354229, 0.053163520991802216,
	0.04682449996471405, -0.07116364687681198, 0.054236575961112976,
	-0.009271267801523209, 0.02651786245405674, -0.06754062324762344,
	0.05440130457282066, 0.0009512573597021401, 0.06264273822307587,
	0.021633077412843704, -0.04654214158654213, -0.02956707403063774,
	0.02318284846842289, -0.02108456939458847, 0.04895175248384476,
	-0.019604654982686043, -0.02730521932244301, -0.018193503841757774,
	-0.007363247685134411, -0.044546883553266525, -0.028460048139095306,
	0.00881519727408886, 0.03805767744779587, -0.010863710194826126,
	0.022587286308407784, 0.020901141688227654, 0.027594687417149544,
	-0.06691168993711472, 0.0279298797249794, 0.04645125940442085,
	0.01238237228244543, 0.04877379164099693, 0.049858156591653824,
	0.049318667501211166, -0.01485748216509819, 0.03758411854505539,
	0.03697739169001579, -0.035082653164863586, -0.05583217740058899,
	-0.0509868785738945, 0.005498478654772043, -0.036803800612688065,
	0.040774520486593246, 0.04272499680519104, -0.0429028682410717,
	0.010422437451779842, -0.0373496413230896, 0.0487469844520092,
	-0.06379757821559906, 0.025283245369791985, -0.014907949604094028,
	0.0236081350594759, 0.0531989261507988, -0.051898881793022156,
	0.05425277724862099, 0.018636241555213928, 0.03341187909245491,
	0.057440679520368576, -0.0016158763319253922, 0.014476103708148003,
	0.055583830922842026, -0.03327826410531998, -0.05836693197488785,
	0.05537040904164314, -0.013397974893450737, 0.02975350432097912,
	0.016113856807351112, -0.0077170152217149734, 0.03905266150832176,
	-0.04646468907594681, -0.011736327782273293, -0.023913882672786713,
	0.025771019980311394, -0.029246294870972633, 0.059024956077337265,
	0.059064630419015884, 0.02236616425216198, -0.036671899259090424,
	0.0025392291136085987, -0.05026593804359436, -0.05881104990839958,
	0.04681405425071716, 0.005545202177017927, -0.020297907292842865,
	-0.040853410959243774, -0.020415060222148895, 0.020032603293657303,
	-0.06137162074446678, 0.056204695254564285, 0.03782033920288086,
	0.01986107975244522, -0.009533453732728958, 0.015312165953218937,
	0.00637386878952384, 0.005717444233596325, -0.03060641512274742,
	-0.021745281293988228, 0.003624244127422571, -0.059791676700115204,
	0.043028298765420914, -0.025177013128995895, -0.0626881793141365,
	-0.009817625395953655, 0.040852755308151245, -0.0541483536362648,
	0.0383622944355011, -0.02104225568473339, 0.04886329174041748,
	-0.0628553181886673, 0.027461769059300423, 0.014996611513197422,
	-0.01964869350194931, -0.004383120685815811, -0.039405982941389084,
	-0.027869651094079018, 0.04006236046552658, 0.029597485437989235,
	-0.042571041733026505, 0.000854735670145601, -0.03045930154621601,
	-0.035011790692806244, 0.0442236103117466, 0.0007920385687611997,
	-0.008841738104820251, 0.015363581478595734, 0.045245461165905,
	-0.02669980376958847, 0.03591567650437355, 0.05077286437153816,
	-0.04985327646136284, -0.04495077580213547, -0.0387294739484787,
	-0.008725677616894245, 0.019322309643030167, -0.012395620346069336,
	-0.01902472972869873, -0.015972433611750603, -0.03991105034947395,
	0.030604200437664986, 0.040658023208379745, -0.0487091988325119,
	0.010984406806528568, -0.04868907853960991, -0.03724729269742966,
	0.007272748276591301, 0.05493566021323204, 0.036510299891233444,
	-0.06135206297039986, 0.01845172978937626, 0.016870537772774696,
	0.05981791391968727, -0.0343203991651535, -0.0461946539580822,
	-0.032670363783836365, -0.053523190319538116, 0.036180924624204636,
	0.0005056319641880691, 0.04094759002327919, -0.054257832467556,
	0.028767606243491173, -0.07795968651771545, 0.03591031953692436,
	-0.030247028917074203, -0.04924532026052475, 0.048092491924762726,
	-0.021248064935207367, -0.034237947314977646, -0.05862995237112045,
	-0.06308066099882126, 0.035331904888153076, -0.06879349797964096,
	0.056889016181230545, -0.006668649613857269, 0.04242359846830368,
	-0.024250805377960205, -0.007940252311527729, -0.015897225588560104,
	0.00833490863442421, 0.03994589298963547, -0.03229621797800064,
	-0.039658911526203156, -0.05166942626237869, -0.009616401046514511,
	-0.012345337308943272, 0.011581232771277428, 0.056615911424160004,
	0.023495065048336983, 0.017888307571411133, 0.06386388093233109,
	-0.023399338126182556, 0.06238871440291405, -0.06602788716554642,
	0.035162921994924545, -0.014518377371132374, 0.010711362585425377,
	0.06274878233671188, 0.04963184893131256, 0.03926382213830948,
	-0.012550247833132744, 0.010242615826427937, -0.06321565061807632,
	0.01765904575586319, -0.05557890236377716, 0.02259463258087635,
	0.055606815963983536, 0.018683800473809242, 0.018287288025021553,
	0.008667039684951305, 0.008289391174912453, 0.055789459496736526,
	-0.061502378433942795, -0.01848190277814865, 0.0491127111017704,
	-0.00044319385779090226, 0.04220690578222275, 0.020976174622774124,
	-0.04923480376601219, 0.02689463645219803, 0.0020230759400874376,
	0.024958672001957893, -0.010105007328093052, -0.024910323321819305,
	-0.02063717693090439, -0.05800656974315643, 0.04531227797269821,
	-0.029706722125411034, 0.055304959416389465, -0.05882268771529198,
	0.03535228595137596, 0.062062475830316544, 0.005197281949222088,
	-0.05462871864438057, -0.03662100061774254, 0.00840098038315773,
	0.06568358093500137, -0.08876579254865646, 0.061076320707798004,
	-0.0318240262567997, 0.02683926559984684, 0.04252541810274124,
	0.04089231416583061, 0.04260238632559776, -0.03118439018726349,
	-0.05903645604848862, 0.018725551664829254, -0.0459241047501564,
	0.008686495013535023, 0.046401120722293854, 0.013628290966153145,
	0.011556724086403847, 0.04498608037829399, -0.008522462099790573,
	0.0008116072858683765, -0.03477739542722702, -0.051416028290987015,
	0.057766079902648926, -0.050037749111652374, 0.03675999492406845,
	0.015999404713511467, -0.06906081736087799, -0.058058224618434906,
	0.056099627166986465, 0.013491218909621239, 0.04951941594481468,
	-0.019868100062012672, -0.034222763031721115, 0.039039209485054016,
	-0.06947878003120422, -0.010146358981728554, 0.05236370861530304,
	-0.0853748619556427, 0.04782843962311745, -0.05416537821292877,
	-0.04605187475681305, -0.018756186589598656, -0.07131461054086685,
	-0.023234957829117775, 0.02010437101125717, -0.020475775003433228,
	-0.07059542834758759, -0.016955174505710602, 0.06336139142513275,
	-0.0052958279848098755, -0.051540471613407135, -0.014478606171905994,
	0.042062100023031235, 0.008847752586007118, 0.03819894418120384,
	0.03908254951238632, -0.02523973397910595, 0.00015573491691611707,
	-0.0034654049668461084, 0.04684533178806305, -0.04237091541290283,
	0.004930894821882248, -0.0274973064661026, -0.04408159479498863,
	0.004850761964917183, -0.0049996874295175076, -0.05175040289759636,
	0.02556309476494789, -0.043824486434459686, 0.04132634028792381,
	0.04692171514034271, 0.045956093817949295, 0.05554112419486046,
	-0.030067574232816696, 0.0207914337515831, 0.05468577519059181,
	0.0002924648579210043, -0.04769594594836235, 0.05099817365407944,
	0.04997460916638374, -0.028058629482984543, -0.020858237519860268,
	-0.041739918291568756, -0.05434532091021538, -0.00905644055455923,
	0.04072241857647896, -0.04822134971618652, 0.04646006599068642,
	0.03656420856714249, -0.03809795156121254, 0.017317451536655426,
	0.011975746601819992, 0.03054695762693882, -0.032327983528375626,
	0.011206492781639099, 0.015207381919026375, -0.0625133365392685,
	-0.005557405762374401, -0.020818937569856644, 0.03591611236333847,
	-0.010598273947834969, -0.05141499266028404, -0.022328121587634087,
	0.01050354540348053, 0.053800247609615326, -0.025768697261810303,
	-0.010861429385840893, -0.059299614280462265, 0.0342867411673069,
	0.05938173830509186, -0.05582147836685181, 0.032687656581401825,
	0.0273277685046196, 0.07989884912967682, 0.004357249476015568,
	0.06248578429222107, 0.004329905845224857, -0.026979224756360054,
	0.02810763567686081, -0.013143149204552174, 0.007846147753298283,
	-0.014128063805401325, -0.06333217024803162, 0.015343730337917805,
	-0.05766916647553444, -0.015593689866364002, 0.0323302261531353,
	-0.01960122026503086, 0.022786075249314308, 0.07932280004024506,
	0.02450796589255333, -0.0489160381257534, -0.022992495447397232,
	0.05357401818037033, -0.03219369053840637, 0.024626599624753,
	0.06647703796625137, 0.057235490530729294, 0.023850230500102043,
	-0.03326639160513878, 0.03706580400466919, -0.017988650128245354,
	0.014473924413323402, -0.052975837141275406, 0.048782698810100555,
	-0.014142943546175957, -0.03586443513631821, -0.03935885429382324,
	-0.006966846529394388, -0.02541724033653736, -0.0487641915678978,
	0.03593190386891365, 0.06096593663096428, 0.06482341140508652,
	0.06004904583096504, 0.019450057297945023, 0.06234953925013542,
	-0.048329923301935196, -0.042112234979867935, -0.035159364342689514,
	-0.018553992733359337, -0.011147030629217625, 0.006823267787694931,
	0.025805721059441566, 0.018590165302157402, -0.12158399820327759,
	0.04670625925064087, 0.07959628850221634, -0.053719162940979004,
	-0.07418890297412872, 0.022450869902968407, 0.08341722935438156,
	-0.05213942751288414, -0.011656790040433407, -0.04365787282586098,
	-0.04662786424160004, -0.006283412221819162, -0.056606095284223557,
	0.03408166393637657, 0.05482910946011543, -0.020516270771622658,
	-0.024787265807390213, -0.056279465556144714, 0.0007023042999207973,
	-0.039593473076820374, 0.014671736396849155, -0.06277678906917572,
	-0.012321794405579567, -0.011436130851507187, 0.061064884066581726,
	0.014385268092155457, -0.04322892799973488, -0.053525686264038086,
	-0.03556309640407562, 0.00859304703772068, 0.040726836770772934,
	-0.01403936930000782, 0.06171293929219246, 0.024144118651747704,
	-0.010141086764633656, -0.03346005827188492, -0.008992384187877178,
	0.021838810294866562, -0.003127116011455655, 0.013694634661078453,
	0.0345458984375, 0.04894658923149109, -0.021510275080800056,
	0.06019747629761696, 0.05971324443817139, -0.02022274024784565,
	-0.024922790005803108, 0.02044791914522648, 0.004140631761401892,
	0.05753490328788757, 0.008308572694659233, -0.040499813854694366,
	-0.018599390983581543, 0.035993121564388275, 0.0012670202413573861,
	-0.02057739533483982, 0.05585840716958046, -0.05529157072305679,
	-0.02326175570487976, -0.06436672061681747, -0.02979995869100094,
	-0.036330997943878174, -0.05195191502571106, -0.05526423454284668,
	0.014411323703825474, 0.012950334697961807, 0.004720240365713835,
	0.03356601670384407, -0.029661422595381737, -0.019427267834544182,
	-0.04310695454478264, 0.05951603874564171, -0.016980990767478943,
	-0.0013625341234728694, 0.05421877279877663, 0.046870410442352295,
	0.026269642636179924, -0.025383690372109413, 0.061845384538173676,
	-0.03866242617368698, -0.04300953447818756, -0.0481954887509346,
	-0.010291369631886482, 0.02628769353032112, 0.02350056730210781,
	-0.05526132881641388, -0.008592442609369755, 0.045514825731515884,
	0.023082450032234192, -0.035384438931941986, 0.061323996633291245,
	0.050912145525217056, 0.047555115073919296, 0.06294034421443939,
	-0.014793962240219116, 0.011776508763432503, 0.020848430693149567,
	0.06166578829288483, -0.02771485596895218, 0.021863562986254692,
	-0.0435362309217453, 0.04118770360946655, -0.055293384939432144,
	0.042361658066511154, -0.06500357389450073, 0.043363966047763824,
	-0.011911825276911259, -0.015148057602345943, 0.04270108789205551,
	-0.007171430625021458, 0.015408757142722607, -0.004243315197527409,
	0.041521064937114716, -0.03140265494585037, -0.015807470306754112,
	-0.05028675124049187, -0.023307401686906815, -0.018682891502976418,
	0.014820067211985588, 0.013181639835238457, -0.041776906698942184,
	0.041089169681072235, -0.06059480085968971, -0.0013861017068848014,
	0.05120111256837845, 0.03934558853507042, 0.031172096729278564,
	0.005520645994693041, 0.010494789108633995, -0.004330136813223362,
	-0.045882780104875565, -0.0489790178835392, -0.05687204375863075,
	-0.0478677935898304, -0.02737254649400711, -0.042698074132204056,
	-0.002558526350185275, 0.04573934152722359, 0.01960062049329281,
	-0.025796765461564064, 0.04668808355927467, -0.04798440635204315,
	-0.006731645669788122, 0.02164749801158905, 0.03479287028312683,
	-0.034735120832920074, 0.0036549037322402, -0.05887066572904587,
	0.02783682756125927, 0.023751957342028618, -0.024779312312602997,
	0.006149443332105875, -0.02197394333779812, 0.015621491707861423,
	-0.06412149965763092, 0.027371671050786972, 0.052600279450416565,
	0.005346893798559904, 0.00923240464180708, -0.030441250652074814,
	0.028031285852193832, -0.014425904490053654, -0.005426936782896519,
	0.02984948456287384, 0.0033786012791097164, 0.011989114806056023,
	-0.034588344395160675, 0.0064413826912641525, 0.003976465202867985,
	0.01373152993619442, 0.038455188274383545, -0.021167485043406487,
	-0.0035424602683633566, 0.023494001477956772, -0.016916640102863312,
	0.00032599340192973614, 0.04491283372044563, -0.05905159190297127,
	0.060271233320236206, -0.028199683874845505, -0.01284045446664095,
	0.03100126050412655, -0.010039198212325573, 0.031170569360256195,
	-0.02101154997944832, -0.05679214745759964, -0.05542021989822388,
	-0.05185982957482338, 0.005400506313890219, -0.013652514666318893,
	0.054960280656814575, -0.05877755954861641, 0.04843463748693466,
	-0.059506770223379135, 0.030589977279305458, -0.024380622431635857,
	-0.03348420560359955, -0.020437421277165413, -0.006249510683119297,
	-0.017242079600691795, 0.018367132171988487, 0.022249551489949226,
	-0.017926886677742004, 0.027726223692297935, 0.0094341104850173,
	-0.029400067403912544, -0.03905317932367325, -0.006218471564352512,
	0.03957349434494972, -0.017306791618466377, -0.03241528943181038,
	-0.06261235475540161, 0.017106736078858376, 0.03386032581329346,
	0.04929981008172035, -0.0551224984228611, -0.03417711332440376,
	-0.024612708017230034, 0.0006539112073369324, 0.0006381864659488201,
	-0.018802769482135773, 0.05984373763203621, 0.033265095204114914,
	-0.0021200506016612053, 0.013027825392782688, -0.028424615040421486,
	-0.050690166652202606, -0.05397548899054527, -0.004263757262378931,
	-0.025767292827367783, -0.015617667697370052, -0.0018606461817398667,
	0.0031408416107296944, -0.013201232999563217, -0.016229715198278427,
	-0.007088866084814072, 0.052079636603593826, 0.04970015585422516,
	-0.029833463951945305, 0.01523279957473278, -0.050482455641031265,
	-0.06619376689195633, -0.03266943618655205, -0.05346710607409477,
	0.040253251791000366, 0.03361956402659416, -0.03615706041455269,
	-0.06560507416725159, 0.006915128789842129, 0.012794050388038158,
	-0.061374470591545105, 0.03561988100409508, 0.0017899745143949986,
	-0.03951050341129303, 0.04969377443194389, 0.024003641679883003,
	-0.024044647812843323, 0.03401947766542435, -0.059719569981098175,
	0.025239113718271255, 0.05991629511117935, -0.02529928833246231,
	-0.03493646904826164, 0.03147594630718231, -0.028975656256079674,
	-0.020933806896209717, 0.07776916027069092, 0.03153441101312637,
	-0.036016229540109634, 0.0011304407380521297, -0.024393213912844658,
	0.026746543124318123, -0.06167199835181236, -0.03668130561709404,
	-0.009664923883974552, 0.06328777968883514, 0.07229697704315186,
	0.04667872190475464, -0.011088734492659569, -0.010565596632659435,
	0.030911363661289215, 0.02229757234454155, 0.042618706822395325,
	0.04163621366024017, -0.05094686895608902, 0.044558439403772354,
	-0.05448448285460472, -0.024618977680802345, -0.05163884535431862,
	0.004227110650390387, -0.043091364204883575, 0.032863322645425797,
	0.007086772937327623, -0.0398954413831234, 0.037991076707839966,
	-0.05545176565647125, 0.004023662768304348, -0.12723766267299652,
	-0.014259450137615204, -0.0366755872964859, -0.0017167413607239723,
	-0.0329568050801754, 0.02717040851712227, 0.06794911623001099,
	0.0687030702829361, -0.024199677631258965, 0.04823535308241844,
	-0.03699218109250069, 0.05762213468551636, -0.024281976744532585,
	0.06499464064836502, 0.04194474592804909, -0.05945853516459465,
	-0.15274082124233246, -0.12363151460886002, 0.016649993136525154,
	0.08909028768539429, -0.11477144807577133, 0.005575445014983416,
	0.054722294211387634, -0.01840696856379509, -0.04381515458226204,
	0.02213987521827221, 0.04924272000789642, -0.059121131896972656,
	0.033800337463617325, 0.03307482972741127, -0.025989163666963577,
	-0.05636889487504959, 0.010444020852446556, 0.02946005016565323,
	0.09382998943328857, -0.011576274409890175, 0.0694475769996643,
	-0.002315599238499999, 0.019846947863698006, 0.011625802144408226,
	-0.02758398838341236, -0.02770552784204483, 0.05379779264330864,
	0.057995639741420746, -0.025992203503847122, 0.04024776071310043,
	-0.024129947647452354, -0.010430777445435524, -0.01582477055490017,
	-0.02019374445080757, -0.06597073376178741, 0.07059808075428009,
	-0.043922729790210724, 0.015539468266069889, 0.006942580454051495,
	0.024682117626070976, -0.04697733372449875, 0.02177082560956478,
	-0.024706946685910225, -0.04078418388962746, -0.053991083055734634,
	-0.0009919136064127088, 0.043665461242198944, -0.03555068373680115,
	0.03446395695209503, -0.047858577221632004, 0.07362386584281921,
	0.028005018830299377, 0.026614338159561157, 0.07473815977573395,
	0.013928748667240143, -0.01656799204647541, -0.02092590741813183,
	0.06188945472240448, -0.02323826029896736, -0.04714644327759743,
	0.02961699292063713, 0.007563571445643902, 0.0025451425462961197,
	-0.013427402824163437, 0.042812101542949677, -0.06972232460975647,
	0.014039436355233192, 0.025775469839572906, -0.021957609802484512,
	-0.059221141040325165, -0.0631602331995964, -0.003901264863088727,
	-0.03380788117647171, 0.0014085154980421066, -0.04034345969557762,
	-0.05036616697907448, 0.04032420739531517, -0.02019575424492359,
	-0.01621231995522976, 0.07452386617660522, 0.06331424415111542,
	0.03349677473306656, -0.017955604940652847, 0.03369857370853424,
	0.03872666507959366, 0.04580588638782501, 0.021593691781163216,
	0.02324538305401802, 0.02459404431283474, -0.04307938739657402,
	-0.027051163837313652, -0.01528986170887947, 0.015634942799806595,
	0.08886054903268814, 0.047246385365724564, -0.024827539920806885,
	-0.05491572991013527, 0.013836539350450039, 0.0917794331908226,
	-0.04573582857847214, 0.020342184230685234, 0.0894361287355423,
	0.09729529917240143, 0.0682859867811203, -0.015360107645392418,
	-0.05657988041639328, 0.045666880905628204, -0.016828088089823723,
	-0.05317062512040138, -0.008085520938038826, -0.045085400342941284,
	0.022925136610865593, -0.05489497631788254, -0.08338956534862518,
	-0.021930107846856117, 0.005241377744823694, -0.05506673827767372,
	0.02526990696787834, -0.025367755442857742, 0.012802889570593834,
	-0.04415368661284447, -0.00950191542506218, -0.013800134882330894,
	-0.05797179043292999, 0.0053091212175786495, -0.0393834188580513,
	-0.06907688826322556, -0.08697879314422607, -0.10313466191291809,
	-0.10163325816392899, -0.07984405755996704, -0.010598025284707546,
	-0.009248850867152214, -0.07273206859827042, 0.02606954239308834,
	-0.04038726165890694, -0.013968865387141705, -0.04324483871459961,
	0.06358251720666885, -0.10360129177570343, 0.0036277128383517265,
	0.017596427351236343, -0.021416891366243362, 0.009759359993040562,
	0.05750618502497673, 0.014672700315713882, 0.016634557396173477,
	-0.014390270225703716, -0.01995196007192135, 0.013032454997301102,
	0.01504163071513176, -0.05940728262066841, 0.014005211181938648,
	0.004478896036744118, 0.005655817221850157, -0.06456595659255981,
	0.0603519082069397, 0.05950630083680153, 0.04603277146816254,
	-0.021679963916540146, -0.1008274033665657, 0.015158920548856258,
	-0.033854417502880096, -0.006819695699959993, 0.04847753047943115,
	0.07100030779838562, -0.0031979111954569817, -0.07907090336084366,
	0.04272495582699776, 0.14230148494243622, 0.11451877653598785,
	-0.0070816027000546455, -0.01795879565179348, 0.024131514132022858,
	0.02023071050643921, 0.010920746251940727, -0.08841206133365631,
	-0.04983793571591377, 0.03980128467082977, 0.018994366750121117,
	-0.07014352828264236, 0.020466338843107224, 0.04550313204526901,
	-0.00459321541711688, -0.04870152845978737, 0.010353795252740383,
	-0.028935575857758522, -0.03423304483294487, 0.01032834593206644,
	-0.08041521161794662, 0.00496282335370779, 0.0817270278930664,
	-0.022891992703080177, 0.017817240208387375, 0.0760689377784729,
	-0.040442246943712234, 0.05168311670422554, 0.12011096626520157,
	0.08263338357210159, 0.01804211549460888, -0.05703101307153702,
	0.06994861364364624, -0.01803523488342762, 0.037461262196302414,
	-0.06222642958164215, -0.04634329304099083, 0.05430621653795242,
	-0.00579653587192297, -0.0810759961605072, -0.046391092240810394,
	0.024543369188904762, -0.04844043776392937, 0.004090306349098682,
	-0.010985520668327808, -0.03135581314563751, 0.016012825071811676,
	0.0001864654041128233, -0.05318661406636238, -0.008979860693216324,
	0.06323833763599396, -0.016212716698646545, 0.017738036811351776,
	0.0036694896407425404, -0.08980501443147659, 0.047472160309553146,
	-0.007664179429411888, 0.04018218442797661, 0.056472789496183395,
	0.013585533946752548, -0.012821154668927193, 0.00923257414251566,
	0.036100439727306366, 0.002524728188291192, 0.03135614097118378,
	-0.042524680495262146, -0.005574131850153208, 0.009321233257651329,
	0.025162946432828903, 0.06497815251350403, -0.045463498681783676,
	-0.04778638109564781, -0.07534648478031158, 0.0379483662545681,
	0.001273084431886673, 0.036999478936195374, -0.04737687483429909,
	-0.00599699979647994, -0.05041908845305443, 0.013954448513686657,
	-0.040712080895900726, -0.1401124894618988, -0.044805657118558884,
	0.061013806611299515, 0.06445859372615814, 0.033189255744218826,
	0.042973313480615616, -0.04541320353746414, 0.014637773856520653,
	0.05188501253724098, 0.04088427498936653, 0.033166028559207916,
	-0.006012556608766317, -0.01802162639796734, 0.08244138211011887,
	0.020666377618908882, 0.027784882113337517, -0.05187739059329033,
	0.04316799342632294, 0.08130961656570435, 0.06570896506309509,
	0.03566858172416687, -0.04891747236251831, 0.01273039635270834,
	0.0722828060388565, 0.11601770669221878, 0.06222498416900635,
	-0.01665324717760086, -0.0715755820274353, -0.0046891155652701855,
	0.03811503201723099, -0.005468723364174366, -0.07814763486385345,
	-0.10826138406991959, -0.03579530864953995, 0.0015719287330284715,
	0.05358113721013069, -0.0799991711974144, -0.09478913247585297,
	0.05230589210987091, -0.02522839792072773, -0.03962406888604164,
	0.08011285960674286, 0.024627042934298515, 0.012575266882777214,
	0.008421758189797401, 0.03794040530920029, 0.018230553716421127,
	0.030951449647545815, -0.022490527480840683, 0.05108346790075302,
	-0.04030482470989227, 0.029102729633450508, -0.027174968272447586,
	-0.061449673026800156, 0.04818668216466904, 0.0731162428855896,
	-0.024578994140028954, -0.014994206838309765, -0.06323476135730743,
	-0.04840557649731636, -0.05299420654773712, 0.015921467915177345,
	-0.05177683383226395, -0.06784366816282272, -0.04525892436504364,
	-0.04688093438744545, -0.04367048665881157, 0.04264148324728012,
	-0.005649526137858629, 0.024683097377419472, 0.058122552931308746,
	-0.05731295794248581, -0.0176673736423254, -0.009439925663173199,
	-0.011535673402249813, -0.0010082104708999395, -0.034793246537446976,
	0.06886821240186691, 0.023289475589990616, 0.028247714042663574,
	0.004783562384545803, 0.02374272234737873, -0.023125668987631798,
	0.06053029000759125, -0.03162579983472824, -0.06701934337615967,
	-0.0048514739610254765, 0.016781693324446678, 0.071836456656456,
	0.1365143358707428, -0.04139325022697449, 0.044130049645900726,
	-0.08178746700286865, -0.010611912235617638, 0.013970398344099522,
	-0.05314064025878906, -0.006299227010458708, -0.06123930215835571,
	0.03840390592813492, 0.03429253026843071, -0.007649047765880823,
	-0.02699148841202259, -0.0006053744582459331, 0.008290192112326622,
