#ifndef CONV2_PARAMS_H
#define CONV2_PARAMS_H

#include "constants.h"

// input 26x26x5, kernel_num = 10

const float conv2_filter_weight[CONV2_K_NUM * NUM_05CH * FILTER_SIZE * FILTER_SIZE] ={
	-0.14241160452365875, -0.09610791504383087, -0.08124520629644394,
	-0.1529790610074997, 0.11533626168966293, 0.16127729415893555,
	-0.016367407515645027, -0.07967296987771988, -0.06359731405973434,
	-0.004052943550050259, -0.08213803172111511, 0.17801254987716675,
	-0.03256106376647949, 0.07621107995510101, 0.09594196826219559,
	0.002623077714815736, 0.05289604887366295, 0.2560901939868927,
	0.057280778884887695, 0.02161654457449913, -0.038412414491176605,
	-0.11227637529373169, -0.11405137181282043, -0.13468322157859802,
	-0.1104937270283699, -0.08851000666618347, 0.02449999935925007,
	0.003981790039688349, 0.1225333884358406, -0.013213131576776505,
	-0.03794369101524353, 0.12844981253147125, 0.024243474006652832,
	-0.009447329677641392, 0.025711603462696075, 0.13787464797496796,
	-0.10737844556570053, -2.9713299227296375e-05, 0.06626630574464798,
	0.15116825699806213, -0.07402360439300537, 0.018340082839131355,
	-0.14310017228126526, 0.0669291689991951, 0.10637605935335159,
	-0.025293873623013496, -0.157207652926445, -0.10543886572122574,
	0.09057335555553436, -0.005404578056186438, -0.01038457453250885,
	-0.13105224072933197, -0.0035957247018814087, -0.06127520278096199,
	0.046025168150663376, 0.04374045878648758, -0.005073350854218006,
	0.1714726984500885, 0.0964960902929306, 0.12099191546440125,
	0.22240659594535828, -0.04835394769906998, -0.02071826346218586,
	-0.1399855613708496, -0.01904202811419964, 0.09405701607465744,
	-0.018140388652682304, 0.06550954282283783, -0.05169786140322685,
	-0.14896716177463531, 0.12962162494659424, 0.0864456295967102,
	-0.033772267401218414, 0.028217347338795662, -0.11781660467386246,
	0.266088604927063, 0.1750134974718094, -0.08565591275691986,
	0.15862305462360382, -0.06619127094745636, -0.12487537413835526,
	0.07465721666812897, -0.020265445113182068, -0.08089859038591385,
	0.14391233026981354, -0.022624343633651733, -0.07672595977783203,
	-0.04864700138568878, -0.154001384973526, -0.14565542340278625,
	0.11310529708862305, -0.13548019528388977, 0.12494931370019913,
	-0.09157367795705795, -0.02281743660569191, 0.11460308730602264,
	-0.08775030821561813, 0.008464353159070015, 0.043219730257987976,
	-0.09696684032678604, -0.060763921588659286, -0.11246585100889206,
	0.1405337154865265, -0.13966044783592224, -0.042050354182720184,
	-0.12837964296340942, -0.06311457604169846, -0.12043315917253494,
	-0.13346464931964874, 0.13979971408843994, 0.02684430591762066,
	-0.035171717405319214, 0.05457880347967148, 0.04873189702630043,
	-0.0644853264093399, 0.15113289654254913, -0.03735552355647087,
	-0.1550603210926056, 0.027248840779066086, -0.006688802037388086,
	-0.09544136375188828, 0.001579252420924604, -0.114708811044693,
	0.09280804544687271, -0.13209646940231323, 0.1633181869983673,
	-0.16735734045505524, -0.10700928419828415, -0.13233906030654907,
	-0.025357142090797424, -0.08356788754463196, -0.03309966251254082,
	0.06671535968780518, 0.1379317045211792, 0.16142931580543518,
	-0.007050846237689257, -0.061391595751047134, -0.11782506853342056,
	0.10306886583566666, -0.04584503918886185, 0.11857517063617706,
	-0.06019989028573036, -0.011109892278909683, -0.0928332731127739,
	-0.0922970250248909, -0.0367157906293869, 0.027195286005735397,
	0.07807358354330063, -0.07822037488222122, -0.09820140898227692,
	-0.09042520821094513, -0.10705729573965073, -0.034245844930410385,
	0.1279754638671875, -0.005134522449225187, 0.0875416025519371,
	-0.00010842047777259722, -0.06459502875804901, 0.12988273799419403,
	-0.01973728835582733, 0.08387766778469086, 0.04217268154025078,
	0.14815035462379456, -0.0807252824306488, -0.034061990678310394,
	-0.1302683800458908, -0.07788771390914917, 0.02791764959692955,
	0.11308591067790985, -0.06181209161877632, 0.05226708576083183,
	0.1137096956372261, 0.10391233116388321, 0.004165690392255783,
	-0.03995683416724205, 0.1320153921842575, 0.1251073181629181,
	-0.08615650236606598, 0.031312599778175354, 0.0675521045923233,
	0.08775318413972855, 0.05728955939412117, 0.04156893119215965,
	0.10332190245389938, 0.12152987718582153, -0.044538773596286774,
	0.02504822239279747, -0.06684526056051254, -0.035269156098365784,
	0.05596400424838066, 0.13118048012256622, 0.03442549705505371,
	0.047430433332920074, -0.051770374178886414, 0.02169276960194111,
	-0.04433605819940567, 0.08558537811040878, 0.144901841878891,
	-0.10420947521924973, 0.07210711389780045, 0.012867426499724388,
	-0.0893653854727745, 0.1178450882434845, -0.017541298642754555,
	-0.09693150222301483, -0.03396886959671974, -0.024275626987218857,
	-0.001442973967641592, 0.012659010477364063, 0.06400192528963089,
	-0.05850755795836449, 0.0025267545133829117, -0.12500181794166565,
	0.05197320505976677, -0.08449148386716843, -0.018154088407754898,
	0.13521938025951385, 0.07447268068790436, 0.06375240534543991,
	0.09975998848676682, -0.13623811304569244, -0.07551401853561401,
	-0.09409389644861221, 0.09767746925354004, 0.0878336951136589,
	-0.11058348417282104, 0.09209039062261581, -0.1158469095826149,
	0.04938054829835892, 0.10518451780080795, 0.06784825026988983,
	0.13754421472549438, -0.023226246237754822, -0.11548058688640594,
	-0.14314298331737518, 0.13776364922523499, -0.001415308564901352,
	-0.10393249243497849, -0.0937483012676239, -0.05338773876428604,
	-0.03289870545268059, 0.1773705780506134, 0.09991307556629181,
	0.12906292080879211, -0.02563450299203396, 0.07853998243808746,
	-0.12990732491016388, 0.08900222927331924, 0.10000548511743546,
	0.055049825459718704, -0.1209387481212616, 0.036737289279699326,
	-0.18209287524223328, -0.03727567940950394, -0.11437347531318665,
	0.07325684279203415, -0.14456097781658173, -0.12780553102493286,
	0.08671992272138596, 0.07485248893499374, 0.20944713056087494,
	-0.09033806622028351, -0.16074711084365845, -0.06501608341932297,
	-0.038969408720731735, 0.005529407877475023, 0.017651554197072983,
	0.13823314011096954, 0.0631483793258667, 0.017724109813570976,
	-0.1440141797065735, -0.04798825457692146, 0.10421296209096909,
	-0.04399104416370392, -0.10758495330810547, -0.064053975045681,
	0.00606354046612978, -0.12386781722307205, -0.0330503024160862,
	-0.04671039059758186, 0.2074933648109436, 0.09434214234352112,
	0.008955484256148338, 0.09825555980205536, 0.1187175065279007,
	0.03573419153690338, -0.0015807334566488862, -0.10226143151521683,
	-0.11138413846492767, 0.023622984066605568, -0.029565319418907166,
	0.06317159533500671, -0.15225379168987274, 0.09176518023014069,
	-0.08368582278490067, -0.03243638575077057, -0.058646127581596375,
	-0.0009959746384993196, 0.10260085761547089, 0.14082632958889008,
	0.03125922009348869, 0.21647031605243683, 0.12477211654186249,
	0.03527535870671272, -0.1080549955368042, -0.07637307047843933,
	0.13706032931804657, 0.10564626008272171, 0.10716984421014786,
	-0.08215861767530441, 0.11815552413463593, -0.07815109938383102,
	-0.10853610932826996, -0.14910708367824554, -0.15027160942554474,
	0.11777118593454361, 0.027200115844607353, 0.1568937450647354,
	-0.05934559926390648, 0.09854871779680252, 0.04944127798080444,
	0.05149295553565025, 0.19046010076999664, 0.10177186131477356,
	0.08038967102766037, -0.0882759541273117, -0.05177450180053711,
	-0.15572169423103333, -0.11530670523643494, -0.037849634885787964,
	-0.19737569987773895, -0.09636640548706055, -0.16246844828128815,
	0.022114666178822517, 0.036155931651592255, 0.1568210870027542,
	0.11642321944236755, 0.13924507796764374, 0.011781847104430199,
	-0.05980870500206947, -0.06445971131324768, -0.0705825462937355,
	-0.0017750737024471164, 0.20862805843353271, 0.1848800778388977,
	0.057971276342868805, 0.05908026173710823, 0.005392773542553186,
	0.1685681790113449, 0.08945101499557495, 0.19977378845214844,
	0.1687062382698059, 0.1329609900712967, -0.01989152655005455,
	0.10869869589805603, 0.21370956301689148, 0.199726864695549,
	0.1624108850955963, 0.23121847212314606, -0.014803270809352398,
	-0.08297272771596909, -0.15422652661800385, -0.11574026197195053,
	0.10711171478033066, -0.007172090467065573, 0.05308422073721886,
	-0.04557615891098976, -0.15027637779712677, 0.08517666161060333,
	0.15775559842586517, -0.06276856362819672, 0.18042483925819397,
	-0.017462482675909996, 0.13166774809360504, 0.03285311907529831,
	0.10421646386384964, 0.19855579733848572, 0.1899462193250656,
	-0.14684097468852997, -0.006971878930926323, -0.028815820813179016,
	-0.0742655098438263, -0.019233765080571175, 0.003826219355687499,
	-0.1383373886346817, -0.049332715570926666, 0.09734596312046051,
	0.034941405057907104, 0.10547134280204773, 0.0805804431438446,
	0.05862130597233772, 0.17852218449115753, 0.20508135855197906,
	0.06177336350083351, 0.2242189198732376, 0.18489965796470642,
	-0.13713787496089935, 0.02783144637942314, 0.07061173021793365,
	-0.08796524256467819, -0.044776253402233124, -0.0010567535646259785,
	-0.11905541270971298, 0.11492051929235458, 0.03156815841794014,
	-0.129007488489151, 0.060708750039339066, -0.12989355623722076,
	0.06261304020881653, 0.12758776545524597, 0.1007128655910492,
	0.03543490171432495, 0.11449245363473892, 0.1452365517616272,
	-0.022862087935209274, -0.06528959423303604, 0.07075583189725876,
	-0.02385939657688141, -0.08324076980352402, -0.04599374905228615,
	-0.1421789973974228, 0.08606087416410446, 0.0763615146279335,
	-0.0366947203874588, 0.12394092977046967, -0.11680835485458374,
	0.014375526458024979, -0.12058192491531372, 0.0514291375875473,
	-0.0933186337351799, 0.1472308337688446, -0.11164902150630951,
	-0.11713805794715881, -0.13279907405376434, -0.13436484336853027,
	-0.1320990025997162, 0.1360035240650177, -0.10767237842082977,
	0.020333269611001015, -0.11409827321767807, 0.08880328387022018,
	-0.0670030415058136, 0.016191598027944565, -0.050457943230867386,
	-0.13060563802719116, 0.013002797961235046, 0.03842271491885185,
	-0.026779526844620705, -0.05436669662594795, -0.14848065376281738,

};

const float conv2_filter_bias[CONV2_K_NUM] = {
	0.24235506355762482, 0.198037251830101, 0.15581941604614258,
	0.17004579305648804, -0.10417713969945908, 0.13065093755722046,
	0.019188303500413895, 0.17313562333583832, -0.08282005786895752,
	-0.03701987862586975,
};

#endif // CONV2_PARAMS_H