-0.07963329553604126, -0.18639838695526123, -0.28951171040534973, 0.045883141458034515, -0.029401447623968124, 0.03807981312274933, -0.23460295796394348, 0.054513975977897644, -0.020922202616930008, 0.0030877727549523115, -0.20771093666553497, -0.04657278582453728, 0.10606667399406433, -0.034181177616119385, 0.15746618807315826, -0.16935406625270844, -0.0563780814409256, 0.08121379464864731, 0.32168471813201904, 0.1495351344347, -0.14319518208503723, 0.03568372502923012, -0.1709601879119873, 0.1268889307975769, 0.23980990052223206, -0.12525595724582672, 0.016311652958393097, -0.10757546126842499, -0.1142577975988388, -0.052203673869371414, 0.0480305515229702, -0.20119814574718475, -0.06089523807168007, -0.08879200369119644, 0.07151608169078827, -0.0068290336057543755, -0.034059520810842514, 0.12626555562019348, -0.03598983213305473, -0.02685377560555935, 0.04454098641872406, 0.0435771606862545, 0.2660841941833496, -0.09126519411802292, 0.08906631171703339, -0.33464735746383667, 0.0713413804769516, -0.01269666850566864, -0.16396385431289673, 0.1636475771665573, 0.1627199649810791, -0.0007845621439628303, 0.03963113948702812, 0.12780223786830902, -0.07174275815486908, 0.024871738627552986, 0.10685916990041733, 0.20937682688236237, 0.19314298033714294, -0.22445277869701385, -0.17811888456344604, -0.00626276433467865, -0.0074660275131464005, 0.11680077016353607, -0.20090188086032867, -0.124652199447155, 0.0759553611278534, -0.06000780686736107, 0.17383114993572235, 0.08748779445886612, -0.07706554234027863, 0.059301137924194336, 0.13870511949062347, -0.017981303855776787, -0.003425274044275284, 0.2877647280693054, -0.3224303126335144, 0.13819696009159088, 0.06310819089412689, -0.060320064425468445, 0.1119401678442955, -0.14357320964336395, 0.08199968189001083, 0.12736530601978302, -0.08099407702684402, -0.055581867694854736, -0.09149841964244843, 0.1362907737493515, -0.052195630967617035, -0.10545029491186142, 0.049992918968200684, 0.10848181694746017, 0.08294235914945602, -0.09247692674398422, 0.05568118020892143, -0.002723511541262269, -0.06199095770716667, -0.002315761521458626, -0.06332267075777054, -0.08046441525220871, 0.13535411655902863, -0.08820595592260361, -0.04224109649658203, 0.08401290327310562, -0.16418881714344025, 0.1477864533662796, -0.023695874959230423, 0.14705520868301392, 0.12621049582958221, 0.15617085993289948, -0.14597424864768982, 0.007629545871168375, -0.0684136375784874, 0.07802163809537888, -0.01186260674148798, 0.04464856535196304, 0.01718166470527649, 0.011312484741210938, -0.02627904713153839, -0.12038102746009827, -0.121061772108078, 0.23134805262088776, 0.14942026138305664, 0.04592176526784897, -0.09333595633506775, -0.15376988053321838, 0.14688242971897125, 0.029277093708515167, -0.018768729642033577, 0.11719413101673126, 0.013590295799076557, -0.014625904150307178, 0.03226898983120918, -0.1055554449558258, 0.102244071662426, 0.1518445611000061, -0.10586289316415787, -0.2975292503833771, 0.005655811168253422, -0.09681007266044617, -0.09694738686084747, 0.01243064645677805, -0.20193570852279663, 0.11984622478485107, 0.23567980527877808, -0.1806991994380951, 0.30216553807258606, 0.009259426034986973, 0.03936733677983284, -0.21418865025043488, -0.22531481087207794, 0.12053504586219788, 0.1329573690891266, 0.13908638060092926, 0.043349191546440125, 0.14201076328754425, 0.25859445333480835, 0.11914951354265213, -0.24176697432994843, 0.06417957693338394, 0.3163571059703827, 0.184115469455719, 0.1239410787820816, 0.12255155295133591, -0.10155880451202393, 0.2495494931936264, 0.35233253240585327, -0.002053221920505166, -0.1646619737148285, 0.05171223357319832, 0.02692619152367115, -0.1188080683350563, -0.06893546879291534, 0.07225752621889114, 0.07744564116001129, -0.08237219601869583, 0.07827258110046387, 0.02765638194978237, -0.24318189918994904, 0.05786312744021416, 0.006848923861980438, -0.22522768378257751, 0.10729487985372543, 0.06511654704809189, -0.29016587138175964, -0.1578180342912674, 0.20845851302146912, 0.15513251721858978, -0.10245584696531296, -0.008785136975347996, -0.08569713681936264, -0.3273347318172455, 0.09384814649820328, -0.03359576687216759, 0.06843961030244827, -0.004412411712110043, -0.17993129789829254, -0.11794005334377289, 0.09357701241970062, 0.11493463814258575, -0.1580614149570465, 0.24083557724952698, 0.24722649157047272, -0.11790233850479126, -0.1495000272989273, -0.022463491186499596, -0.16227486729621887, -0.043332137167453766, 0.35760417580604553, -0.3476969301700592, 0.21833841502666473, -0.051786649972200394, 0.04852621629834175, 0.18055832386016846, -0.00343898544088006, -0.01907566748559475, 0.020648960024118423, 0.07347316294908524, -0.05896756425499916, 0.0916341096162796, 0.0797913670539856, -0.02524590492248535, -0.0675574541091919, 0.1508491188287735, 0.26766231656074524, -0.10766275227069855, -0.1337328553199768, -0.07804086804389954, -0.13867142796516418, 0.1866498738527298, -0.10774413496255875, -0.07594809681177139, -0.038017261773347855, -0.1534753292798996, -0.08316780626773834, -0.30964863300323486, 0.0689420998096466, -0.10961031913757324, -0.17436742782592773, -0.08551488071680069, 0.031173408031463623, 0.11294786632061005, -0.012628435157239437, 0.0469931997358799, 0.050501544028520584, 0.25628507137298584, -0.31413546204566956, -0.08209143579006195, 0.04468224570155144, -0.251573383808136, -0.2026974856853485, -0.03416673466563225, -0.07444556802511215, -0.08884372562170029, -0.10495145618915558, 0.10811273753643036, -0.009059131145477295, 0.20992672443389893, -0.15794771909713745, 0.11252183467149734, -0.037463944405317307, 0.25860437750816345, -0.2708963453769684, 0.251414030790329, -0.19303715229034424, 0.09642945230007172, 0.15198934078216553, -0.1737385392189026, 0.13771870732307434, -0.003447600407525897, 0.09495662152767181, 0.22313500940799713, -0.05856124684214592, -0.05611900985240936, -0.05875011533498764, 0.061195433139801025, -0.08306532353162766, -0.14918027818202972, 0.18177063763141632, -0.017342818900942802, 0.20450198650360107, -0.26417022943496704, -0.19348494708538055, -0.11085743457078934, -0.10599282383918762, -0.1966150850057602, 0.10448748618364334, -0.12768860161304474, -0.03274688124656677, 0.17850083112716675, -0.013647850602865219, 0.06665821373462677, -0.11364404857158661, 0.170940101146698, -0.12089496850967407, 0.024010125547647476, -0.1492505520582199, -0.15864475071430206, 0.14037516713142395, -0.17986470460891724, -0.1749781370162964, -0.14881518483161926, 0.32094278931617737, -0.08649832755327225, 0.20833969116210938, 0.14612619578838348, 0.025862302631139755, 0.19633245468139648, 0.0168689526617527, 0.10121507197618484, 0.07641793042421341, 0.22965294122695923, 0.07105264067649841, -0.1492939293384552, -0.1402108520269394, -0.00747120613232255, -0.1555229127407074, -0.0755506306886673, 0.01637520082294941, -0.010778823867440224, -0.18577180802822113, -0.1037503108382225, -0.02014392428100109, 0.07825953513383865, -0.029126664623618126, -0.15445922315120697, -0.035956256091594696, -0.04624556005001068, -0.038676436990499496, 0.19980484247207642, 0.14516928791999817, -0.12923860549926758, 0.14120863378047943, 0.1280662566423416, 0.055203795433044434, -0.08738613873720169, -0.05857168883085251, -0.1508413702249527, -0.08544909954071045, 0.18457017838954926, 0.24334025382995605, 0.2501269280910492, 0.13710416853427887, -0.046242017298936844, -0.11074379086494446, -0.1037335991859436, -0.018022431060671806, -0.18687529861927032, -0.09791684150695801, -0.2468956708908081, -0.2260304093360901, -0.10581650584936142, 0.132135272026062, 0.07756687700748444, 0.14271774888038635, -0.05581461638212204, 0.17183782160282135, -0.021540312096476555, 0.10133753716945648, 0.03103245608508587, 0.18904224038124084, 0.21410995721817017, 0.16910243034362793, 0.11097320914268494, -0.10284090787172318, 0.13993579149246216, 0.21832768619060516, -0.061001840978860855, -0.06068389490246773, -0.04840832203626633, -0.014251061715185642, 0.15180672705173492, 0.10745752602815628, -0.15800531208515167, 0.12159500271081924, 0.019568171352148056, 0.13837820291519165, 0.13976137340068817, -0.07314534485340118, -0.26624664664268494, -0.11292024701833725, 0.2122688591480255, -0.11822996288537979, -0.2622568905353546, 0.1557529717683792, -0.12050632387399673, -0.2003733068704605, -0.19959259033203125, 0.0702303946018219, 0.05682786554098129, 0.2226223647594452, -0.23776309192180634, 0.01573384925723076, 0.15091165900230408, 0.058855604380369186, -0.19174064695835114, 0.14247383177280426, 0.14525556564331055, 0.1305607259273529, -0.04920502007007599