0.0978638082742691, 0.228823721408844, 0.1721678525209427, 0.043138086795806885, 0.29420164227485657, -0.009390357881784439, 0.14002016186714172, 0.18155908584594727, 0.06824910640716553, 0.09467112272977829, 0.1383742094039917, 0.0938500314950943, 0.04021811857819557, 0.13243995606899261, 0.11121337115764618, -0.11903215944766998, 0.03384001925587654, 0.15379084646701813, 0.06868823617696762, 0.026254743337631226, -0.07966135442256927, 0.06326828896999359, 0.13935673236846924, -0.005455575417727232, 0.1376744508743286, 0.13130207359790802, -0.01895425096154213, -0.07010871171951294, -0.03870053216814995, 0.06793228536844254, 0.0006456436822190881, 0.10904873162508011, 0.1220884919166565, -0.1111535131931305, 0.10362548381090164, 0.04499504715204239, 0.11112751066684723, 0.11317115277051926, -0.007161732763051987, 0.11889834702014923, -0.015108570456504822, 0.052107274532318115, -0.028245922178030014, 0.1227869763970375, -0.0345124676823616, 0.08828312158584595, 0.09905801713466644, 0.02673421986401081, -0.005946681834757328, 0.07817890495061874, 0.10199569165706635, 0.015592843294143677, 0.09391145408153534, 0.06147700920701027, 0.0840686485171318, -0.032986391335725784, -0.02231728285551071, -0.08652599155902863, 0.1102532222867012, 0.10209279507398605, -0.0036952097434550524, 0.10241380333900452, 0.07459855824708939, 0.027177060022950172, 0.18458512425422668, -0.019650744274258614, -0.0520707406103611, 0.18262888491153717, 0.008850689977407455, -0.060170311480760574, 0.009895946830511093, 0.02316894382238388, 0.12704585492610931, 0.047749269753694534, 0.0967363715171814, 0.10743921250104904, 0.028917623683810234, -0.025668982416391373, 0.1318400800228119, 0.03185486048460007, 0.03916539251804352, -0.055574432015419006, 0.08956900238990784, -0.06857898831367493, -0.04178386181592941, -0.10023728013038635, -0.0864960327744484, 0.09753234684467316, -0.024473687633872032, -0.012124803848564625, 0.02104741707444191, -0.08029098063707352, 0.09037528187036514, -0.03620210289955139, 0.055198878049850464, -0.007554682902991772, 0.06829304248094559, -0.08329465985298157, 0.09422743320465088, -0.08358234167098999, 0.014346855692565441, -0.08589839935302734, 0.029151666909456253, -0.07913469523191452, -0.059117164462804794, 0.0925438180565834, -0.0526445172727108, -0.06593403965234756, -0.10331569612026215, 0.10166285187005997, 0.07855062186717987, -0.09080751985311508, -0.0024029635824263096, -0.04266474395990372, -0.038923218846321106, -0.024224307388067245, 0.04273767024278641, 0.10308636724948883, -0.05523092299699783, 0.0322236493229866, -0.05397692322731018, 0.026225652545690536, -0.09785367548465729, -0.0035682269372045994, -0.09626510739326477, -0.052967168390750885, 0.037964463233947754, -0.03594495728611946, 0.0071908594109117985, -0.08346107602119446, -0.07242695242166519, 0.009861963801085949, -0.0692717432975769, 0.07173946499824524, -0.10340476036071777, 0.06272633373737335, 0.03991677612066269, -0.03498528152704239, 0.04784009978175163, 0.09470020979642868, 0.014757593162357807, -0.07830097526311874, 0.048731379210948944, -0.038688626140356064, -0.0950745940208435, -0.024572933092713356, 0.04826990142464638, -0.00497151305899024, -0.022608820348978043, -0.05021957680583, 0.021937191486358643, 0.03897348791360855, -0.08204162865877151, -0.10237322747707367, 0.08476465940475464, 0.0813843309879303, -0.08230260014533997, -0.02977326512336731, -0.03592909872531891, -0.034552618861198425, -0.023701949045062065, 0.02808273956179619, -0.013639302924275398, 0.009690666571259499, -0.10093516856431961, 0.05501628667116165, -0.019540386274456978, 0.03347177430987358, -0.06843908876180649, -0.01708114892244339, -0.003966511692851782, 0.09965940564870834, -0.08785761892795563, 0.015050317160785198, -0.010555390268564224, 0.07388773560523987, 0.06151401996612549, -0.07823570817708969, -0.08495903760194778, -0.014158109202980995, -0.06741948425769806, -0.02256462350487709, 0.06472548097372055, 0.040714677423238754, 0.061793696135282516, -0.011328277178108692, -0.03486032783985138, 0.028827082365751266, 0.07939575612545013, -0.02036934159696102, -0.0683441236615181, 0.05557078868150711, 0.02500314638018608, 0.018650095909833908, -0.06457803398370743, 0.06069261580705643, -0.13499367237091064, 0.025075512006878853, -0.046894047409296036, -0.013357511721551418, 0.07384469360113144, -0.06477517634630203, 0.03710020333528519, 0.07636468857526779, -0.09202536195516586, -0.07602544128894806, 0.12983407080173492, 0.0580478310585022, -0.0910729169845581, -0.00352689903229475, -0.024251721799373627, -0.07038962841033936, -0.045271627604961395, -0.09693486243486404, -0.11310096085071564, 0.024210793897509575, 0.004762155003845692, 0.019983066245913506, 0.09409105032682419, -0.11594352126121521, 0.018194397911429405, 0.05838160216808319, -0.07035238295793533, -0.06741929799318314, 0.1127956360578537, -0.04085111618041992, 0.05249996855854988, 0.07461461424827576, 0.03348210081458092, 0.06723098456859589, 0.023782018572092056, 0.045431025326251984, -0.09609770774841309, -0.025310084223747253, 7.303700112970546e-05, -0.07443796098232269, 0.07753540575504303, -0.06185213103890419, -0.04666736349463463, 0.05067824944853783, -0.06541156023740768, 0.032595328986644745, 0.08574936538934708, -0.023113345727324486, -0.03194760903716087, -0.05462314561009407, -0.09142473340034485, 0.04681871831417084, -0.026352068409323692, 0.0698232427239418, -0.04121808335185051, 0.02729751355946064, 0.07274413853883743, 0.12377294152975082, 0.008529234677553177, 0.07112067937850952, 0.04824797064065933, -0.006726093590259552, 0.0035165820736438036, 0.11681312322616577, -0.053961995989084244, 0.058926235884428024, 0.05425158515572548, 0.01831778511404991, -0.03520356863737106, 0.08238764107227325, -0.06441439688205719, -0.0795421153306961, 0.06033647060394287, 0.06588497012853622, 0.05713773891329765, -0.02897164598107338, -0.04282597824931145, -0.07011833786964417, 0.02186860889196396, 0.0027397635858505964, 0.08236062526702881, 0.007140156347304583, 0.04965408891439438, -0.031446341425180435, 0.073765330016613, -0.03320956230163574, 0.08768146485090256, 0.0560091957449913, 0.014247804880142212, -0.08470215648412704, -0.07544002681970596, -0.07648644596338272, -0.003903773846104741, 0.011879042722284794, -0.04236572980880737, -0.01305111963301897, 0.0706300362944603, 0.09530236572027206, 0.018868323415517807, -0.0421966016292572, -0.08654913306236267, -0.03210384398698807, 0.029068395495414734, -0.10060320794582367, -0.050724513828754425, -0.07574152946472168, 0.10682526230812073, -0.043919820338487625, -0.026052039116621017, -0.06115752458572388, 0.09184477478265762, -0.04560427367687225, -0.025797687470912933, 0.023466726765036583, -0.015160205774009228, 0.08559752255678177, -0.09287698566913605, -0.009547669440507889, 0.014914541505277157, 0.06063557043671608, -0.02694373019039631, -0.07192222774028778, -0.056445587426424026, 0.10369740426540375, -0.029752735048532486, -0.029874790459871292, 0.09882183372974396, 0.07552288472652435, -0.08916332572698593, 0.00836749467998743, 0.06141229346394539, -0.054404161870479584, -0.07950665801763535, -0.0404747799038887, 0.0504789836704731, -0.06772316992282867, 0.0266882311552763, -0.02718147449195385, -0.00587275717407465, 0.06127505004405975, 0.08675052970647812, -0.06653278321027756, -0.06367718428373337, 0.08484843373298645, -0.09923110157251358, -0.052093543112277985, 0.0041420175693929195, -0.07893411070108414, -0.057260483503341675, 0.024388490244746208, 0.005963621661067009, -0.04030188173055649, 0.09292638301849365, -0.04390871897339821, 0.10320717096328735, 0.019159620627760887, 0.04971642792224884, -0.054675061255693436, 0.09868625551462173, 0.05552885681390762, -0.08167772740125656, -0.09242179244756699, 0.07347933202981949, -0.07251661270856857, -0.0120601337403059, 0.11276216804981232, 0.08390223979949951, 0.11668195575475693, -0.06927371025085449, -0.03834450989961624, 0.07179338485002518, -0.08137903362512589, -0.07045387476682663, -0.07851319760084152, 0.10067031532526016, 0.053196512162685394, 0.08742579072713852, 0.006966021377593279, 0.06575439125299454, -0.035373952239751816, 0.10201302915811539, -0.01287873275578022, 0.04107107222080231, 0.016502784565091133, -0.09289593249559402, -0.07242576777935028, 0.03704335540533066, 0.05741729214787483, 0.07247701287269592, -0.07584533095359802, -0.0082642687484622, -0.034826621413230896, -0.04994427040219307, -0.05896817892789841, 0.0833190530538559, 0.009133383631706238, 0.04024599492549896, 0.05226663500070572, -0.03328261524438858, 0.009537327103316784, 0.05507045239210129, 0.06890390813350677, -0.07384281605482101, -0.0003844158782158047, 0.09768475592136383, -0.038207389414310455, 0.08483599126338959, 0.03610023856163025, 0.10247818380594254, -0.07913056015968323, -0.06746494770050049, 0.07597005367279053, -0.03288966417312622, -0.03415105491876602, -0.06102880835533142, -0.08316031843423843, -0.025502679869532585, 0.07125983387231827, 0.06151324510574341, 0.04051670432090759, -0.02693539671599865, -0.027323029935359955, -0.04903101176023483, -0.035273779183626175, -0.01675030216574669, -0.06308760493993759, 0.013276023790240288, -0.08566012233495712, 0.02663041651248932, -0.018556952476501465, 0.007491575088351965, 0.04272913560271263, -0.02552386000752449, 0.05574009194970131, 0.020327195525169373, -0.06694583594799042, 0.08878954499959946, -0.08655548095703125, -0.010457289405167103, 0.07576723396778107, -0.03928148373961449, -0.0808994248509407, 0.005829382687807083, -0.09842269122600555, -0.020641092211008072, -0.05605603754520416, -0.03762916103005409, -0.0930488333106041, 0.010714331641793251, 0.08229368925094604, -0.07057406008243561, 0.09533729404211044, 0.05480371415615082, 0.04964596778154373, -0.004652588162571192, 0.007806048728525639, -0.013746260665357113, -0.0632692277431488, -0.03402784839272499, -0.10261554270982742, -0.044974375516176224, -0.07835216820240021, 0.034006256610155106, 0.08550922572612762, -0.06865879893302917, -0.010110775008797646, -0.017315367236733437, -0.0639677494764328, -0.09651229530572891, 0.07374551892280579, -0.05683211609721184, 0.06282901763916016, 0.02941666729748249, 0.09067803621292114, -0.08158142119646072, 0.07755998522043228, 0.05802628770470619, 0.0517238974571228, -0.07121997326612473, -0.07598918676376343, 0.03014742024242878, 0.09768650680780411, 0.0939570963382721, -0.09389796108007431, -0.09277033060789108, -0.04692767560482025, 0.09657000750303268, 0.052344996482133865, -0.005291065666824579, -0.027919257059693336, 0.04309497028589249, -0.07687214761972427, -0.033195413649082184, -0.06798946112394333, 0.05984387919306755, -0.062886543571949, 0.07873110473155975, -0.06468437612056732, -0.053881119936704636, -0.042952846735715866, -0.0801188200712204, -0.10088833421468735, 0.04371693730354309, 0.048835769295692444, 0.05253668874502182, 0.027381787076592445, 0.08932579308748245, -0.005559766665101051, 0.049634937196969986, -0.0274921003729105, -0.008851476944983006, 0.10499118268489838, 0.014446250163018703, 0.08189266920089722, -0.04677635803818703, 0.024911556392908096, -0.03802410513162613, -0.07314078509807587, 0.031352028250694275, 0.05037311464548111, 0.026102552190423012, -0.104960136115551, 0.0809585377573967, -0.08709900826215744, -0.03860819712281227, -0.09785189479589462, 0.020541002973914146, -0.10153114795684814, 0.06151968613266945, 0.007530395872890949, 0.01741376705467701, -0.031317487359046936, -0.000873004668392241, -0.08574099838733673, -0.021127231419086456, 0.003584013320505619, -0.06175427883863449, -0.03748999908566475, 0.0886034443974495, -0.08784013241529465, -0.04826119914650917, -0.010477383621037006, 0.07106366008520126, -0.08479263633489609, -0.06580544263124466, 0.0016670550685375929, 0.007044405676424503, 0.07272094488143921, -0.01014748401939869, -0.0026892144232988358, -0.06595713645219803, -0.09039086848497391, -0.10266108065843582, -0.0032797902822494507, 0.004818940069526434, 0.030154725536704063, -0.08938605338335037, -0.03935486823320389, 0.08536640554666519, -0.06271035224199295, 0.004279621876776218, 0.007873168215155602, -0.059565503150224686, 0.08881715685129166, 0.06631100177764893, -0.0804319754242897, -0.008135396987199783, -0.07062867283821106, -0.0692986324429512, -0.01883225329220295, -0.03044882044196129, -0.08046947419643402, -0.07316085696220398, -0.021734314039349556, 0.0017539135878905654, 0.08387591689825058, -0.04890095442533493, 0.07511227577924728, 0.01184203289449215, -0.03488335385918617, -0.07382700592279434, -0.026992755010724068, 0.021312536671757698, 0.07310603559017181, -0.07460165023803711, -0.03148432821035385, 0.09001296758651733, 0.06990746408700943, 0.03762069344520569, -0.07517122477293015, -0.03469338268041611, -0.0057076518423855305, -0.03501289337873459, -0.008749360218644142, 0.02320491150021553, 0.07643351703882217, -0.09132073074579239, -0.017112893983721733, -0.0025045385118573904, 0.03274437412619591, 0.019282180815935135, -0.08335182070732117, 0.0038958389777690172, -0.08712178468704224, 0.015184883959591389, 0.00805653352290392, 0.062430452555418015, -0.008842801675200462, 0.0619819313287735, -0.006541376002132893, 0.10257049649953842, 0.09993714839220047, -0.013130349107086658, -0.09596195071935654, -0.014731639064848423, 0.025791581720113754, 0.07975561171770096, 0.06964947283267975, -0.030511556193232536, -0.0017225913470610976, -0.02445385977625847, 0.09351108223199844, -0.006603787187486887, -0.056062426418066025, -0.03388979658484459, 0.027241671457886696, -0.05783863738179207, -0.04594997316598892, 0.04871612414717674, 0.031167179346084595, -0.06191589683294296, 0.0294165201485157, 0.05691881850361824, 0.0031991710420697927, -0.10827917605638504, 0.061118993908166885, -0.07465788722038269, -0.08362580090761185, 0.016387993469834328, 0.07590428739786148, 0.09254448115825653, -0.01901378482580185, -0.04472212493419647, -0.011168248951435089, -0.011697790585458279, -0.09900591522455215, 0.08795494586229324, 0.0574987456202507, -0.027879664674401283, -0.039941638708114624, -0.02466869167983532, -0.07243075221776962, -0.011823398992419243, 0.00929900724440813, 0.1052052229642868, 0.09268452227115631, -0.08838767558336258, 0.09225986897945404, -0.0885193794965744, -0.11129430681467056, -0.0009618090698495507, 0.03920651599764824, -0.0157249066978693, 0.051441092044115067, -0.02789008989930153, -0.05074494332075119, -0.0043333969078958035, -0.060675639659166336, -0.043868258595466614, 0.07135111838579178, 0.07534704357385635, 0.08276863396167755, 0.07723163813352585, -0.027903487905859947, 0.031144829466938972, 0.05621214956045151, 0.08210008591413498, -0.04422388970851898, 0.08158376067876816, 0.01960824243724346, 0.03760623559355736, 0.05043802037835121, 0.06252583861351013, -0.051507532596588135, 0.10375747829675674, -0.08796326816082001, 0.1029631718993187, -0.014043424278497696, -0.04808536544442177, 0.03820084035396576, 0.03378026559948921, -0.06507210433483124, -0.01749170757830143, 0.08820794522762299, -0.07746151089668274, -0.02393481135368347, 0.11364007741212845, 0.09007705748081207, -0.03338419646024704, 0.05935874208807945, 0.04730788618326187, 0.12678952515125275, -0.02606092393398285, 0.07575861364603043, -0.032842863351106644, -0.005012566689401865, -0.08520429581403732, -0.047989021986722946, -0.08715138584375381, -0.05820818990468979, -0.08103105425834656, 0.012172248214483261, -0.05922510847449303, 0.08455023169517517, 0.06275077909231186, 0.052295733243227005, 0.023055411875247955, -0.0044500264339149, -0.028719501569867134, -0.032459259033203125, 0.0032459874637424946, 0.030953533947467804, -0.019063591957092285, -0.03749680891633034, -0.08672475069761276, -0.033777058124542236, -0.08556162565946579, -0.07901161164045334, 0.06624435633420944, 0.0818866565823555, 0.06492818892002106, 0.10279879719018936, -0.05286305397748947, -0.0820368304848671, -0.06910265982151031, 0.09719517081975937, -0.08644239604473114, -0.047233495861291885, -0.09552095830440521, -0.00263460841961205, -0.10755928605794907, -0.02245347574353218, 0.0015648981789126992, 0.008106870576739311, 0.09772105515003204, -0.00943388044834137, 0.071393221616745, 0.04532025009393692, 0.07616967707872391, 0.08961896598339081, 0.05276189371943474, 0.10439511388540268, 0.09995391964912415, -0.0883265882730484, 0.05253775790333748, 0.09010490030050278, -0.07048004120588303, -0.07083863765001297, 0.09428959339857101, -0.01360403560101986, -0.05058512091636658, 0.08144477009773254, -0.07630632072687149, -0.0528176911175251, -0.04745427891612053, 0.07841276377439499, -0.07843255996704102, -0.06545577198266983, 0.07020386308431625, -0.09334950149059296, -0.06760159134864807, 0.007536585442721844, -0.020155247300863266, 0.07197568565607071, -0.0066944570280611515, 0.06920313835144043, -0.02786153554916382, -0.0740869864821434, -0.059451956301927567, -0.025121599435806274, -0.008785838261246681, -0.03208409249782562, 0.016659792512655258, -0.08899453282356262, 0.04214397817850113, -0.08524772524833679, 0.06111879274249077, 0.03354758769273758, 0.0402369499206543, 0.06575008481740952, -0.09189095348119736, 0.05887030437588692, -0.0061356257647275925, -0.08147457987070084, 0.036557503044605255, 0.10393582284450531, 0.08744776248931885, 0.09668614715337753, 0.07345006614923477, -0.035083696246147156, 0.05438490957021713, 0.07658146321773529, 0.07802991569042206, 0.03744910657405853, 0.011225797235965729, 0.05493063107132912, 0.08323196321725845, 0.09126085042953491, -0.07717856764793396, 0.09638708084821701, -0.04625464603304863, 0.050477009266614914, -0.09526336193084717, -0.0105992890894413, 0.1489267647266388, 0.1596049666404724, 0.07573346048593521, -0.05011770874261856, 0.03401896730065346, 0.0747172087430954, -0.08017075061798096, 0.035833220928907394, 0.005877174437046051, -0.0896289199590683, -0.0777946412563324, -0.003797464771196246, -0.06965112686157227, 0.10028931498527527, 0.019692201167345047, 0.0016450000694021583, -0.048385147005319595, -0.09197165817022324, 0.039757829159498215, 0.0635298416018486, 0.023597756400704384, -0.10036267340183258, 0.010006707161664963, 0.06667967140674591, -0.0013488049153238535, -0.08498412370681763, -0.033981356769800186, -0.07627034932374954, 0.06319698691368103, 0.13202238082885742, 0.039963386952877045, 0.03289145603775978, -0.07935559749603271, 0.08301635831594467, -0.06473240256309509, 0.09906738251447678, 0.014137129299342632, 0.06222877651453018, 0.06444790214300156, -0.005247520282864571, -0.07087334245443344, 0.09437769651412964, -0.10263941437005997, 0.001975740771740675, -0.017987072467803955, 0.03577237203717232, -0.07432916760444641, -0.05255339294672012, 0.03662940114736557, 0.015406445600092411, 0.08240871131420135, 0.0945068746805191, 0.02994016744196415, 0.030605627223849297, 0.06497278064489365, 0.11511536687612534, 0.06479720026254654, -0.04421001672744751, 0.01763758808374405, -0.02337740920484066, -0.08489801734685898, 0.007166125811636448, -0.011778879910707474, 0.07145334780216217, 0.1423136591911316, -0.02154679410159588, -0.008761808276176453, -0.03890395164489746, -0.01928500086069107, -0.020756952464580536, 0.06250777095556259, -0.060071252286434174, 0.07074623554944992, -0.05254143476486206, -0.0005515122902579606, 0.006282196845859289, 0.028890615329146385, 0.09683310985565186, 0.06311202049255371, 0.1319325715303421, -0.03327390179038048, -0.04292624071240425, 0.01569119095802307, 0.03664872422814369, -0.02809786982834339, 0.08547865599393845, -0.013778085820376873, 0.062326427549123764, 0.035728368908166885, 0.006085477769374847, 0.04561270773410797, -0.07796231657266617, 0.07111179828643799, 0.13386063277721405, 0.1790018528699875, 0.05695410072803497, 0.02088911086320877, 0.12243250012397766, 0.07444807887077332, 0.01871315948665142, 0.030333366245031357, -0.027353033423423767, 0.078191839158535, 0.13685041666030884, 0.13973073661327362, 0.06229804828763008, -0.023011602461338043, 0.041974976658821106, -0.012708527036011219, -0.07101701200008392, 0.10276342928409576, 0.08677895367145538, -0.06835510581731796, -0.010048513300716877, -0.06516678631305695, 0.025522878393530846, 0.11980746686458588, 0.00022755916870664805, 0.021671397611498833, -0.013431308791041374, -0.0377240888774395, 0.13268952071666718, 0.09010884910821915, -0.027357375249266624, 0.07579236477613449, 0.049482595175504684, -0.00040417976561002433, 0.06212481111288071, 0.03506522253155708, 0.12219411134719849, 0.16252391040325165, 0.05975322425365448, 0.02173972688615322, 0.09043242782354355, -0.07527092099189758, -0.026665199548006058, -0.08658748120069504, -0.05961482971906662, 0.1185564398765564, 0.018129650503396988, -0.003740911604836583, 0.08383084088563919, 0.06666610389947891, 0.1236664354801178, 0.10686098039150238, 0.11123506724834442, 0.03791675716638565, -0.07739655673503876, -0.0233065914362669, 0.087446428835392, 0.061858512461185455, -0.07306598871946335, -0.013395152986049652, 0.010365049354732037, 0.062213242053985596, -0.07873087376356125, 0.012769357301294804, 0.04690808802843094, 0.11737340688705444, 0.07200946658849716, -0.01266434509307146, -0.0483689121901989, 0.004273866303265095, -0.0628964751958847, -0.08125095069408417, -0.012604665011167526, -0.03632662072777748, 0.016982173547148705, 0.1433093398809433, 0.03050314448773861, 0.08298328518867493, -0.09293738007545471, -0.09986600279808044, -0.08570150285959244, -0.05901477485895157, 0.025646714493632317, 0.07734996825456619, 0.010574792511761189, -0.009378566406667233, 0.061372287571430206, 0.11505182832479477, 0.16119639575481415, 0.01819675788283348, 0.0873478427529335, 0.16814948618412018, 0.06921861320734024, -0.041249942034482956, 0.01620609499514103, 0.20390556752681732, 0.013521905057132244, 0.14492619037628174, 0.016455629840493202, 0.0765780359506607, 0.11280123144388199, 0.11183115094900131, -0.04339737817645073, 0.015954861417412758, -0.030660148710012436, 0.004419737961143255, 0.014939854852855206, 0.11185877025127411, 0.13080252707004547, 0.167798712849617, 0.11232912540435791, -0.0974455401301384, 0.06244033947587013, -0.05498962849378586, 0.00035087799187749624, 0.01466971542686224, -0.01558669563382864, 0.09426689147949219, 0.1363869607448578, 0.05979526787996292, -0.08589029312133789, 0.05245596915483475, -0.05312177911400795, 3.376950917299837e-05, 0.16979916393756866, 0.02294113114476204, -0.06060522422194481, 0.13337001204490662, 0.07793141156435013, -0.07762044668197632, 0.07122443616390228, 0.08583952486515045, -0.0514565035700798, -0.03367454186081886, 0.07655289024114609, -0.014142136089503765, 0.14381255209445953, 0.1473482996225357, -0.003239135956391692, 0.16505081951618195, 0.08410575240850449, 0.05565550923347473, 0.0389847457408905, -0.057246096432209015, 0.004898529499769211, -0.028606057167053223, 0.06002293527126312, 0.06645403802394867, 0.0741833969950676, -0.021331962198019028, 0.12355908006429672, 0.13936734199523926, 0.13965578377246857, -0.00814272090792656, 0.14435498416423798, 0.06510619074106216, -0.07498300075531006, -0.05973254516720772, 0.14077332615852356, -0.019510554149746895, -0.04311138018965721, 0.06381949037313461, 0.100290946662426, 0.011644575744867325, -0.07966993004083633, 0.11037904024124146, 0.1566285490989685, 0.022454092279076576, -0.004367277957499027, -0.05536971986293793, 0.09484002739191055, -0.07629989087581635, -0.06465450674295425, 0.07360979914665222, 0.0762520432472229, -0.05556588992476463, 0.035756830126047134