0.23044469952583313, 0.03447084501385689, 0.13386546075344086, 0.17384755611419678, 0.19495290517807007, 0.26223674416542053, 0.08814030885696411, 0.2151959240436554, 0.28383147716522217, 0.14011028409004211, -0.08796823024749756, 0.05736938863992691, 0.010794752277433872, 0.028523366898298264, -0.10138387233018875, -0.10162895917892456, -0.03451972082257271, 0.12359554320573807, 0.2020777314901352, 0.17848767340183258, -0.039436060935258865, 0.1256752759218216, 0.10497588664293289, 0.03730710223317146, -0.012590965256094933, 0.20440930128097534, 0.022520020604133606, -0.09370672702789307, 0.14176896214485168, 0.03369247168302536, -0.0995531976222992, 0.004162995144724846, 0.08998673409223557, -0.11591490358114243, -0.10813260078430176, -0.12219037115573883, -0.09049571305513382, 0.037525106221437454, 0.11405628174543381, -0.06270056217908859, -0.054568495601415634, 0.1300879716873169, -0.10186585038900375, 0.014112042263150215, 0.10620488226413727, 0.2290402501821518, 0.026670655235648155, -0.021208636462688446, 0.22754482924938202, 0.23058323562145233, 0.00289023551158607, 0.08178260177373886, -0.055960603058338165, -0.08336246013641357, 0.061437156051397324, 0.14885233342647552, -0.012680687941610813, 0.006013708189129829, 0.08739621192216873, -0.00853219348937273, -0.05953412130475044, 0.004291085992008448, 0.06342460215091705, -0.007113058585673571, -0.050188031047582626, 0.10487641394138336, 0.07299759238958359, -0.020994815975427628, 0.054312024265527725, 0.08887965977191925, 0.10733848810195923, 0.11803236603736877, 0.06246347725391388, 0.039900071918964386, -0.04457129165530205, -0.09021923691034317, 0.03848699480295181, 0.11031597852706909, -0.11812595278024673, -0.04912444204092026, 0.1237630695104599, 0.038163285702466965, -0.0009380492847412825, 0.05772755295038223, -0.08002170920372009, 0.13662971556186676, -0.013293210417032242, -0.06486792862415314, 0.03047449141740799, -0.07912208884954453, 0.0957840234041214, 0.16901610791683197, -0.05324960872530937, -0.1049235463142395, 0.06645471602678299, 0.10053597390651703, -0.02735188789665699, 0.05677236616611481, 0.22426672279834747, -0.05451923981308937, -0.033195171505212784, 0.07047510147094727, -0.10666538774967194, 0.05383571982383728, -0.003634331515058875, 0.034268900752067566, -0.15051378309726715, 0.05439963564276695, 0.09099695831537247, 0.0008871015161275864, 0.10293309390544891, 0.05677413567900658, -0.057585861533880234, 0.0859190970659256, -0.10842031240463257, 0.12040410935878754, -0.02249322272837162, -0.11900139600038528, 0.13192448019981384, 0.18484710156917572, -0.04982827231287956, 0.05816519260406494, -0.08332111686468124, -0.13498741388320923, 0.019007785245776176, 0.049678221344947815, -0.08807235956192017, -0.10146215558052063, -0.09821605682373047, -0.015165049582719803, -0.13391730189323425, 0.09044194966554642, -0.14692503213882446, 0.04074053838849068, -0.10234221816062927, 0.10223501920700073, 0.08138111233711243, 0.0018990328535437584, 0.018341731280088425, 0.12493334710597992, -0.027938688173890114, 0.11743907630443573, 0.12970079481601715, -0.004142052493989468, 0.0639033243060112, 0.09621285647153854, 0.10726846754550934, -0.07180129736661911, 0.04496706277132034, 0.09107676893472672, -0.11355354636907578, 0.01523809228092432, -0.0425240732729435, 0.10715740919113159, -0.08871183544397354, 0.01971481740474701, -0.07770965993404388, 0.030537310987710953, -0.07949362695217133, -0.021400244906544685, 0.16897648572921753, -0.12186166644096375, -0.07711093127727509, 0.056783486157655716, 0.04824598506093025, 0.025633497163653374, -0.05826689302921295, 0.15230713784694672, -0.030545206740498543, -0.06970910727977753, -0.04668940603733063, 0.09059932827949524, -0.07355538010597229, -0.08122546970844269, -0.09747693687677383, 0.100983627140522, -0.10841839015483856, -0.06932123005390167, 0.0219477079808712, -0.08829684555530548, 0.04248534142971039, 0.07659538090229034, -0.09905389696359634, 0.2266966700553894, 0.002154504880309105, 0.22811084985733032, 0.030689317733049393, 0.2426169216632843, 0.19953565299510956, -0.04616471752524376, 0.057790301740169525, 0.054777320474386215, -0.14159928262233734, 0.11466117203235626, -0.12285463511943817, -0.13320942223072052, -0.018764499574899673, -0.10416948795318604, 0.008388022892177105, 0.021874262019991875, -0.10017740726470947, 0.167429119348526, -0.10452579706907272, -0.027275236323475838, 0.060952428728342056, 0.09675291925668716, 0.00801001489162445, 0.015471627935767174, 0.11348704993724823, -0.06370371580123901, 0.007949775084853172, 0.11732091009616852, -0.013309439644217491, -0.07705958932638168, -0.14524133503437042, 0.059609878808259964, 0.07634520530700684, -0.12970207631587982, 0.11663004755973816, 0.08424876630306244, -0.1367071270942688, -0.13214953243732452, -0.009568634442985058, 0.09072500467300415, 0.020833952352404594, 0.18183130025863647, 0.14297334849834442, 0.14911724627017975, 0.026416758075356483, -0.10840727388858795, -0.07816960662603378, -0.039969101548194885, 0.10873789340257645, 0.08144140988588333, -0.14024017751216888, -0.13132444024085999, 0.13703496754169464, 0.005201722029596567, -0.14586544036865234, -0.07103218138217926, 0.03693448379635811, -0.08954963088035583, -0.006306007970124483, 0.19573555886745453, 0.1716827005147934, -0.046117838472127914, -0.014784938655793667, 0.12199927866458893, 0.01946253329515457, -0.08608067035675049, -0.1018238216638565, 0.17847338318824768, 0.04507787525653839, 0.11280292272567749, 0.008202359080314636, -0.06323299556970596, 0.005278571508824825, 0.06025882437825203, -0.08889533579349518, -0.14080823957920074, -0.07421735674142838, -0.13212743401527405, -0.001599903334863484, -0.0041011543944478035, 0.06700851023197174, 0.08178818970918655, 0.14967778325080872, -0.10391729325056076, -0.05651482194662094, 0.07017888128757477, 0.07448404282331467, -0.04318489506840706, 0.13528022170066833, 0.01536107249557972, -0.006848376244306564, -0.12138325721025467, 0.0022099383641034365, 0.13975763320922852, 0.13375923037528992, 0.018054286018013954, 0.05030585080385208, 0.030162928625941277, -0.13625295460224152, 0.0020349908154457808, -0.13207297027111053, 0.023213254287838936, 0.05115253105759621, 0.11831084638834, 0.12709327042102814, -0.07220615446567535, -0.1004321426153183, -0.036400459706783295, 0.03473967686295509, -0.00733247259631753, -0.07343676686286926, -0.02227604202926159, 0.09588023275136948, 0.07743775099515915, 0.08639097213745117, -0.07694504410028458, -0.04136384278535843, 0.03858669102191925, 0.0943833440542221, -0.1083829328417778, -0.10489912331104279, 0.09177946299314499, -0.08925562351942062, -0.08787596970796585, -0.05710882321000099, 0.12213241308927536, 0.042292430996894836, 0.07544335722923279, -0.02714410424232483, -0.08383797854185104, -0.12720593810081482, 0.21526741981506348, 0.010009159334003925, 0.08278154581785202, 0.18505139648914337, 0.10974062979221344, 0.11061400175094604, -0.030925922095775604, 0.0584208145737648, 0.09463861584663391, -0.1053323745727539, 0.09803126007318497, -0.03144972771406174, -0.09271986037492752, 0.07885859906673431, 0.08480671793222427, 0.037789780646562576, -0.06386221945285797, 0.12265866994857788, -0.09333860874176025, 0.12083130329847336, -0.03514132648706436, 0.0046854643151164055, -0.08033425360918045, 0.1243400126695633, -0.054792553186416626, 0.17067807912826538, 0.1429741084575653, -0.0803656056523323, 0.05873351916670799, 0.09841494262218475, 0.03909076005220413, -0.008989444002509117, 0.129074826836586, -0.1129104420542717, -0.045862242579460144, -0.0160740427672863, -0.03711242601275444, -0.025201143696904182, -0.09217163920402527, 0.04792632907629013, -0.12338235974311829, 0.024835463613271713, 0.07941623777151108, -0.12234712392091751, -0.10101094096899033, 0.08714628964662552, 0.060939304530620575, 0.17353421449661255, -0.17120200395584106, 0.10114259272813797, 0.009563606232404709, -0.15124225616455078, -0.15794025361537933, 0.03245403990149498, -0.06816224753856659, -0.14645220339298248, -0.056390877813100815, 0.14191360771656036, -0.12840670347213745, -0.14419987797737122, 0.14630120992660522, 0.13881950080394745, -0.09656504541635513, 0.1326412856578827, 0.17910026013851166, 0.07113566994667053, 0.10306684672832489, 0.20085285604000092, -0.03569905459880829, -0.04227648302912712, -0.1158917173743248, 0.040414899587631226, -0.12939324975013733, -0.16883522272109985, -0.011758696287870407, 0.08797244727611542, 0.10707063227891922, -0.00842216331511736, 0.08385351300239563, -0.022651147097349167, -0.08655670285224915, -0.007560452912002802, 0.056851424276828766, 0.10164659470319748, -0.011753535829484463, 0.0893518254160881, 0.009254515171051025, -0.10447396337985992, 0.07056331634521484, 0.016965355724096298, 0.048436664044857025, 0.04384514316916466, 0.007552703842520714, -0.14892920851707458, -0.04149187356233597, 0.1290062516927719, -0.12145157903432846, -0.11126450449228287, -0.07863613218069077, -0.12792542576789856, 0.12635791301727295, 0.02106691151857376, -0.004700621590018272, 0.14671887457370758, -0.13398054242134094, 0.057181164622306824, 0.07632879912853241, 0.10270737111568451, -0.10426685214042664, -0.08010929077863693, 0.0312260240316391, 0.04991507530212402, -0.07371131330728531, 0.07967386394739151, 0.05496123805642128, 0.09706264734268188, -0.07924503087997437, 0.031600646674633026, -0.0664241686463356, -0.1279311180114746, 0.0664476752281189, 0.054686568677425385, -0.1461525857448578, -0.14910750091075897, -0.11129872500896454, -0.01618865318596363, -0.012845464050769806, -0.06247172877192497, -0.036900557577610016, -0.07902427017688751, 0.040106963366270065, 0.09912509471178055, 0.08449143916368484, 0.06632336974143982, -0.01002248004078865