-0.08912470936775208, -0.09165260195732117, 0.06750835478305817, 0.09446621686220169, 0.028758589178323746, 0.00531872408464551, -0.09357975423336029, -0.06874486058950424, 0.04996573179960251, -0.042883072048425674, -0.06769610941410065, 0.019889233633875847, 0.042034681886434555, 0.05013403668999672, -0.07219915837049484, 0.03570745140314102, 0.020049529150128365, 0.0778081864118576, 0.06320726126432419, 0.043193917721509933, -0.08100700378417969, -0.07449881732463837, -0.04807000607252121, 0.004360193852335215, -0.020598215982317924, 0.06538896262645721, -0.09442367404699326, -0.08001558482646942, -0.09315910190343857, -0.08257412910461426, -0.051039695739746094, 0.07445265352725983, -0.01946556195616722, -0.06929755210876465, -0.08097206801176071, -0.04978006333112717, -0.02326790802180767, -0.09012523293495178, -0.08641480654478073, -0.02482876367866993, 0.06978454440832138, -0.0074682338163256645, 0.0656571090221405, -0.09598749876022339, -0.060530100017786026, -0.07287049293518066, 0.018397003412246704, -0.03535151481628418, -0.05778171122074127, -0.07200073450803757, 0.09176178276538849, 0.07160684466362, -0.088567815721035, 0.05417244881391525, 0.0801171213388443, 0.007531348150223494, -0.006877698935568333, 0.03232396021485329, -0.03740467131137848, 0.05666843056678772, 0.0672052651643753, 0.08230629563331604, 0.02152310498058796, -0.0074212090112268925, -0.05930802971124649, -0.059631574898958206, 0.0053340354934334755, 0.005356309004127979, 0.05825734883546829, 0.02929537370800972, 0.026670189574360847, -0.04713771492242813, -0.01494453102350235, -0.08817501366138458, -0.06443385779857635, 0.0705772340297699, -0.00599404564127326, -0.06127677112817764, -0.09406469762325287, 0.052069492638111115, 0.07740149646997452, -0.03749806806445122, -0.07237932085990906, -0.07255354523658752, 0.005917842499911785, -0.026036186143755913, -0.07628509402275085, -0.08079256862401962, -0.0725320354104042, 0.030978607013821602, -0.0739390179514885, 0.00048031253390945494, -0.08071422576904297, 0.09567327052354813, 0.07048177719116211, 0.08516707271337509, 0.04904232919216156, -0.08898425847291946, 0.058263350278139114, -0.02418491058051586, -0.012355472892522812, -0.02440834976732731, -0.08387235552072525, -0.07962094247341156, 0.09032736718654633, 0.028318801894783974, -0.08671905845403671, 0.007865400984883308, 0.010839669033885002, 0.017812732607126236, 0.11320757120847702, -0.015224500559270382, 0.03827666863799095, 0.14813490211963654, 0.056502509862184525, -0.03546993061900139, 0.03148873522877693, -0.07018660753965378, -0.08619993925094604, -0.0235968679189682, 0.024857308715581894, -0.06226475164294243, 0.06837279349565506, -0.076819509267807, -0.09157677739858627, 0.008364250883460045, 0.03354153409600258, 0.08273014426231384, -0.044493816792964935, 0.1012621521949768, 0.04495074972510338, 0.04898025467991829, -0.05074944719672203, -0.06261392682790756, 0.05361297354102135, 0.021036842837929726, 0.02730405516922474, 0.03867093846201897, 0.09893719106912613, 0.06578771770000458, 0.05437270551919937, 0.0572502538561821, 0.02467852644622326, -0.06317813694477081, 0.006388678215444088, -0.06375294923782349, -0.01933887042105198, -0.03446449711918831, 0.0493636429309845, -0.02102058194577694, -0.0579247884452343, -0.033024512231349945, 0.051346227526664734, 0.027729790657758713, 0.06997086107730865, -0.08422386646270752, -0.01773744821548462, 0.04706086218357086, -0.05841294676065445, 0.08622664958238602, 0.055365003645420074, -0.05249615013599396, 0.041450291872024536, -0.09331851452589035, -0.029663877561688423, 0.06587913632392883, 0.02950878068804741, -0.04003341495990753, -0.055889248847961426, -0.09215798228979111, -0.08938929438591003, 0.06716819107532501, 0.004676387645304203, -0.06806690990924835, 0.011593684554100037, 0.07801209390163422, -0.031273409724235535, -0.068846195936203, -0.049647774547338486, 0.01010966021567583, 0.04673026129603386, 0.09950462728738785, 0.004365223925560713, -0.049691736698150635, -0.039041195064783096, 0.08080301433801651, 0.014521976932883263, -0.07986825704574585, -0.0036957894917577505, -0.0442156121134758, -0.029257042333483696, 0.059345562011003494, 0.012796624563634396, 0.05249039828777313, 0.10050562024116516, -0.0644000992178917, 0.0335225984454155, 0.06059218570590019, -0.04196872562170029, 0.12005851417779922, -0.024875745177268982, -0.05539223551750183, 0.11753513664007187, 0.07340127974748611, -0.16177788376808167, -0.09658125042915344, 0.04865545034408569, 0.08623481541872025, 0.10718786716461182, 0.12001349031925201, -0.02814839407801628, 0.13694210350513458, 0.13277600705623627, -0.06266656517982483, 0.03620564192533493, 0.11654448509216309, -0.08261648565530777, -0.10263917595148087, 0.11765588074922562, -0.09225161373615265, -0.009066860191524029, 0.13004155457019806, -0.0932132825255394, -0.11983039230108261, 0.15119066834449768, 0.017657669261097908, 0.09304481744766235, -0.08524186909198761, -0.07410656660795212, -0.0909673348069191, 0.0460178479552269, -0.092592753469944, -0.003259994788095355, -0.027047429233789444, -0.05438308045268059, 0.06827712059020996, -0.014320221729576588, -0.03787435591220856, -0.026016676798462868, 0.1126311868429184, 0.08583928644657135, -0.04095526412129402, 0.03283727169036865, -0.03583289310336113, -0.024324119091033936, 0.01995602250099182, -0.02805774100124836, 0.020589737221598625, 0.03615172207355499, 0.04065920040011406, 0.04709871858358383, 0.038679089397192, -0.04865343123674393, -0.08975569903850555, -0.07938815653324127, -0.01200517825782299, 0.0031965947709977627, -0.0047874487936496735, -0.0289287231862545, 0.06284143030643463, -0.021217714995145798, 0.06661128252744675, -0.06933094561100006, -0.08675370365381241, 0.08837829530239105, 0.01721414364874363, 0.0627204030752182, -0.07704050093889236, 0.06295107305049896, -0.08790381997823715, 0.07377929985523224, 0.09492497891187668, -0.019950872287154198, 0.09180330485105515, -0.05786043778061867, -0.08825938403606415, 0.015081713907420635, -0.0018864927114918828, 0.023674670606851578, 0.054941724985837936, -0.012386530637741089, -0.06533151119947433, 0.030233852565288544, 0.08453182131052017, 0.015548978000879288, -0.05543868616223335, 0.02397732436656952, -0.08156303316354752, -0.08624788373708725, 0.056916553527116776, 0.004868804011493921, -0.07980746775865555, 0.029920002445578575, 0.0861653983592987, 0.03877266123890877, -0.03408447280526161, 0.0019209127640351653, -0.073761947453022, 0.05974087491631508, 0.0612422339618206, -0.05310444161295891, 0.09401065856218338, 0.12628765404224396, -0.08750803023576736, 0.0657162219285965, 0.02831641025841236, -0.056626610457897186, -0.05275701358914375, 0.03225007280707359, -0.07928719371557236, 0.05545249581336975, -0.04104404151439667, 0.02073136530816555, -0.0831860899925232, 0.06250039488077164, -0.028042830526828766, 0.014641777612268925, 0.10721651464700699, 0.0015396845992654562, 0.0476168654859066, 0.1583077758550644, -0.0999143049120903, -0.08069655299186707, 0.15654399991035461, -0.046875715255737305, -0.01019958034157753, -0.0490804947912693, 0.03613767400383949, -0.034301139414310455, 0.05404723808169365, -0.09270429611206055, -0.0645349845290184, -0.06900089234113693, 0.08603956550359726, 0.061463113874197006, 0.08601213246583939, -0.07216979563236237, 0.06626702845096588, 0.08042984455823898, -0.03501947969198227, -0.05351697653532028, 0.03215301036834717, -0.015396439470350742, 0.049615949392318726, -0.07444347441196442, 0.055544164031744, 0.024729490280151367, -0.09373272210359573, -0.08435072749853134, 0.02712186425924301, -0.07365799695253372, -0.07586071640253067, 0.034548331052064896, -0.06467072665691376, -0.09433286637067795, -0.011642903089523315, -0.0850750133395195, 0.08800219744443893, 0.06935478746891022, 0.03568386659026146, -0.0787358283996582, 0.027631253004074097, -0.028944598510861397, 0.07117269188165665, -0.009823434986174107, 0.07496201246976852, 0.07255783677101135, 0.09380070865154266, -0.026886755600571632, -0.011244622990489006, -0.056057535111904144, 0.05664001405239105, -0.05148414522409439, 0.0416552908718586, 0.025528278201818466, -0.057799793779850006, -0.027819260954856873, 0.09522533416748047, 0.06255581229925156, 0.047879982739686966, 0.040916770696640015, 0.08253417164087296, -0.014184675179421902, 0.03281940147280693, 0.005949231795966625, -0.0034532169811427593, 0.03143798187375069, 0.061510130763053894, 0.00794953852891922, 0.08020046353340149, -0.051356762647628784, -0.05354750528931618, -0.08146972209215164, 0.03265167772769928, 0.06460252404212952, 0.04792793095111847, -0.02461513690650463, -0.09503041952848434, 0.07825369387865067, -0.0883292555809021, 0.006813026499003172, -0.027178531512618065, -0.012092792429029942, -0.009059778414666653, -0.04537467658519745, -0.08353730291128159, -0.047725141048431396, -0.0537240169942379, 0.00856178067624569, -0.06470008194446564, -0.04318384453654289, 0.0004311803786549717, -0.008781236596405506, 0.06440798938274384, 0.08905404806137085, -0.05399349704384804, 0.02589048445224762, -0.048599906265735626, -0.08863847702741623, 0.08613014221191406, 0.024021442979574203, 0.08443626761436462, -0.06228525936603546, 0.028906764462590218, -0.06475991755723953, -0.04274269565939903, -0.09391170740127563, -0.002897766651585698, -0.09014041721820831, -0.04581179469823837, -0.07029344141483307, 0.0034082771744579077, -0.003410029225051403, -0.06655208021402359, -0.018014639616012573, -0.03710484504699707, 0.06990839540958405, -0.03542572259902954, 0.017554493620991707, -0.006387963425368071, 0.06044791266322136, -0.08624807000160217, -0.03959037363529205, -0.04401902109384537, 0.03540167212486267, 0.05485131964087486, 0.004720506723970175, -0.05240502581000328, -5.4401309171225876e-05, -0.09342875331640244, 0.03885769471526146, -0.025835279375314713, -0.0795179009437561, -0.060614559799432755, 0.03447587043046951, -0.03881043940782547, -0.061743415892124176, 0.03327624499797821, 0.013550208881497383, -0.0718442052602768, 0.09129209816455841, -0.09246481955051422, -0.06721414625644684, -0.06425683945417404, -0.0475483275949955, 0.04889688268303871, -0.046796780079603195, -0.08581925183534622, 0.018230179324746132, -0.03081279806792736, 0.010920863598585129, -0.035673532634973526, -0.05837998911738396, 0.030381137505173683, 0.07240436971187592, -0.06618630141019821, -0.03240698575973511, 0.06847460567951202, 0.05980253964662552, -0.07700750231742859, -0.02943246252834797, -0.031038083136081696, -0.0355069600045681, 0.0827394649386406, -0.048006296157836914, 0.09416645765304565, 0.0076277367770671844, -0.032112348824739456, -0.02969476580619812, -0.04526180401444435, 0.02556261047720909, 0.07461287826299667, 0.09497606009244919, 0.0012077708961442113, 0.0011855108896270394, 0.038642071187496185, -0.07866606116294861, 0.01823490858078003, 0.018738878890872, -0.027482135221362114, -0.05089358985424042, -0.02921682968735695, 0.06086114048957825, -0.020327158272266388, -0.004072098061442375, -0.0759112536907196, 0.015262341126799583, 0.08689448982477188, 0.03885770961642265, -0.0653097853064537, -0.005036763846874237, 0.04784618690609932, 0.01639358140528202, -0.05168925225734711, -0.04442572221159935, -0.029736941680312157, 0.07488742470741272, -0.0006164296064525843, -0.061553891748189926, -0.08628606051206589, -0.03864896297454834, 0.012303106486797333, 0.0926351249217987, -0.09470805525779724, -0.05483990162611008, -0.032764140516519547, 0.07124856859445572, 0.014881309121847153, 0.09298394620418549, 0.06105832755565643, -0.0631045550107956, 0.030572857707738876, 0.055705200880765915, -0.03912045806646347, 0.028208421543240547, 0.019796930253505707, -0.02956327423453331, -0.04999388009309769, -0.006960790138691664, 0.06537891924381256, 0.10171380639076233, -0.015222062356770039, 0.08451354503631592, 0.13238045573234558, 0.03646628186106682, 0.08982302248477936, 0.06909597665071487, 0.051061876118183136, -0.07675249129533768, 0.032124508172273636, -0.0958344116806984, -0.006408164743334055, -0.06355053931474686, -0.034434832632541656, 0.04679395630955696, -0.030272506177425385, -0.07529143989086151, 0.05279753357172012, 0.028139762580394745, -0.06877119839191437, 0.05074521526694298, 0.03207950294017792, -0.00013436190783977509, 0.10787010937929153, 0.008707025088369846, -0.0028826207853853703, 0.11102034896612167, 0.08305863291025162, 0.0536765530705452, 0.020758355036377907, 0.07813002914190292, -0.08995629847049713, -0.0461810939013958, -0.07471783459186554, 0.09306816011667252, 0.05869380384683609, -0.09901254624128342, -0.08369118720293045, -0.07765171676874161, -0.054243601858615875, 0.05064115673303604, -0.039276134222745895, 0.026673922315239906, -0.05220995470881462, 0.02153349481523037, -0.04860413819551468, 0.04762694612145424, -0.026258528232574463, -0.040747303515672684, -0.05916137620806694, 0.06474790722131729, 0.007163589354604483, -0.03795507550239563, -0.04613446444272995, 0.022577039897441864, -0.014325614087283611, 0.08251588046550751, -0.09153799712657928, 0.07110589742660522, -0.001033542095683515, 0.016022484749555588, 0.0911935493350029, -0.0834117904305458, 0.03217316046357155, 0.07132318615913391, 0.03461245447397232, -0.019847523421049118, -0.006060956511646509, -0.07589908689260483, 0.07875673472881317, -0.09886950254440308, -0.01032562181353569, -0.013151546940207481, 0.005579036194831133, 0.003978865686804056, -0.017523551359772682, -0.04843088984489441, -0.08621465414762497, -0.06663912534713745, 0.028857147321105003, -0.01688511297106743, -0.049440257251262665, 0.09733398258686066, 0.11082921922206879, -0.010550064966082573, 0.0052689239382743835, -0.015445551835000515, -0.04067082703113556, -0.09943748265504837, 0.001446432899683714, -0.04931630566716194, 0.006876694969832897, -0.05649932101368904, 0.042117923498153687, -0.0730806216597557, -0.07776182144880295, -0.055310867726802826, 0.04353555291891098, 0.0005986945470795035, -0.0679294541478157, -0.049298640340566635, -0.015936439856886864, -0.03335321322083473, 0.0391332246363163, 0.06479096412658691, 0.12351240962743759, 0.07461388409137726, -0.09495517611503601, -0.12140398472547531, -0.09751743078231812, 0.08774501085281372, -0.05610375106334686, 0.03681173920631409, 0.009088819846510887, 0.018813420087099075, -0.08297812938690186, 0.08403429388999939, 0.05152270942926407, -0.05676297843456268, 0.006984315346926451, 0.017166562378406525, 0.01256551593542099, 0.03824207931756973, -0.03118187189102173, 0.07835777848958969, -0.0957958847284317, 0.05859142541885376, -0.011139646172523499, 0.07866941392421722, 0.03841845691204071, 0.024252142757177353, 0.014401951804757118, -0.04528125748038292, -0.007898426614701748, -0.06301303207874298, -0.09302540123462677, -0.00540984096005559, -0.058337002992630005, 0.09479623287916183, -0.045252036303281784, 0.028443289920687675, 0.03479048237204552, -0.0898778885602951, 0.0046432181261479855, -0.08370215445756912, -0.017098000273108482, -0.01564994640648365, 0.06863190978765488, -0.009633183479309082, -0.08714821934700012, -0.02822704240679741, -0.08704592287540436, -0.07570990175008774, -0.06147130951285362, -0.029943259432911873, -0.03418836370110512, -0.012717405334115028, -0.09381569176912308, -0.002304920693859458, -0.04594205692410469, -0.09473470598459244, -0.010051198303699493, -0.021183306351304054, 0.06378376483917236, -0.019347140565514565, -0.01456570066511631, 0.011621269397437572, -0.025541581213474274, 0.07322937995195389, -0.0625317245721817, 0.08462614566087723, 0.043488841503858566, 0.09920033067464828, 0.09980916976928711, 0.001421629567630589, 0.06266308575868607, -0.07534971088171005, 0.07782402634620667, 0.06425265222787857, -0.02364630065858364, -0.006658980157226324, 0.018365250900387764, -0.023307863622903824, -0.040013447403907776, -0.07176513969898224, -0.0004804694908671081, -0.07334671169519424, 0.0815010666847229, 0.05734725296497345, 0.022412264719605446, -0.07608401775360107, 0.09728840738534927, 0.06460384279489517, -0.020053749904036522, 0.00010452508286107332, -0.07451298832893372, 0.013370458036661148, -0.057038091123104095, -0.10890614241361618, -0.05586013197898865, -0.03841805458068848, 0.072715625166893, -0.08366575837135315, 0.0590800940990448, -0.09763602912425995, 0.032156649976968765, 0.02512527070939541, -0.014713497832417488, -0.06980472803115845, 0.06945903599262238, -0.10607931762933731, 0.04268990457057953, 0.012257556430995464, -0.06767198443412781, 0.11806157231330872, 0.15319857001304626, 0.16332677006721497, 0.13013584911823273, -0.041940975934267044, 0.12433958798646927, -0.08104057610034943, 0.05814453214406967, 0.048082318156957626, -0.004869252443313599, -0.05288925766944885, -0.026040690019726753, -0.0563998781144619, 0.024028155952692032, -0.010937947779893875, 0.07744809240102768, -0.08414945751428604, 0.017391929402947426, -0.023206304758787155, 0.012777752242982388, -0.08088742196559906, -0.03929078206419945, 0.10294210910797119, 0.07885264605283737, 0.05984405800700188, -0.002511049620807171, 0.004206518642604351, 0.0030313455499708652, -0.01658465713262558, 0.022677456960082054, -0.03241083770990372, 0.02012862078845501, -0.05495532602071762, 0.07395876944065094, -0.010382922366261482, 0.0389988049864769, 0.02992270514369011, -0.020878149196505547, -0.007606778759509325, 0.08301359415054321, -0.01574818231165409, 0.08266473561525345, -0.015206496231257915, 0.03594251722097397, -0.08229795843362808, -0.002730719279497862, -0.049318697303533554, -0.059630829840898514, 0.004962990526109934, 0.0744800791144371, 0.07088734954595566, -0.00598469702526927, 0.018796052783727646, 0.0828852504491806, -0.046074144542217255, 0.02780618518590927, -0.0495254322886467, 0.09002002328634262, -0.07042912393808365, -0.04267234727740288, -0.028374701738357544, -0.08922013640403748, 0.0728674978017807, 0.04300462827086449, 0.06903786957263947, 0.021900171414017677, -0.04042015224695206, 0.08585301041603088, -0.09913727641105652, 0.06951945275068283, -0.07064387947320938, -0.03324449062347412, -0.03951898217201233, -0.07792729139328003, -0.08684340864419937, 0.04321034252643585, -0.03560235723853111, -0.043121445924043655, 0.05578629672527313, -0.06970623135566711, 0.07515158504247665, -0.07917667925357819, -0.02527882531285286, 0.053176671266555786, 0.007483264431357384, 0.10352884978055954, -0.05718037486076355, 0.11348146945238113, 0.04050539806485176, -0.04239774867892265, -0.06549795717000961, 0.027915747836232185, -0.017632324248552322, 0.1024617925286293, 0.1047806367278099, -0.038469914346933365, -0.01654949225485325, 0.06628190726041794, -0.09113085269927979, -0.10188601166009903, -0.13906441628932953, 0.07301533967256546, 0.09148799628019333, 0.09246834367513657, 0.0335724838078022, -0.09641706198453903, 0.10776504874229431, -0.06440082937479019, -0.07895051687955856, -0.04879868030548096, -0.08681562542915344, -0.09396205097436905, -0.08228130638599396, -0.07656575739383698, -0.07170596718788147, 0.07673389464616776, 0.017696088179945946, 0.13834446668624878, 0.02370590716600418, 0.014092090539634228, 0.07765576988458633, -0.06164247542619705, 0.00966542400419712, 0.012446985580027103, -0.07181970030069351, 0.03347065672278404, 0.0564434751868248, -0.04361962899565697, -0.013807692565023899, 0.002699431497603655, -0.08115716278553009, 0.09758448600769043, -0.08890818804502487, -0.07230105251073837, 0.06994940340518951, 0.00568090844899416, -0.07076997309923172, 0.013934159651398659, -0.04536748677492142, -0.09058564156293869, 0.014684000983834267, 0.05972907692193985, 0.004833204671740532, -0.03837668523192406, 0.0023233338724821806, 0.06146248057484627, 0.05937040597200394, 0.05502362549304962, -0.07275903224945068, -0.08470345288515091, 0.07491322606801987, -0.032803356647491455, -0.0609225258231163, 0.0729508176445961, 0.09213873744010925, -0.04885910078883171, -0.033247724175453186, -0.008220486342906952, 0.04713427275419235, -0.05914090573787689, 0.04687073454260826, 0.08406800031661987, 0.012707745656371117, -0.04037395119667053, -0.02200791984796524, -0.0559307336807251, -0.01291732769459486, 0.0346134789288044, -0.008725935593247414, -0.037989526987075806, -0.02532234787940979, -0.0528375618159771, -0.008576878346502781, -0.03965863585472107, -0.08591076731681824, 0.08964206278324127, 0.09496284276247025, -0.07785709202289581, 0.07932776212692261, -0.029245972633361816, 0.03447025269269943, 0.0426330640912056, -0.016704877838492393, 0.030210524797439575, -0.08912855386734009, -0.024447578936815262, 0.0316990502178669, 0.055279314517974854, -0.07886361330747604, -0.005824700463563204, -0.09388668090105057, 0.016627969220280647, -0.02592000924050808, 0.07785888016223907, 0.07035788893699646, -0.016339071094989777, -0.012071235105395317, -0.0043901302851736546, -0.046991247683763504, -0.09139526635408401, 0.023756684735417366, -0.03402205929160118, -0.04169807210564613, 0.07655154168605804, -0.07657062262296677, -0.06788679957389832, 0.035088106989860535, 0.04916102811694145, -0.03173796460032463, -0.00019645261636469513, -0.02376469597220421, -0.01170735526829958, 0.05307275429368019, -0.05864529311656952, -0.008229045197367668, -0.0014622925082221627, 0.04744488000869751, 0.04066172614693642, 0.09049537777900696, 0.05382664129137993, 0.09663296490907669, 0.077005535364151, 0.08389856666326523, 0.14261826872825623, 0.02853810414671898, 0.1764136701822281, 0.13162687420845032, 0.04290870204567909, -0.00983649492263794, -0.057221245020627975, -0.03842468932271004, -0.04351755231618881, 0.07416092604398727, 0.06386740505695343, -0.09105724096298218, -0.055940620601177216, 0.020963553339242935, -0.031285207718610764, 0.03415022790431976, 0.08318743854761124, 0.026636816561222076, -0.10568927228450775, 0.10431555658578873, 0.06007860228419304, 0.011365871876478195, 0.018895888701081276, 0.03253154456615448, 0.0030857515521347523, -0.03722868859767914, 0.03022635541856289, -0.07899660617113113, -0.015811890363693237, -0.012982744723558426, 0.07286329567432404, -0.07338245213031769, -0.053084928542375565, -0.04138364642858505, -0.03746888414025307, 0.0071807983331382275, -0.016254257410764694, -0.05025295168161392, -0.011942999437451363, -0.04900042340159416, -0.05255208909511566, 0.022429730743169785, 0.09224946796894073, 0.08501224219799042, -0.04316296800971031, 0.0674954280257225, -0.07128413766622543, 0.08674115687608719, -0.06817477196455002, -0.007784969173371792, 0.07556731253862381, 0.03426063805818558, -0.05522878095507622, -0.0393020398914814, 0.09577981382608414, 0.08745890855789185, -0.007367063779383898, 0.009153436869382858, -0.02304687164723873, -0.0995100885629654, -0.03175194934010506, -0.008655630052089691, -0.09248674660921097, -0.053751617670059204, -0.058358266949653625, -0.008797413669526577, 0.04707789048552513, -0.04823426157236099, -0.04544096067547798, -0.07724806666374207, 0.09591783583164215, -0.022040244191884995, 0.0008284373325295746, -0.0749250203371048, -0.0112950149923563, -0.0423739030957222, -0.010915708728134632, -0.016999050974845886, -0.04560409486293793, -0.029006367549300194, -0.052249372005462646, 0.09821964800357819, -0.06995074450969696, 0.04389405995607376, -0.012465191073715687, -0.0594748891890049, 0.07714596390724182, -0.01424604095518589, 0.017635399475693703, 0.10518980026245117, 0.022116096690297127, -0.02045021951198578, 0.07281439751386642, 0.02139866165816784, 0.0791088342666626, -0.03347889706492424, -0.020931486040353775, 0.06462361663579941, -0.01792355254292488, -0.0032482657115906477, -0.008235950954258442, 0.15565501153469086, 0.06693980097770691, 0.03189871087670326, -0.09550260007381439, 0.11092932522296906, 0.014547059312462807, 0.030828380957245827, 0.04923655837774277, -0.03451463580131531, 0.04330499842762947, -0.01803094707429409, 0.08909768611192703, -0.05213833600282669, 0.052042216062545776, 0.08877630531787872, -0.029352938756346703, 0.037444040179252625, -0.024165291339159012, 0.07419031113386154, -0.07217303663492203, -0.06374450773000717, 0.05393972247838974, 0.06120910122990608, 0.09298434108495712, 0.0011199271539226174, 0.013715101405978203, 0.07952442020177841, 0.027722060680389404, -0.08770189434289932, 0.06892575323581696, -0.012582166120409966, -0.08552144467830658, -0.08297915011644363, 0.0815320834517479, 0.07592660188674927, 0.00033297299523837864, 0.026786845177412033, -0.016951769590377808, -0.043744899332523346, -0.049371689558029175, 0.02607041597366333, 0.05752934515476227, -0.0820062905550003, 0.0722365751862526, 0.09065268933773041, 0.03269106149673462, 0.0440121591091156, 0.06495693325996399, -0.05761091038584709, 0.011393938213586807, 0.05069843307137489, 0.06700266152620316, -0.06915261596441269, 0.06346093863248825, -0.02103608474135399, 0.05318098142743111, -0.04660434648394585, 0.08665550500154495, 0.0024179150350391865, 0.06674668937921524, -0.046680569648742676, 0.013970483094453812, 0.00440111942589283, -0.0020013656467199326, 0.05689050629734993, 0.03749115392565727, 0.03925969824194908, 0.055252015590667725, 0.0805751159787178, -0.02970035746693611, 0.04119960591197014, -0.04076831415295601, 0.08093975484371185, 0.015623511746525764, -0.06281652301549911, -0.04221074655652046, -0.07809120416641235, -0.07663188874721527, 0.0999976396560669, 0.02335410565137863, 0.020635489374399185, 0.05699170380830765, -0.06748489290475845, 0.07046124339103699, -0.0017605614848434925, -0.08267385512590408, 0.10104318708181381, 0.050229303538799286, -0.0014098761603236198, -0.005122315604239702, 0.0843975692987442, 0.10983838140964508, -0.027332738041877747, 0.03930600360035896, 0.07717198133468628, -0.04114418104290962, 0.004141882993280888, 0.1099090576171875, -0.04214766249060631, -0.03551620990037918, 0.001555534079670906, -0.016261586919426918, -0.03460086137056351, 0.024678677320480347, -0.005544067360460758, 0.03941228985786438, 0.05286196619272232, -0.009296263568103313, 0.04681218042969704, -0.05247073248028755, 0.15660563111305237, 0.07861627638339996, 0.20860472321510315, 0.08014612644910812, 0.19208545982837677, 0.20356933772563934, 0.02449112758040428, 0.0420953705906868, 0.10149511694908142, -0.0716315433382988, -0.057849783450365067, -0.01097861211746931, 0.027453815564513206, 0.055474653840065, 0.0892689898610115, 0.05979267135262489, 0.004600759595632553, -0.013675463385879993, 0.06489954888820648, 0.06719988584518433, 0.0421377457678318, 0.07645833492279053, -0.02635551430284977, -0.0031005318742245436, 0.13426116108894348, 0.05810778960585594, -0.09564390778541565, 0.08730895072221756, -0.0862799733877182, 0.0782807469367981, -0.05247257649898529, -0.017327148467302322, -0.0967133492231369, -0.06090627983212471, 0.05569285899400711, -0.06403053551912308, -0.09878548234701157, 0.031839869916439056, 0.098417729139328, -0.0638340562582016, 0.028459930792450905, 0.04652772471308708, -0.03873094543814659, -0.06497444212436676, -0.012681507505476475, -0.09390082210302353, 0.045699167996644974, -0.028216931968927383, -0.0234527587890625, -0.06807781010866165, 0.02043635956943035, -0.07494410872459412, 0.04951384291052818, 0.01701885461807251, -0.031430430710315704, -0.09295438975095749, 0.028496647253632545, -0.017320208251476288, -0.023326940834522247, -0.07663803547620773, 0.05484680086374283, -0.021952113136649132, 0.015743406489491463, 0.0826716497540474, -0.08152215927839279, 0.020210376009345055, 0.04544641450047493, -0.09416939318180084, -0.10973676294088364, -0.05700165033340454, -0.04767274111509323, -0.11366107314825058, 0.10041174292564392, 0.039936214685440063, -0.008328128606081009, -0.050902701914310455, 0.053599368780851364, -0.05441540479660034, 0.0727720707654953, 0.004769606050103903, -0.07744956016540527, 0.1279313713312149, 0.1365114450454712, 0.07308568060398102, 0.08253057301044464, 0.03449767082929611, -0.04110849276185036, 0.016087783500552177, 0.08841020613908768, 0.024223683401942253, 0.12147809565067291, 0.13357551395893097, 0.12863129377365112, 0.08239354938268661, -0.06815063208341599, 0.08220002055168152, -0.1331440508365631, 0.030717840418219566, -0.007510182913392782, 0.028342491015791893, 0.1692342609167099, 0.13674838840961456, 0.09697587788105011, 0.08194278180599213, 0.0261081513017416, 0.10732053965330124, 0.08757954835891724, 0.0627322569489479, 0.09530408680438995, -0.009662944823503494, 0.08777177333831787, 0.03832437843084335, 0.0786169022321701, 0.03710893914103508, 0.022189877927303314, -0.052334535866975784, -0.03215821832418442, -0.07745755463838577, 0.03110184706747532, 0.045891717076301575, -0.0036187157966196537, 0.08142855763435364, 0.07427816092967987, -0.03380369767546654, -0.088572196662426, -0.030982309952378273, 0.011194424703717232, -0.06780466437339783, -0.0725654736161232, -0.07935581356287003, -0.08321749418973923, 0.02367665059864521, -0.034364547580480576, -0.013798443600535393, 0.03677719458937645, 0.04108713939785957, -0.01351737417280674, -0.05946006625890732, -0.09356418251991272, -0.01660386472940445, 0.0627140998840332, 0.08297716826200485, -0.017949797213077545, -0.060603927820920944, 0.07551204413175583, -0.04395361244678497, -0.05318969860672951, -0.09498074650764465, -0.08304231613874435, -0.0638418048620224, -0.023630155250430107, -0.024138953536748886, 0.06684520840644836, -0.05140722170472145, -0.07636340707540512, -0.07135611027479172, -0.03530361130833626, -0.004739155527204275, -0.013986438512802124, 0.07134868949651718, 0.03521089255809784, 0.04200932756066322, 0.09152489900588989, 0.01604435034096241, -0.0539565235376358, -0.09036669880151749, -0.025081226602196693, -0.02113162912428379, -0.010239647701382637, 0.08125167340040207, -0.029113471508026123, 0.020321641117334366, 0.05685719847679138, 0.02710028365254402, 0.08294401317834854, 0.08564061671495438, -0.012029979377985, 0.06296227872371674, -0.03246108442544937, 0.031761132180690765, -0.021714968606829643, 0.015583517961204052, -0.06331899762153625, -0.06891888380050659, 0.024505900219082832, -0.09620720148086548, -0.048855554312467575, -0.08339004218578339, -0.08038999885320663, 0.03690832108259201, -0.025861935690045357, -0.08394050598144531, 0.04837106540799141, -0.08269840478897095, 0.021959969773888588, -0.06086421012878418, 0.09609469026327133, 0.060529258102178574, 0.041424259543418884, -0.009508286602795124, 0.07394956052303314, 0.07842696458101273, 0.08963094651699066, -0.031195007264614105, -0.04564310610294342, -0.03877219557762146, -0.006508581340312958, 0.08790156245231628, 0.08318483829498291, -0.0692073255777359, -0.06370946019887924, 0.10301615297794342, -0.07662610709667206, 0.05998145416378975, 0.06690692901611328, 0.08313178271055222, 0.1646462380886078, 0.032278090715408325, -0.09762105345726013, 0.0751250684261322, -0.01590123400092125, 0.028143154457211494, 0.04306444153189659, 0.06062643229961395, 0.05696640908718109, -0.08292768150568008, 0.08375004678964615, -0.08257435262203217, 0.008544922806322575, -0.04997742548584938, -0.07731568813323975, 0.060317035764455795, -0.021651973947882652, 0.061747342348098755, -0.03745359554886818, -0.040155552327632904, 0.0036741886287927628, -0.07286462187767029, -0.05808116868138313, 0.03756408020853996, -0.012586770579218864, 0.04655797407031059, 0.06680404394865036, -0.08764537423849106, 0.08981571346521378, 0.0756763368844986, -0.07118082791566849, -0.0316305048763752, 0.05333753675222397, -0.05167855694890022, 0.029410237446427345, 0.008700120262801647, -0.0263645239174366, -0.022477861493825912, 0.09402704983949661, -0.002769057871773839, 0.07594149559736252, -0.09334328025579453, -0.006918712519109249, -0.09406951069831848, -0.08624900877475739, 0.0014560176059603691, 0.027456972748041153, -0.0070850299671292305, 0.04708291217684746, 0.036534328013658524, 0.03910421207547188, 0.09036467224359512, -0.04879201203584671, -0.052258897572755814, 0.03099801391363144, 0.07387306541204453, -0.0622042641043663, -0.009351507760584354, 0.06410891562700272, 0.030223388224840164, -0.035535309463739395, 0.0034359877463430166, -0.04235628992319107, 0.01894400455057621, -0.08667449653148651, 0.0635286495089531, -0.0707385465502739, -0.035511963069438934, 0.05202961713075638, -0.030468352138996124, 0.06108067184686661, 0.0008383154636248946, 0.07332354038953781, 0.08826512098312378, -0.08722897619009018, 0.08392670005559921, 0.06372974067926407, 0.07215461134910583, 0.09355200082063675, -0.015987765043973923, 0.06542465835809708, 0.0324646532535553, 0.08234570920467377, -0.07585082203149796, 0.031132811680436134, 0.025815898552536964, -0.06724180281162262, 0.10924194008111954, 0.09967483580112457, 0.08966664224863052, 0.12964379787445068, -0.02104855701327324, 0.013772157952189445, 0.01228603720664978, 0.013693153858184814, 0.025522051379084587, -0.13399143517017365, 0.05951209366321564, 0.02149919420480728, 0.11363080888986588, -0.08599042147397995, -0.008329297415912151, 0.20187483727931976, 0.1423235982656479, -0.0711178258061409, -0.03314962983131409, 0.08557069301605225, 0.03602801635861397, 0.07105822116136551, 0.1072295680642128, -0.1187373474240303, -0.031615328043699265, 0.13573306798934937, 0.0810866504907608, -0.1103605106472969, 0.03375036269426346, 0.09602488577365875, 0.026081079617142677, 0.029012031853199005, -0.01825862191617489, -0.05782506242394447, -0.053010109812021255, -0.02393871359527111, 0.051864270120859146, -0.035712845623493195, -0.06899941712617874, -0.002271058736369014, 0.03980783373117447, 0.02690068446099758, -0.05529243126511574, 0.02832009084522724, -0.020939957350492477, 0.0727035328745842, 0.058511219918727875, 0.06672222912311554, 0.05198104307055473, 0.009653390385210514, -0.0001160405736300163, 0.03141168877482414, 0.030129430815577507, -0.0359821617603302, 0.0033514215610921383, 0.005836957599967718, -0.08885368704795837, 0.03391444310545921, -0.05285065248608589, 0.013746167533099651, 0.040973857045173645, 0.06572479009628296, -0.012081120163202286, 0.009317152202129364, 0.0638229176402092, 0.0611465759575367, 0.07440576702356339, 0.05120725929737091, 0.07180602848529816, -0.0068394094705581665, 0.08002429455518723, 0.08037213981151581, 0.08774638175964355, -0.030521998181939125, 0.03337828069925308, -0.023948851972818375, -0.019037488847970963, 0.030895890668034554, 0.0009713558829389513, -0.0589633509516716, -0.08528528362512589, 0.003429145785048604, -0.0554712638258934, -0.07753585278987885, -0.0165803674608469, -0.07053156942129135, -0.016748959198594093, 0.06996159255504608, -0.00018506367632653564, -0.10340696573257446, -0.04267695173621178, 0.032241757959127426, -0.06465692073106766, -0.061133675277233124, -0.0062747979536652565, 0.04530148580670357, 0.06500779092311859, 0.016703937202692032, 0.04797227680683136, 0.02971804328262806, 0.09697368741035461, 0.07997582852840424, -0.0172706451267004, -0.08262988924980164, 0.03958587720990181, -0.021515730768442154, -0.025265773758292198, -0.0992526039481163, -0.03125932440161705, -0.0474851168692112, -0.026909057050943375, 0.1372305005788803, 0.04444858804345131, -0.03850512206554413, 0.05648758262395859, 0.02853684313595295, 0.05806652456521988, -0.10515602678060532, -0.10176680237054825, 0.06059882417321205, 0.1118675246834755, -0.060842957347631454, -0.057120922952890396, 0.06516145914793015, 0.04692787304520607, -0.04093935713171959, 0.005840675439685583, -0.04438543692231178, 0.08350977301597595