0.04980003461241722, 0.04666117578744888, 0.038506995886564255, -0.023806868121027946, 0.05079837888479233, -0.05584130808711052, -0.026531120762228966, 0.016309423372149467, 0.044908467680215836, 0.04642041027545929, 0.0026338808238506317, -0.010788680985569954, -0.05180688574910164, 0.05937197431921959, -0.006222040392458439, 0.015225688926875591, -0.03643982857465744, -0.009426787495613098, -0.01885514333844185, -0.0035905714612454176, 0.004242170136421919, -0.03291798755526543, -0.04056471958756447, 0.02386716939508915, -0.02427697367966175, -0.043539926409721375, 0.027252038940787315, -0.01463758572936058, -0.03482714295387268, 0.04336534067988396, 0.027162129059433937, -0.028734061866998672, -0.02486620657145977, -0.03310588747262955, 0.017600443214178085, -0.02727445773780346, 0.03227720409631729, 0.021316463127732277, -0.00728486105799675, 0.04466095566749573, -0.016707763075828552, -0.009063785895705223, 0.011451282538473606, -0.033277347683906555, 0.061091791838407516, -0.023296773433685303, -0.010000333189964294, -0.05291355401277542, 0.030462905764579773, 0.03189675509929657, 0.046341732144355774, 0.062225598841905594, 0.04318953678011894, -0.04225851222872734, -0.05382155999541283, -0.04074440523982048, 0.04898844286799431, 0.045723769813776016, 0.053091153502464294, 0.04756742715835571, 0.009265953674912453, -0.05353077873587608, -0.045605674386024475, 0.018735375255346298, 0.030792053788900375, -0.05753917992115021, -0.04862295836210251, -0.014673876576125622, 0.03210456296801567, -0.013410110026597977, 0.023673657327890396, -0.040410079061985016, 0.004820462316274643, -0.020649347454309464, -0.04465718939900398, -0.022975943982601166, -0.053894300013780594, 0.060950204730033875, -0.01919575408101082, 0.025941412895917892, -0.03667999431490898, 0.04557850956916809, 0.03410257771611214, -0.0607030913233757, -0.0022303839214146137, -0.0006530333193950355, -0.03983823582530022, -0.02793031744658947, -0.06180386245250702, -0.05167028680443764, -0.01524928119033575, -0.022408796474337578, -0.020236283540725708, 0.0073447199538350105, -0.016509920358657837, 0.06147366762161255, 0.015387948602437973, 0.03791198134422302, -0.02542189694941044, -0.04581320658326149, -0.024633388966321945, -0.036915961652994156, -0.043394386768341064, -0.04840975999832153, -0.012005651369690895, -0.0359356552362442, -0.038527172058820724, -0.0574493408203125, -0.03147038817405701, -0.041246671229600906, 0.04047032445669174, 0.029724646359682083, -0.05883173644542694, 0.013191090896725655, 0.04697565734386444, -0.04383379966020584, -0.0032237160485237837, -0.008798575028777122, -0.020867321640253067, 0.006583142094314098, -0.061032023280858994, -0.040843162685632706, 0.00826957356184721, -0.007002226542681456, -0.02145354263484478, 0.04484538361430168, 0.04006459191441536, -0.029257217422127724, -0.059094592928886414, 0.04562080651521683, 0.06247788295149803, -0.02876906655728817, -0.025180121883749962, 0.03407794609665871, -0.013124555349349976, 0.05344526842236519, -0.023867743089795113, 0.05310775712132454, 0.04684574529528618, 0.050105057656764984, 0.014035367406904697, -0.058946508914232254, 0.009714525192975998, -0.05673254281282425, 0.005852958653122187, 0.0572325624525547, -0.020332610234618187, -0.009507126174867153, 0.02157467231154442, -0.021059978753328323, 0.0500539094209671, 0.006705489940941334, 0.003606149461120367, 0.035290274769067764, -0.028126290068030357, -0.05742347240447998, 0.06712193787097931, 0.06495705246925354, 0.011615675874054432, -0.05576508119702339, -0.016757017001509666, -0.014893446117639542, -0.00796899851411581, 0.0501074343919754, -0.05186408758163452, -0.020455528050661087, -0.03659616783261299, -0.05100998282432556, 0.02955535240471363, 0.02081185206770897, -0.03722299635410309, -0.05583132430911064, -0.046268150210380554, -0.04755925014615059, -0.0018810248002409935, -0.04613460600376129, -0.012561600655317307, 0.024193180724978447, -0.031224515289068222, 0.05030445009469986, -0.04161081090569496, -0.03511840105056763, 0.04084683582186699, 0.029327332973480225, -0.02399558387696743, 0.024557290598750114, -0.01976899430155754, -0.03887677565217018, 0.03295135498046875, 0.03463534265756607, 0.030913617461919785, -0.059458162635564804, -0.04960978403687477, 0.05009904131293297, 0.05628066882491112, -0.05662793293595314, 0.0505274161696434, -0.034279897809028625, 0.04526834934949875, -0.06495378166437149, -0.0033091583754867315, -0.03184942156076431, -0.031133422628045082, 0.01272420585155487, 0.009597097523510456, -0.025164075195789337, -0.03695575147867203, -0.009276146069169044, 0.06643467396497726, 0.059115007519721985, -0.005658307112753391, -0.015318609774112701, -0.04685709998011589, -0.0008421558886766434, 0.029687214642763138, 0.0015597707824781537, 0.016662439331412315, 0.01174419466406107, 0.053945984691381454, 0.026964614167809486, 0.0005408916040323675, 0.002595903119072318, 0.03247709199786186, -0.028481783345341682, 0.05158450827002525, 0.03266804292798042, 0.05593116208910942, -0.039948493242263794, -0.04344889149069786, -0.04734048247337341, 0.005185187794268131, 0.04050446301698685, 0.034247055649757385, 0.024597737938165665, -0.03437567874789238, -0.0057351370342075825, -0.01755022071301937, 0.036297496408224106, 0.03983626142144203, -0.06181555241346359, 0.04378272220492363, -0.05611572787165642, -0.025420814752578735, 0.0035434807650744915, 0.05278661102056503, -0.03192967176437378, -0.05480926111340523, 0.013546916656196117, -0.03937849774956703, 0.04117394611239433, -0.007661052513867617, -0.05125442147254944, -0.045450665056705475, -0.0038501410745084286, 0.045758578926324844, -0.006687829736620188, 0.030835023149847984, -0.04829789698123932, 0.057469580322504044, -0.06127685680985451, -0.023823129013180733, -0.06602449715137482, 0.030432334169745445, 0.04934404417872429, 0.05885693430900574, -0.04946952313184738, 0.06674055755138397, -0.009817798621952534, -0.0020404767710715532, 0.00761112105101347, -0.025401057675480843, -0.04114466905593872, -0.035008471459150314, -0.03239482268691063, 0.010073509067296982, -0.021800991147756577, 0.05031506344676018, -0.006871652323752642, 0.023402094841003418, -0.049250129610300064, -0.02304706908762455, 0.02007354237139225, 0.016800735145807266, -0.04655133932828903, 0.02506159245967865, -0.06326589733362198, 0.010314778424799442, 0.0651048868894577, -0.022110601887106895, -0.015921352431178093, 0.03392992168664932, 0.06397359818220139, 0.057515259832143784, 0.01797039993107319, -0.02372957207262516, 0.013887923210859299, -0.058975230902433395, -0.061007801443338394, 0.008525540120899677, -0.06357014924287796, -0.04699120670557022, -0.01761833392083645, 0.0553336925804615, 0.06191311031579971, -0.021768178790807724, 0.00412101112306118, 0.027399316430091858, -0.06062603369355202, 0.01748434640467167, -0.051457591354846954, -0.03324653208255768, -0.008636311627924442, -0.016513720154762268, -0.0003346941084600985, -0.01298141572624445, 0.042295731604099274, 0.060874149203300476, 0.005025530233979225, 0.062168415635824203, -0.0269562229514122, 0.059072308242321014, 0.007609018124639988, -0.06673377007246017, -0.055501170456409454, 0.03292152285575867, -0.0572785846889019, -0.0019422501791268587, -0.002727808430790901, -0.050112172961235046, 0.043593451380729675, 0.04205654561519623, 0.0030285350512713194, 0.03626755625009537, 0.029952147975564003, -0.05886588990688324, 0.06516222655773163, -0.024203568696975708, -0.06171080470085144, -0.062025874853134155, -0.024997588247060776, 0.06511496752500534, 0.03859487548470497, 0.020547697320580482, -0.06461772322654724, -0.004593015182763338, 0.04666535556316376, -0.025346359238028526, 0.05635834485292435, 0.04701489582657814, -0.04165872931480408, -0.03501757234334946, -0.03287448361515999, 0.013438018038868904, -0.06075037270784378, -0.009047013707458973, 0.016528137028217316, 0.002071395516395569, 0.052412327378988266, 0.04042408987879753, -0.02207569032907486, -0.03919209912419319, 0.057609859853982925, 0.0005662869079969823, 0.0618894025683403, 0.032638877630233765, -0.03540999814867973, 0.0016582774696871638, -0.003760392079129815, 0.025153538212180138, 0.054570600390434265, 0.01101265661418438, -0.05995046719908714, -0.0251243244856596, -0.001967336982488632, -0.039786405861377716, 0.023998646065592766, 0.024479109793901443, 0.015210322104394436, -0.011529877781867981, 0.054320238530635834, 0.00626124395057559, -0.025371519848704338, -0.011806839145720005, -0.03888601064682007, 0.03452102839946747, -0.01039745844900608, -0.03274915739893913, 0.018635042011737823, 0.07414203882217407, -0.05238693207502365, -0.00932853389531374, -0.04960167035460472, -0.04554104059934616, 0.03175419569015503, -0.06951213628053665, 0.040002256631851196, -0.0008723717764951289, -0.04192374274134636, 0.03761327266693115, -0.033430978655815125, 0.011026283726096153, -0.03036598488688469, -0.03100128099322319, 0.03433002158999443, 0.003508619964122772, -0.02720385231077671, -0.04161868989467621, 0.045263342559337616, -0.03232920542359352, -0.06720517575740814, 0.06593528389930725, 0.04092920571565628, -0.026297781616449356, -0.029897421598434448, 0.005025310907512903, 0.006556472275406122, -0.02193940430879593, 0.05157521367073059, 0.03421573340892792, -0.027255678549408913, 0.08388684689998627, -0.02066868357360363, -0.07212337106466293, -0.02852221205830574, -5.110657002660446e-05, 0.025070486590266228, 0.031035300344228745, -0.00861535407602787, 0.021481996402144432, -0.05583836883306503, 0.0068543441593647, -0.030662108212709427, -0.040024999529123306, 0.05455728992819786, -0.04576002433896065, 0.009097146801650524, 0.058515939861536026, 0.0571957491338253, -0.01492367498576641, -0.040156565606594086, 0.0018546335631981492, -0.04272336885333061, 0.0438116192817688, -0.05242509767413139, 0.01556799840182066, -0.011144916526973248, 0.04108394682407379, -0.006180016789585352, -0.007825707085430622, -0.06343720108270645, -0.05314313992857933, -0.031313199549913406, -0.020238399505615234, 0.004101348575204611, -0.030870631337165833, 0.01870444230735302, 0.05134911835193634, -0.03530235216021538, 0.010657691396772861, 0.011897106654942036, -0.03218268230557442, 0.05035771429538727, 0.0349435992538929, 0.043696098029613495, 0.037651434540748596, 0.039613235741853714, 0.04566163569688797, -0.012419527396559715, 0.05319882929325104, -0.04867764562368393, 0.0371418371796608, 0.030435647815465927, 0.007353157736361027, -0.020747967064380646, 0.04573693871498108, 0.0316024087369442, 0.009919687174260616, 0.0197905320674181, -0.011821937747299671, 0.05877651274204254, -0.05616046488285065, 0.016348833218216896, -0.05192054063081741, 0.06301923096179962, 0.053904175758361816, 0.0005312346620485187, -0.03790003061294556, -0.011226959526538849, 0.0008118993719108403, 0.06301157921552658, 0.012694497592747211, 0.05503622069954872, 0.008044861257076263, 0.011171132326126099, -0.0034046971704810858, 0.04807060584425926, -0.06256865710020065, 0.03351794555783272, -0.05585957318544388, -0.050153154879808426, -0.06325013190507889, -0.027670608833432198, 0.06208791583776474, 0.004978225100785494, 0.013350527733564377, 0.023298636078834534, -0.008284519426524639, -0.04418618232011795, 0.010736808180809021, 0.013295447453856468, 0.01305822841823101, -0.04145032912492752, -0.008572886697947979, -0.01636875607073307, 0.04287169873714447, -0.017680887132883072, -0.032922472804784775, 0.004086021333932877, 0.028172627091407776, -0.02332506887614727, -0.0024361214600503445, 0.01402069441974163, -0.0384809635579586, 0.02832259237766266, 0.04999115318059921, -0.045812275260686874, -0.022408263757824898, -0.005451924633234739, 0.0532720685005188, 0.015159482136368752, -0.00710257887840271, 0.011929490603506565, 0.03634035214781761, -0.04303700849413872, 0.01383987907320261, -0.04602501913905144, 0.05458936095237732, -0.058138638734817505, 0.0276389978826046, 0.0633038654923439, -0.008812753483653069, -0.021013597026467323, 0.005625175777822733, 0.03986590728163719, 0.047979481518268585, 0.03387755900621414, 0.03019208274781704, 0.060325976461172104, -0.014431750401854515, -0.013987629674375057, 0.05226961150765419, 0.015035978518426418, 0.000136931223096326, 0.040755193680524826, 0.05562771484255791, -0.012714681215584278, -0.058518506586551666, -0.0582907535135746, 0.056993741542100906, -0.04252852872014046, -0.03683112561702728, 0.01808992587029934, -0.05121530592441559, 0.061731476336717606, -0.04620792716741562, -0.04178432747721672, 0.03172695264220238, 0.06076183170080185, -0.01843186467885971, 0.04515199735760689, -0.033354952931404114, -0.050855331122875214, -0.003953653387725353, -0.005297426134347916, -0.028695203363895416, -0.0011481445981189609, -0.01839943788945675, 0.013253610581159592, 0.06350705772638321, -0.00989252794533968, -0.0432715117931366, -0.03106648102402687, 0.03513050079345703, -0.012510734610259533, -0.001754635595716536, 0.03801136091351509, -0.046165309846401215, -0.052078839391469955, 0.0416560135781765, 0.05472332239151001, 0.0010219478281214833, 0.01527264341711998, -0.020560767501592636, -0.001635925960727036, -0.016040828078985214, -0.021037952974438667, -0.0023184427991509438, -0.0003823147271759808, 0.02447647601366043, -0.03609924763441086, 0.006155156064778566, 0.0315878801047802, 0.06052729859948158, -0.015015879645943642, -0.038378406316041946, -0.04705042764544487, -0.006065725814551115, -0.04510030895471573, -0.04911670833826065, 0.05104720965027809, -0.014394860714673996, 0.0030376568902283907, 0.0318741537630558, 0.021572403609752655, -0.06408139318227768, 0.023369453847408295, -0.038785431534051895, -0.051507383584976196, -0.009633209556341171, -0.03721173480153084, 0.01555276196449995, 0.029735542833805084, 0.05970493331551552, 0.022964099422097206, 0.014699717983603477, 0.01830371469259262, 0.06220841035246849, -0.06313358247280121, 0.03263632953166962, 0.060666415840387344, 0.05447159335017204, 0.05084338039159775, -0.06112320348620415, 0.03732585534453392, -0.0463893860578537, -0.014478042721748352, -0.046774789690971375, -0.040311627089977264, -0.0465991348028183, 0.029939034953713417, -0.03076757863163948, 0.04935622960329056, -0.0500023178756237, -0.02746249921619892, -0.043206796050071716, -0.015849478542804718, 0.01654408499598503, -0.049737196415662766, 0.06070643663406372, 0.06403923034667969, 0.03634963184595108, 0.04556722939014435, -0.007713086437433958, -0.060989901423454285, -0.03326869010925293, -0.027024058625102043, 0.03638923168182373, -0.04491987079381943, 0.03916257247328758, 0.02487076446413994, -0.02088712342083454, 0.03939316049218178, -0.043419454246759415, -0.005195014178752899, -0.034270986914634705, 0.014918576925992966, -0.05896378308534622, -0.0053079756908118725, 0.0006140320328995585, 0.011599077843129635, -0.053779225796461105, -0.015621093101799488, -0.05240369588136673, -0.037430714815855026, 0.04280046001076698, -0.04115043580532074, 0.02973245643079281, -0.01176805142313242, 0.01835663989186287, 0.06075107678771019, 0.043004557490348816, 0.03568967804312706, -0.03738313168287277, -0.04715925082564354, 0.04508992284536362, 0.002388905268162489, -0.03719756752252579, 0.04225536435842514, 0.0414360947906971, -0.005650215316563845, 0.053526055067777634, 0.0202042069286108, -0.05248504504561424, -0.03539372980594635, -0.061467405408620834, -0.06424348801374435, 0.03645700588822365, -0.023745335638523102, 0.04650913551449776, -0.029193928465247154, 0.042367566376924515, -0.0039474740624427795, -0.04095199704170227, -0.010703904554247856, -0.006373861338943243, -0.012977116741240025, -0.014381440356373787, -0.021679678931832314, 0.06277845799922943, -0.025562360882759094, -0.05909373238682747, -0.0067182015627622604, -0.015466178767383099, -0.044008754193782806, -0.03841205686330795, 0.00967066828161478, -0.048706475645303726, -0.04333454743027687, 0.04648168012499809, 0.06135081872344017, 0.05234600603580475, 0.04502410069108009, 0.04949495196342468, 0.05803291127085686, -0.02706727385520935, -0.032268110662698746, -0.013565730303525925, 0.02568674273788929, -0.052863337099552155, 0.06297393143177032, 0.06418929994106293, -0.0039779734797775745, -0.04689766839146614, 0.0033892071805894375, -0.0022918954491615295, -0.03305572643876076, -0.02100961096584797, 0.04038725420832634, 0.006691856309771538, 0.022838670760393143, -0.022332601249217987, -0.009765330702066422, 0.04948367178440094, 0.014651447534561157, -0.02113122120499611, 0.007385918404906988, -0.0171219315379858, -0.027551813051104546, -0.047608260065317154, -0.04279114305973053, -0.06014569103717804, -0.026715904474258423, 0.006006577983498573, -0.030092470347881317, -0.020597070455551147, -0.004537149332463741, -0.009678266011178493, -0.047025300562381744, -0.027221066877245903, -0.03657796233892441, -0.020027121528983116, -0.05758070573210716, 0.036655351519584656, 0.04606261104345322, 0.058789536356925964, 0.020276380702853203, 0.06006934866309166, -0.04616985842585564, -0.03125112131237984, 0.05872702598571777, 0.03566237539052963, 0.05948900803923607, 0.025589577853679657, 0.010393352247774601, -0.008957910351455212, 0.06264650076627731, -0.05533885583281517, -0.05513400956988335, -0.0016522315563634038, 0.01792118325829506, -0.012009402737021446, -0.01833393983542919, -0.023207614198327065, 0.03530382364988327, -0.05596403405070305, 0.028860129415988922, 0.038948409259319305, 0.0004103565588593483, -0.050452835857868195, 0.03222357854247093, 0.051844239234924316, 0.03907090052962303, 0.06409794837236404, -0.05491476505994797, 0.005497378297150135, -0.02798856981098652, 0.03049255907535553, 0.011484818533062935, 0.013605029322206974, -0.06327737122774124, -0.03984083607792854, 0.02207775227725506, -0.001998080173507333, -0.011834492906928062, -0.004835654050111771, -0.04693155735731125, 0.05829526484012604, 0.004365707281976938, 0.024903852492570877, -0.02899864874780178, -0.04733540490269661, 0.03981585428118706, 0.007866578176617622, -0.03367830440402031, -0.026895515620708466, 0.06274089217185974, -0.06294901669025421, -0.030270062386989594, 0.028431853279471397, 0.015750598162412643, 0.04301432520151138, -0.04017842933535576, -0.02678472362458706, 0.006895569618791342, 0.020905569195747375, -0.03648601844906807, 0.060112543404102325, 0.0346115417778492, -0.04981185868382454, -0.04527765512466431, 0.06441386789083481, -0.007609228137880564, -0.0042426143772900105, 0.007226034998893738, 0.015817778185009956, -0.054612062871456146, -0.041159920394420624, -0.02842986211180687, 0.00411479314789176, 0.02848850190639496, -0.01566098816692829, 0.018098928034305573, -0.007818893529474735, -0.0395430363714695, 0.05776691064238548, 0.0513337068259716, 0.0383354052901268, 0.0327700711786747, -0.05646197125315666, -0.041248004883527756, -0.017763013020157814, -0.03293358162045479, -0.05548188462853432, 0.031805478036403656, -0.051543980836868286, 0.05992540717124939, 0.013761057518422604, -0.06334218382835388, -0.0030463114380836487, 0.03234962746500969, 0.015913572162389755, -0.020285846665501595, -0.007274950854480267, -0.028958922252058983, 0.04645637422800064, 0.0319194532930851, -0.029873939231038094, -0.05872761830687523, -0.02703016996383667, -0.04803675040602684, 0.0011976409005001187, -0.03289731591939926, -0.05689377337694168, -0.011912275105714798, -0.007959607057273388, -0.04400920867919922, -0.06403905153274536, 0.019645290449261665, 0.029668154194951057, -0.032454609870910645, 0.039959490299224854, 0.0007808237569406629, -0.012064036913216114, 0.05517483502626419, -0.05502542480826378, -0.023227673023939133, 0.03003195859491825, 0.017318645492196083, -0.03169582411646843, -0.05200047791004181, -0.04814932867884636, -0.011261790990829468, -0.004337927792221308, -0.021805712953209877, -0.01441329438239336, -0.007238074205815792, 0.043179791420698166, -0.04494670778512955, 0.06342531740665436, -0.05374421924352646, -0.008624259382486343, -0.03175817430019379, 0.006848492659628391, -0.04238780960440636, -0.01585542783141136, 0.021792465820908546, 0.04565776512026787, -0.039873186498880386, 0.025601999834179878, 0.04885287210345268, -0.010892489925026894, 0.0622330866754055, -0.017103252932429314, 0.008608252741396427, -0.023698803037405014, 0.04478132724761963, 0.020112523809075356, -0.04995695874094963, -0.003545658430084586, 0.038982659578323364, -0.034872956573963165, -0.06273669004440308, -0.05607046186923981, -0.03749528154730797, 0.02314695529639721, 0.04216249659657478, 0.0606708861887455, 0.021847549825906754, -0.06408290565013885, -0.05260417237877846, 0.011927293613553047, 0.04012833535671234, -0.0445760153234005, 0.03637254983186722, 0.06283503770828247, 0.026716720312833786, -0.06212490424513817, 0.051588501781225204, -0.02005891129374504, 0.028594452887773514, -0.014549792744219303, -0.02467772364616394, 0.026830488815903664, -0.0517328605055809, 0.02846061997115612, 0.006458514370024204, -0.02382555976510048, -0.03007054701447487, -0.03742595762014389, -0.05119646340608597, 0.034242041409015656, -0.00048272759886458516, -0.0022752759978175163, -0.032539334148168564, 0.00973137840628624, -0.00992522295564413, 0.0012989897513762116, 0.03933442011475563, -0.008071651682257652, -0.01981225796043873, 0.0487450510263443, 0.043118253350257874, -0.01017649844288826, 0.055769115686416626, 0.03408615291118622, 0.03484613448381424, -0.05678940936923027, -0.0208998192101717, -0.02788245491683483, 0.055793315172195435, 0.05017909035086632, 0.035569556057453156, -0.05994638428092003, 0.00754845654591918, -0.015031938441097736, 0.06397674977779388, -0.00043451483361423016, 0.056775689125061035, 0.04947178438305855, 0.037003420293331146, 0.04169744625687599, -0.043121449649333954, 0.0011361802462488413, 0.008423872292041779, 0.009616058319807053, 0.03558817878365517, -0.027441034093499184, -0.01821868121623993, 0.0029447022825479507, 0.08051881939172745, 0.13537946343421936, 0.017141925171017647, 0.015726495534181595, 0.06791996210813522, -0.03652287647128105, -0.01323156338185072, -0.042132649570703506, -0.006667613051831722, 0.0653025209903717, 0.011304418556392193, -0.118476003408432, 0.03193017840385437, -0.017822522670030594, -0.10106392949819565, -0.0264417827129364, 0.01175080705434084, 0.0612228624522686, -0.10439089685678482, -0.03515835106372833, -0.004016807768493891, 0.04304848238825798, -0.020404549315571785, -0.032155029475688934, 0.030458880588412285, 0.05512181296944618, -0.03467971459031105, -0.051321256905794144, 0.06200290843844414, -0.015197733417153358, 0.018476003780961037, -0.01144823431968689, 0.05168655887246132, 0.05752871558070183, 0.021814284846186638, -0.034377798438072205, 0.05303381755948067, 0.01939479261636734, 0.013037560507655144, -0.014608165249228477, 0.034349869936704636, 0.006026905961334705, -0.053708720952272415, -0.03796280547976494, 0.04420255869626999, -0.02707572840154171, -0.032065629959106445, 0.025690872222185135, 0.03769810497760773, -0.05839341878890991, 0.023490963503718376, 0.04498525708913803, 0.06507813185453415, 0.05974641442298889, -0.030203714966773987, 0.07863042503595352, 0.012324215844273567, 0.04685058817267418, -0.005042694043368101, 0.00846057664602995, 0.009652852080762386, 0.04625735059380531, 0.06685937196016312, -0.013683924451470375, 0.0040912022814154625, -0.0606318898499012, -0.01658155396580696, 0.033346276730298996, -0.04489478841423988, 0.03511635214090347, -0.03944515064358711, 0.009802247397601604, 0.012156464159488678, 0.06636854261159897, 0.02268875762820244, 0.0214002076536417, 0.009710252285003662, 0.0013859772589057684, -0.06595897674560547, -0.03315003588795662, -0.013564701192080975, 0.010599554516375065, 0.05410736799240112, 0.0037173121236264706, 0.06404497474431992, 0.012051716446876526, -0.022171540185809135, 0.07396887987852097, -0.006874590180814266, -0.0444670170545578, -0.019384363666176796, 0.05829044431447983, -0.07398820668458939, -0.04983292520046234, 0.052857447415590286, 0.10267885774374008, 0.06485548615455627, 0.012172754853963852, -0.06681406497955322, 0.06043747067451477, -0.016391411423683167, 0.051576171070337296, 0.0281557347625494, -0.01212333794683218, -0.07137686014175415, -0.028625482693314552, 0.0026755407452583313, 0.042673882097005844, 0.0063808374106884, 0.05111813545227051, -0.04006384685635567, 0.022874530404806137, 0.05289385840296745, -0.011740224435925484, -0.029807476326823235, 0.003988494165241718, 0.006292934063822031, -0.036407921463251114, 0.07591628283262253, 0.06005065143108368, 0.009896415285766125, -0.017433814704418182, 0.04986581951379776, -0.029655123129487038, -0.04121566191315651, 0.10654821991920471, -0.07045988738536835, -0.004921418614685535, -0.006365234963595867, 0.09171998500823975, 0.006746323779225349, 0.05927435681223869, -0.04027725011110306, 0.025900285691022873, 0.009942548349499702, 0.029922110959887505, -0.05999589338898659, -0.04281970113515854, -0.0449480377137661, -0.011491375975310802, -0.058734212070703506, 0.004349196795374155, -0.042733896523714066, -0.014467699453234673, -0.00455409474670887, 0.04835159704089165, 0.022208321839571, 0.10519305616617203, 0.06436505168676376, 0.15491308271884918, 0.12515604496002197, 0.007375059649348259, 0.04350915923714638, 0.0925278291106224, -0.0005581172299571335, 0.06779003888368607, -0.053325872868299484, 0.10253904014825821, -0.0996856763958931, -0.08529535681009293, -0.06325643509626389, 0.1456749588251114, -0.05596809461712837, -0.022764218971133232, 0.056427523493766785, -0.03786366805434227, -0.011773173697292805, 0.017740199342370033, -0.06482349336147308, -0.017983030527830124, -0.02351105958223343, 0.04540935158729553, -0.021640585735440254, 0.05152352526783943, 0.01848924160003662, -0.013610074296593666, 0.023717235773801804, -0.008412828668951988, -0.031163647770881653, -0.045256081968545914, 0.021541427820920944, 0.04826721176505089, 0.08970358222723007, -0.021971682086586952, -0.02236602082848549, -0.021472973749041557, -0.07360155135393143, 0.11680594831705093, 0.022317001596093178, 0.03973802924156189, -0.014957395382225513, 0.08903291076421738, -0.05140945315361023, 0.06955209374427795, 0.07149818539619446, -0.04126731678843498, 0.03890113905072212, 0.08555065095424652, 0.05626446753740311, 0.025888225063681602, -0.019358985126018524, 0.03801780939102173, -0.09443304687738419, -0.03498750180006027, 0.0006552422419190407, 0.022335346788167953, -0.10606394708156586, 0.034045785665512085, 0.005823855753988028, -0.00021301281230989844, 0.026060443371534348, 0.05547526106238365, 0.058816805481910706, 0.01857713609933853, -0.04198719561100006, -0.015247390605509281, 0.00882476381957531, 0.025149911642074585, -0.006529359146952629, 0.005038391333073378, 0.01731260120868683, 0.03292718902230263, 0.027808386832475662, 0.025453222915530205, -0.04271247610449791, 0.042915280908346176, 0.000806528318207711, 0.04304488003253937, -0.044890884310007095, -0.017790447920560837, 0.0218768622726202, 0.012627320364117622, -0.0440201498568058, 0.029638070613145828, -0.010640877299010754, -0.013279088772833347, 0.02477654628455639, 0.05755871534347534, 0.001579580013640225, -0.026708204299211502, 0.019647378474473953, -0.01875031739473343, 0.013926228508353233, 0.004185115452855825, 0.035542432218790054, 0.03620149567723274, -0.005129576660692692, 0.027303077280521393, 0.020497391000390053, -0.056083597242832184, 0.02425808645784855, -0.05478718504309654, -0.040713660418987274, -0.04728465899825096, -0.008425273932516575, 0.038582902401685715, 0.017085785046219826, 0.03037351742386818, 0.0526488721370697, -0.05133521556854248, 0.041414156556129456, 0.043248895555734634, 0.0009018877753987908, -0.04940536618232727, 0.007938609458506107, -0.03229944780468941, 0.0488574244081974, 0.02432592399418354, -0.05187426134943962, 0.055614810436964035, -0.013162579387426376, -0.020798616111278534, 0.00939171202480793, 0.00737310154363513, 0.0005635456182062626, -0.025063268840312958, -0.04984644427895546, -0.06389492005109787, 0.009695803746581078, -0.018906375393271446, -0.008698253892362118, 0.014786210842430592, 0.031915195286273956, 0.019935132935643196, -0.013248840346932411, -0.048653941601514816, 0.01886146515607834, -0.005906360689550638, 0.060451801866292953, -0.05073845386505127, -0.04412763938307762, -0.00516526959836483, 0.06284744292497635, 0.04845033213496208, -0.05658973380923271, -0.022211585193872452, -0.03628447279334068, 0.0602082684636116, 0.057419080287218094, -0.03489237651228905, -0.06511110812425613, 0.06419919431209564, -0.060955215245485306, -0.006905346643179655, 0.0528564378619194, 0.01608273759484291, 0.017741521820425987, -0.03807976096868515, 0.016887061297893524, -0.050960373133420944, 0.04718960449099541, -0.00521654449403286, 0.004256809130311012, -0.029020998626947403, -0.016896318644285202, 0.05652230978012085, -0.010289554484188557, 0.05433474853634834, -0.028755003586411476, 0.003708484349772334, 0.028596971184015274, 0.011852513067424297, 0.04444713518023491, -0.013120701536536217, 0.04143209382891655, -0.05313069000840187, 0.014918590895831585, 0.01677669771015644, -0.025470374152064323, -0.04950903356075287, 0.04441848024725914, 0.0222689900547266, 0.004900828935205936, 0.05010102689266205, 0.0048379781655967236, 0.05070289969444275, 0.026715969666838646, 0.0557774156332016, -0.060301702469587326, 0.05097196623682976, 0.060754742473363876, 0.01047579851001501, -0.05374374985694885, 0.05115170404314995, 0.041358936578035355, -0.02479328028857708, 0.06015336140990257, -0.0425848513841629, -0.03855185583233833, 0.022357068955898285, -0.02095453441143036, 0.04227154329419136, -0.03558729216456413, 0.04739943891763687, -0.061703022569417953, -0.011027291417121887, 0.00026857221382670105, 0.019833071157336235, 0.005272614769637585, -0.01708361692726612, -0.007217351347208023, -0.043889984488487244, -0.007999657653272152, 0.04434221237897873, 0.009450878947973251, -0.052268076688051224, -0.052146006375551224, 0.01497413869947195, -0.050461381673812866, -0.010054277256131172, 0.06518751382827759, 0.03224525228142738, 0.03601454570889473, -0.0627131313085556, 0.03460876643657684, 0.04972657188773155, -0.019356904551386833, 0.05826158449053764, 0.06507883220911026, 0.047417137771844864, -0.0005330260028131306, 0.00896082166582346, -0.04539642110466957, 0.05579672008752823, 0.058786407113075256, 0.051903605461120605, 0.03775743395090103, 0.008010054007172585, 0.009428177028894424, -0.017297288402915, -0.03141949698328972, -0.022112473845481873, -0.05857662111520767, 0.03821335732936859, -0.03356154263019562, 0.02783491648733616, 0.03806206211447716, 0.0638318657875061, -0.011050624772906303, -0.004687923472374678, -0.06617697328329086, 0.0021586064249277115, -0.06012250483036041, 0.044198743999004364, -0.029248034581542015, 0.0236476082354784, -0.00973061379045248, 0.02469070628285408, -0.06247371807694435, -0.02378690615296364, 0.05792391672730446, 0.057348448783159256, 0.05214828997850418, -0.025360707193613052, 0.012515224516391754, 0.028900492936372757, 0.018178308382630348, 0.06631064414978027, -0.057295069098472595, 0.03595631197094917, 0.007489605341106653, 0.05002405121922493, -0.04122961685061455, 0.050999343395233154, 0.0569901168346405, -0.014768355526030064, 0.022224068641662598, -0.022159691900014877, 0.05250754579901695, 0.008980464190244675, 0.008062048815190792, -0.028136588633060455, -0.03351525589823723, 0.033379778265953064, 0.0077030956745147705, 0.01773306541144848, 0.007701589725911617, -0.01846320554614067, 0.034177448600530624, 0.03886658325791359, 0.008093839511275291, -0.01003860030323267, -0.03671784698963165, -0.041357945650815964, -0.009590486995875835, -0.0551542267203331, 0.034428369253873825, 0.01299328450113535, 0.05373866856098175, -0.04481909051537514, 0.02884850837290287, -0.004930026829242706, -0.04138158634305, -0.04395259544253349, -0.013154184445738792, 0.04609279707074165, -0.011884554289281368, 0.03965815156698227, -0.01473155990242958, 0.012321355752646923, 0.025577379390597343, -0.03562885522842407, 0.049612436443567276, 0.004918666556477547, -0.008838754147291183, -0.04954524710774422, 0.04522138833999634, -0.028884869068861008, -0.009872972033917904, -0.0065720779821276665, -0.015840662643313408, -0.0641554594039917, -0.02584252879023552, 0.011328429915010929, -0.0042811366729438305, 0.05836779251694679, -0.03271074965596199, 0.040840040892362595, -0.05650313198566437, 0.0547381266951561, -0.03614184632897377, -0.03524421527981758, 0.04279153421521187, -0.013368816114962101, -0.011214234866201878, 0.031061211600899696, -0.020694715902209282, 0.025267213582992554, 0.027016745880246162, 0.010153674520552158, -0.045499324798583984, -0.007222339976578951, -0.01823054812848568, 0.0078047183342278, 0.015151506289839745, -0.016643138602375984, -0.05946331471204758, 0.0570436492562294, 0.02612510696053505, 0.04665890336036682, -0.046116773039102554, -0.013543832115828991, 0.034302227199077606, -0.06450372189283371, 0.033487118780612946, -0.027052776888012886, -0.04341356083750725, 0.009261859580874443, -0.04159458726644516, -0.05747085064649582, -0.03647477552294731, 0.05999435484409332, 0.014222932979464531, 0.05864541977643967, -0.010768688283860683, 0.038208846002817154, 0.021321943029761314, 0.006216007750481367, -0.04040523245930672, -0.023769814521074295, 0.039320770651102066, 0.004084181040525436, 0.018258018419146538, -0.004787846468389034, -0.01817259192466736, 0.05037204921245575, 0.01641872711479664, -0.041659463196992874, 0.047873545438051224, -0.007575447205454111, -0.041739191859960556, -0.01727759838104248, 0.03325003385543823, 0.025593385100364685, -0.04777340590953827, -0.04357496649026871, -0.027068795636296272, 0.05221870541572571, -0.05205434560775757, -0.022078393027186394, 0.029206685721874237, 0.022917991504073143, -0.034909896552562714, -0.04610595852136612, 0.03687595576047897, 0.05363757163286209, 0.055055659264326096, -0.006105256732553244, -0.044027190655469894, -0.025457648560404778, 0.018062669783830643, 0.024907676503062248, 0.03139903023838997, 0.03744334727525711, -0.044167548418045044, -0.030625414103269577, -0.007903512567281723, 0.017475642263889313, -0.018074078485369682, -0.04016542062163353, 0.009788560681045055, 0.03760227933526039, -0.051765162497758865, 0.03873826563358307, -0.012061587534844875, -0.029502274468541145, -0.028741857036948204, 0.01227510441094637, -0.056927140802145004, -0.034251824021339417, -0.045754823833703995, 0.05361179634928703, -0.02522309683263302, 0.020416051149368286, -0.04542630910873413, 0.06319969892501831, -0.03073224052786827, -0.03860374167561531, 0.033245060592889786, 0.007245572749525309, 0.012877401895821095, 0.02606154792010784, 0.03770475089550018, -0.04874955490231514, -0.017786752432584763, 0.032799363136291504, -0.053327787667512894, -0.00989109743386507, -0.014281835407018661, -0.06359614431858063, 0.009136201813817024, -0.02014429122209549, -0.0027506775222718716, -0.007033046334981918, -0.02546846494078636, 0.0056379409506917, -0.04897522181272507, 0.01756962761282921, 0.046865176409482956, 0.028000520542263985, 0.051709458231925964, -0.003328536171466112, -0.0019345760811120272, 0.011817226186394691, -0.02601591683924198, 0.0011990536004304886, 0.03577021136879921, -0.056922830641269684, -0.05957268178462982, -0.016435952857136726, 0.046746522188186646, 0.03541172668337822, -0.05181458592414856, -0.04703491926193237, -0.046977002173662186, 0.043813347816467285, -0.0597870908677578, -0.01564427651464939, 0.06267251819372177, -0.03909144923090935, -0.011650987900793552, 0.005665801465511322, 0.0023140262346714735, 0.0005744220688939095, -0.005396499298512936, 0.008632484823465347, 0.018415385857224464, 0.013390790671110153, -0.029590444639325142, -0.010088084265589714, 0.054174426943063736, -0.01885877549648285, 0.05794472247362137, -0.02963879331946373, 0.0037392142694443464, -0.052860330790281296, -0.01759515330195427, -0.04706989973783493, 0.009178419597446918, 0.010949905961751938, 0.01190470065921545, 0.03891599923372269, 0.006770179141312838, 0.043043117970228195, 0.046179935336112976, -0.04525251314043999, -0.023408068343997, -0.03150941804051399, -0.04895966872572899, -0.05138254910707474, 0.044161468744277954, -0.0368083231151104, 0.028407469391822815, -0.04824204370379448, -0.058948349207639694, -0.025361619889736176, -0.027945993468165398, 0.0003542486228980124, 0.005651950370520353, -0.03387102484703064, -0.04438226297497749, -0.009293430484831333, -0.0221001747995615, 0.05629565939307213, 0.0512995719909668, 0.024597566574811935, 0.0051789237186312675, -0.03353215754032135, 0.04134012758731842, 0.05357244610786438, -0.00370981777086854, -0.04043598845601082, -0.027292750775814056, 0.00520584499463439, -0.05720224976539612, -0.019630106166005135, 0.03843268007040024, 0.0265921913087368, -0.013465741649270058, -0.012767301872372627, 5.0193553761346266e-05, 0.06051040068268776, 0.03418359532952309, 0.047523532062768936, 0.01244689617305994, -0.047514431178569794, 0.05580475553870201, 0.015907516703009605, -0.057174086570739746, -0.0006117112934589386, -0.05172579362988472, -0.05953524261713028, -0.048754479736089706, 0.043896254152059555, 0.028456546366214752, -0.023527463898062706, -0.049311745911836624, 0.0030634398572146893, 0.05915851891040802, -0.026785532012581825, -0.024970058351755142, -0.019724270328879356, -0.05931319296360016, 0.043191470205783844, -0.006738345604389906, -0.02202441170811653, -0.029570970684289932, 0.0629553496837616, 0.04958459734916687, -0.013207844458520412, 0.06927908211946487, -0.018534310162067413, 0.020103618502616882, 0.025519751012325287, -0.017312727868556976, -0.015294221229851246, 0.054230861365795135, -0.040060847997665405, -0.08807962387800217, -0.01726246066391468, 0.07802426069974899, 0.051552265882492065, -0.05116141587495804, -0.025230690836906433, -0.008789611980319023, 0.03197779133915901, 0.08004596829414368, -0.05391858145594597, 0.024837512522935867, -0.04925304278731346, 0.017405308783054352, -0.02796514518558979, 0.026004744693636894, 0.039822161197662354, -0.03826287016272545, 0.011765765957534313, 0.030359359458088875, -0.006004496477544308, -0.07076060771942139, -0.06297796964645386, 0.0350484624505043, 0.028986282646656036, -0.04804849624633789, 0.016803571954369545, 0.04655701294541359, -0.025113029405474663, -0.010501698590815067, 0.032889507710933685, 0.008589323610067368, 0.011331995017826557, 0.007036649156361818, -0.03282757103443146, -0.05641818419098854, -0.03184463083744049, 0.06409250944852829, 0.04738008230924606, -0.025966590270400047, 0.017504967749118805, 0.04799294099211693, 0.01380090694874525, -0.004253347869962454, -0.028619686141610146, 0.007214118726551533, 0.03737138584256172, 0.05344477295875549, 0.03970489278435707, -0.04964717850089073, 0.03645364195108414, -0.0517449826002121, -0.02379479445517063, 0.026449047029018402, 0.008395537734031677, 0.016722459346055984, -0.005231546238064766, 0.04030654579401016, 0.037503112107515335, 0.06350143998861313, -0.050152488052845, -0.06834737956523895, 0.056433357298374176, -0.05355124920606613, -0.0015122415497899055, -0.040967632085084915, 0.05043604597449303, -0.030809391289949417, -0.048448700457811356, 0.032717350870370865, -0.04789526015520096, -0.07057581841945648, 0.024623874574899673, 0.05601385235786438, -0.05985678732395172, 0.02937901020050049, 0.008741769939661026, -0.055032938718795776, 0.02272142842411995, -0.07506012916564941, -0.021363448351621628, -0.004861832596361637, -0.01162131130695343, 0.037116676568984985, 0.06625731289386749, 0.02793177030980587, 0.046787116676568985, 0.09834401309490204, 0.046431925147771835, -0.0065289889462292194, 0.03553972393274307, 0.026021525263786316, -0.030934328213334084, 0.014751046895980835, 0.05375239998102188, 0.0016622710973024368, -0.03784932568669319, -0.01976066082715988, 0.060260213911533356, 0.021086089313030243, 0.02419482171535492, 0.030132994055747986, -0.0025752373039722443, 0.00950447004288435, 0.03494353964924812, 9.241378393198829e-06, 0.010927172377705574, 0.039726514369249344, 0.005183524917811155, -0.04644792526960373, 0.03279275819659233, -0.0027191974222660065, -0.03966595232486725, -0.060169775038957596, 0.04511610046029091, 0.004510554485023022, 0.009183349087834358, 0.00581930298358202, -0.006182304583489895, -0.012413816526532173, 0.0573277473449707, -0.013434568420052528, 0.05489286780357361, 0.03372988477349281, 0.05780224874615669, 0.0642281174659729, 0.04366246610879898, 0.02935662493109703, 0.034473717212677, -0.00691468920558691, -0.061406709253787994, -0.0465058796107769, -0.009342954494059086, -0.00962971244007349, -0.028860008344054222, -0.032723329961299896, -0.029787641018629074, 0.024958740919828415, 0.015989910811185837, 0.030326277017593384, 0.004760339390486479, -0.05853855237364769, -0.060591161251068115, -0.038828205317258835, -0.05230323225259781, -0.04982641711831093, -0.05547834187746048, 0.062892384827137, -0.04602927342057228, 0.04509006068110466, 0.08089231699705124, 0.11301852017641068, 0.014259587042033672, 0.11047353595495224, -0.04267248511314392, -0.04611321911215782, 0.007907669059932232, -0.01655590534210205, 0.08108015358448029, 0.0003920722519978881, -0.018119022250175476, -0.0011481288820505142, -0.036384060978889465, -0.06953320652246475, 0.048344068229198456, -0.03900059685111046, -0.049089618027210236, 0.061862654983997345, 0.06300652027130127, 0.07152292877435684, 0.04114479571580887, 0.002929598093032837, 0.05177305266261101, 0.03801310807466507, 0.029487483203411102, -5.640092058456503e-05, -0.00816225167363882, 0.0020891313906759024, 0.06390988081693649, -0.031473394483327866, 0.03642446920275688, 0.044607482850551605, -0.052313003689050674, 0.041475724428892136, 0.014851006679236889, 0.08172690123319626, -0.03704116493463516, -0.016765234991908073, 0.06317983567714691, -0.0038471920415759087, -0.0012238450581207871, -0.03914474695920944, -0.010947578586637974, -0.004124188330024481, 0.05975117161870003, -0.023736849427223206, 0.08199650794267654, -0.042914118617773056, 0.0496835932135582, 0.055671945214271545, 0.05495050922036171, 0.01611771062016487, 0.020784946158528328, 0.0044190105982124805, -0.053912870585918427, -0.03544468805193901, 0.07331586629152298, 0.013944129459559917, 0.0277918241918087, -0.09310965240001678, 0.017146361991763115, -0.003345315344631672, 0.0795375257730484, 0.0017433793982490897, -0.011113732121884823, -0.028773372992873192, -0.024891747161746025, 0.009975063614547253, 0.013126814737915993, 0.02106878161430359, 0.06259394437074661, -0.00026359697221778333, -0.052035655826330185, -0.055746011435985565, -0.028591714799404144, 0.019301768392324448, 0.014028058387339115, -0.022202910855412483, 0.005414857994765043, 0.04645358771085739, 0.05121821537613869, -0.004784014541655779, -0.056903596967458725, -0.02268773503601551, -0.024123365059494972, 0.028197262436151505, 0.04555681347846985, 0.053871531039476395, -0.02191171795129776, 0.045778099447488785, 0.026587266474962234, 0.04065253958106041, -0.03804556652903557, -0.047902412712574005, 0.00652886601164937, -0.019216980785131454, 0.05767732486128807, -0.050801362842321396, -0.007060003466904163, -0.0021344462875276804, 0.03310408443212509, -0.010831891559064388, -0.018136680126190186, 0.045424170792102814, -0.049030013382434845, -0.05742057412862778, -0.044837139546871185, 0.02213554084300995, 0.00870810728520155, -0.01465437188744545, -0.04200782999396324, -0.05620076134800911, 0.0016166501445695758, 0.006917554419487715, 0.054397281259298325, -0.06112266331911087, -0.04327148199081421, -0.05582655221223831, -0.0031009323429316282, -0.02930048666894436, -0.036696311086416245, -0.05805651843547821, 0.02689758501946926, 0.062149759382009506, 0.06004662811756134, -0.016447028145194054, 0.06321382522583008, -0.005413403734564781, 0.021457495167851448, 0.032668910920619965, 0.010620023123919964, 0.013245412148535252, -0.01762865111231804, -0.013994504697620869, 0.012720844708383083, 0.044545017182826996, -0.06365183740854263, 0.03296282887458801, 0.06010756641626358, 0.0007621300755999982, -0.06373683363199234, 0.014054421335458755, -0.03204142674803734, -0.034849170595407486, -0.02947288565337658, 0.017403272911906242, 0.02367725595831871, -0.05514902621507645, 0.02244858630001545, 0.033307284116744995, 0.05214700475335121, -0.023067554458975792, 0.03382864221930504, 0.005681627430021763, 0.060414306819438934, 0.022547276690602303, 0.03889482840895653, -0.04725092649459839, 0.03891918808221817, -0.05546850711107254, -0.03349889814853668, -0.04240095987915993, -0.039276402443647385, -0.04040961340069771, 0.04617447778582573, -0.012298906221985817, 0.06026328727602959, -0.02861683815717697, 0.005053865723311901, 0.03883873671293259, -0.02392623759806156, 0.06332965940237045, -0.019336087629199028, 0.036260657012462616, 0.019472863525152206, -0.021147387102246284, -0.0467756912112236, -0.023880472406744957, -0.008969972841441631, 0.023078206926584244, 0.0218339916318655, 0.0060331025160849094, -0.012172124348580837, 0.059511542320251465, -0.011881656013429165, 0.05488147214055061, -0.038296397775411606, 0.023588331416249275, -0.032102491706609726, 0.005261153914034367, -0.03415820002555847, -0.04560719057917595, 0.0014375044265761971, 0.01494599599391222, -0.015097498893737793, -0.05124940350651741, 0.0206184983253479, 0.026393063366413116, 0.002462934236973524, 0.05319511517882347, -0.04396292194724083, 0.012289014644920826, -0.029323484748601913, 0.015874862670898438, -0.009744655340909958, -0.004710223525762558, 0.04883764311671257, -0.05560299754142761, -0.0491192527115345, -0.03440302237868309, -0.009007265791296959, 0.003938059322535992, -0.04547128081321716, 0.03726379573345184, -0.037405192852020264, 0.0433916412293911, 0.005257049109786749, -0.018760185688734055, 0.0027722076047211885, -0.04775300994515419, 0.04103097692131996, -0.05191560089588165, 0.013061932288110256, -0.005369753111153841, 0.04502442479133606, 0.012427296489477158, -0.007188044022768736, -0.005028225481510162, 0.05610761046409607, -0.03479484096169472, -0.01989658549427986, -0.031686633825302124, -0.0032820769120007753, 0.014856807887554169, 0.008703247644007206, -0.01899341121315956, 0.020828163251280785, -0.014892618171870708, -0.02373499609529972, -0.016030849888920784, 0.04739173501729965, -0.02165454626083374, 0.0151883065700531, 0.046617694199085236, -0.025995442643761635, -0.033271823078393936, 0.05683223158121109, -0.03906802088022232, -0.04577735811471939, -0.034791383892297745, -0.04529694467782974, 0.04202127084136009, 0.03191811963915825, 0.019659671932458878, -0.05119088292121887, -0.013335676863789558, -0.020657891407608986, -0.04733014106750488, 0.013595674186944962, 0.056859057396650314, -0.01894490420818329, 0.0018261215882375836, 0.03441538289189339, -0.01307089626789093, -0.04011847823858261, 0.00032582718995399773, -0.04401341453194618, 0.06157776713371277, -0.045827466994524, 0.03858732432126999, -0.03915790095925331, 0.05512634292244911, 0.018141472712159157, 0.023064855486154556, 0.0067770653404295444, 0.053416598588228226, -0.06438622623682022, -0.04258185625076294, 0.02491598017513752, -0.01512159500271082, 0.04250609874725342, -0.028055859729647636, -0.007383198942989111, 0.027829721570014954, 0.02349064312875271, 0.060503873974084854, -0.021525029093027115, -0.06408056616783142, -0.022133467718958855, -0.015615573152899742, 0.04506988823413849, -0.03823082521557808, -0.053599901497364044, -0.0366269052028656, -0.03661234304308891, -0.01254489365965128, -0.04616374894976616, -0.05167147144675255, 0.01872405968606472, -0.0483316108584404, 0.011892695911228657, -0.017250176519155502, 0.016137445345520973, 0.005172098986804485, 0.029911966994404793, 0.042438309639692307, 0.01758374460041523, 0.05349857360124588, 0.003733187448233366, -0.011407115496695042, 0.037319742143154144, 0.006040201522409916, 0.037097323685884476, 0.043701425194740295, 0.04402342438697815, 0.019161127507686615, -0.04911326617002487, -0.019355710595846176, -0.012727692723274231, -0.022732751443982124, -0.0306767076253891, 0.029740670695900917, -0.012013750150799751, -0.019199717789888382, -0.0035841758362948895, 0.05812052637338638, 0.023810166865587234, -0.005607507191598415, 0.054451875388622284, 0.012425079010426998, -0.05002550408244133, -0.03275974094867706, 0.06373341381549835, -0.00993077177554369, -0.03633264824748039, 0.06410594284534454, 0.05363046005368233, 0.015168184414505959, -0.000354270072421059, -0.030728183686733246, -0.04547351971268654, 0.006141535006463528, -0.06212571635842323, 0.0598377101123333, 0.014990360476076603, -0.02420547604560852, -0.044038914144039154, -0.05642625316977501, -0.00035686386399902403, -0.02720315009355545, -0.02750503458082676, 0.006889073643833399, 0.01955980248749256, 0.062208402901887894, -0.05876554548740387, -0.023455897346138954, -0.02777741476893425, -0.01636837050318718, -0.023519327864050865, -0.03085758350789547, 0.036040451377630234, 0.038019709289073944, 0.030931619927287102, 0.0387970507144928, -0.013716613873839378, -0.014281313866376877, -0.047768302261829376, -0.006726219784468412, -0.06438132375478745, 0.005506760906428099, 0.019962722435593605, -0.02433287724852562, 0.02241779863834381, 0.05869484692811966, -0.02043839357793331, 0.05143854022026062, -0.017704783007502556, 0.052606526762247086, -0.04814654961228371, 0.04690534994006157, -0.061338916420936584, -0.055125199258327484, -0.06175178289413452, -0.056768693029880524, 0.035746049135923386, -0.045500025153160095, -0.027833381667733192, 0.05706805735826492, 0.0042365663684904575, -0.04977317899465561, 0.033988870680332184, 0.023865047842264175, -0.020829826593399048, 0.004599415231496096, -0.0009073068504221737, -0.0027163580525666475, -0.05397463217377663, 0.014821961522102356, 0.023854423314332962, 0.05769820511341095, -0.00727582722902298, 0.05767470598220825, -0.06330332159996033, -0.003513393923640251, 0.0371616892516613, -0.024121057242155075, -0.03512256592512131, 0.020326972007751465, 0.05698190629482269, 0.0185506884008646, 0.0025143781676888466, 0.06019626185297966, 0.05108801648020744, 0.027152597904205322, -0.022544188424944878, 0.019922612234950066, 0.057449717074632645, -0.021398454904556274, 0.006787956692278385, -0.028850851580500603, 0.008145546540617943, -0.027303125709295273, -0.011102739721536636, 0.04889261722564697, 0.05457015335559845, -0.01764928549528122, 0.043222635984420776, -0.049256954342126846, 0.01908331736922264, 0.05391586571931839, -0.01496836356818676, 0.03219769522547722, -0.014528043568134308, -0.05402655154466629, -0.02939314767718315, -0.030538948252797127, 0.005628920625895262, 0.01026851125061512, -0.05535317584872246, -0.02527696080505848, -0.05068079009652138, 0.025556664913892746, 0.010300073772668839, 0.03790156915783882, -0.055640317499637604, 0.01727340929210186, -0.049044739454984665, -0.023173801600933075, -0.02685839682817459, 0.056261755526065826, -0.02840077504515648, -0.01266288012266159, -0.022398456931114197, -0.04883289337158203, 0.016919266432523727, 0.024985652416944504, 0.018851282075047493, -0.015667704865336418, 0.017873253673315048, -0.03802447393536568, 0.05410299822688103, 0.01739904284477234, 0.02879376709461212, -0.006784084718674421, -0.0051361494697630405, 0.008339816704392433, -0.04962949827313423, 0.03375611826777458, 0.025759577751159668, 0.06489524245262146, -0.011542268097400665, -0.03497295454144478, -0.05791778862476349, 0.050931867212057114, 0.012500151991844177, 0.05166138708591461, -0.03698021546006203, 0.03380846977233887, 0.0033938377164304256, 0.037937816232442856, 0.03772109001874924, -0.029366573318839073, 0.005548906046897173, -0.014365525916218758, -0.033554788678884506, 0.020815055817365646, 0.05097563937306404, -0.05800476297736168, -0.037718839943408966, 0.05817209556698799, 0.053643058985471725, 0.04588214308023453, -0.030269337818026543, 0.06218743324279785, -0.04684600979089737, -0.008080687373876572, -0.05027579516172409, -0.021480467170476913, -0.04517734423279762, 0.05457860976457596, 0.02700715884566307, 0.021848848089575768, -0.01575416885316372, -0.015376023016870022, -0.02847796119749546, 0.01364572998136282, -0.039181675761938095, -0.036353934556245804, 0.03458845615386963, 0.02062658965587616, -0.006603234447538853, 0.03678679093718529, 0.0016760663129389286, 0.02539910189807415, 0.006916854064911604, -0.015172782354056835, 0.055298615247011185, 0.021056989207863808, -0.006672763265669346, -0.046606358140707016, 0.03666448965668678, 0.05820535868406296, 0.0469735749065876, 0.05449467897415161, -0.0070129516534507275, 0.018890129402279854, 0.0384390689432621, 0.019283337518572807, -0.009364191442728043, 0.029798977077007294, 0.007195630110800266, -0.013475402258336544, -0.0014854251639917493, -0.06398865580558777, 0.029616553336381912, -0.02409079670906067, -0.05373037979006767, 0.04585498943924904, -0.040999237447977066, 0.03863350674510002, 0.05147400125861168, -0.01409109029918909, -0.013591769151389599, 0.050782449543476105, -0.044133398681879044, 0.047732774168252945, -0.05347440019249916, 0.035369329154491425, 0.026498302817344666, 0.015295282006263733, -0.029803114011883736, -0.022004488855600357, -0.050590623170137405, 0.009585704654455185, -0.0020787499379366636, -0.00039408027078025043, 0.035981036722660065, 0.03569738566875458, 0.04955456405878067, 0.03903964161872864, 0.0495290569961071, -0.005086477380245924, 0.02638748288154602, 0.03415941447019577, -0.05390474200248718, 0.016931777819991112, 0.000917577650398016, 0.0060485112480819225, 0.037446923553943634, 0.018323075026273727, -0.011080054566264153, 0.05665123090147972, -0.0597476102411747, 0.011996114626526833, 0.044365741312503815, 0.02089756913483143, 0.013155106455087662, -0.04390307888388634, -0.040661439299583435, 0.013413586653769016, 0.0032732817344367504, 0.016680438071489334, 0.03241719305515289, 0.0645318478345871, 0.028056148439645767, -0.053202930837869644, -0.026058541610836983, 0.014445729553699493, 0.03748618811368942, 0.04605892673134804, 0.05995292589068413, -0.04926936700940132, -0.06133325770497322, 0.026323650032281876, -0.013565447181463242, 0.04400186613202095, -0.01824197731912136, -0.06370344758033752, -0.013236720114946365, 0.04471548646688461, 0.03997655212879181, -0.050488851964473724, 0.0036393385380506516, -0.035275235772132874, -0.026707157492637634, 0.06355853378772736, 0.03497166931629181, -0.04743867367506027, -0.05609722435474396, -0.06316205114126205, 0.01825198158621788, -0.014422831125557423, 0.007886800915002823, 0.01318516954779625, 0.042149368673563004, 0.010818876326084137, 0.016947602853178978, 0.03023729845881462, -0.012550804764032364, -0.0613543726503849, 0.007877816446125507, 0.012524674646556377, 0.014236521907150745, 0.047049663960933685, 0.002743840217590332, -0.054994501173496246, 0.06305979192256927, -0.019097670912742615, -0.018994541838765144, 0.022155005484819412, 0.0025128365959972143, -0.004685865715146065, 0.026971343904733658, 0.010126769542694092, 0.05056629702448845, -0.03521820157766342, 0.03440402075648308, -0.02916530892252922, -0.0018683108501136303, -0.06392533332109451, -0.017390301451086998, -0.015607806853950024, 0.05721629410982132, 0.017315467819571495, -0.019266579300165176, 0.05544494092464447, 0.008966500870883465, 0.03887566179037094, -0.025327535346150398, -0.05667438730597496, 0.04902358725667, 0.04553837329149246, 0.04080229625105858, -0.027254099026322365, -0.06246756762266159, 0.046118367463350296, 0.0598989799618721, -0.05679527297616005, 0.0002727561804931611, -0.013854866847395897, -0.025987865403294563, 0.0270700566470623, -0.016999294981360435, -0.027702322229743004, -0.04822458699345589, -0.017488155514001846, 0.03302869573235512, 0.012826338410377502, 0.012596569024026394, -0.04150017723441124, -0.035394344478845596, 0.05254647135734558, -0.004351797513663769, 0.04420912265777588, 0.04369345307350159, -0.02300790511071682, 0.03420921787619591, 0.050063714385032654, 0.056327592581510544, 0.020078912377357483, 0.033975303173065186, -0.012826237827539444, 0.027767183259129524, 0.05310632288455963, 0.032729893922805786, 0.006568058393895626, 0.015428634360432625, 0.055554311722517014, -0.018384858965873718, 0.0285355057567358, -0.04644172638654709, -0.012651180848479271, 0.053969789296388626, 0.03846501186490059, 0.016199029982089996, -0.03821276128292084, -0.006557554006576538, -0.056246720254421234, 0.04620641842484474, 0.04253067448735237, -0.008971888571977615, -0.04377574846148491, -0.03656585142016411, -0.0431475006043911, -0.059573378413915634, -0.014210393652319908, -0.022544020786881447, -0.018351059406995773, 0.05215931683778763, -0.054473135620355606, 0.04393139109015465, 0.05401165410876274, 0.04659096896648407, 0.049449820071458817, 0.03238455951213837, 0.038616180419921875, 0.02381272241473198, -0.02737610787153244, -0.05176593363285065, 0.05755409598350525, 0.021604228764772415, 0.03640403598546982, -0.008147144690155983, -0.02394377440214157, 0.007229700218886137, -0.04825461283326149, -0.034367624670267105, 0.06178475171327591, 0.003567747538909316, 0.0006853353697806597, -0.03234517201781273, -0.048132725059986115, -0.032684650272130966, -0.04379033297300339, 0.046826280653476715, -0.03354167565703392, -0.06023695319890976, 0.058073729276657104, -0.03676970303058624, -0.04006992653012276, -0.012077677063643932, -0.016253186389803886, 0.03927546367049217, -0.06309958547353745, 0.04544539377093315, -0.06342370063066483, 0.06239030882716179, -0.03335020691156387, -0.007730469573289156, -0.0212852843105793, -0.019751757383346558, 0.05981926620006561, -0.0032267109490931034, -0.0018400768749415874, -0.0552234873175621, -0.04585626348853111, -0.0061513702385127544, -0.04638681560754776, 0.03784167766571045, -0.0315929651260376, -0.010701579041779041, 0.006398492958396673, -0.028111977502703667, 0.0009790377225726843, -0.01741041988134384, 0.053210362792015076, -0.02156439982354641, -0.027554556727409363, 0.03559606894850731, 0.002888171700760722, -0.048310376703739166, 0.04619899019598961, -0.042185571044683456, -0.007995544001460075, -0.0013045169180259109, -0.035399746149778366, -0.023860514163970947, -0.04779026284813881, -0.012947449460625648, -0.03254178166389465, 0.0459551177918911, -0.022681917995214462, -0.03097665123641491, 0.05032637342810631, 0.003725998802110553, -0.05960559472441673, 0.004237418528646231, 0.036198411136865616, 0.009664236567914486, -0.05942190811038017, 0.06024181470274925, -0.012297450564801693, 0.061718448996543884, -0.02411806769669056, -0.02004486881196499, -0.028468050062656403, 0.03013993613421917, 0.027667414397001266, -0.016987942159175873, 0.027990680187940598, 0.03140994906425476, 0.005831852089613676, 0.008432122878730297, -0.06878641247749329, 0.01662619784474373, 0.05079171434044838, -0.04586884379386902, -0.016769465059041977, 0.06942756474018097, 0.0447770431637764, -0.0119264991953969, 0.023736266419291496, 0.040076397359371185, 0.05106097832322121, -0.10000329464673996, 0.010537616908550262, 0.02208618074655533, 0.0573296919465065, -0.003997302148491144, 0.006629017181694508, 0.08418213576078415, 0.013112690299749374, -0.04574410244822502, -0.06499620527029037, 0.004728594794869423, 0.05728127807378769, -0.06136656925082207, -0.02183624543249607, 0.08815523236989975, -0.08055691421031952, -0.0039620003663003445, 0.0656917467713356, -0.006014646962285042, 0.01990601234138012, 0.026272036135196686, 0.0005622507305815816, 0.01790134608745575, -0.06369336694478989, -0.06170513108372688, -0.006671943701803684, -0.04022973030805588, 0.0350375697016716, -0.04757847636938095, 0.06343929469585419, 0.043228864669799805, -0.015252875164151192, -0.005417428445070982, -0.04547085240483284, -0.0640965923666954, 0.057723939418792725, 0.034351687878370285, -0.017073368653655052, 0.05603694170713425, -0.037581272423267365, 0.061630647629499435, 0.06260533630847931, -0.018235130235552788, -0.05286779627203941, -0.000397210824303329, -0.042962800711393356, -0.03311534225940704, -0.00785581860691309, -0.010323647409677505, 0.001113276113756001, 0.05590905621647835, -0.039680469781160355, -0.04411476477980614, -0.036723919212818146, -0.04151533916592598, -0.056205183267593384, -0.0287493709474802, 0.04705430939793587, 0.036574479192495346, 0.053639475256204605, 0.05163932219147682, -0.02223767712712288, 0.04128023609519005, -0.0014617049600929022, -0.0013145405100658536, -0.024621007964015007, 0.04786765202879906, -0.008554191328585148, 0.06866229325532913, -0.005104985553771257, 0.016065677627921104, 0.07686903327703476, -0.04937341809272766, -0.06494171917438507, 0.031149668619036674, 0.016568580642342567, 0.041028477251529694, -0.022403281182050705, 0.07770714908838272, 0.005604722071439028, -0.025842687115073204, 0.05537720024585724, 0.008468621410429478, 0.026620473712682724, -0.05393819883465767, -0.06084022670984268, 0.04670359939336777, -0.017230309545993805, 0.028145411983132362, 0.01198890432715416, -0.06704569607973099, 0.054569609463214874, 0.034268688410520554, -0.006538967601954937, -0.0248698927462101, 0.0026537789963185787, -0.0837206169962883, 0.02879280410706997, 0.0041953944601118565, 0.05932791158556938, -0.05432818457484245, -0.05140738934278488, -0.04560327157378197, -0.04687322676181793, 5.185900954529643e-05, -0.012566094286739826, -0.0495954304933548, 0.03770003095269203, -0.014232668094336987, 0.015622785314917564, 0.04528656229376793, -0.0130814453586936, 0.009709179401397705, -0.016910433769226074, -0.010893311351537704, 0.0014459923841059208, 0.0032993056811392307, -0.010780971497297287, 0.04016825556755066, -0.0018173216376453638, -0.060498904436826706, 0.00019019111641682684, 0.010475457645952702, -0.00856725126504898, -0.024881165474653244, 0.02063334546983242, 0.013711894862353802, 0.03975358605384827, -0.022890111431479454, 0.011953690089285374, -0.06102064996957779, 0.03613551706075668, -0.00017522017878945917, 0.04769478738307953, 0.0008857050561346114, 0.04503760114312172, 0.049835722893476486, -0.03965209424495697, 0.027743661776185036, -0.01904001086950302, 0.042682159692049026, 0.0017902040854096413, 0.0656585842370987, 0.05396009981632233, -0.028158457949757576, -0.035208024084568024, -0.007269120309501886, 0.0064132604748010635, -0.09807877987623215, -0.027663137763738632, -0.0712796300649643, 0.00632430287078023, -0.06237516179680824, 0.01414294634014368, 0.05195315182209015, 0.10714071989059448, 0.05017416551709175, 0.061835821717977524, 0.07001957297325134, 0.0669153481721878, -0.06528051197528839, 0.0313652865588665, 0.04825928434729576, -0.002256917068734765, -0.04151409864425659, 0.015783144161105156, 0.01582987792789936, -0.007413012906908989, 0.06013154983520508, -0.0352468304336071, 0.002141712699085474, 0.012071493081748486, -0.006792659405618906, 0.03405484929680824, -0.051764436066150665, 0.008099213242530823, 0.017181869596242905, -0.06216329336166382, 0.05619440972805023, -0.04545196518301964, -0.0038709596265107393, -0.026822874322533607, -0.03777964785695076, 0.02547409012913704, 0.0666622519493103, 0.07933837920427322, -0.08045601099729538, 0.019052408635616302, 0.05343956872820854, 0.04623202607035637, 0.053227271884679794, -0.034010984003543854, 0.015070449560880661, -0.003964767325669527, 0.03738395869731903, -0.010749968700110912, -0.027723314240574837, -0.0241269338876009, 0.02857944741845131, 0.01204789150506258, -0.018186092376708984, -0.011835780926048756, -0.012731647118926048, -0.03376756235957146, -0.056000981479883194, -0.029199950397014618, 0.03895033895969391, 0.03632686659693718, -0.03270995616912842, 0.03287062793970108, -0.04260426014661789, -0.01996779814362526, 0.027255047112703323, -0.03726501390337944, -0.04781245440244675, 0.019804276525974274, -0.0501791350543499, 0.031065840274095535, 0.04376470297574997, -0.0182716753333807, -0.01110079139471054, 0.03670697286725044, -0.04952048137784004, -0.008271422237157822, 0.0597001388669014, 0.03475795313715935, -0.052795495837926865, -0.025606045499444008, 0.02705635316669941, 0.028251636773347855, -0.007573361042886972, -0.03563041612505913, -0.06295622885227203, -0.02804608829319477, 0.04558279737830162, 0.0358092300593853, -0.011802377179265022, -0.03210854157805443, 0.05891116335988045, 0.051863301545381546, 0.021303363144397736, -0.05858562886714935, 0.033586710691452026, -0.006596534047275782, 0.03261157125234604, -0.04826272279024124, 0.04078387841582298, 0.0018748007714748383, -0.034529197961091995, 0.024901406839489937, 0.029437456279993057, 0.04726305976510048, -0.002115229843184352, 0.059190068393945694, -0.040801506489515305, -0.002418647753074765, 0.019142476841807365, 0.018971538171172142, -0.013623697683215141, 0.019806794822216034, 0.05074997991323471, -0.04477589949965477, -0.051935676485300064, 0.05203690007328987, 0.05741940066218376, -0.017022792249917984, 0.019941994920372963, 0.05582907050848007, 0.00244198483414948, 0.018865136429667473, 0.044302798807621, 0.00864969752728939, -0.030359532684087753, -0.01716022379696369, -0.03945213556289673, -0.011300827376544476, -0.03722303733229637, 0.041282232850790024, 0.036344386637210846, -0.025644520297646523, -0.04373323172330856, -0.04789136350154877, 0.05926856771111488, -0.03403078764677048, -0.02703143283724785, 0.03445199504494667, -0.012118689715862274, -0.06419868767261505, -0.034325599670410156, -0.06399236619472504, 0.05816705524921417, -0.016647061333060265, 0.0582892931997776, 0.004241905175149441, 0.03372831270098686, -0.01798567920923233, 0.05036672204732895, -0.05250243470072746, 0.02307831682264805, -0.02875594235956669, 0.011164175346493721, 0.007918345741927624, 0.0386916920542717, -0.041610557585954666, 0.016335366293787956, 0.006323740817606449, 0.05125075951218605, 0.0045232283882796764, 0.017664160579442978, 0.05109500139951706, 0.029756199568510056, 0.06384571641683578, -0.053569234907627106, -0.052206698805093765, -0.06108127534389496, 0.03957103565335274, 0.02921217307448387, -0.04055757820606232, 0.0002088268956867978, -0.028453350067138672, 0.04973843693733215, 0.053496815264225006, 0.06133601814508438, 0.025056878104805946, 0.007672790437936783, 0.06014135107398033, 0.01729651540517807, 0.0428825281560421, -0.04607000574469566, -0.026282908394932747, 0.06198657676577568, -0.051801737397909164, -0.016335949301719666, -0.010086538270115852, 0.04252321273088455, -0.02461519092321396, 0.013482414186000824, -0.030653001740574837, 0.022462597116827965, 0.0018073271494358778, -0.06290018558502197, 0.04494526609778404, -0.03776586055755615, -0.060707349330186844, 0.023336824029684067, 0.0014183743624016643, 0.012923689559102058, -0.030269796028733253, 0.06312455981969833, 0.005803762935101986, 0.05284640192985535, -0.004248634446412325, -0.0011938558891415596, -0.02441323921084404, -0.04322005808353424, 0.03090192936360836, 0.020701071247458458, 0.019675249233841896, -0.03780319541692734, 0.05014009401202202, -0.0002557857078500092, -0.05296393111348152, 0.019976206123828888, 0.014863300137221813, 0.007253216113895178, -0.05734465271234512, 0.01765703223645687, 0.010832216590642929, -0.049720168113708496, 0.054580386728048325, -0.01846829429268837, 0.05780623480677605, 0.03205379843711853, -0.037488166242837906, -0.06412696838378906, 0.040782779455184937, 0.046022720634937286, 0.061449360102415085, -0.010205443017184734, -0.01218701433390379, -0.03898333013057709, 0.03119516186416149, 0.02327098697423935, -0.025940928608179092, 0.011908537708222866, -0.025112969800829887, 0.050134748220443726, 0.02822059951722622, 0.009259638376533985, 0.009671574458479881, -0.03481239080429077, -0.009904553182423115, -0.008943180553615093, 0.041606027632951736, -0.01978232152760029, -0.019814442843198776, 0.04100643843412399, 0.042647019028663635, 0.0601925291121006, -0.018368912860751152, -0.016104841604828835, 0.044765226542949677, -0.054212670773267746, -0.0335683599114418, -0.025696460157632828, 0.042087625712156296, -0.036895230412483215, -0.04063556343317032, 0.013209939002990723, 0.043009743094444275, -0.03673544526100159, -0.04202912747859955, -0.03983297571539879, 0.0048300824128091335, 0.0008358018822036684, 0.03994138911366463, 0.040660519152879715, 0.03660315275192261, -0.06000499427318573, 0.0011319533223286271, -0.0223053228110075, 0.00442339014261961, 0.002869399730116129, 0.05556821450591087, 0.03528930991888046, 0.006851376499980688, 0.0028676765505224466, -0.007355105131864548, -0.05924377590417862, 0.05051125958561897, -0.023691965267062187, -0.019849194213747978, 0.0035583414137363434, -0.004615643993020058, 0.00707692326977849, 0.008944135159254074, -0.03673096001148224, -0.0016041125636547804, -0.02995939552783966, 0.011577683500945568, -0.0465363934636116, 0.040325284004211426, 0.038474176079034805, -0.02579382434487343, 0.026179905980825424, 0.028784142807126045, 0.03096839413046837, -0.06409860402345657, -0.035337332636117935, -0.002636242425069213, -0.057293523102998734, -0.01773490384221077, 0.03754403442144394, 0.05672766640782356, -0.047921210527420044, 0.0016913878498598933, -0.023824023082852364, -0.0009895407129079103, 0.048763707280159, 0.053196147084236145, -0.010937522165477276, 0.04626373201608658, 0.055870622396469116, -0.04377558082342148, -0.040099646896123886, 0.002782924100756645, 0.02855386771261692, -0.00392307760193944, 0.0013453965075314045, -0.01440825778990984, 0.05141608044505119, -0.04113084077835083, -0.0063986945897340775, -0.016523564234375954, -0.051153697073459625, 0.011604288592934608, -0.04964596778154373, 0.027257662266492844, 0.04682733118534088, -0.007192484103143215, 0.05541441589593887, 0.045256759971380234, 0.02367226779460907, -0.029573515057563782, -0.03552042692899704, -0.018934065476059914, 0.045575451105833054, 0.014583698473870754, 0.06056089326739311, 0.0231731366366148, -0.03201970085501671, 0.015943335369229317, 0.06190508231520653, -0.02004898712038994, 0.023188188672065735, 0.05309271812438965, -0.05572177842259407, -0.07579545676708221, 0.01684720255434513, 0.012965709902346134, 0.003293562214821577, 0.03286559507250786, -0.03584225848317146, 0.028099386021494865, 0.03405432775616646, -0.05242226645350456, 0.058940351009368896, -0.00618082657456398, -0.008851474151015282, 0.055717404931783676, -0.061262473464012146, -0.045129697769880295, 0.0580456480383873, -0.056494828313589096, 0.046157777309417725, 0.04593655839562416, -0.055729854851961136, 0.006432709749788046, 0.05493601784110069, 0.057280607521533966, -0.028096908703446388, -0.015029563568532467, 0.02170541323721409, -0.013196642510592937, -0.012082614004611969, 0.041216835379600525, 0.021336887031793594, -0.0343133881688118, -0.03583485260605812, 0.0015088742366060615, 0.019409608095884323, 0.04283907264471054, -0.043995022773742676, -0.0393873006105423, 0.02664368785917759, 0.06167098507285118, 0.018143871799111366, 0.05888925865292549, -0.04806554690003395, 0.00884859636425972, -0.06265830248594284, 0.04071589931845665, 0.0024877300020307302, -0.059361204504966736, -0.04677531123161316, -0.009404823184013367, -0.004036646336317062, -0.016736730933189392, -0.057723306119441986, 0.009572717361152172, 0.019232861697673798, -0.005366381723433733, 0.0003392391372472048, 0.007384651340544224, 0.04825802519917488, -0.006972901988774538, 0.054404668509960175, 0.03569135442376137, 0.024049393832683563, 0.004604696296155453, -0.030351689085364342, 0.05173971503973007, -0.04200822114944458, -0.001859521260485053, 0.015020808205008507, 0.011584727093577385, -0.01983381062746048, 0.04847332462668419, -0.003642946481704712, 0.022538751363754272, -0.03778474032878876, -0.050679970532655716, 0.0158989354968071, 0.026706403121352196, -0.009484421461820602, 0.051550235599279404, 0.0016611454775556922, 0.04678023234009743, 0.058367885649204254, -0.024562006816267967, -0.020108642056584358, -0.03053918480873108, 0.05266560986638069, 0.006101732607930899, -0.06817460060119629, 0.048363372683525085, -0.03280657157301903, -0.012307298369705677, 0.050059057772159576, -0.010718614794313908, -0.0012076906859874725, -0.007610925938934088, 0.022297624498605728, 0.034180354326963425, 0.017626825720071793, 0.041356224566698074, 0.03128909319639206, 0.020824706181883812, -0.02799912914633751, -0.022784799337387085, 0.05835220217704773, 0.038680415600538254, -0.061483193188905716, 0.040656182914972305, 0.05102887377142906, -0.05155259370803833, 0.047822192311286926, -0.06837453693151474, -0.05395474657416344, -0.008836416527628899, -0.023541828617453575, -0.0007624877034686506, 0.009752435609698296, 0.05918451398611069, 0.041707929223775864, -0.0026414126623421907, -0.05636267736554146, -0.043312445282936096, -0.047008682042360306, -0.03370301052927971, -0.016525523737072945, -0.042761337012052536, -0.03490424528717995, 0.04714690521359444, -0.04899653047323227, -0.021168991923332214, 0.01011467445641756, 0.05307893827557564, -0.017293594777584076, 0.02665429376065731, -0.05096207186579704, 0.0037187945563346148, 0.07269998639822006, -0.002481806091964245, 0.003110605990514159, -0.041582029312849045, 0.06383997946977615, -0.03181970864534378, 0.027440249919891357, -0.0077377259731292725, 0.06054530292749405, -0.01694052666425705, -0.029710598289966583, -0.009014691226184368, 0.042883824557065964, 0.03042154759168625, -0.033041682094335556, 0.003172290278598666, -0.06305702775716782, -0.023830542340874672, 0.05558997020125389, 0.021120905876159668, 0.04347994178533554, 0.03359578922390938, -0.007886976934969425, -0.011758441105484962, 0.04683098569512367, 0.0535721480846405, -0.019420573487877846, -0.02782256342470646, 0.007714453618973494, 0.038743406534194946, 0.06048957630991936, 0.031774476170539856, 0.033894091844558716, 0.05227139592170715, 0.06379468739032745, -0.01324401330202818, -0.03692435100674629, 0.038949284702539444, -0.014006473124027252, -0.002458659466356039, 0.0072189439088106155, 0.03298501670360565, -0.060512151569128036, 0.05700832977890968, -0.050379641354084015, -0.0042237830348312855, 0.0330531932413578, 0.023239361122250557, -0.023132620379328728, -0.028151381760835648, 0.018697256222367287, 0.002871115691959858, -0.0383111946284771, -0.007771633565425873, 0.015266924165189266, -0.024083945900201797, -0.00022196331701707095, -0.06345165520906448, 0.009265917353332043, -0.01786700449883938, 0.03490148484706879, -0.06184713914990425, -0.03052336908876896, 0.004161177668720484, -0.025749092921614647, 0.04078534618020058, 0.017657756805419922, -0.024879254400730133, 0.057332463562488556, 0.04834510758519173, -0.05855132266879082, 0.055330391973257065, 0.02587863802909851, -0.04491753876209259, -0.032611411064863205, 0.010029411874711514, -0.0021141727920621634, 0.04319503530859947, -0.036717697978019714, -0.05095960572361946, -0.01363881304860115, 0.010477599687874317, 0.011021978221833706, -0.042149849236011505, 0.03045750968158245, -0.06536028534173965, 0.051707979291677475, 0.027952095493674278, 0.007063458673655987, -0.030483433976769447, 0.04517437890172005, -0.009338945150375366, -0.013688812963664532, 0.00871695764362812, 0.028871608898043633, -0.041327912360429764, 0.040068864822387695, -0.014462112449109554, -0.02138829603791237, 0.012549801729619503, 0.06354711204767227, -0.046581462025642395, -0.0411364808678627, -0.029620124027132988, 0.014142788015305996, 0.016610102728009224, 0.03663945570588112, 0.015453320927917957, -0.022447092458605766, 0.059138886630535126, -0.0379728227853775, 0.042601753026247025, -0.05666419863700867, -0.01809115707874298, -0.03133959695696831, -0.062221791595220566, 0.021800033748149872, -0.04612458124756813, -0.026991169899702072, -0.0031798514537513256, -0.006612919736653566, -0.004523401148617268, 0.03186912462115288, 0.010559078305959702, -0.004487451631575823, 0.028190065175294876, 0.045445188879966736, 0.04942714050412178, 0.022050002589821815, -0.03210912272334099, -0.0019616596400737762, 0.01612749695777893, 0.06020854040980339, -0.055186398327350616, -0.010923532769083977, 0.03889910876750946, 0.012908553704619408, 0.02790147066116333, 0.04685727506875992, -0.04871736094355583, 0.060707252472639084, -0.004822212737053633, 0.03459840640425682, -0.016520068049430847, 0.047563035041093826, 0.02596782147884369, 0.022130977362394333, 0.05638929456472397, -0.01803092658519745, 0.04759594798088074, -0.04517684504389763, 0.024276191368699074, 0.03245643153786659, 0.03910563513636589, -0.010416406206786633, 0.027974067255854607, 0.05947721377015114, -0.04064736142754555, 0.043393589556217194, 0.0342775359749794, -0.04596063867211342, -0.003961235284805298, 0.0017547635361552238, -0.05336267128586769, 0.029610080644488335, 0.030677061527967453, 0.045756760984659195, 0.060820385813713074, -0.03557944670319557, -0.016485149040818214, -0.010819044895470142, -0.009129379875957966, 0.04525187984108925, -0.023584676906466484, 0.04757878929376602, -0.044456224888563156, -0.029010653495788574, -0.037886954843997955, -0.044816985726356506, 0.008212724700570107, -0.022182585671544075, 0.05586684122681618, -0.04097321629524231, -0.06501827389001846, -0.0029419076163321733, 0.04228372871875763, -0.06530489772558212, -0.026695309206843376, 0.031120285391807556, 0.04958523437380791, 0.049929313361644745, -0.04733840748667717, -0.04533350095152855, 0.04012763127684593, 0.04503914341330528, -0.0010748096974566579, -0.014469829387962818, 0.04419903829693794, 0.04513099789619446, 0.021407322958111763, -0.05648959055542946, 0.05147890746593475, 0.011081312783062458, 0.046935733407735825, -0.06074465066194534, -0.06176794320344925, -0.01749373972415924, 0.05733063071966171, 0.00934846606105566, 0.04987087845802307, -0.0034096711315214634, 0.04284707456827164, -0.04781264439225197, -0.04636067897081375, 0.0018369680037721992, 0.012096128426492214, 0.0406174398958683, -0.0307944156229496, -0.05776716768741608, -0.004636155441403389, -0.04177600145339966, -0.046211957931518555, -0.05799451470375061, 0.017023887485265732, -0.04633849859237671, -0.056149113923311234, -0.04783417657017708, -0.03384426236152649, -0.056894365698099136, 0.035226721316576004, -0.022551625967025757, 0.04011596739292145, -0.04613190516829491, -0.05931781232357025, 0.005239461548626423, 0.052565962076187134, 0.04845930263400078, 0.030199868604540825, 0.03319200873374939, 0.05653136968612671, -0.019097061827778816, 0.04316885396838188, -0.016906889155507088, -0.06768333911895752, 0.05292891710996628, -0.04583687335252762, -0.05299421027302742, 0.044246017932891846, -0.015210369601845741, 0.009123217314481735, -0.01674460805952549, 0.0033746378030627966, 0.005562195088714361, -0.048271406441926956, -0.048645928502082825, -0.016029467806220055, 0.013744649477303028, -6.462560122599825e-06, 0.03686743974685669, 0.03227023035287857, 0.012649043463170528, -0.05174517259001732, -0.016318827867507935, 0.010193334892392159, -0.023910148069262505, 9.653834422351792e-05, -0.04423898831009865, 0.046939704567193985, -0.0008442677208222449, -0.034399550408124924, 0.02541516348719597, -0.04967699199914932, -0.023793144151568413, -0.055425092577934265, -0.009223507717251778, -0.035635367035865784, -0.027947133406996727, -0.03648427128791809, -0.025638293474912643, 0.004434958100318909, -0.018463263288140297, -0.05741192772984505, -0.012205701321363449, 0.006530978251248598, -0.0062917135655879974, 0.01479420904070139, 0.05129546299576759, 0.025528158992528915, 0.05489661544561386, -0.03310837596654892, 0.03388542681932449, -0.043315593153238297, 0.021030692383646965, -0.027070920914411545, -0.021268734708428383, 0.017329279333353043, 0.020479613915085793, -0.004741661250591278, -0.04306759685277939, -0.022771524265408516, -0.0203158650547266, 0.03301241993904114, 0.00677750539034605, -0.006081491243094206, 0.008455312810838223, 0.03207710012793541, -0.006853247527033091, 0.04564667120575905, 0.02720526047050953, -0.049269914627075195, -0.012147695757448673, 0.05016116052865982, 0.010755029506981373, 0.016529647633433342, 0.022248221561312675, 0.03443978354334831, 0.018447555601596832, 0.006275551859289408, 0.04262560233473778, -0.008906322531402111, -0.06276239454746246, -0.023709971457719803, 0.01674383506178856, -0.02884267270565033, 0.005951728206127882, 0.02469881810247898, -0.0058177257888019085, -0.04208436608314514, 0.0585523284971714, 0.02027595415711403, 0.0345040038228035, 0.012814005836844444, 0.013481360860168934, 0.03382103145122528, 0.013290529139339924, -0.047467127442359924, -0.003829402383416891, 0.06874194741249084, -0.04381900653243065, 0.0415755957365036, -0.011690148152410984, -0.055338263511657715, -0.054271452128887177, 0.06695472449064255, 0.06428591161966324, -0.007755317259579897, -0.05729038268327713, -0.05475956201553345, -0.017253510653972626, -0.01836070604622364, 0.01606392115354538, -0.06349313259124756, -0.012715455144643784, -0.03648201376199722, -0.05667852610349655, -0.03787832334637642, 0.005428139586001635, 0.006029694806784391, 0.033637918531894684, 0.06379109621047974, -0.03517379239201546, -0.007881227880716324, 0.04712408781051636, 0.0360538549721241, -0.03281008452177048, -0.045079365372657776, -0.058513954281806946, -0.0051507167518138885, -0.059566106647253036, -0.057422373443841934, 0.04816669225692749, -0.060528464615345, 0.05106572434306145, 0.053366757929325104, 0.043856728821992874, 0.0021757245995104313, -0.045588862150907516, -0.05231890454888344, 0.004578904714435339, 0.013401548378169537, -0.03648902103304863, -0.04777513071894646, 0.030804894864559174, -0.027182679623365402, 0.05480324104428291, -0.025015519931912422, 0.0708586648106575, 0.03845297172665596, 0.06463007628917694, 0.021570196375250816, -0.0033267701510339975, -0.07980959862470627, 0.02275851182639599, -0.026422422379255295, -0.035185251384973526, -0.03040890209376812, 0.05661005526781082, 0.03900982066988945, -0.02573186345398426, 0.05101929232478142, 0.06274273991584778, -0.013280730694532394, -0.014848047867417336, -0.06678644567728043, 0.023948049172759056, -0.05754297226667404, -0.0846148356795311, -0.04943413659930229, 0.05652410164475441, 0.0622529499232769, 0.0012715006014332175, -0.002861534245312214, -0.0003546091902535409, -0.05456620454788208, 0.06376984715461731, -0.0036483672447502613, -0.022801216691732407, 0.04224109277129173, -0.03243154287338257, -0.07548259943723679, -0.010848592966794968, 0.04719963297247887, 0.07376884669065475, 0.052498798817396164, 0.05514649674296379, 0.0014184887986630201, -0.0004191937914583832, -0.010323241353034973, -0.05638326704502106, -0.03990091383457184, 0.06741464883089066, -0.028538767248392105, -0.021130580455064774, 0.0418752059340477, -0.028370819985866547, 0.004655858501791954, 0.003404248273000121, 0.025117479264736176, 0.014811993576586246, 0.007390072103589773, -0.05826006829738617, -0.005869991146028042, 0.05231902748346329, 0.02258901670575142, 0.0465434230864048, -0.0410623662173748, 0.007987001910805702, 0.006258219014853239, 0.049960073083639145, 0.03323114290833473, -0.04051831364631653, -0.01832321658730507, 0.05001676082611084, -0.046442486345767975, 0.006967409513890743, -0.058200009167194366, -0.028468966484069824, 0.030294056981801987, 0.03385061398148537, 0.008561719208955765, -0.03314004838466644, -0.015261630527675152, -0.026682941243052483, 0.012825398705899715, 0.017120424658060074, -0.04864604398608208, -0.0136969443410635, 0.049275994300842285, -0.047247909009456635, -0.05814254656434059, 0.023736214265227318, 0.05308723449707031, 0.03785932436585426, -0.06666965037584305, 0.06598950922489166, 0.08872461318969727, 0.07564134150743484, 0.005036831833422184, 0.06283275038003922, 0.03036736510694027, 0.03316521272063255, 0.027265066280961037, 0.0332474522292614, -0.00589396059513092, 0.011419172398746014, -0.030042951926589012, -0.06191697716712952, -0.04883716255426407, 0.02735339291393757, 0.03778793290257454, 0.05536624789237976, 0.0354820117354393, -0.0013305352767929435, 0.06750697642564774, 0.013408636674284935, -0.06869092583656311, 0.03129126876592636, -0.038638703525066376, 0.0791751965880394, 0.005035609472543001, 0.02684183046221733, -0.01750977523624897, -0.026091348379850388, -0.022050870582461357, 0.008066109381616116, -0.04617968574166298, 0.03459938243031502, -0.005606083199381828, -9.633706213207915e-05, 0.07581241428852081, 0.004958811216056347, 0.03555314242839813, -0.02819024957716465, -0.0640060231089592, 0.1029331386089325, 0.014317973516881466, -0.04984612017869949, -0.014065351337194443, 0.05315697193145752, -0.06430014967918396, 0.010485436767339706, -0.011731945909559727, -0.051162559539079666, -0.00655406853184104, 0.005905929021537304, -0.011086730286478996, -0.0359872430562973, 0.01549394428730011, -0.02255917899310589, 0.011526396498084068, 0.06196242570877075, -0.005419155582785606, 0.0040734875947237015, 0.023075532168149948, 0.010749001055955887, 0.007353691384196281, 0.01464125607162714, -0.01220156904309988, 0.01826273649930954, 0.014879204332828522, 0.016447365283966064, -0.060979440808296204, 0.03812570497393608, 0.00510414969176054, -0.01834835857152939, 0.032888658344745636, -0.044947732239961624, -0.00612812303006649, 0.030203523114323616, -0.007407426834106445, 0.05603426694869995, -0.04454232007265091, 0.007798646576702595, -0.044267766177654266, -0.007849786430597305, 0.06722735613584518, 0.02931605465710163, -0.030254365876317024, 0.03764631971716881, 0.03094957023859024, 0.015128050930798054, -0.041227374225854874, -0.00043527132947929204, -0.041659992188215256, 0.021654393523931503, -0.03779546171426773, 0.06489671766757965, 0.06535422056913376, -0.036799944937229156, -0.05108337849378586, 0.019542034715414047, 0.06231105700135231, -0.03718728572130203, 0.017164191231131554, 0.048508670181035995, -0.024698853492736816, 0.038965918123722076, -0.0381883829832077, -0.04697053134441376, -0.0007493209559470415, 0.048688240349292755, 0.05220698192715645, 0.012279443442821503, -0.029417574405670166, 0.01247783750295639, 0.0377836711704731, 0.00787507276982069, 0.03892046958208084, 0.02530573680996895, 0.02830379828810692, 0.010730713605880737, -0.016484372317790985, -0.05282474309206009, 0.050862763077020645, 0.03382661193609238, -0.05782122537493706, 0.012543060816824436, -0.03320208936929703, -0.029602881520986557, 0.052549876272678375, -0.04302728921175003, -0.05380553379654884, 0.05692947283387184, 0.037350211292505264, 0.05020644888281822, 0.011840542778372765, 0.05046391487121582, 0.01783026196062565, 0.035150911659002304, -0.015637598931789398, 0.0008851521997712553, -0.04255096614360809, 0.01567564159631729, -0.007161121349781752, 0.0030236938036978245, -0.06388655304908752, 0.015615726821124554, 0.014774738810956478, 0.031788431107997894, -0.053396403789520264, 0.011618444696068764, -0.05286093056201935, -0.00032824845402501523, -0.03453061357140541, -0.018942782655358315, -0.041488707065582275, 0.06760653853416443, -0.02073441632091999, -0.047554127871990204, -0.03641277179121971, -0.007595672272145748, 0.00646029319614172, -0.043496500700712204, -0.002292334334924817, 0.05317971482872963, 0.0053496104665100574, 0.009446494281291962, 0.0381225161254406, -0.040406592190265656, 0.04367263615131378, 0.0037942363414913416, -0.05898002162575722, 0.013899014331400394, -0.022786082699894905, -0.03584839031100273, 0.006116488482803106, 0.00850484799593687, 0.05137225612998009, -0.010915531776845455, -0.032537613064050674, -0.02355949953198433, 0.06358891725540161, -0.024548396468162537, -0.02195010520517826, 0.024423908442258835, 0.005026316270232201, -0.03974693641066551, 0.019714072346687317, 0.02126588113605976, 0.010401561856269836, -0.0003124553768429905, -0.027881041169166565, 0.045577824115753174, 0.006331117358058691, 0.025664111599326134, 0.04157198593020439, -0.04835879057645798, -0.008436329662799835, 0.02318660356104374, 0.004527800250798464, 0.053147636353969574, 0.062101468443870544, -0.016516098752617836, 0.06078775227069855, 0.03811994194984436, -0.02835865691304207, 0.03916880860924721, -0.031476497650146484, -0.052101947367191315, -0.051025133579969406, 0.04552283510565758, -0.058333586901426315, -0.039199866354465485, 0.003808902343735099, -0.011057281866669655, 0.04101445525884628, -0.040822289884090424, 0.04610796272754669, 0.026460323482751846, 0.04217357560992241, 0.005116681102663279, 0.04781801253557205, -0.04327170178294182, -0.03435176610946655, -0.06142954155802727, -0.05153829604387283, 0.04295812174677849, 0.04087303951382637, -0.04184555634856224, 0.06146441027522087, -0.06516782939434052, -0.004811696242541075, 0.023900097236037254, 0.00541380001232028, 0.02966459095478058, -0.029200507327914238, 0.03368637338280678, -0.004305871203541756, 0.04506915062665939, 0.03677976876497269, -0.034836579114198685, -0.027254417538642883, -0.032545723021030426, 0.03879232332110405, -0.047627612948417664, 0.036825262010097504, 0.030170852318406105, -0.0426863469183445, 0.0769137293100357, 0.003387617878615856, -0.04815853014588356, -0.06867044419050217, -0.03870268538594246, -0.04447576403617859, 0.013643616810441017, -0.07169006019830704, 0.018644018098711967, 0.06092620640993118, 0.048381805419921875, -0.0749097466468811, 0.03735106810927391, -0.03325916454195976, -0.038469091057777405, 0.03761790692806244, 0.05279237776994705, -0.03705804795026779, -0.020662128925323486, 0.04727068543434143, 0.04132360592484474, 0.002200900577008724, 0.02583109401166439, 0.028131529688835144, -0.02849837765097618, -0.0318162627518177, -0.010925737209618092, -0.02305680140852928, -0.00041701746522448957, -0.04316367208957672, -0.0070892563089728355, -0.027222393080592155, 0.04012242332100868, -0.0175281073898077, -0.007488185539841652, -0.040567196905612946, 0.018262021243572235, -0.03195590153336525, -0.002459344221279025, -0.021552948281168938, 0.000619207916315645, 0.058928195387125015, 0.041356757283210754, 0.00042731768917292356, -0.05741828680038452, 0.025522198528051376, 0.024414241313934326, -0.03222256526350975, -0.03820732980966568, 0.0399450808763504, 0.0588110126554966, -0.055531445890665054, -0.0023920254316180944, -0.00864485464990139, 0.05015381798148155, -0.031706102192401886, 0.009349944069981575, -0.04620657488703728, 0.04971810057759285, 0.023250572383403778, 0.04695518687367439, 0.0026164217852056026, -0.04956763982772827, -0.0575186125934124, -0.025364432483911514, -0.04901448264718056, -0.017290327697992325, 0.03764384984970093, 0.002545773983001709, 0.04472501203417778, 0.031106166541576385, -0.05797986313700676, 0.0504462905228138, 0.001711505581624806, 0.055240023881196976, 0.025128960609436035, -0.030165251344442368, -0.05847952142357826, 0.06293074786663055, -0.05412285402417183, -0.04703914746642113, -0.05930795520544052, -0.01813456043601036, 0.0614374577999115, -0.06246957182884216, 0.05872201919555664, -0.06314929574728012, -0.06089705973863602, 0.017902806401252747, 0.009116500616073608, -0.01973607763648033, -0.047585077583789825, -0.022707145661115646, -0.039237748831510544, -0.006408901419490576, -0.024458114057779312, -0.061522867530584335, -0.005379515700042248, -0.03972076252102852, -0.02607421576976776, -0.06161613389849663, -0.01746598444879055, 0.04308021068572998, 0.0028929326217621565, 0.02670944854617119, 0.04037897661328316, -0.03833845257759094, -0.028736919164657593, -0.015091982670128345, -0.021551495417952538, 0.04805098474025726, -0.02083866111934185, -0.06022678315639496, 0.00014207912317942828, 0.012702853418886662, -0.00895287748426199, 0.00031122128712013364, 0.0557071752846241, -0.05182460695505142, -0.021173806861042976, 0.05786043778061867, 0.04414927959442139, -0.018389705568552017, 0.051283013075590134, -0.00030053502996452153, -0.047646790742874146, 0.007181249093264341, -0.05135301128029823, -0.024736305698752403, 0.040915075689554214, -0.06240741163492203, 0.035084888339042664, -0.05859926715493202, -0.06120865419507027, -0.002959772013127804, -0.05748153477907181, 0.049413204193115234, 0.023019686341285706, 0.01041463017463684, -0.002530801808461547, 0.01424136757850647, 0.026517678052186966, -0.005333486013114452, -0.016777290031313896, 0.024043990299105644, -0.05629826337099075, 0.032891012728214264, -0.0533631332218647, -0.0002172022796003148, -0.05165683105587959, 0.012205970473587513, -0.019441235810518265, -0.023671604692935944, 0.007182077504694462, 0.035073451697826385, 0.036456476897001266, 0.03131561726331711, 0.008333710953593254, 0.04171169921755791, -0.023165060207247734, 0.00914514996111393, 0.022795984521508217, 0.034239958971738815, 0.006311099976301193, 0.054735515266656876, -0.04436028003692627, 0.0002128768974216655, 0.03914211317896843, -0.017775630578398705, 0.05323813110589981, 0.025421975180506706, 0.05310738459229469, -0.027790270745754242, -0.05876731872558594, -0.05493989214301109, 0.05850911885499954, -0.04931294173002243, 0.0023478721268475056, 0.05704106390476227, -0.0007204032153822482, -0.05591771751642227, 0.057057928293943405, 0.017952535301446915, -0.0012694969773292542, 0.029881473630666733, 0.052616242319345474, -0.06296127289533615, 0.034267645329236984, 0.059442631900310516, 0.0065310243517160416, -0.017400236800312996, 0.05361747741699219, 0.06044508516788483, -0.01612522453069687, -0.02698230929672718, -0.030575338751077652, 0.04460057616233826, 0.05980232357978821, -0.01998937502503395, 0.016196168959140778, 0.05249745026230812, 0.005833609960973263, -0.0018033242085948586, 0.005003084894269705, -0.043061234056949615, 0.001977557549253106, -0.01981440559029579, -0.028586819767951965, -0.0012852990766987205, -0.005715138278901577, -0.022417202591896057, 0.04561946913599968, 0.05702774599194527, -0.007222884800285101, -0.03870385140180588, 0.05966624245047569, -0.012357569299638271, -0.029546376317739487, 0.05362439900636673, -0.03780052065849304, -0.004942643456161022, 0.02580609917640686, -0.05648618936538696, -0.002947831293568015, 0.033736441284418106, -0.059694480150938034, -0.014324628747999668, 0.010787680745124817, 0.05840669944882393, 0.012688403017818928, 0.033644288778305054, 0.027237623929977417, 0.04247784987092018, 0.05528220161795616, 0.041725657880306244, 0.01931314542889595, -0.017510829493403435, -0.030472058802843094, 0.04897104203701019, -0.00800009910017252, 0.06260187178850174, 0.017834506928920746, -0.058881279081106186, 0.050584301352500916, -0.0014833322493359447, -0.026973381638526917, 0.0052100433968007565, 0.02114245854318142, 0.0008617927087470889, -0.05303394794464111, -0.06205908954143524, 0.004702425096184015, 0.05296757444739342, 0.01148461364209652, -0.00935748964548111, -0.05913785099983215, 0.04746077209711075, -0.034597355872392654, -0.06239023432135582, -0.022487333044409752, 0.004438082687556744, -0.05308664217591286, -0.0218042079359293, 0.05634545534849167, 0.023745732381939888, -0.01302686519920826, -0.002435715403407812, 0.04046410694718361, 0.04412241280078888, -0.022332537919282913, -0.03242109343409538, 0.018230050802230835, -0.027756689116358757, -0.03165498748421669, 0.05541428178548813, 0.05612175911664963, 0.045244570821523666, -0.04226282238960266, -0.04636523500084877, 0.03106204979121685, 0.01254394743591547, -0.05751672014594078, -0.056854646652936935, 0.018878024071455002, -0.03301475569605827, -0.02770385704934597, -0.0008484204881824553, 0.048263221979141235, -0.01963515765964985, -0.008440853096544743, -0.05041441321372986, -0.013395378366112709, 0.012274855747818947, -0.00786899495869875, -0.017253069207072258, -0.006286824122071266, -0.025797931477427483, 0.03313339501619339, -0.003834857139736414, 0.024349426850676537, 0.05141609534621239, 0.019374407827854156, -0.025540119037032127, -0.049394506961107254, -0.06030254438519478, -0.011708859354257584, 0.006818739231675863, -0.05832882225513458, 0.051193609833717346, -0.007020480930805206, -0.057313524186611176, -0.04956745728850365, -0.03956533968448639, 0.0014708966482430696, 0.018368497490882874, 0.0415557436645031, 0.031125793233513832, -0.022624479606747627, -0.014244530349969864, -0.003292191307991743, 0.05881912261247635, -0.004445408936589956, 0.030343616381287575, -0.052166637033224106, -0.044102128595113754, -0.04220306873321533, 0.03014952316880226, 0.07535126805305481, 0.014337931759655476, 0.03551580756902695, -0.09497571736574173, -0.022268684580922127, 0.05021538585424423, -0.061273422092199326, -0.036870744079351425, 0.018657401204109192, 0.040651850402355194, 0.023265501484274864, -0.0267049428075552, -0.005373767111450434, 0.09364935010671616, -0.022359121590852737, -0.03981862589716911, -0.004594703204929829, 0.06510185450315475, -0.03027161955833435, 0.024928506463766098, 0.08544425666332245, 0.04677887260913849, 0.013395476154983044, -0.028260363265872, -0.014060716144740582, 0.03516876697540283, 0.00017924561689142138, -0.04403606429696083, -0.040123745799064636, 0.028037896379828453, -0.042577844113111496, -0.051245518028736115, 0.017454680055379868, -0.021344078704714775, -0.004867564421147108, 0.010672916658222675, 0.00043147761607542634, 0.022890213876962662, -0.03864157199859619, 0.023361003026366234, -0.03990193456411362, -0.06587041914463043, 0.013777757994830608, -0.05359411612153053, -0.0238091628998518, -0.028314974159002304, -0.008129791356623173, -0.06261477619409561, -0.046553418040275574, 0.014685718342661858, -0.061108652502298355, -0.03311415761709213, -0.031976472586393356, 0.04237143322825432, -0.04737420752644539, 0.04240616038441658, -0.012860185466706753, -0.008806291036307812, -0.018190041184425354, 0.06256632506847382, -0.003292044857516885, -0.01615307480096817, -0.03624778985977173, -0.0022142655216157436, -0.04617253318428993, -0.027718182653188705, -0.03271991387009621, -0.04334164783358574, -0.01576959900557995, -0.011520739644765854, 0.051498059183359146, 0.011365161277353764, 0.05780937522649765, 0.0031019083689898252, 0.0677722916007042, 0.05014629662036896, -0.03536568209528923, -0.03271299600601196, -0.027460673823952675, 0.02051101252436638, -0.009646122343838215, 0.08228877931833267, -0.03564099594950676, -0.007840585894882679, 0.0480104498565197, -0.034345727413892746, -0.05674167722463608, -0.07769114524126053, -0.024966467171907425, -0.042640987783670425, 0.04170318320393562, 0.04993078485131264, -0.0403364896774292, 0.0388556644320488, -0.012456543743610382, 0.06106908991932869, 0.022134831175208092, 0.029171686619520187, 0.000423310324549675, 0.026216726750135422, 0.03810037299990654, -0.0119526581838727, -0.046367090195417404, 0.006771239917725325, 0.04334722459316254, 0.014547040686011314, 0.07160771638154984, 0.028046196326613426, 0.05402040109038353, -0.04525608569383621, 0.024688182398676872, -0.024697784334421158, -0.05118968337774277, 0.005475340876728296, -0.022116975858807564, 0.03472466766834259, 0.006809526588767767, -0.02767799235880375, -0.06980523467063904, -0.003933368716388941, -0.00887572392821312, -0.05761903151869774, -0.030652979388833046, 0.04423530772328377, 0.05601556599140167, 0.05075172334909439, -0.027962643653154373, -0.0766984224319458, 0.04622766375541687, 0.04606429859995842, -0.020643483847379684, 0.022957004606723785, 0.050334855914115906, -0.05870438739657402, 0.021056439727544785, -0.034641578793525696, -0.018298087641596794, 0.030135855078697205, 0.0489676296710968, 0.011038042604923248, -0.012255682609975338, -0.027119724079966545, 0.020798176527023315, 0.05043511465191841, -0.04278392344713211, 0.026904664933681488, -0.001992955571040511, 0.03412018343806267, 0.004175481852144003, -0.03728323057293892, 0.012873719446361065, 0.029700854793190956, -0.07446795701980591, 0.043699994683265686, 0.04075729101896286, -0.03212796524167061, 0.06553368270397186, 0.02761504426598549, 0.016366425901651382, 0.04012500122189522, 0.02905992791056633, 0.06008439138531685, 0.07875768840312958, -0.010218990966677666, -0.019900066778063774, -0.03844068944454193, -0.07076781988143921, -0.009579642675817013, 0.034970153123140335, -0.0449577271938324, 0.04174071550369263, -0.015861181542277336, -0.03125511854887009, -0.044963184744119644, 0.023745758458971977, -0.03834831714630127, -0.03557959198951721, -0.037274476140737534, -0.01980309933423996, -0.0012117255246266723, -0.0602872408926487, 0.06617745757102966, -0.04069453850388527, -0.02980201691389084, -0.06058182939887047, -0.040978673845529556, 0.03201022744178772, -0.05175658315420151, -0.0018415028462186456, 0.0065001677721738815, -0.019406979903578758, -0.027703506872057915, 0.0161651112139225, -0.017136404290795326, -0.03299621865153313, 