-0.04744948074221611, -0.09838351607322693, 0.11591435223817825, -0.042233657091856, 0.40066152811050415, 0.00476215360686183, -0.11354583501815796, 0.2526668310165405, -0.017190856859087944, 0.08433997631072998, 0.03763937950134277, -0.22752569615840912, 0.024547217413783073, 0.04028141871094704, -0.04451208934187889, 0.16460837423801422, 0.1310560256242752, -0.10276272147893906, -0.07561983913183212, 0.04373597353696823, -0.06591533869504929, -0.02868662215769291, 0.027906931936740875, 0.1199820265173912, -0.24790775775909424, -0.010441339574754238, -0.07255271822214127, -0.046570055186748505, -0.03579328954219818, -0.342753142118454, -0.1873965859413147, -0.05590420588850975, 0.06895317882299423, -0.1803494095802307, 0.11123418807983398, 0.04347633942961693, -0.07913976162672043, 0.07753186672925949, -0.10216531157493591, 0.2547684907913208, -0.14559653401374817, 0.10776842385530472, 0.06316018104553223, -0.03160613775253296, -0.2978000044822693, -0.01669400930404663, -0.005062059033662081, -0.19624567031860352, -0.022732246667146683, 0.16802015900611877, -0.1493682712316513, 0.18016982078552246, 0.04421582072973251, -0.10249833017587662, -0.01411245483905077, -0.20973309874534607, -0.011540411040186882, -0.03763654828071594, 0.21751457452774048, 0.01077347993850708, 0.0872897356748581, 0.2133675068616867, 0.10685090720653534, -0.018191855400800705, 0.3384287655353546, -0.06592860072851181, 0.1108844131231308, -0.058825790882110596, 0.07840019464492798, 0.2906889021396637, 0.26098233461380005, -0.11865412443876266, -0.13230542838573456, 0.25041958689689636, 0.07514017820358276, -0.11435981094837189, -0.03756941854953766, -0.013255766592919827, 0.2556835114955902, -0.3134339153766632