0.04439279064536095, -0.05253124609589577, -0.024131717160344124, 0.07074470072984695, -0.09099649637937546, 0.06438989192247391, 0.07485832273960114, 0.057558100670576096, 0.07064270228147507, 0.05067310854792595, -0.0687941312789917, -0.05493128299713135, -0.02374900132417679, 0.019124547019600868, 0.02054864913225174, 0.0015706900740042329, -0.0036312113516032696, -0.05195794254541397, 0.010700968094170094, -0.004744246136397123, 0.06384032219648361, -0.07254623621702194, 0.06739623844623566, -0.009817466139793396, -0.06746981292963028, 0.026608597487211227, -0.06622130423784256, -0.04796848073601723, -0.08856450021266937, -0.06612346321344376, -0.03558202460408211, -0.054740868508815765, 0.01500757597386837, 0.05302850157022476, -0.02015278860926628, 0.04581073299050331, 0.04209895059466362, 0.060370299965143204, -0.07101227343082428, 0.030099498108029366, -0.04720966890454292, 0.09140722453594208, -0.07054420560598373, -0.08281517028808594, -0.007931292057037354, 0.03618651628494263, -0.009210081771016121, 0.08777983486652374, -0.06670090556144714, -0.045516274869441986, -0.02397008053958416, 0.05652516707777977, 0.007075801957398653, 0.05973070487380028, 0.08457210659980774, 0.0768345445394516, -0.02997654117643833, 0.016390694305300713, -0.09549534320831299, -0.0713614746928215, 0.007683669216930866, -0.016506711021065712, 0.0617617703974247, -0.05819559842348099, 0.02510383166372776, -0.06883904337882996, 0.069178007543087, -0.022411596029996872, 0.06195077672600746, 0.08287674188613892, 0.06273045390844345, 0.005534076131880283, 0.08569995313882828, -0.09484951943159103, -0.0038990916218608618, -0.08708109706640244, 0.0045278239995241165, -0.08218354731798172, -0.027940578758716583, -0.03824581205844879, -0.08965759724378586, -0.049247857183218, -0.031495921313762665, 0.040757954120635986, 0.08651773631572723, -0.07308022677898407, 0.05971227213740349, 0.03667832165956497, 0.08166114240884781, -0.026189245283603668, 0.07994095236063004, -0.08394560217857361, 0.055234186351299286, 0.052661098539829254, 0.06978544592857361, -0.039660267531871796, -0.013011636212468147, -0.07388311624526978, 0.004067117813974619, 0.021624265238642693, -0.01920725218951702, -0.04712950065732002, 0.024173643440008163, -0.01638678088784218, 0.03500644862651825, -0.06878656148910522, -0.09155431389808655, -0.04045309126377106, 0.017436251044273376, 0.07166453450918198, 0.0177729781717062, -0.03915899246931076, 0.0028484701178967953, 0.04716235771775246, -0.09543155133724213, -0.023009132593870163, -0.018909243866801262, 0.0407528355717659, 0.06061249598860741, -0.04719369485974312, -0.03476755693554878, -0.09311050176620483, -0.022439556196331978, 0.019739864394068718, -0.01737181842327118, 0.07256238162517548, -0.05429110676050186, -0.046187203377485275, 0.06413471698760986, -0.022292954847216606, 0.041738420724868774, -0.03873097151517868, -0.05633769556879997, 0.06252004206180573, -0.041735537350177765, 0.08134332299232483, -0.02943340875208378, 0.06378140300512314, 0.032539352774620056, -0.0831555426120758, -0.010292678140103817, -0.06122708320617676, -0.01711622066795826, -0.06060773506760597, 0.06537318974733353, -0.046334460377693176, 0.003796436358243227, 0.018364090472459793, -0.07256755977869034, -0.03040935844182968, 0.009112256579101086, 0.016406888142228127, 0.04063662886619568, 0.07575076818466187, -0.02901533991098404, 0.057252634316682816, 0.0730774998664856, -0.05525209754705429, -0.05583420768380165, 0.0649179071187973, 0.02766960673034191, -0.07013234496116638, 0.038560159504413605, -0.007872575893998146, 0.05942350625991821, 0.05013526231050491, 0.04646185040473938, -0.08621189743280411, 0.05058642104268074, -0.08995715528726578, -0.0082221245393157, -0.04257185384631157, 0.04511157050728798, 0.01265681628137827, -0.07160019874572754, 0.06316407769918442, -0.09533984214067459, 0.05009705200791359, -0.07844851911067963, 0.07561134546995163, -0.09767360240221024, 0.031655531376600266, 0.020961303263902664, 0.01146341860294342, -0.056913506239652634, 0.0199179295450449, -0.005268842913210392, 0.007661540061235428, 0.013473417609930038, 0.08341699838638306, 0.02984544262290001, -0.024926207959651947, -0.057281721383333206, -0.04364776238799095, 0.09115045517683029, -0.05363724008202553, 0.021368766203522682, 0.034029144793748856, -0.034279532730579376, -0.029954979196190834, -0.06903918832540512, -0.08178310096263885, 0.03571140766143799, 0.02414781041443348, -0.0410081148147583, 0.07601707428693771, 0.08761126548051834, 0.06272054463624954, -0.03910531848669052, 0.03141450881958008, 0.083674356341362, 0.07651852071285248, 0.06413279473781586, -0.03439948335289955, -0.08987027406692505, 0.02600642666220665, -0.0038945500273257494, 0.02019098401069641, 0.0674053207039833, 0.0024402616545557976, -0.01414154376834631, 0.074427030980587, -0.04747984930872917, 0.04013725742697716, -0.05654395371675491, 0.026342848315835, 0.008493038825690746, 0.09086847305297852, -0.013363374397158623, -0.03903712332248688, -0.008913079276680946, -0.01584603451192379, 0.04643864929676056, -0.06526730954647064, 0.08494073897600174, 0.1046227514743805, 0.13261829316616058, 0.14395397901535034, 0.17335259914398193, 0.05036923289299011, 0.2018660306930542, 0.15362319350242615, 0.17599637806415558, 0.06087116524577141, 0.04782114550471306, -0.10940572619438171, -0.018453437834978104, -0.05061519891023636, -0.09879811108112335, -0.06455182284116745, 0.02209470607340336, -0.03214409947395325, 0.10803098976612091, -0.044663239270448685, 0.021049238741397858, 0.10910271108150482, -0.0020350872073322535, 0.09047563374042511, 0.06875701993703842, 0.020153077319264412, 0.12878012657165527, -0.008196195587515831, 0.09127012640237808, 0.08751878142356873, 0.03279387578368187, 0.026523062959313393, 0.07864147424697876, 0.024483921006321907, 0.08883298188447952, 0.05263816565275192, 0.09710920602083206, 0.0465538389980793, -0.09854242950677872, -0.07032174617052078, -0.08659052103757858, -0.12788569927215576, -0.10074365139007568, -0.11286403983831406, 0.023184090852737427, -0.036758337169885635, -0.02020633965730667, -0.09002042561769485, -0.030371587723493576, 0.06080199405550957, -0.012244869023561478, -0.01615528203547001, -0.04060843214392662, -0.03476046770811081, -0.048262640833854675, -0.02498575486242771, 0.06926565617322922, -0.020312311127781868, 0.04844106361269951, -0.09773359447717667, -0.06565941125154495, -0.07241352647542953, -0.13031712174415588, 0.05192991718649864, 0.08547483384609222, 0.11209464818239212, 0.09119848161935806, -0.023381948471069336, 0.15600410103797913, -0.04061856493353844, 0.19785919785499573, 0.11006519943475723, -0.04746677353978157, -0.11094491183757782, -0.07495270669460297, -0.01754007861018181, 0.07490389794111252, 0.09287023544311523, -0.043652694672346115, 0.06952805817127228, -0.035479139536619186, 0.09461252391338348, 0.14889685809612274, -0.014112448319792747, 0.17870616912841797, 0.04901828244328499, -0.0629865899682045, 0.20982040464878082, 0.009466399438679218, -0.023422803729772568, 0.0481698103249073, -0.015536410734057426, 0.01443508267402649, 0.08030635118484497, -0.07392024248838425, 0.050973594188690186, -0.004918842576444149, -0.02158281020820141, -0.031863223761320114, -0.09144163876771927, 0.09231056272983551, 0.05775173380970955, -0.03469575196504593, -0.07579251378774643, 0.059869274497032166, 0.07064440846443176, 0.004836458247154951, 0.06252118200063705, -0.08479738235473633, -0.0894128605723381, 0.07250887155532837, -0.035607121884822845, 0.06526248157024384, 0.007670265156775713, -0.0316152386367321, 0.0009190324344672263, -0.013202151283621788, -0.039578765630722046, -0.04428355023264885, 0.08351664245128632, 0.027948999777436256, 0.06342358142137527, -0.0687621533870697, -0.03172465041279793, 0.007861077785491943, -0.06601819396018982, 0.04298385977745056, -0.07738037407398224, -0.07050428539514542, 0.02702123485505581, -0.036385808140039444, -0.04030808061361313, -0.011421921662986279, -0.08640575408935547, 0.05681223049759865, 0.01722058653831482, 0.027430331334471703, -0.04911889508366585, -0.02762996219098568, -0.04029209539294243, -0.08584165573120117, -0.02238135039806366, 0.005611428525298834, -0.0113593190908432, -0.017660673707723618, -0.07260671257972717, 0.07394449412822723, -0.053444765508174896, -0.04345693811774254, 0.0866270512342453, 0.03906595706939697, 0.031412944197654724, 0.06679625809192657, -0.08413602411746979, 0.09308872371912003, -0.030139543116092682, 0.0018104121554642916, 0.0778789147734642, -0.0590120367705822, 0.05948057770729065, -0.06306079030036926, -0.08147931098937988, 0.001440754858776927, -0.007254541385918856, 0.06936630606651306, 0.030430041253566742, 0.09516251087188721, -0.0879841074347496, 0.037566713988780975, -0.0019071516580879688, 0.097897969186306, 0.07793428003787994, -0.043534234166145325, 0.0378396175801754, -0.06802216917276382, 0.07305657863616943, -0.06240862235426903, -0.00241981097497046, -0.029682477936148643, -0.04664855822920799, -0.05859995260834694, 0.008877716027200222, -0.0950222983956337, -0.08060764521360397, 0.04967232048511505, -0.02985662780702114, 0.012209749780595303, 0.08245664834976196, -0.031082743778824806, 0.09099794924259186, 0.04134372994303703, 0.0807996317744255, 0.0992584079504013, 0.03304806724190712, -0.010188677348196507, -0.030019015073776245, -0.0380127839744091, 0.042377978563308716, 0.0711163803935051, -0.07618147879838943, -0.01131964661180973, 0.09878169000148773, 0.05624449998140335, 0.07894743978977203, -0.0476793497800827, 0.010537665337324142, 0.08447911590337753, -0.08038289099931717, 0.07632400840520859, -0.04220734164118767, 0.061276692897081375, 0.07210064679384232, -0.050472550094127655, -0.04959612339735031, 0.03724847361445427, -0.009145202115178108, 0.05842813849449158, 0.05792634189128876, 0.04826496168971062, -0.04440227895975113, 0.07829027622938156, 0.05771826580166817, 0.09139284491539001, -0.06412696838378906, -0.044470734894275665, 0.005931308027356863, -0.03595595806837082, -0.022015703842043877, -0.0925794169306755, 0.08339943736791611, -0.011712772771716118, -0.0785333514213562, -0.09095081686973572, -0.08335565775632858, -0.08158454298973083, 0.06950730085372925, 0.01928633823990822, 0.0714871808886528, 0.050196725875139236, 0.029988745227456093, 0.0038361232727766037, 0.06124076992273331, -0.05416334420442581, -0.03929945454001427, 0.04900328442454338, -0.005683714523911476, -0.036220937967300415, 0.09650354832410812, 0.026922035962343216, 0.04696756973862648, -0.019223220646381378, 0.07062578946352005, -0.04057754576206207, 0.06595594435930252, 0.02460663765668869, -0.04483548551797867, 0.09340695291757584, 0.0005884768906980753, -0.024844955652952194, 0.06274335086345673, -0.0049612498842179775, -0.08006531000137329, 0.03359462320804596, -0.049234531819820404, 0.049554433673620224, 0.0035829772241413593, -0.005729954224079847, 0.08140212297439575, 0.07709791511297226, 0.032834216952323914, -0.017387129366397858, 0.08293085545301437, -0.04283154755830765, -0.055383238941431046, -0.0753398910164833, -0.04687647894024849, -0.035210177302360535, -0.010777533985674381, -0.029839806258678436, 0.054653119295835495, -0.0071611288003623486, 0.0002656595897860825, 0.07865934073925018, -0.02706754580140114, 0.0647687315940857, -0.024441899731755257, -0.07449144870042801, -0.08463003486394882, -0.09490686655044556, -0.07487459480762482, 0.08259671926498413, 0.08305417001247406, 0.08962113410234451, 0.08221842348575592, 0.04555134102702141, -0.089786596596241, 0.02574300952255726, -0.06555186212062836, -0.08853578567504883, 0.12228188663721085, 0.017175743356347084, -0.016501959413290024, 0.02736278623342514, 0.02942468225955963, 0.07024694234132767, 0.0038127403240650892, 0.06815412640571594, 0.08717431873083115, -0.029161788523197174, 0.05112788453698158, 0.02128179930150509, 0.010484940372407436, 0.018618805333971977, 0.09456421434879303, -0.07976601272821426, -0.009935415349900723, 0.0006953584961593151, 0.003177500795572996, 0.03420913219451904, -0.09099701792001724, -0.06178629770874977, 0.03344854339957237, 0.08308697491884232, -0.06456229090690613, 0.008097657933831215, 0.07847162336111069, -0.03334040939807892, 0.018627148121595383, -0.004307802300900221, 0.11389923095703125, 0.09615687280893326, 0.032929953187704086, 0.08980140835046768, -0.0332987979054451, 0.0509793646633625, 0.007899499498307705, 0.051302265375852585, 0.08641237020492554, 0.05789198353886604, 0.031369924545288086, -0.0743338093161583, 0.0029565703589469194, 0.09856723248958588, -0.03613939881324768, -0.009757122956216335, 0.026608334854245186, 0.010355222970247269, 0.09888943284749985, 0.07316190004348755, 0.06543783843517303, -0.037577468901872635, -0.09529281407594681, -0.034134406596422195, 0.061208829283714294, -0.00418132683262229, -0.027974968776106834, 0.009860187768936157, -0.039059534668922424, 0.054670922458171844, 0.05742037296295166, 0.02987431176006794, -0.03042195364832878, -0.04768574237823486, -0.05948827043175697, -0.05501769483089447, -0.0749780535697937, 0.002499255118891597, 0.02138376422226429, -0.030296429991722107, -0.07000765949487686, 0.013197639025747776, 0.08637557923793793, -0.0907527431845665, -0.05392405390739441, 0.03410104662179947, 0.05926146358251572, -0.019391346722841263, -0.07771863043308258, 0.0708455964922905, -0.07897276431322098, -0.12078233808279037, -0.07047339528799057, -0.02219925820827484, -0.10198131203651428, -0.006295781582593918, -0.045035190880298615, 0.003930959384888411, -0.08631236851215363, -0.001166691305115819, 0.08480747044086456, 0.01890864223241806, 0.013650317676365376, 0.07119140028953552, 0.10160039365291595, -0.0015916024567559361, 0.011053727939724922, 0.07122110575437546, -0.028148839250206947, -0.061968687921762466, 0.04908075928688049, 0.03025324083864689, -0.031059833243489265, 0.057957109063863754, -0.0818052664399147, 0.05752533674240112, 0.09549761563539505, 0.020441997796297073, 0.0900937020778656, -0.055469490587711334, 0.03758735954761505, -0.03209195286035538, -0.06965139508247375, -0.08923240751028061, 0.11285559833049774, 0.02946425974369049, 0.031135767698287964, -0.015906013548374176, -0.0528879389166832, 0.034486785531044006, -0.05722818523645401, -0.09376745671033859, -0.012245617806911469, -0.05040109530091286, -0.007849710993468761, 0.02350543439388275, 0.014647344127297401, 0.07221004366874695, -0.020275628194212914, -0.06836191564798355, -0.034869130700826645, -0.039101578295230865, -0.03572786971926689, 0.008484871126711369, 0.00025964376982301474, -0.045020077377557755, 0.12289880216121674, 0.09251604229211807, 0.12510168552398682, 0.11937570571899414, 0.08461880683898926, -0.04926598072052002, -0.04316293075680733, -0.11097054928541183, 0.020892268046736717, -0.04618886113166809, 0.07572466135025024, -0.06792783737182617, 0.05887109413743019, 0.051724858582019806, -0.06502921134233475, 0.0524035207927227, 0.09102866053581238, 0.11411134153604507, 0.03854099288582802, 0.07950872927904129, -0.022128582000732422, 0.0042776199989020824, -0.050469763576984406, 0.10383997112512589, 0.00957142747938633, -0.04133882746100426, 0.005432839039713144, 0.004984382539987564, -0.05888887122273445, -0.02776886150240898, -0.09878568351268768, -0.02170499414205551, -0.08594735711812973, -0.10263626277446747, -0.11661926656961441, 0.0005733446450904012, -0.051702920347452164, 0.05490685999393463, 0.08006531000137329, -0.039718035608530045, 0.0832228884100914, -0.015264610759913921, 0.029620852321386337, -0.07359189540147781, -0.07780446857213974, -0.035516880452632904, -0.08283580839633942, -0.02040981315076351, 0.0752137303352356, 0.00655457703396678, -0.06396300345659256, 0.08232973515987396, -0.10105350613594055, -0.04752738028764725, 0.04738932102918625, -0.10859150439500809, -0.0875842273235321, -0.10736196488142014, 0.07363127917051315, 0.05300416797399521, 0.10431887954473495, -0.047367408871650696, 0.035830751061439514, 0.0959206074476242, 0.0944506898522377, 0.10185922682285309, 0.05681610479950905, 0.08667603880167007, 0.00421373825520277, 0.029124155640602112, -0.04254221171140671, -0.07659952342510223, -0.10336404293775558, -0.0041409689001739025, 0.00838970486074686, -0.04300972446799278, 0.07730607688426971, 0.04436428099870682, 0.10477398335933685, 0.06398721039295197, 0.06215912476181984, -0.006117851939052343, 0.08601609617471695, 0.09266336262226105, -0.06905508041381836, 0.0860457643866539, 0.08086688071489334, 0.0719568133354187, 0.03253693878650665, 0.030522985383868217, -0.09526044130325317, 0.061003729701042175, -0.03976639732718468, 0.09310083091259003, 0.0776749923825264, 0.06229769065976143, -0.032927628606557846, 0.07108806818723679, -0.0002449209860060364, 0.03395514190196991, -0.05030856281518936, 0.041497569531202316, -0.04309498146176338, -0.07412571460008621, 0.06601577997207642, 0.09221751987934113, -0.07150711119174957, -0.03466154634952545, 0.12372055649757385, 0.09899283945560455, 0.15133605897426605, 0.06308506429195404, -0.004229803569614887, 0.08207053691148758, -0.022485820576548576, -0.0009909800719469786, -0.04087161645293236, -0.03734366223216057, 0.022147364914417267, 0.03020218200981617, 0.022556861862540245, -0.08953925967216492, -0.11290700733661652, 0.04748726263642311, 0.10787535458803177, 0.05887635797262192, -0.0028583556413650513, 0.11579880118370056, 0.014034002088010311, 0.08463309705257416, -0.004200993571430445, 0.02673943340778351, 0.02503456175327301, -0.09054853767156601, -0.047652628272771835, -0.02013719268143177, 0.06641002744436264, 0.02873765304684639, -0.018585871905088425, -0.07741383463144302, -0.015630323439836502, -0.0018080095760524273, -0.01877845823764801, -0.08080518245697021, -0.0661448985338211, 0.08011551201343536, -0.006824764423072338, 0.011386147700250149, -0.037536587566137314, -0.034188587218523026, -0.025636058300733566, -0.006888281088322401, -0.06203917786478996, -0.08829762041568756, -0.04744076728820801, 0.039748433977365494, 0.08306555449962616, 0.09390607476234436, 0.049562517553567886, -0.0668746680021286, 0.02913365513086319, 0.08844119310379028, 0.00545291556045413, -0.0774616152048111, -0.04618440940976143, -0.05599159002304077, 0.055665209889411926, -0.07642094790935516, 0.09763070195913315, -0.01059812307357788, -0.04079200327396393, 0.06734860688447952, -0.022543618455529213, 0.0367196686565876, 0.058608297258615494, 0.037103891372680664, -0.050895046442747116, 0.05717126280069351, 0.104518361389637, 0.0024305416736751795, 0.02146827057003975, -0.033533670008182526, -0.06395410746335983, 0.0983332097530365, 0.05590098723769188, 0.05294013023376465, -0.07174278795719147, 0.01029747910797596, 0.008312537334859371, -0.08659736812114716, 0.1335011124610901, 0.16720585525035858, 0.07747138291597366, 0.10759827494621277, 0.10205034911632538, 0.02625989355146885, -0.0778704285621643, 0.014587976038455963, 0.08553199470043182, 0.04886199161410332, 0.047515422105789185, 0.005558139178901911, 0.0009388421894982457, -0.0011334697483107448, 0.07247725874185562, 0.023500943556427956, 0.08092327415943146, -0.009646778926253319, 0.029428953304886818, 0.07264210283756256, 0.010275270789861679, 0.06914695352315903, 0.03792081028223038, 0.05609676241874695, -0.07075582444667816, 0.022809386253356934, 0.026612116023898125, -0.02979361265897751, -0.028994595631957054, 0.02965383790433407, -0.04012260213494301, -0.048304181545972824, 0.029913615435361862, -0.08453734964132309, -0.08174174278974533, -0.0922142043709755, -0.006290280260145664, 0.09238899499177933, 0.050859484821558, -0.00824032723903656, -0.005786661058664322, -0.07386064529418945, 0.08532097190618515, -0.002233438892289996, -0.016290733590722084, 0.040496136993169785, 0.05764603987336159, 0.054367754608392715, 0.06953773647546768, 0.04914688691496849, 0.05948658287525177, 0.05727127939462662, -0.07797110825777054, 0.06933493912220001, -0.012107398360967636, -0.08435710519552231, 0.058813948184251785, -0.038349173963069916, -0.019673356786370277, -0.08340812474489212, -0.0720662996172905, -0.031447358429431915, -0.07166105508804321, 0.07931293547153473, -0.06204439699649811, 0.02109977789223194, -0.0557074211537838, -0.02940227836370468, 0.05663584917783737, -0.03834167495369911, -0.029262268915772438, 0.08212882280349731, 0.09284161031246185, -0.05989301949739456, -0.046831924468278885, -0.0534738264977932, -0.04815312847495079, -0.007265216205269098, -0.005254729185253382, -0.06908375024795532, -0.06933139264583588, -0.028478125110268593, 0.0904034897685051, 0.045011743903160095, -0.02207797020673752, 0.016280440613627434, -0.023453239351511, 0.0864396020770073, -0.07357126474380493, -0.06692023575305939, -0.0186422448605299, -0.030168073251843452, -0.09317536652088165, 0.01885927841067314, 0.039077095687389374, -0.06522387266159058, 0.006490962579846382, -0.0033117386046797037, 0.004388764034956694, 0.04237689450383186, 0.030972883105278015, -0.007521956693381071, -0.07602878659963608, 0.060056522488594055, -0.07507606595754623, -0.01310449093580246, -0.05257732793688774, 0.015021107159554958, 0.015559992752969265, -0.07635907083749771, 0.08989496529102325, 0.023354077711701393, 0.02301255241036415, 0.053313836455345154, -0.07852840423583984, -0.07928492873907089, 0.08558373153209686, -0.025151655077934265, 0.09628015756607056, -0.00011228263610973954, 0.0538717620074749, 0.01583138480782509, -0.0386221818625927, 0.05049434304237366, 0.054165493696928024, -0.08386009186506271, -0.045643150806427, 0.03042849898338318, 0.027911236509680748, 0.09703515470027924, 0.05126655474305153, -0.0801895335316658, 0.07717616111040115, 0.013986952602863312, -0.11651477962732315, -0.026398159563541412, 0.04246214032173157, -0.12743233144283295, -0.10829555988311768, 0.06731598824262619, 0.14392241835594177, 0.08699973672628403, 0.0821196660399437, 0.0892784595489502, 0.14298097789287567, 0.05224888399243355, 0.02022087201476097, 0.08841722458600998, 0.16647060215473175, -0.09055118262767792, -0.0524681992828846, -0.07141008973121643, -0.09887368232011795, 0.09284984320402145, 0.0077586411498487, 0.05908253788948059, -0.011200716719031334, -0.02292327955365181, 0.007175893988460302, -0.005063924472779036, 0.05050797760486603, 0.006795905064791441, -0.05473225191235542, 0.05395571514964104, 0.1035510003566742, -0.05863165855407715, 0.10068923234939575, 0.05585681274533272, 0.11937037855386734, 0.14590692520141602, 0.0711728110909462, 0.054288335144519806, 0.027170127257704735, 0.0542999692261219, 0.10919776558876038, 0.033386826515197754, -0.017986491322517395, 5.418434375314973e-05, -0.06104447320103645, 0.07801944017410278, 0.02661687508225441, -0.02077239379286766, 0.06942687183618546, -0.07513400912284851, 0.008672267198562622, 0.07719476521015167, -0.012576711364090443, 0.08928443491458893, 0.1604282110929489, -0.011694847606122494, 0.05889641493558884, 0.17319898307323456, 0.03026428073644638, 0.0484643317759037, 0.029639892280101776, 0.04332559183239937, -0.03127044439315796, -0.10208087414503098, -0.001965098548680544, -0.05329948663711548, -0.11604926735162735, -0.01758330874145031, 0.015576228499412537, 0.015545975416898727, 0.06186000257730484, -0.032878708094358444, 0.036210086196660995, 0.07219289988279343, 0.08981052786111832, 0.12752977013587952, 0.1356988102197647, -0.0066088661551475525, -0.0572233572602272, 0.05470842123031616, 0.0797734409570694, 0.049424994736909866, -0.009761970490217209, 0.09685632586479187, 0.06109440326690674, -0.07539120316505432, 0.1113363653421402, 0.033380668610334396, 0.056255441159009933, -0.003156938822939992, 0.09593033790588379, -0.029365062713623047, 0.025736479088664055, 0.09978055208921432, 0.050548166036605835, 0.07238408178091049, 0.014396329410374165, 0.05171233043074608, 0.06089640408754349, -0.02227809466421604, -0.01981235295534134, 0.0002648756781127304, 0.01853231154382229, -0.023668937385082245, 0.04374796152114868, 0.012672489508986473, -0.0033539305441081524, -0.0315234549343586, 0.005003889556974173, 0.09083499759435654, -0.0732409730553627, -0.058740753680467606, 0.01936027593910694, 0.011056202463805676, -0.012638798914849758, 0.0012021100847050548, 0.07740198075771332, 0.006684145890176296, 0.04384179785847664, 0.09838327020406723, -0.0017221695743501186, 0.042787667363882065, -0.014330004341900349, -0.08009213209152222, -0.07609278708696365, -0.08566438406705856, 0.022460829466581345, 0.09641768783330917, 0.07459770143032074, 0.07216457277536392, -0.03812270984053612, -0.018604053184390068, 0.047437068074941635, -0.0032446777913719416, 0.0822259858250618, -0.06112376227974892, 0.0010766913183033466, -0.04462386295199394, 0.04942810535430908, 0.04402928054332733, 0.0598168708384037, 0.00012139620957896113, 0.05757634714245796, 0.044255029410123825, 0.12257257103919983, 0.08604011684656143, 0.07433409988880157, 0.023326776921749115, 0.09515517204999924, 0.11771643906831741, 0.09159225225448608, 0.091867595911026, 0.08791103214025497, -0.009244737215340137, 0.06776338070631027, -0.01803021878004074, 0.05862537398934364, 0.04769405350089073, 0.0717429593205452, 0.011047000996768475, 0.037910737097263336, -0.03902233764529228, 0.13311952352523804, -0.017834164202213287, -0.014321406371891499, 0.07934214919805527, 0.03777886554598808, 0.11742740869522095, 0.07873664796352386, -0.00725005054846406, -0.03570587933063507, -0.09540124237537384, -0.09542917460203171, -0.022572452202439308, 0.09227418899536133, 0.06487895548343658, -0.038687460124492645, 0.09170881658792496, 0.09380745142698288, -0.013065665028989315, 0.020633507519960403, 0.10527664422988892, -0.015019068494439125, 0.10875198245048523, -0.0376637801527977, 0.11735198646783829, -0.07614794373512268, -0.02527058683335781, 0.08522389084100723, -0.045171938836574554, 0.03482997789978981, 0.07974199205636978, -0.022871477529406548, 0.06639508903026581, 0.09163674712181091, -0.033979691565036774, 0.001224288484081626, -0.032898906618356705, 0.05653820186853409, -0.07335355877876282, 0.014821725897490978, -0.07869017124176025, -0.06653248518705368, 0.009491702541708946, 0.019305789843201637, -0.0641966462135315, -0.08066461980342865, 0.032579146325588226, -0.04337379336357117, 0.09142985939979553, 0.07938200980424881, 0.047336645424366, 0.06326431781053543, 0.04251817241311073, 0.05202963575720787, 0.019128190353512764, 0.04708929359912872, 0.1996208131313324, 0.16328755021095276, 0.19874989986419678, 0.0019484576769173145, 0.06271063536405563, -0.06116168573498726, -0.105896957218647, 0.0173395536839962, -0.10182109475135803, 0.03748049587011337, -0.09817633032798767, -0.06537505239248276, -0.034473810344934464, -0.10586673021316528, 0.06519191712141037, -0.008863570168614388, 0.034423988312482834, 0.10177277773618698, 0.11600550264120102, 0.00876754242926836, 0.10003458708524704, -0.015877798199653625, -0.046831805258989334, -0.008804370649158955, -0.06010304391384125, -0.06874843686819077, 0.0916411280632019, -0.03570698946714401, -0.056126151233911514, -0.017598912119865417, 0.009577362798154354, -0.07983525097370148, -0.07428572326898575, -0.03033658303320408, 0.06876225024461746, -0.057280998677015305, 0.04161021113395691, -0.0976242944598198, 0.06005878373980522, 0.04813571274280548, -0.06295542418956757, 0.05499773100018501, 0.09444142132997513, -0.0028688469901680946, 0.0397048220038414, 0.07428091764450073, 0.0703330934047699, 0.05096058547496796, -0.0279067475348711, 0.057773854583501816, 0.07138122618198395, -0.012316888198256493, 0.011645774357020855, 0.05408620834350586, -0.024061694741249084, 0.043377455323934555, 0.05088823661208153, -0.07605563849210739, 0.034883901476860046, -0.0557309091091156, 0.0548836849629879, 0.12242699414491653, 0.04355732724070549, 0.0055955140851438046, 0.1436813473701477, -0.00996941514313221, 0.0865636095404625, 0.1038091704249382, 0.07525652647018433, -0.013242853805422783, -0.09605228900909424, 0.04085242748260498, -0.022645488381385803, -0.024052225053310394, 0.03485789895057678, -0.07500538975000381, 0.01839640364050865, 0.031129702925682068, 0.024347886443138123, 0.11692401021718979, 0.1803714483976364, 0.06575845927000046, -0.0018838406540453434, 0.17039358615875244, -0.04511545971035957, -0.08866637945175171, -0.012496709823608398, 0.06799376755952835, -0.054975420236587524, 0.04760163277387619, 0.03393799066543579, 0.039707764983177185, 0.0795162096619606, -0.03235023096203804, 0.07078522443771362, 0.01634063385426998, -0.02812935784459114, -0.03891582787036896, 0.008834460750222206, 0.09344080835580826, 0.07495662569999695, 0.08433022350072861, 0.08390031009912491, -0.0869472548365593, 0.031757790595293045, 0.016508953645825386, 0.02399742603302002, -0.009503272362053394, 0.05912051722407341, -0.09473709762096405, 0.08797010779380798, -0.02968405932188034, -0.07159393280744553, -0.0064630890265107155, -0.039205677807331085, -0.06100663170218468, 0.07058176398277283, 0.09499368816614151, -0.041649479418992996, -0.020489251241087914, 0.09628508985042572, 0.09542891383171082, 0.044368114322423935, -0.0633649006485939, -0.0663968026638031, -0.028157036751508713, -0.019530685618519783, 0.047908246517181396, -0.05754413083195686, 0.004228190053254366, -0.005027488339692354, -0.01665375754237175, -0.04120383411645889, -0.0054893712513148785, 0.029010169208049774, 0.07497802376747131, 0.04401219263672829, -0.05823614075779915, -0.04192495346069336, 0.02632521465420723, -0.03619808331131935, 0.00889477040618658, 0.048104558140039444, 0.05803525820374489, -0.06868462264537811, 0.10147049278020859, -0.010814872570335865, -0.08441845327615738, 0.09472692757844925, -0.02286413311958313, 0.029314344748854637, 0.013921825215220451, -0.036236491054296494, 0.08512957394123077, 0.06180841848254204, 0.09352506697177887, -0.020567286759614944, -0.08335630595684052, -0.04118556156754494, 0.06696067005395889, 0.007264246698468924, 0.0008752380381338298, 0.04229627922177315, 0.06086459383368492, 0.044746387749910355, -0.055563949048519135, 0.0668012723326683, -0.038452282547950745, 0.027810944244265556, -0.033010534942150116, 0.09428057819604874, 0.04392753541469574, -0.02557813748717308, -0.06971273571252823, -0.036598704755306244, 0.05595312640070915, 0.08974078297615051, 0.0110038286074996, -0.02869538776576519, -0.001266307313926518, 0.07204153388738632, 0.09182566404342651, -0.015846163034439087, 0.034673359245061874, 0.046936217695474625, -0.029473233968019485, -0.04522910714149475, -0.03553565591573715, 0.08929562568664551, -0.02408146858215332, 0.0791105404496193, -0.03137018904089928, -0.07459099590778351, 0.01874498464167118, 0.023095309734344482, 0.01400801632553339, -0.05066761001944542, -0.06880417466163635, -0.07329129427671432, 0.05392799898982048, 0.023313404992222786, 0.06656628847122192, 0.049754317849874496, -0.052349723875522614, 0.01174782682210207, 0.0869113877415657, 0.024930967018008232, -0.07273593544960022, 0.07173586636781693, -0.07333681732416153, 0.06554760783910751, 0.013364769518375397, 0.06602517515420914, -0.05152551457285881, -0.019279267638921738, 0.059242941439151764, 0.07615440338850021, -0.02579667791724205, -0.005297419149428606, -0.013780147768557072, -0.06476535648107529, 0.009523870423436165, -0.05977529287338257, 0.00675214035436511, 0.045656949281692505, 0.09313442558050156, 0.015954449772834778, 0.031165625900030136, -0.0413321889936924, 0.09816249459981918, -0.07565686106681824, -0.08260751515626907, -0.09078913182020187, -0.06727180629968643, -0.03670281171798706, 0.032404884696006775, 0.0391724519431591, 0.02607330121099949, 0.03663891553878784, 0.015521442517638206, 0.059943921864032745, 0.028965812176465988, -0.01067147683352232, -0.04882561415433884, -0.08844336867332458, -0.04951663315296173, 0.03289530426263809, 0.02447097934782505, 0.0327245369553566, -0.08147548139095306, -0.07257150113582611, 0.08078271150588989, -0.04459363594651222, 0.012013539671897888, 0.07253190875053406, -0.08000079542398453, 0.080653615295887, -0.04090120643377304, 0.016713708639144897, -0.010168466717004776, -0.08581571280956268, -0.08071303367614746, -0.044342488050460815, 0.04619334638118744, -0.09352200478315353, 0.0523528978228569, -0.11182276904582977, 0.026042582467198372, 0.009677696041762829, 0.013125443831086159, 0.08271249383687973, -0.09337465465068817, -0.004161221906542778, 0.02593672089278698, 0.07569627463817596, 0.06530573219060898, -0.07379759848117828, 0.0460863895714283, 0.05417202413082123, 0.02049495279788971, 0.060968801379203796, 0.049678102135658264, 0.08781565725803375, -0.04379592090845108, -0.0414867177605629, 0.05529760196805, -0.04569093883037567, -0.07740525156259537, 0.07260021567344666, -0.009276777505874634, -0.04705003648996353, 0.04451223462820053, 0.016824044287204742, -0.026989346370100975, 0.06025677174329758, 0.034310050308704376, -0.07305726408958435, 0.040838804095983505, 0.002250273246318102, 0.015361988916993141, -0.08184941858053207, 0.022066650912165642, 0.05870819464325905, -0.022107386961579323, -0.05524839833378792, 0.011776722967624664, -0.08252479135990143, -0.03350251168012619, 0.08116867393255234, -0.0431271567940712, -0.03656793758273125, 0.07288258522748947, -0.04801204055547714, -0.07431016117334366, 0.0580328069627285, 0.011338548734784126, 0.029422346502542496, -0.08657561987638474, 0.07201361656188965, 0.0732012465596199, 0.06025296449661255, -0.0004779697337653488, 0.08360841870307922, 0.012068566866219044, 0.04198313504457474, -0.08651439100503922, -0.047358278185129166, -0.01494758389890194, 0.05880369618535042, 0.04084531217813492, -0.06430823355913162, 0.03945354372262955, -0.06401258707046509, -0.045715246349573135, 0.08513645827770233, -0.04113338515162468, 0.0003387163451407105, 0.08799285441637039, -0.07285300642251968, 0.010414627380669117, 0.047478802502155304, -0.05223774164915085, 0.08946554362773895, 0.03241225332021713, -0.0014301346382126212, 0.04474709928035736, 0.02439153380692005, 0.008167027495801449, 0.0010135130723938346, 0.036943770945072174, 0.023822184652090073, 0.01607741229236126, -0.046414006501436234, 0.045664023607969284, -0.08498012274503708, -0.0997340977191925, 0.056108273565769196, -0.10787729918956757, 0.033214349299669266, 0.06097006797790527, 0.021354999393224716, 0.041137441992759705, -0.05098968744277954, 0.0484626404941082, -0.07370581477880478, -0.057016029953956604, -0.07466132193803787, -0.09354478865861893, 0.031122121959924698, 0.014025872573256493, -0.04557059705257416, 0.017471419647336006, -0.0802900567650795, 0.06732769310474396, -0.02908562682569027, 0.0519057922065258, -0.11464278399944305, 0.068318210542202, -0.07182256132364273, 0.023984218016266823, -0.0434473417699337, -0.06576468795537949, -0.07475431263446808, 0.007864267565310001, 0.08994748443365097, 0.10684581100940704, 0.08623352646827698, 0.09173955768346786, 0.014968311414122581, -0.05916383117437363, -0.00470907473936677, -0.0500524565577507, -0.08358634263277054, -0.05934331193566322, 0.07962873578071594, -0.028513092547655106, -0.0008422883111052215, -0.0015765557764098048, 0.03623966500163078, 0.003675285493955016, 0.04002389311790466, 0.1066405400633812, 0.07730795443058014, -0.012623338028788567, 0.037936754524707794, 0.013905441388487816, 0.04657353088259697, -0.05535520985722542, -0.07854992896318436, 0.07922204583883286