-0.012960641644895077, 0.060447126626968384, 0.050167448818683624, -0.05253515765070915, -0.03517645597457886, -0.017102250829339027, 0.006983669009059668, -0.045939911156892776, 0.021292677149176598, 0.007320621982216835, -0.007930776104331017, 0.04592462256550789, 0.04397578909993172, -0.01933905854821205, 0.0041604237630963326, 0.04108152911067009, 0.055339183658361435, -0.008327213115990162, 0.04048115387558937, -0.04929918795824051, 0.04126843810081482, 0.03354031592607498, 0.06155823543667793, 0.03020566701889038, -0.062110237777233124, -0.0436115637421608, 0.02776438742876053, -0.059976860880851746, -0.027504609897732735, 0.04017980024218559, -0.01575310155749321, 0.04872220382094383, 0.03252450376749039, 0.05483798310160637, 0.020069174468517303, 0.05859366059303284, 0.047123536467552185, 0.00413918774574995, 0.008389982394874096, 0.01391714345663786, -0.04636070877313614, -0.0005300762131810188, -0.004264838993549347, -0.020470283925533295, 0.03819531574845314, -0.03762424364686012, 0.0054847560822963715, 0.020754318684339523, 0.034811247140169144, -0.035056594759225845, 0.027422305196523666, -0.05179202929139137, -0.00024901548749767244, -0.04239277169108391, 0.0074804252944886684, -0.003955231048166752, 0.013329080305993557, 0.014139488339424133, 0.0154463155195117, 0.03139912337064743, 0.012261989526450634, -0.04782446473836899, -0.05779418721795082, 0.03914431482553482, -0.025580307468771935, 0.06155592203140259, -0.030152512714266777, -0.00888602901250124, 0.0483686588704586, 0.06134399026632309, -0.03862103447318077, 0.02435668557882309, 0.050664905458688736, 0.0692114531993866, 0.000325932283885777, 0.005300961434841156, -0.047258760780096054, -0.010734554380178452, -0.06556110829114914, 0.004824135918170214, 0.06249544396996498, 0.012228117324411869, 0.05498543381690979, -0.0326995924115181, -0.03502630069851875, -0.010611501522362232, -0.03145430237054825, -0.03203066810965538, 0.03385675325989723, 0.05838498845696449, -0.013600708916783333, 0.049983542412519455, 0.006961676757782698, 0.0011353008449077606, 0.00768447108566761, 0.04656026512384415, -0.013590049929916859, -0.005299832671880722, 0.03236375004053116, 0.06657514721155167, 0.015227078460156918, -0.040284059941768646, 0.008433482609689236, 0.029860014095902443, -0.039930325001478195, 0.029299022629857063, 0.04367506504058838, 0.03791042044758797, 0.049774300307035446, 0.040902335196733475, -0.02498122863471508, -0.042492374777793884, 0.046002719551324844, 0.017871985211968422, 0.06604310125112534, 0.044216375797986984, -0.04502493515610695, 0.029436657205224037, -0.028492502868175507, -0.008815263397991657, 0.029570354148745537, 0.07805578410625458, -0.05070843547582626, -0.0010108191054314375, 0.01859372667968273, 0.029151350259780884, -0.029796909540891647, -0.010033957660198212, 0.0238814577460289, -0.037561774253845215, 0.006680973805487156, -0.054750535637140274, -0.018941447138786316, -0.024640081450343132, -0.06155318021774292, -0.012897505424916744, 0.01423993892967701, 0.041828788816928864, 0.018078353255987167, 0.022210750728845596, -0.05107651278376579, 0.04453122615814209, -0.054108552634716034, -0.05193455517292023, -0.07733932137489319, -0.04844249412417412, -0.08266357332468033, -0.056606657803058624, -0.05389389023184776, 0.043995410203933716, -0.0028072965797036886, -0.07623542100191116, 0.007797927130013704, -0.04555501788854599, -0.039601486176252365, 0.03253947198390961, -0.05521176755428314, 0.03286205604672432, 0.0392867811024189, 0.05881046503782272, 0.0073674991726875305, -0.031812600791454315, -0.05506186932325363, -0.043413858860731125, 0.02609953097999096, 0.0021521183662116528, 0.011906154453754425, 0.03786157816648483, -0.05383957549929619, 0.017332475632429123, 0.033575959503650665, 0.013553686439990997, -0.038104571402072906, -0.0012002491857856512, -0.011345947161316872, -0.006166056729853153, -0.027351655066013336, 0.044745106250047684, -0.01299351453781128, 0.02787340059876442, 0.022983988747000694, 0.014582980424165726, 0.025059856474399567, 0.01533152349293232, -0.02313721366226673, 0.0073839640244841576, -0.005806750617921352, 0.026073968037962914, 0.020611688494682312, 0.026265645399689674, -0.051351431757211685, -0.08441643416881561, 0.049393393099308014, -0.06557328999042511, -0.030012713745236397, -0.0023083279374986887, -0.024533966556191444, 0.022082170471549034, -0.043788980692625046, 0.010462988168001175, 0.06380531936883926, -0.03743062540888786, 0.020877381786704063, 0.05431253835558891, -0.05159411206841469, -0.047779861837625504, 0.05842764303088188, 0.05733582377433777, -0.0006837738328613341, 0.02636118419468403, 0.05291210114955902, -0.022464722394943237, 0.03808743134140968, 0.04271956905722618, -0.03746913745999336, -0.007565777748823166, 0.04762682691216469, -0.06087152287364006, 0.04312917962670326, 0.0021813774947077036, 0.07256826758384705, 0.02066098339855671, -0.0013738645939156413, 0.06259744614362717, 0.06725046038627625, -0.028383659198880196, 0.06964027136564255, -0.029093245044350624, 0.011585288681089878, -0.03686787933111191, -0.04256172105669975, 0.021219538524746895, -0.023396551609039307, 0.06017645448446274, 0.04048722982406616, -0.0022802231833338737, 0.024799685925245285, 0.019345352426171303, -0.03636810556054115, 0.062392957508563995, -0.0533100888133049, -0.001142627326771617, -0.012766367755830288, 0.03576256334781647, 0.03925241902470589, 0.0408550500869751, 0.030612140893936157, 0.06237171217799187, -0.05545053258538246, 0.016485318541526794, -0.05811154469847679, 0.02401655726134777, -0.026792410761117935, -0.025900306180119514, 0.020828865468502045, 0.00805683434009552, -0.02713366225361824, 0.015173039399087429, -0.012698424980044365, 0.018645154312253, 0.009000775404274464, -0.03642771393060684, 0.005887166131287813, -0.023480627685785294, 0.04874465987086296, -0.014583207666873932, -0.049292631447315216, -0.060908686369657516, -0.008565261028707027, -0.03920353949069977, 0.027716387063264847, 0.03135077655315399, 0.017107272520661354, 0.030483391135931015, -0.014164681546390057, 0.00760609470307827, 0.026623565703630447, 0.020406464114785194, 0.02791721746325493, -0.06546703726053238, -0.03803803026676178, -0.023915845900774002, 0.04234657809138298, 0.02145516499876976, 0.012606218457221985, 0.08196180313825607, 0.09052710235118866, 0.0667634829878807, -0.04556939750909805, -0.014201018959283829, 0.021530091762542725, -0.04875149205327034, 0.004920016974210739, -0.008087092079222202, -0.015370740555226803, 0.032247163355350494, 0.06500507891178131, -0.048876166343688965, 0.013144551776349545, -0.016518892720341682, 0.06405498832464218, 0.02758081816136837, -0.06209926679730415, -0.05402572825551033, 0.01135686133056879, -0.03098875842988491, -0.050422750413417816, -0.013641507364809513, -0.03080490231513977, 0.02087850496172905, 0.008019538596272469, 0.030756503343582153, 0.016505854204297066, -0.043871842324733734, -0.0072519173845648766, 0.025564201176166534, 0.0420365184545517, 0.04012499749660492, -0.04651767387986183, -0.011453486979007721, 0.03863828256726265, -0.044616084545850754, -0.01721763424575329, -0.02551877312362194, 0.004254307597875595, -0.049994152039289474, -0.03737736865878105, -0.02798575721681118, 0.04163037985563278, -0.011188521049916744, -0.03701585903763771, 0.03816048800945282, 0.0555298738181591, -0.05187443271279335, -0.003897730028256774, -0.03831753879785538, 0.03959692642092705, 0.006372431758791208, 0.028488943353295326, -0.0031980141066014767, 0.035853076726198196, -0.03593498468399048, -0.06327435374259949, -0.05101551488041878, 0.006140329409390688, -0.019917776808142662, 0.05474034696817398, 0.02648392878472805, 0.03468487039208412, 0.005239620804786682, 0.04085949808359146, -0.027082515880465508, -0.05260377377271652, 0.010844551958143711, -0.06670273095369339, 0.024483468383550644, -0.01094325166195631, -0.028061576187610626, 0.014880252070724964, 0.02995108626782894, 0.003910365514457226, -0.019748283550143242, 0.024215970188379288, 0.0346190370619297, -0.0010700037237256765, 0.06338993459939957, 0.10322346538305283, 0.001229781424626708, 0.055023193359375, -0.0392642617225647, 0.020555326715111732, 0.05685325711965561, 0.018285593017935753, 0.027688782662153244, 0.02006448619067669, 0.056946802884340286, 0.06168919429183006, 0.04107670858502388, 0.009830746799707413, -0.05372386798262596, 0.0573868602514267, -0.036772266030311584, 0.045763999223709106, 0.06288893520832062, -0.021637510508298874, 0.04797010496258736, 0.06286200135946274, 0.007959097623825073, 0.09422188252210617, 0.05930858105421066, 0.046558916568756104, 0.10556083172559738, -0.02125745825469494, 0.005901808384805918, 0.04622553661465645, 0.031152890995144844, 0.06522425264120102, 0.013019385747611523, -0.018369169905781746, -0.008282902650535107, 0.010003603994846344, -0.04338233917951584, 0.06714573502540588, -0.008850624784827232, 0.035824283957481384, -0.014995452016592026, 0.05459858477115631, 0.03167788311839104, 0.07052809745073318, -0.04312242940068245, 0.001352509600110352, -0.01383531279861927, -0.04831444472074509, 0.0531628355383873, 0.039328303188085556, 0.023855268955230713, 0.043214499950408936, 0.03607920557260513, -0.061459217220544815, -0.009218853898346424, 0.029658690094947815, 0.012177598662674427, 0.0008672666153870523, -0.009911072440445423, 0.03076019696891308, -0.024609290063381195, -0.03630319610238075, 0.06743349134922028, -0.03460880368947983, 0.06859109550714493, 0.039241619408130646, 0.005890776868909597, -0.0347229540348053, 0.06289306282997131, 0.06414935737848282, -0.0488041490316391, 0.014535808004438877, 0.055771518498659134, 0.03596719354391098, 0.03390863165259361, 0.0008587527554482222, 0.01627689227461815, -0.030061863362789154, -0.049278538674116135, 0.05600770562887192, 0.05601600557565689, 0.03185025975108147, -0.03747101500630379, 0.059978172183036804, 0.028599580749869347, 0.043416667729616165, -0.013928115367889404, -0.050322577357292175, -0.0017268869560211897, 0.04047176614403725, -0.04338276386260986, -0.05110347643494606, 0.053708117455244064, 0.07452479004859924, 0.047782547771930695, 0.005393392406404018, -0.015398971736431122, 0.016181714832782745, 0.0095658665522933, 0.034965209662914276, 0.05474722385406494, 0.00690557062625885, -0.03438333794474602, -0.020285671576857567, -0.02937668189406395, 0.015326597727835178, 0.0015958499861881137, -0.06329668313264847, 0.024785825982689857, -0.037441011518239975, -0.04591425135731697, 0.005255363415926695, -0.030470222234725952, 0.04020803049206734, -0.01468722801655531, 0.05563437193632126, -0.0009957696311175823, 0.049361128360033035, -0.013553466647863388, 0.009838494472205639, 0.02121341973543167, 0.05614477023482323, 0.02570350095629692, 0.007612952496856451, 0.03719278797507286, -0.03626144677400589, 0.04148304834961891, 0.023382164537906647, -0.03319855034351349, 0.04633135348558426, 0.035218607634305954, 0.034181635826826096, -0.04055594652891159, 0.024006817489862442, 0.03846430033445358, 0.043751060962677, 0.04195437952876091, 0.04726076126098633, 0.02520209364593029, 0.034571196883916855, 0.003034654539078474, 0.015729248523712158, 0.019904404878616333, -0.056318022310733795, -0.03945222496986389, -0.0345926396548748, 0.04694404453039169, -0.032250531017780304, 0.03023691289126873, 0.006292928010225296, 0.014121810905635357, -0.024063188582658768, 0.024961834773421288, -0.07271686941385269, -0.05393372103571892, 0.043534353375434875, -0.02008868381381035, -0.04527546465396881, -0.0625336691737175, 0.07201195508241653, -0.04902948439121246, 0.033518269658088684, -0.00990538951009512, -0.04844258725643158, -0.02449510246515274, -0.016907883808016777, 0.00992274098098278, -0.05667315050959587, 0.02427460253238678, -0.007840960286557674, -0.03736761212348938, 0.056873902678489685, 0.03131251409649849, -0.05302157253026962, -0.007137754932045937, 0.06450887769460678, -0.05032741278409958, 0.034516796469688416, 0.006484996993094683, 0.030757252126932144, 0.05470387637615204, 0.014085136353969574, -0.031439438462257385, -0.021752726286649704, 0.016277508810162544, 0.06336455792188644, -0.06302281469106674, 0.014697910286486149, 0.022753234952688217, -0.05081036686897278, 0.02318160980939865, -0.001595761626958847, 0.02163218893110752, -0.05376935750246048, -0.026561837643384933, 0.0021241132635623217, -0.06220051646232605, 0.038166750222444534, 0.05150749534368515, -0.01365313958376646, -0.0025161574594676495, 0.04508722946047783, 0.03893360123038292, -0.016971541568636894, -0.047130052000284195, -0.05884178355336189, -0.03683403506875038, 0.0026475072372704744, -0.06116348132491112, -0.05500958859920502, 0.02154443971812725, -0.06273524463176727, -0.033233657479286194, 0.03394037112593651, -0.0023483966942876577, -0.02449648268520832, -0.04211396723985672, 0.036492664366960526, 0.05068015679717064, 0.06500057131052017, 0.003227909794077277, 0.04000788554549217, 0.02331104688346386, -0.06227869912981987, 0.017052650451660156, -0.05855178460478783, -0.06262652575969696, 0.030402183532714844, 0.009919470176100731, 0.04027867317199707, 0.006566045340150595, 0.049610789865255356, 0.060232799500226974, -0.04634738713502884, 0.0006995729054324329, 0.06641195714473724, -0.02626502327620983, 0.0371830016374588, 0.06473324447870255, 0.013639063574373722, 0.0022332021035254, 0.045998554676771164, 0.037225984036922455, 0.03129331022500992, -0.022540898993611336, -0.041764166206121445, -0.008262654766440392, 0.05826861411333084, -0.03353871405124664, -0.018220551311969757, -0.025055041536688805, -0.010684235952794552, 0.06303524971008301, -0.028431203216314316, -0.02376571111381054, -0.014565965160727501, 0.001852006884291768, 0.01074756495654583, 0.05200524255633354, -0.05110052600502968, 0.06604355573654175, 0.015240322798490524, 0.019691023975610733, -0.014937748201191425, -0.014584740623831749, 0.0645868331193924, 0.058590035885572433, 0.06787077337503433, -0.05356627330183983, 0.04153360426425934, 0.04651908576488495, 0.025797495618462563, 0.008767270483076572, 0.03947648033499718, 0.06789753586053848, -0.004996175412088633, -0.02119758538901806, 0.0019017577869817615, 0.02152000181376934, 0.026441797614097595, 0.005161904729902744, 0.025567129254341125, 0.010820685885846615, 0.003775911871343851, 0.04392165318131447, 0.014172163791954517, -0.044325750321149826, -0.051231272518634796, 0.025832660496234894, 0.024435142055153847, 0.059427663683891296, -0.017982978373765945, 0.04673544690012932, -0.060589659959077835, -0.04457549378275871, 0.008189631626009941, -0.049759477376937866, 0.007579382974654436, 0.015566163696348667, -0.052441131323575974, 0.06335843354463577, 0.02348088100552559, -0.027949266135692596, -0.010241497308015823, -0.05846394971013069, -0.005635072011500597, 0.01555544137954712, 0.029894910752773285, -0.016211889684200287, 0.0601777508854866, -0.031279630959033966, 0.02048543281853199, 0.014600242488086224, 0.03656631335616112, -0.05093635618686676, 0.05845591425895691, 0.048423267900943756, 0.02336893416941166, -0.06194666400551796, -0.015240641310811043, 0.04351018741726875, 0.006524312309920788, 0.03781236708164215, -0.0005368108977563679, 0.060527365654706955, 0.05049368366599083, -0.04405493661761284, -0.04230380430817604, -0.03315633162856102, 0.00929537694901228, 0.0021739734802395105, 0.039784640073776245, -0.004426450468599796, 0.05122678726911545, -0.050595831125974655, -0.03481859341263771, 0.03158963844180107, -0.040447864681482315, 0.014925209805369377, 0.06264875829219818, -0.02738059312105179, 0.03187821805477142, -0.00431991508230567, -0.030373096466064453, -0.008100389502942562, -0.04650745540857315, 0.0027707242406904697, 0.010531052015721798, 0.0288888867944479, 0.0043891798704862595, 0.01344992034137249, -0.030806228518486023, 0.06325141340494156, -0.0253736674785614, 0.05912399664521217, -0.06278547644615173, 0.04457681626081467, 0.05402261018753052, 0.05110396072268486, 0.05724325776100159, 0.06288915127515793, 0.029877521097660065, 0.04011775925755501, -0.017201585695147514, 0.04043890908360481, 0.04598238691687584, -0.06401657313108444, -0.01468725223094225, -0.017553435638546944, 0.04887080937623978, -0.03605340048670769, 0.05689039081335068, 0.03772834688425064, -0.04205805063247681, 0.0011582018341869116, -0.02910543605685234, 0.010531322099268436, -0.054129552096128464, -0.05712485685944557, -0.00979918148368597, -0.02701674774289131, 0.039311934262514114, -0.0056072622537612915, -0.023786095902323723, 0.03786279261112213, 0.036707185208797455, 0.05208510905504227, -0.03355325758457184, 0.060347624123096466, -0.04525604844093323, 0.022139819338917732, -0.050802066922187805, -0.041553396731615067, 0.03021395206451416, -0.02226424589753151, -0.030163150280714035, 0.05538563430309296, -0.012872926890850067, 0.008783712051808834, -0.02651190012693405, -0.009736605919897556, 0.006270934361964464, -0.03211309015750885, -0.03863438591361046, -0.05386447161436081, -0.011615883558988571, 0.056404389441013336, -0.018388081341981888, -0.03770476207137108, -0.042565178126096725, -0.019767850637435913, -0.05447254702448845, -0.04942118003964424, 0.014924371615052223, -0.034056320786476135, 0.00430391076952219, -0.03612668812274933, 0.007524330168962479, -0.009859086014330387, 0.008732626214623451, -0.058327171951532364, -0.01848808489739895, -0.04281207174062729, 0.019544381648302078, 0.03657734766602516, 0.05843674764037132, -0.020519599318504333, -0.04069021716713905, 0.0056502847000956535, 0.009844150394201279, 0.03888063132762909, 0.0243794284760952, -0.0595134012401104, -0.02737397700548172, 0.04241969808936119, -0.022048549726605415, 0.001645852462388575, -0.020943965762853622, 0.026130707934498787, 0.06110163405537605, -0.051428016275167465, -0.02390068769454956, -0.05758071318268776, -0.002949072979390621, 0.035467371344566345, 0.04392445459961891, -0.03684532269835472, 0.04256007820367813, 0.016377773135900497, 0.009030004031956196, 0.05421120300889015, 0.027400817722082138, 0.060609497129917145, -0.04190251603722572, -0.01548671629279852, 0.012034857645630836, -0.04806915298104286, -0.04152745008468628, 0.04053527116775513, 0.052654802799224854, -0.037382662296295166, -0.008244159631431103, 0.015683598816394806, -0.042108744382858276, -0.06264758110046387, -0.01848914660513401, -0.050622083246707916, 0.04773758351802826, -0.003549846587702632, 0.03910106047987938, -0.05893411859869957, 0.02395821548998356, 0.034670114517211914, -0.011683044955134392, 0.012944205664098263, 0.04015649855136871, 0.0183737613260746, -0.05401395261287689, 0.053159475326538086, 0.014061023481190205, -0.015026098117232323, -0.050783466547727585, 0.059370607137680054, -0.027013786137104034, 0.049986351281404495, 0.0032341007608920336, 0.06144072487950325, -0.05554656684398651, -0.03950384259223938, -0.06170450896024704, -0.006155041046440601, -0.028746629133820534, 0.009636078961193562, -0.022880932316184044, 0.04143388569355011, -0.02681526355445385, 0.01487727090716362, -0.03045223280787468, -0.02910543605685234, 0.03702499344944954, 0.0026203610468655825, -0.0006992379785515368, 0.018462875857949257, 0.023337243124842644, -0.002193300286307931, 0.03576923534274101, -0.04551098868250847, -0.047903433442115784, -0.03563842177391052, -0.003802678780630231, 0.00044797552982345223, -0.0010166228748857975, -0.022082269191741943, -0.05701148882508278, 0.052104584872722626, 0.0585302896797657, -0.05746522545814514, -0.039587441831827164, -0.0379633903503418, 0.010814572684466839, -0.004504255950450897, -0.04807199165225029, -0.037940096110105515, -0.010535170324146748, -0.04944495111703873, -0.019191015511751175, -0.03135526180267334, 0.05279485136270523, 0.045955970883369446, 0.01836356520652771, 0.045204415917396545, 0.012097732163965702, -0.033240366727113724, -0.03542579337954521, 0.03860505297780037, -0.03856395557522774, 0.020417286083102226, 0.002255890751257539, 0.01893042027950287, -0.05988718941807747, -0.024799732491374016, -0.018585501238703728, 0.02636818215250969, -0.013190765865147114, 0.02850758656859398, 0.0581151619553566, -0.00938299298286438, -0.05090700089931488, 0.017616357654333115, 0.0395350456237793, 0.05728236213326454, 0.04191972687840462, -0.028575463220477104, -0.04526282101869583, 0.01694124937057495, 0.022677263244986534, -0.008894665166735649, -0.05546078830957413, 0.026952950283885002, -0.021019022911787033, 0.04117753729224205, -0.06140447407960892, 0.03284232318401337, -0.05378500372171402, 0.05575913190841675, -0.013471446000039577, -0.017140964046120644, 0.058638934046030045, -0.04775567725300789, 0.02089446410536766, -0.024177851155400276, -0.044356219470500946, -0.01598542556166649, -0.02024596743285656, 0.057666294276714325, 0.03205697983503342, -0.02199569344520569, -0.036372169852256775, -0.012085843831300735, -0.06276380270719528, 0.045944180339574814, -0.033826373517513275, 0.03108198568224907, -0.033666543662548065, 0.04278074577450752, -0.015874048694968224, -0.04464832693338394, 0.052204228937625885, -0.03198106214404106, 0.056488387286663055, 0.06049210950732231, -0.015304531902074814, -0.056218408048152924, -0.040890779346227646, -0.024884752929210663, -0.03043951280415058, -0.03260939195752144, 0.032522354274988174, -0.06277841329574585, -0.04725757613778114, 0.0133633092045784, -0.037394050508737564, 0.004654561169445515, 0.03101213090121746, 0.03747168183326721, -0.03776022791862488, 0.0036123832687735558, -0.00016894980217330158, 0.041706062853336334, 0.0182980727404356, 0.027520157396793365, -0.062244199216365814, -0.01355684269219637, -0.024055445566773415, 0.030625469982624054, 0.02458997443318367, 0.006610625423491001, -0.0464639887213707, -0.05483570694923401, -0.005092646926641464, -0.033731330186128616, 0.0299155805259943, -0.03449240326881409, 0.00036028213798999786, -0.030179955065250397, 0.024544522166252136, -0.0032290462404489517, -0.025472290813922882, 0.06705780327320099, 0.010582942515611649, -0.047991909086704254, 0.0011452909093350172, 0.016630372032523155, -0.03782294690608978, 0.009195283986628056, -0.022569023072719574, 0.07066212594509125, -0.06017163768410683, 0.06379732489585876, 0.01617428846657276, 0.06277193874120712, 0.017604999244213104, -0.015004812739789486, 0.011276124976575375, 0.015636339783668518, 0.04565127193927765, 0.010944333858788013, 0.05152011290192604, 0.009279076009988785, -0.005361370276659727, 0.0038597153034061193, 0.060053955763578415, -0.005656411871314049, -0.02367267943918705, 0.0012141007464379072, -0.0020598648115992546, -0.05468618869781494, -0.010518738068640232, -0.060739725828170776, -0.012516142800450325, 0.03849904611706734, 0.0344596691429615, 0.0156312994658947, 0.010998377576470375, -0.05059998482465744, -0.02861272729933262, -0.05825776606798172, -0.004702841863036156, 0.017699100077152252, 0.059405602514743805, -0.04349371790885925, 0.004992819391191006, -0.015014592558145523, -0.02360403910279274, 0.013129600323736668, -0.04772371053695679, 0.06304909288883209, 0.05126173049211502, -0.015149325132369995, -0.04074554517865181, -0.06385408341884613, 0.049653586000204086, 0.0556209571659565, -0.059406887739896774, 0.0013779178261756897, 0.03122948482632637, -0.02140454575419426, 0.03252628445625305, 0.0634211003780365, 0.014655064791440964, 0.047204285860061646, 0.008095500990748405, -0.02187252976000309, -0.052288129925727844, 0.008664768189191818, -0.016890205442905426, 0.06741666793823242, -0.01910582184791565, -0.032558295875787735, -0.02899651974439621, -0.05719741806387901, -0.04490409418940544, 0.05755366012454033, -0.01933208666741848, -0.016697842627763748, 0.018074868246912956, -0.012700171209871769, 0.06392724066972733, 0.031222721561789513, -0.03958338871598244, -0.011634131893515587, 0.044473376125097275, 0.03183021768927574, -0.009195767343044281, -0.03886570781469345, 0.00526882940903306, 0.0033515160903334618, 0.06342104077339172, 0.02786918915808201, 0.043881312012672424, 0.0681627169251442, -0.02203991450369358, -0.011254547163844109, -0.006207112222909927, 0.025173882022500038, 0.010323559865355492, 0.06287810951471329, 0.04229727014899254, -0.039498455822467804, -0.048526935279369354, -0.003039673436433077, -0.04622788727283478, 0.03198985010385513, -0.06298135221004486, -0.051248032599687576, -0.05260656401515007, 0.04482976719737053, -0.015341929160058498, -0.03319181129336357, 0.008043554611504078, -0.03877565637230873, 0.013753531500697136, 0.04301542788743973, -0.00017958880926016718, 0.01965254731476307, -0.012561371549963951, 0.061930686235427856, 0.07415593415498734, -0.00977468490600586, 0.0681791603565216, -0.03234410658478737, 0.00775736290961504, -0.040985092520713806, -0.02347596175968647, -0.005323563702404499, 0.014947396703064442, -0.025371002033352852, 0.04386817663908005, 0.07140520960092545, 0.05579671263694763, -0.008403737097978592, -0.03266562521457672, -0.03929666802287102, -0.03436135873198509, 0.0033670240081846714, 0.048930320888757706, 0.04584798589348793, 0.06188216805458069, -0.010090465657413006, 0.05599687620997429, -0.0019402113975957036, -0.0408245325088501, 0.003876716597005725, 0.03944478929042816, 0.02059549279510975, 0.030188078060746193, 0.03826815262436867, -0.020993901416659355, -0.009234888479113579, 0.05492943897843361, 0.022714802995324135, 0.05529480427503586, 0.007992773316800594, 0.005494551733136177, -0.04979201406240463, -0.037133779376745224, 0.012481873854994774, 0.03691665828227997, 0.035226043313741684, 0.008317181840538979, -0.026756109669804573, 0.01739095337688923, 0.06612584739923477, -0.04059171676635742, 0.0058960882015526295, -0.02128223329782486, -0.027684923261404037, 0.06577224284410477, 0.012267706915736198, -0.05509142577648163, -0.0257770586758852, 0.023445427417755127, -0.04956289753317833, 0.02213123068213463, 0.02012532204389572, -0.041489530354738235, 0.02648363821208477, 0.011592118069529533, 0.028782576322555542, 0.02675020694732666, -0.050069231539964676, 0.03222618252038956, -0.01602865941822529, 0.023457713425159454, -0.03585832193493843, 0.05699941888451576, -0.016680750995874405, -0.053700439631938934, -0.054852258414030075, 0.014668679796159267, -0.06332124024629593, 0.02882394567131996, -0.010292991995811462, 0.03147241473197937, -0.03551546484231949, 0.031829364597797394, 0.03279618173837662, -0.02890668623149395, 0.01902100443840027, -0.024261340498924255, 0.04246819391846657, 0.003553282003849745, -0.02738911658525467, 0.04729181528091431, 0.0370570607483387, 0.06344626843929291, 0.04594927653670311, 0.06419156491756439, -0.02418382279574871, 0.013671998865902424, 0.01965435780584812, 0.05847518518567085, -0.038900502026081085, -0.002739116782322526, -0.01822294108569622, -0.06191621720790863, 0.012633014470338821, 0.030859047546982765, 0.008479316718876362, -0.038483019918203354, -0.006408588495105505, -0.050780344754457474, 0.059253327548503876, -0.05904798209667206, 0.0018781177932396531, 0.04115702211856842, -0.020940089598298073, -0.06286201626062393, -0.009925183840095997, -0.05323202908039093, -0.04770820587873459, -0.004826809745281935, -0.01570487767457962, 0.04528871923685074, 0.009946552105247974, -0.06008697301149368, 0.045720960944890976, -0.024463854730129242, -0.009619072079658508, -0.00030649013933725655, -0.05038541182875633, 0.025130322203040123, -0.03954392299056053, -0.028146494179964066, -0.012268578633666039, 0.05141916498541832, 0.059664398431777954, -0.025186151266098022, 0.04493476077914238, -0.06467827409505844, 0.019764818251132965, 0.019192837178707123, 0.020008845254778862, 0.003756514983251691, -0.023355545476078987, 0.013761219568550587, 0.052327074110507965, 0.0014705610228702426, 0.05988597124814987, -0.0045823222026228905, -0.06029228866100311, -0.05861814320087433, -0.028205661103129387, -0.04890551418066025, 0.01555452961474657, 0.034504301846027374, 0.06325197964906693, 0.004834454972296953, -0.016221478581428528, -0.04699365422129631, 0.06437359005212784, -0.0025057627353817225, -0.029325490817427635, -0.04521773010492325, 0.05250919982790947, 0.03753812611103058, 0.048438381403684616, -0.060269925743341446, -0.04310304671525955, 0.022112613543868065, -0.03899718448519707, -0.040100447833538055, -0.016144048422574997, -0.04719783365726471, -0.059653863310813904, -0.008127236738801003, 0.0014215346891433, -0.022125886753201485, 0.00744934007525444, -0.05183519795536995, -0.061483483761548996, 0.010891805402934551, -0.020980576053261757, 0.025811856612563133, 0.06086089089512825, 0.04771609976887703, 0.006708967499434948, 0.021170666441321373, -0.03945814073085785, -0.062339942902326584, -0.06007376313209534, 0.020339345559477806, -0.0006537312874570489, 0.059710945934057236, -0.06382083147764206, 0.03147076442837715, -0.06493667513132095, 0.06241779029369354, -0.059439826756715775, 0.04788721352815628, 0.030468476936221123, 0.033191386610269547, -0.06233098730444908, -0.026220131665468216, -0.0067155552096664906, 0.025212006643414497, -0.023920031264424324, 0.04697436839342117, -0.021862857043743134, -0.053199101239442825, -0.02034725621342659, -0.057152051478624344, -0.021988656371831894, -0.04305180534720421, -0.0062697590328752995, -0.01788789965212345, -0.039909642189741135, 0.013737187720835209, 0.0118629802018404, 0.03536006435751915, 0.021035397425293922, 0.03749223053455353, -0.05883993208408356, 0.04502740129828453, 0.006984677165746689, 0.0549493171274662, -0.001373428967781365, -0.023180026561021805, 0.013960671611130238, -0.013177946209907532, -0.00726260244846344, -0.04159967228770256, 0.05069314315915108, -0.050453830510377884, -0.002030175644904375, 0.05728645622730255, 0.03322026506066322, -0.01438544224947691, 0.0038563355337828398, -0.019146014004945755, -0.049388084560632706, -0.02339288778603077, -0.052618324756622314, 0.0035476270131766796, -0.021994411945343018, 0.014786982908844948, 0.037545595318078995, -0.04937111213803291, -0.05303848162293434, 0.056179799139499664, 0.035167038440704346, -0.03122447431087494, 0.04936662316322327, 0.0303716529160738, 0.056009672582149506, 0.06266196072101593, -0.005992376711219549, 0.04320908710360527, -0.03804014250636101, 0.05343588814139366, -0.0017509908648207784, -0.0022114794701337814, 0.05522496998310089, 0.006590093486011028, -0.026176055893301964, -0.015103669837117195, 0.05941569060087204, 0.007408291567116976, 0.02727707102894783, 0.04766644537448883, -0.04100226238369942, 0.0601862370967865, -0.05504972115159035, 0.03485738858580589, -0.014960354194045067, 0.05454025790095329, -0.04302644357085228, -0.031511563807725906, -0.04967840760946274, 0.02245461940765381, 0.022123238071799278, -0.04612528532743454, -0.028884192928671837, -0.0150372963398695, -0.025192394852638245, -0.01736578531563282, 0.051566291600465775, 0.024398284032940865, 0.03480778634548187, 0.061037175357341766, 0.012428084388375282, -0.05647315829992294, 0.011968115344643593, -0.037535570561885834, -0.0036236874293535948, 0.06144588068127632, 0.02825690619647503, 0.0504768043756485, -0.017936592921614647, -0.046701494604349136, 0.03325563296675682, 0.03213866055011749, 0.052322760224342346, -0.061342936009168625, -0.044312939047813416, 0.047645632177591324, -0.005320132244378328, -0.05058605596423149, -0.0039304508827626705, 0.04975717514753342, -0.015075155533850193, 0.044015802443027496, 0.01627659797668457, -0.04160770773887634, 0.06339038163423538, 0.029972320422530174, 0.04672802612185478, 0.0014329829718917608, -0.03425545617938042, -0.035243529826402664, 0.03008917160332203, -0.05625789612531662, -0.010676826350390911, -0.06464065611362457, -0.018863609060645103, -0.026239173486828804, -0.03550657629966736, -0.016434714198112488, 0.0014145580353215337, -0.015699664130806923, -0.005845027510076761, -0.006679197307676077, 0.03380216658115387, -0.017910348251461983, -0.060930054634809494, 0.0182263795286417, 0.006755422335118055, 0.039013393223285675, -0.04898757115006447, 0.04216986522078514, 0.052894800901412964, -0.020670827478170395, 0.007188538555055857, -0.024190278723835945, 0.050136107951402664, -0.05663932114839554, 0.018188128247857094, -0.022072451189160347, -0.04845121130347252, -0.06059534475207329, 0.016835106536746025, -0.012286698445677757, -0.06024045869708061, -0.05891639366745949, 0.06098225712776184, 0.03251000493764877, 0.03147680312395096, -0.004566966090351343, 0.029265332967042923, -0.009738307446241379, -0.02185152657330036, -0.0013970708241686225, -0.034134991466999054, 0.048866525292396545, 0.015051789581775665, -0.05429079011082649, 0.013673640787601471, 0.07187112420797348, -0.03758281096816063, 0.08187142014503479, 0.04656605422496796, 0.08269210904836655, 0.0205194354057312, 0.07813159376382828, 0.12219153344631195, 0.03971857950091362, -0.028418857604265213, 0.03339094668626785, 0.019879428669810295, 0.006014353130012751, -0.08245336264371872, -0.1142648234963417, -0.1259392946958542, 0.06579764187335968, -0.008089862763881683, -0.0728924572467804, 0.015264449641108513, -0.04683167114853859, 0.05263318493962288, -0.00266797817312181, -0.07099800556898117, -0.022928116843104362, -0.049387119710445404, -0.045304786413908005, 0.062274955213069916, 0.05007556825876236, -0.020907046273350716, -0.04729696363210678, -0.013863231986761093, -0.00857163593173027, -0.025643644854426384, 0.05130201578140259, 0.0076792542822659016, -0.008399422280490398, 0.0665462464094162, -0.024998359382152557, 0.02225576713681221, -0.0059415060095489025, -0.014793152920901775, -0.05125415325164795, 0.04986336827278137, -0.030001427978277206, 0.04137217253446579, 0.022219590842723846, -0.04425898939371109, 0.03581433370709419, 0.036632828414440155, -0.003929379396140575, 0.03865444287657738, 0.006901687942445278, 0.014079529792070389, 0.034206125885248184, 0.06945934891700745, -0.020918283611536026, -0.011166769079864025, -0.006803538650274277, -0.00034057575976476073, 7.984644616954029e-05, -0.05491131171584129, -0.0744396522641182, 0.05472410470247269, 0.003963172901421785, 0.035148974508047104, 0.056874483823776245, 0.08231012523174286, 0.03871064633131027, 0.04930747672915459, 0.04162152484059334, 0.0708710253238678, 0.08564864844083786, 0.06966289132833481, 0.0019780313596129417, 0.07772832363843918, -0.025702089071273804, 0.06879425793886185, 0.04889369010925293, -0.027108198031783104, -0.03771645948290825, 0.014554939232766628, 0.09253454208374023, 0.014973226003348827, 0.0014693912817165256, 0.08770538866519928, 0.05053422972559929, 0.0038857206236571074, 0.057475313544273376, 0.007398566696792841, 0.0441645011305809, 0.03966649994254112, 0.036614954471588135, -0.026114515960216522, -0.07595890015363693, -0.00811996404081583, 0.030363086611032486, -0.04578500986099243, 0.053392671048641205, 0.04541319981217384, 0.03669796511530876, 0.04320914298295975, 0.01189438346773386, 0.0415329746901989, -0.01224656030535698, 0.008596626110374928, 0.047835178673267365, 0.0020731447730213404, -0.014729135669767857, 0.029784033074975014, 0.03531181067228317, 0.019519519060850143, 0.021564720198512077, -0.08275371789932251, -0.07575719803571701, -0.03676409646868706, -0.10035423189401627, 0.016022732481360435, -0.017835376784205437, 0.009902162477374077, 0.028703030198812485, -0.037517063319683075, -0.07034443318843842, -0.030203795060515404, -0.05803334340453148, -0.07746309041976929, 0.029782844707369804, -0.0028162775561213493, -0.029146572574973106, -0.053713321685791016, -0.06217150017619133, -0.0510232113301754, -0.04655952379107475, -0.016961686313152313, 0.019209908321499825, -0.03043345920741558, -0.012437560595571995, 0.02971513196825981, 0.02006114460527897, -0.050928711891174316, 0.009699372574687004, -0.012982494197785854, -0.07922393083572388, -0.05241237208247185, 0.08871150761842728, 0.019206518307328224, 0.0524132139980793, 0.04951734468340874, 0.04532270133495331, 0.04078755900263786, 0.06558578461408615, 0.024002909660339355, 0.028058933094143867, 0.05414627492427826, -0.03608056902885437, -0.03263255953788757, 0.003955067601054907, 0.036602675914764404, -0.09524445235729218, 0.005209478549659252, 0.02488386258482933, -0.025207825005054474, -0.05395655333995819, -0.041614025831222534, -0.024878811091184616, 0.0395764485001564, -0.015360595658421516, 0.05812237784266472, 0.05767190083861351, -0.059672970324754715, -0.020176952704787254, -0.031013811007142067, 0.009603793732821941, 0.0358026847243309, 0.0456123910844326, -0.0689832866191864, 0.04219846427440643, 0.023746568709611893, -0.06579787284135818, -0.0022056170273572206, -0.004363598767668009, -0.04703330248594284, 0.04203786328434944, -0.04376550391316414, 0.03494877368211746, -0.014453820884227753, -0.06312137842178345, -0.06230468675494194, -0.014205466024577618, 0.030133284628391266, -0.011154668405652046, 0.055004194378852844, -0.02732788398861885, 0.043726228177547455, 0.047506172209978104, 0.04932275786995888, -0.013386685401201248, -0.040198277682065964, 0.027333302423357964, 0.07096273452043533, -0.00030366587452590466, -0.008305338211357594, -0.046314507722854614, -0.04347582161426544, 0.0070038363337516785, 0.03397945687174797, 0.03855074569582939, 0.05660568177700043, -0.05922909453511238, -3.0587332730647177e-05, 0.018331253901124, 0.04766026511788368, 0.04637515917420387, 0.06309853494167328, -0.05145977437496185, -0.019120290875434875, 0.02978750690817833, -0.025277402251958847, -0.024457339197397232, -0.01078160759061575, 0.039101023226976395, -0.02067580632865429, 0.04248973727226257, 0.006131579168140888, 0.020156992599368095, -0.000911687733605504, 0.026975983753800392, 0.001312078326009214, 0.0025679783429950476, -0.010856020264327526, -0.05158291757106781, 0.053737275302410126, -0.03626680746674538, 0.03169085830450058, -0.004962963983416557, 0.04961425065994263, 0.038971997797489166, 0.0019951416179537773, 0.04475148767232895, -0.010537758469581604, 0.008536781184375286, 0.05556422099471092, -0.05963991954922676, -0.05624256283044815, 0.06225071847438812, -0.017600134015083313, -0.024612529203295708, 0.008480318821966648, 0.0021296674385666847, -0.0369853712618351, 0.009780552238225937, -0.022322004660964012, 0.06981432437896729, 0.04678411781787872, 0.03454208746552467, 0.11468583345413208, 0.026961322873830795, 0.05565270408987999, -0.007629912346601486, -0.05212254449725151, -0.005466691218316555, 0.009679912589490414, 0.06136715039610863, 0.06552246958017349, -0.033211465924978256, 0.01513591781258583, -0.015199911780655384, 0.04398990049958229, 0.06163150072097778, -0.041648950427770615, 0.014290189370512962, -0.056028276681900024, 0.023358557373285294, -0.022903213277459145, -0.06685402244329453, -0.013185521587729454, 0.002257775515317917, 0.007832542061805725, -0.05095534026622772, -0.001343234209343791, -0.05906730890274048, 0.01006337720900774, -0.06334143131971359, -0.05271689221262932, -0.0633218064904213, -0.000800466921646148, 0.07442019134759903, 0.010156158357858658, 0.0224530640989542, 0.027050169184803963, 0.05226318910717964, -0.01330117229372263, 0.009234230034053326, 0.035622306168079376, 0.014074534177780151, 0.06020943820476532, 0.05411361902952194, 0.0065868813544511795, -0.03170445188879967, 0.009222203865647316, 0.04739566519856453, 0.043208781629800797, -0.033933188766241074, 0.006476065143942833, 0.02047651633620262, -0.06019389256834984, -0.05068471282720566, -0.035376764833927155, -0.04426787421107292, -0.043284300714731216, 0.02269742079079151, 0.059953898191452026, 0.056533169001340866, 0.052265457808971405, -0.04523540660738945, -0.03767550364136696, -0.022137384861707687, -0.00493010226637125, 0.018165631219744682, 0.009719648398458958, 0.026873961091041565, 0.058822885155677795, -0.06696493178606033, -0.007430206518620253, 0.00025923267821781337, 0.02897411398589611, 0.03132833540439606, -0.0008020388195291162, -0.0204749908298254, 0.052863091230392456, -0.008820396848022938, -0.04783998802304268, 0.03142246603965759, 0.03652312234044075, 0.08324107527732849, 0.05391411483287811, 0.0581858865916729, 0.04471496865153313, -0.03248775750398636, -0.05343742296099663, -0.007749930024147034, 0.0531095415353775, -0.020536629483103752, -0.023091137409210205, 0.039036478847265244, -0.030550243332982063, 0.00017515377840027213, -0.046574003994464874, -0.04200984165072441, 0.05560833960771561, 0.01441293116658926, -0.011484560556709766, 0.05350080877542496, 0.03525083139538765, 0.01085679978132248, 0.0597379170358181, 0.07124806195497513, -0.024879781529307365, 0.027842851355671883, 0.07958093285560608, 0.07000865787267685, 0.07067601382732391, 0.08586077392101288, 0.06279728561639786, 0.04813801124691963, 0.01921696960926056, 0.07598277926445007, 0.022032449021935463, -0.03178146481513977, 0.023930039256811142, 0.06593087315559387, 0.08426673710346222, 0.062162160873413086, 0.07547906786203384, -0.01322153303772211, 0.0675632432103157, -0.017442520707845688, -0.04896464943885803, 0.010053738951683044, 0.014728277921676636, 0.0646623820066452, 0.04946132376790047, -0.044587068259716034, 0.05858033895492554, -0.033528175204992294, -0.02158595807850361, 0.020744377747178078, -0.03007465973496437, 0.04548466205596924, -0.035099633038043976, -0.043759506195783615, -0.03685051202774048, 0.030414661392569542, 0.05546378344297409, 0.05620204284787178, 0.004165914840996265, -0.021118557080626488, 0.060836851596832275, 0.05682000517845154, 0.02005264349281788, 0.04479972645640373, 0.054967451840639114, 0.021003784611821175, 0.006389855872839689, -0.05464654043316841, -0.0015761911636218429, -0.04842511937022209, -0.02963581122457981, 0.055708322674036026, 0.05716508999466896, 0.07014093548059464, 0.021080898120999336, 0.03876587748527527, 0.03893515467643738, -0.010221892967820168, -0.029434867203235626, 0.03255607187747955, 0.028826458379626274, 0.013554980047047138, -0.03567104414105415, 0.03899400681257248, -0.04167107492685318, 0.011300470679998398, 0.04585173726081848, 0.054550960659980774, -0.01995692029595375, 0.008951613679528236, -0.03220657259225845, 0.01675517112016678, -0.04854024201631546, -0.05079370364546776, 0.04740799590945244, 0.0563005656003952, 0.023005448281764984, 0.02936660870909691, -0.06251753866672516, -0.016967913135886192, -0.017373250797390938, -0.02722049504518509, 0.06043344363570213, -0.04498596116900444, 0.016887100413441658, -0.02206028252840042, -0.04412354156374931, 0.009680666029453278, 0.028295889496803284, 0.022002793848514557, -0.03043929859995842, -0.021476779133081436, 0.04182093217968941, 0.0032577780075371265, -0.04903147742152214, 0.038026317954063416, -0.017943652346730232, 0.011661137454211712, -0.005984367337077856, -0.06112157180905342, 0.0211323294788599, 0.007529354654252529, -0.051489461213350296, -0.033255625516176224, -0.0477319061756134, 0.020817870274186134, 0.03670797869563103, 0.034020889550447464, 0.0035328296944499016, -0.053628817200660706, 0.0092953871935606, 0.03767699375748634, 0.053210772573947906, 0.04062775894999504, 0.017836106941103935, -0.039593569934368134, -0.025096965953707695, 0.002931877737864852, -0.04012465104460716, -0.01694750040769577, -0.054545849561691284, 0.024104150012135506, 0.009325195103883743, -0.0695793479681015, -0.042848944664001465, 0.03572351485490799, 0.05457431450486183, 0.0100107342004776, 0.015385095961391926, -0.030992988497018814, -0.02417776547372341, -0.014299231581389904, 0.022788098081946373, 0.028883779421448708, -0.005218349397182465, -0.06662189960479736, -0.0280778631567955, 0.021973276510834694, 0.06334026157855988, -0.028572218492627144, 0.027775242924690247, -0.035694003105163574, -0.03998136892914772, -0.04729481413960457, -0.003124383045360446, -4.3422354792710394e-05, -0.046615120023489, -0.059329546988010406, 0.002978417556732893, 0.008111726492643356, -0.028595294803380966, -0.01258760690689087, -0.011407778598368168, -0.06296074390411377, -0.05691605061292648, 0.024981671944260597, 0.02591569535434246, 0.0543057955801487, 0.0602746456861496, -0.05160057172179222, -0.047808870673179626, 0.02202475443482399, 0.05246708542108536, 0.05441071465611458, 0.016586540266871452, -0.05353514850139618, 0.030486268922686577, -0.01862259767949581, 0.018461262807250023, -0.055638495832681656, -0.013038205914199352, 0.007781825494021177, -0.02392943948507309, -0.05239330977201462, 0.05292937532067299, 0.006376105360686779, 0.008037273772060871, 0.024704240262508392, -0.029312266036868095, -0.0460665263235569, -0.06317678838968277, -0.0048819007351994514, -0.0037956784944981337, 0.013713568449020386, -0.03903018683195114, 0.008833727799355984, 0.041250381618738174, -0.038749612867832184, 0.04976188763976097, 0.006142687983810902, 0.057454172521829605, -0.07566338777542114, -0.02014891244471073, -0.05754072591662407, 0.05758575350046158, -0.023620128631591797, -0.029212871566414833, -0.013667335733771324, 0.0327923409640789, -0.036162544041872025, 0.006486380472779274, -0.00631176820024848, 0.014912220649421215, -0.042265862226486206, 0.019651059061288834, 0.02330828085541725, 0.06491338461637497, -0.041576139628887177, 0.010070041753351688, -0.04629021883010864, 0.023446979001164436, -0.007047650404274464, 0.03895758092403412, 0.0484696701169014, -0.014995286241173744, -0.015870237722992897, 0.04416552558541298, -0.027123620733618736, 0.050752200186252594, -0.050139378756284714, 0.011418693698942661, 0.006030682940036058, 0.0016139494255185127, -0.007869001477956772, -0.0626903548836708, -0.04880208149552345, 0.02521195262670517, -0.05017533153295517, 0.02552332542836666, 0.018374353647232056, -0.01632748730480671, -0.0073824357241392136, -0.0607491210103035, -0.016203707084059715, 2.5942688353097765e-07, -0.005010512657463551, 0.01865473948419094, -0.04383708909153938, -0.019048141315579414, 0.01710835099220276, -0.039737436920404434, -0.0056436019949615, -0.05722983181476593, 0.032059814780950546, -0.0071991318836808205, -0.03354272246360779, 0.04824613779783249, -0.02460804581642151, -0.03354736045002937, 0.02695358358323574, 0.005335937719792128, 0.03547234833240509, -0.03626326844096184, 0.03172024339437485, 0.020214630290865898, -0.026780495420098305, -0.025221845135092735, 0.0018942992901429534, -0.0013941689394414425, -0.011233341880142689, 0.056729841977357864, -0.04267577454447746, -0.015567753463983536, 0.014754378236830235, 0.053495895117521286, 0.005822400562465191, 0.06069700047373772, -0.08870288729667664, -0.05479299649596214, -0.02742108143866062, 0.05505166947841644, -0.04638928174972534, -0.009248449467122555, 0.03521580249071121, 0.04037400335073471, -0.021078458055853844, -0.037392184138298035, 0.008983644656836987, -0.05534907802939415, -0.0023278393782675266, -0.07436679303646088, 0.04072781279683113, 0.03804679960012436, -0.004485034383833408, 0.04121728241443634, 0.02297564037144184, -0.06038280203938484, 0.016889777034521103, -0.029920807108283043, -0.04162498190999031, 0.014224790968000889, 0.01862608641386032, 0.04308869317173958, 0.05923640727996826, -0.06249475106596947, 0.02126547507941723, -0.02561524324119091, 0.04061812534928322, -0.03192685544490814, -0.012606658972799778, 0.04580412805080414, 0.0473521463572979, 0.02011057920753956, -0.04007251188158989, -0.011600303463637829, -0.046190857887268066, -0.036194607615470886, -0.04738590121269226, -0.006395843345671892, 0.04363720491528511, 0.033342741429805756, -0.06545763462781906, -0.013541714288294315, 0.02226930856704712, 0.017928648740053177, 0.0002030107716564089, -0.06092391908168793, 0.0006633549928665161, -0.005197657272219658, 0.05239623412489891, 0.050819989293813705, -0.048096220940351486, 0.011522929184138775, -0.0053859855979681015, -0.00560655677691102, -0.02465284988284111, -0.02064690925180912, -0.05724511668086052, 0.047388479113578796, 0.038190148770809174, -0.054334625601768494, -0.011414499953389168, 0.024482740089297295, 0.055080823600292206, -0.0007841438055038452, -0.00031046720687299967, 0.05488644912838936, -0.003457630518823862, 0.019107742235064507, 0.04443494603037834, -0.06315198540687561, -0.0017392226727679372, 0.05029148608446121, 0.008768907748162746, -0.043771758675575256, -0.02139405719935894, 0.001060322392731905, 0.029651707038283348, -0.05058429762721062, -0.023823630064725876, 0.03772834688425064, -0.04933750629425049, 0.024868227541446686, -0.006339126266539097, -0.01190856657922268, 0.017964523285627365, -0.042534101754426956, 0.013248595409095287, 0.014822213910520077, 0.02448165975511074, -0.061604179441928864, -0.04974821209907532, 0.01650448516011238, -0.0053868601098656654, -0.04099425673484802, -0.043118130415678024, -0.01531137153506279, 0.0487559512257576, 0.01902860775589943, 0.007731255143880844, -0.03743242472410202, 0.03874120116233826, 0.03855663165450096, 0.06135835126042366, 0.009403880685567856, 0.027335619553923607, 0.0007798537844792008, 0.0009594433358870447, -0.043889522552490234, -0.022611357271671295, 0.056182149797677994, -0.03036717139184475, 0.041237954050302505, -0.012361690402030945, 0.00443720119073987, 0.029482800513505936, 0.00212232768535614, 0.01776670292019844, -0.035897403955459595, -0.0138982143253088, 0.05686794966459274, -0.020577440038323402, 0.026235556229948997, -0.060634907335042953, -0.004203616175800562, 0.0590631403028965, 0.06453853845596313, 0.0030831233598291874, -0.002732891822233796, -0.007990085519850254, 0.06297169625759125, 0.054018110036849976, -0.026270251721143723, 0.048339180648326874, -0.034578729420900345, -0.03177874535322189, -0.004703388549387455, -0.039631422609090805, 0.016780436038970947, -0.049013156443834305, 0.03637510538101196, -0.04036012664437294, 0.03938551992177963, -0.056083373725414276, 0.03770585358142853, 0.03110319748520851, -0.01729734241962433, 0.026585670188069344, -0.05687614157795906, -0.022215066477656364, -0.050999969244003296, -0.023539256304502487, -0.016025984659790993, 0.040034327656030655, -0.054271891713142395, 0.02799183689057827, -0.05647432804107666, -0.02297220006585121, 0.055475153028964996, 0.05436614900827408, -0.047364022582769394, 0.010177796706557274, 0.022875022143125534, -0.05577320232987404, -0.021629573777318, 0.07137094438076019, 0.06122275069355965, 0.029676062986254692, 0.009541920386254787, -0.00711416220292449, 0.01838240586221218, 0.04255320876836777, -0.029044751077890396, -0.038006629794836044, -0.05080669745802879, 0.015425903722643852, -0.02461307682096958, 0.022995708510279655, 0.04043130949139595, 0.0031696034129709005, 0.04010307043790817, -0.007522607687860727, -0.033504270017147064, 0.003991030156612396, 0.04181951656937599, 0.039335574954748154, -0.03029695153236389, 0.05624982342123985, -0.02170315384864807, -0.06076475605368614, 0.049026213586330414, 0.020007431507110596, 0.0037795179523527622, 0.058198992162942886, 0.06363987177610397, -0.014993409626185894, -0.05212991684675217, -0.0005881848046556115, -0.04722677171230316, 0.04985842853784561, 0.0023771978449076414, -0.016211340203881264, 0.056134048849344254, 0.058915797621011734, -0.046540603041648865, 0.03651006892323494, 0.04572607949376106, 0.06764250993728638, -0.022048823535442352, 0.06732318550348282, 0.027826186269521713, 0.001277003320865333, 0.03255429118871689, -0.053226713091135025, 0.06597122550010681, 0.01728237047791481, 0.010972951538860798, -0.021839050576090813, -0.035512253642082214, -0.057447176426649094, -0.048981040716171265, -0.03831005096435547, -0.019704289734363556, -0.04459645599126816, -0.0435628816485405, 0.053917597979307175, 0.05100780352950096, 0.04606752470135689, -0.027652742341160774, 0.0642378181219101, 0.05135112628340721, 0.034935113042593, 0.0008077545207925141, -0.046812593936920166, 0.027518918737769127, 0.00874851830303669, 0.05070442333817482, 0.02358592115342617, -0.05186165124177933, -0.05843421444296837, -0.01273823156952858, -0.04673865810036659, -0.0007329332875087857, -0.0567338690161705, -0.056287068873643875, 0.017369162291288376, 0.06777413934469223, -0.06231461465358734, -0.053148649632930756, 0.03305702283978462, 0.05584896728396416, -0.0037014279514551163, -0.028402891010046005, 0.02224048227071762, -0.023319704458117485, 0.030034922063350677, -0.04905133694410324, -0.04849693551659584, -0.06127741187810898, 0.0481310598552227, 0.032217033207416534, 0.0027380124665796757, 0.053924642503261566, -0.012513654306530952, 0.05990473926067352, 0.014571893028914928, 0.02509768307209015, 0.01699228771030903, 0.05448155850172043, -0.025572847574949265, -0.02337593585252762, 0.03198253735899925, 0.043439678847789764, 0.04228081926703453, 0.052638616412878036, 0.032603587955236435, -0.050247084349393845, 0.037631407380104065, 0.06269390136003494, 0.02724190056324005, 0.013381805270910263, -0.05806949362158775, -0.012173430062830448, -0.018616722896695137, 0.0038938976358622313, -0.023393601179122925, -0.011675200425088406, -0.03963221237063408, -0.018289411440491676, -0.00932873971760273, -0.009642739780247211, 0.04847698658704758, -0.063005730509758, 0.03192843496799469, 0.011562897823750973, 0.0514841228723526, -0.01409702654927969, -0.04166916385293007, -0.05428145080804825, 0.053800538182258606, 0.03986571729183197, 0.002142706187441945, 0.0025203577242791653, -0.00460662180557847, -0.023051060736179352, -0.010166867636144161, 0.007145731709897518, 0.05620145797729492, 0.00984202604740858, -0.05451783165335655, 0.03992170840501785, 0.02243640460073948, 0.027418985962867737, -0.0220030490309, -0.032455574721097946, -0.057188600301742554, -0.002002127468585968, -0.0483623668551445, 0.032689403742551804, 0.036491069942712784, 0.0537230484187603, -0.052626676857471466, -0.030167706310749054, -0.019574446603655815, 0.057942841202020645, -0.02512463554739952, -0.014475597068667412, 0.06122985854744911, -0.05830160155892372, -0.03227941691875458, 0.021422771736979485, -0.027447765693068504, 0.018011074513196945, 0.04085727035999298, -0.03677263483405113, -0.0495658777654171, -0.017903968691825867, 0.05935121700167656, -0.05395842343568802, 0.018140088766813278, 0.018633831292390823, -0.05880966782569885, 0.043922148644924164, 0.030056418851017952, -0.03557991236448288, -0.0021004225127398968, -0.042742013931274414, -0.05830876901745796, 0.04482189565896988, -0.05238327756524086, 0.002719367854297161, 0.04952283203601837, -0.05342152714729309, -0.015960469841957092, -0.061336763203144073, 0.033069755882024765, -0.004902067128568888, -0.031313005834817886, 0.008642454631626606, -0.05996726080775261, -0.014759480021893978, -0.05710146203637123, 0.020736588165163994, 0.0644841343164444, -0.05878432095050812, 0.04308047518134117, -0.02698764018714428, 0.01592279225587845, -0.0431828610599041, 0.05447028577327728, 0.017201652750372887, -0.04875611513853073, 0.05589563772082329, 0.015287171117961407, 0.03657538443803787, -0.019439851865172386, 0.05892492085695267, 0.014924589544534683, -0.03345777466893196, -0.06322450190782547, -0.031376566737890244, -0.01605367101728916, -0.0196113009005785, 0.027608202770352364, -0.053568605333566666, -0.009674640372395515, 0.009289433248341084, 0.00879532378166914, 0.03626241534948349, -0.003884958103299141, -0.02952190861105919, -0.01688835583627224, -0.040394242852926254, 0.0465998500585556, -0.009108118712902069, -0.02838270552456379, -0.05056781321763992, 0.06071972846984863, 0.03979846090078354, 0.01782231777906418, -0.04823802784085274, -0.016451310366392136, 0.009988904930651188, 0.05576533079147339, 0.021791502833366394, 0.020913004875183105, 0.010361035354435444, 0.06344238668680191, 0.032483864575624466, 0.006270182318985462, 0.008846107870340347, -0.05344950780272484, -0.05285944417119026, 0.06061335280537605, 0.038614220917224884, -0.0038139708340168, 0.05322090536355972, 0.005404691211879253, -0.03933430463075638, 0.023526852950453758, 0.05106932669878006, 0.028214558959007263, -0.04086003080010414, 0.042788028717041016, -0.048731204122304916, 0.0382552295923233, 0.03380146622657776, 0.022523127496242523, -0.021565983071923256, -0.05348138511180878, 0.0579700842499733, 0.022629400715231895, 0.05863574519753456, 0.027815619483590126, 0.0054178666323423386, -0.037720270454883575, 0.04192664846777916, 0.005199146457016468, -0.052649155259132385, -0.022724449634552002, 0.061143722385168076, -0.05297348275780678, 0.02025742642581463, -0.013946546241641045, -0.01839817687869072, 0.026421962305903435, 0.02534649334847927, 0.05078766867518425, -0.028223954141139984, -0.01405887771397829, 0.03370053693652153, 0.024652352556586266, 0.030528785660862923, 0.03239702433347702, -0.04872411489486694, -0.057041846215724945, 0.013449594378471375, 0.0542740598320961, 0.032649774104356766, 0.05407881364226341, -0.04796374961733818, 0.02349546179175377, -0.002864439506083727, 0.0077416179701685905, -0.05720743536949158, 0.052017226815223694, 0.01746188849210739, 0.053096577525138855, 0.01251766737550497, 0.03266987204551697, -0.01885664276778698, 0.043783895671367645, 0.056669123470783234, -0.039678771048784256, -0.018635490909218788, -0.018599877133965492, -0.048454515635967255, 0.001625344273634255, 0.041676539927721024, 0.00327799329534173, -0.03635704517364502, -0.06120277941226959, -0.049064382910728455, 0.048731956630945206, 0.06329310685396194, 0.03099474497139454, -0.039717454463243484, 0.0614909827709198, 0.04718491807579994, 0.015122530981898308, -0.05448543652892113, 0.05295120179653168, -0.010271712206304073, 0.06018594652414322, 0.004749689716845751, -0.0037437407299876213, -0.01767459698021412, 0.006887349765747786, -0.06372116506099701, -0.05667383596301079, 0.019642559811472893, -0.009735031984746456, 0.05888601019978523, 0.03241034224629402, -0.022232456132769585, -0.05165741220116615, 0.013798207975924015, 0.004982079844921827, -0.06028486788272858, 0.0075303977355360985, -0.022808529436588287, 0.013339313678443432, 0.012416379526257515, -0.03309075906872749, -0.017941555008292198, 0.002498830435797572, 0.0011673608096316457, -0.03058914840221405, 0.06056792661547661, -0.04842907935380936, 0.018212823197245598, 0.054687876254320145, -0.0312650203704834, 0.013506950810551643, 0.0008716063457541168, 0.030436202883720398, 0.05816104635596275, -0.03880671039223671, 0.014685978181660175, -0.009581370279192924, 0.025154000148177147, -0.03452626243233681, 0.039629723876714706, -0.03139936923980713, 0.03709089010953903, -0.021428504958748817, -0.01916133426129818, 0.017646005377173424, -0.02565101720392704, -0.019631652161478996, -0.057655952870845795, 0.04073675721883774, 0.06060995161533356, -0.06208811327815056, 0.06053255498409271, -0.04263196140527725, -0.0315290242433548, -0.02740558050572872, 0.04834222048521042, 0.04020977020263672, -0.05793815478682518, 0.033878523856401443, 0.002792981220409274, -0.04174034297466278, 0.03445062413811684, -0.009714413434267044, 0.051913775503635406, -0.027931679040193558, -0.01708080992102623, 0.04551093280315399, 0.031916290521621704, 0.007514397148042917, 0.021900616586208344, -0.026493532583117485, 0.015848509967327118, 0.007231338880956173, -0.024655329063534737, 0.00027339596999809146, -0.03365183621644974, -0.016072459518909454, -0.05715992674231529, 0.03302081301808357, 0.019796013832092285, 0.12345012277364731, 0.03075465001165867, 0.13336005806922913, 0.15190720558166504, 0.10267138481140137, 0.043821852654218674, 0.07112748920917511, 0.0664794072508812, 0.03672399744391441, -0.02965218387544155, 0.07603023201227188, -0.010111279785633087, 0.01664738729596138, -0.003476513782516122, -0.12402021139860153, -0.020019853487610817, -0.0435553714632988, -0.04384099319577217, 0.048592459410429, -0.03734448552131653, 0.015920817852020264, -0.0508863590657711, 0.04736579954624176, -0.06758063286542892, 0.015991605818271637, 0.056164152920246124, 0.06663190573453903, -0.004373291507363319, 0.04988532140851021, 0.01847628504037857, 0.029072387143969536, 0.06438928842544556, -0.01869533769786358, 0.04612809419631958, 0.015620832331478596, -0.059050630778074265, 0.006302273366600275, 0.036436449736356735, 0.05963848531246185, 0.0705508440732956, -0.04837406054139137, -0.017044533044099808, -0.024402929469943047, -0.022202225401997566, 0.0651571974158287, 0.01597112976014614, -0.05299185588955879, -0.07395770400762558, 0.050145383924245834, 0.04358230531215668, 0.055018071085214615, -0.02163783460855484, 0.04961142688989639, 0.028085770085453987, 0.01424293965101242, 0.09019097685813904, -0.04456715285778046, 0.08084944635629654, 0.05572222173213959, -0.058732736855745316, 0.03727569803595543, -0.04695947468280792, 0.02496257796883583, -0.05457736924290657, 0.043281953781843185, -0.009347459301352501, 0.1053406223654747, 0.020565003156661987, 0.10496827960014343, 0.00251790345646441, -0.002570236101746559, 0.08006501942873001, 0.08045893162488937, 0.004972002934664488, 0.07893553376197815, 0.02013258822262287, 0.09072008728981018, -0.023331983014941216, -0.0617016926407814, 0.004174965433776379, -0.012151960283517838, -0.011965146288275719, -0.015402586199343204, 0.09580004960298538, -0.015130414627492428, 0.07836958765983582, 0.018359700217843056, 0.03441815823316574, -0.029665162786841393, 0.06716761738061905, 0.006866685580462217, 0.07748579233884811, -0.03418217971920967, -0.04399489611387253, -0.07540622353553772, 0.01582833006978035, -0.011743596754968166, 0.02397419698536396, 0.026180170476436615, -0.017382042482495308, 0.007950983010232449, 0.03196122124791145, -0.045862868428230286, -0.05725432187318802, -0.017757728695869446, 0.047826629132032394, 0.03535378351807594, -0.055877070873975754, 0.047357894480228424, 0.035318031907081604, 0.012332011945545673, 0.010069639421999454, -0.09425592422485352, -0.07191608101129532, -0.09739173203706741, -0.02693852223455906, -0.03754774108529091, -0.04144223779439926, -0.08595972508192062, -0.0901343896985054, -0.09116312861442566, -0.00925672147423029, -0.08818569779396057, 0.03082435391843319, -0.09199979156255722, -0.06387735903263092, 0.02173800580203533, 0.04784563183784485, -0.03491389378905296, -0.021767621859908104, -0.06808004528284073, -0.06550581008195877, -0.033293042331933975, -0.008860318921506405, -0.06876292824745178, -0.0549837201833725, -0.039113640785217285, 0.0067671360448002815, -0.028279630467295647, 0.035867802798748016, -0.07577560096979141, -0.061711207032203674, -0.066945880651474, 0.009335324168205261, 0.09786790609359741, 0.035402532666921616, 0.020314909517765045, 0.05940787494182587, 0.042289428412914276, 0.005292221438139677, 0.08223573863506317, 0.05951230600476265, -0.038216061890125275, 0.0356060229241848, 0.05387455224990845, -0.017334235832095146, -0.04289322346448898, 0.028798813000321388, -0.09777984768152237, -0.08842930197715759, 0.052762314677238464, -0.06575249135494232, 0.04141006991267204, -0.02968182973563671, 0.04200469329953194, 0.002114688977599144, 0.04833951219916344, 0.0316651314496994, -0.05748335272073746, 0.05033436417579651, -0.013603405095636845, -0.029274282976984978, -0.050742801278829575, 0.05204383283853531, 0.061124544590711594, 0.0316900908946991, 0.017787422984838486, 0.014662708155810833, 0.042995385825634, -0.003816754324361682, 0.04439827799797058, -0.07789142429828644, -0.06156197562813759, -0.039736971259117126, -0.009464262053370476, -0.051880933344364166, 0.055788956582546234, -0.009563606232404709, 0.0784616768360138, -0.012835984118282795, -0.023413974791765213, -0.05199029669165611, -0.03118569776415825, 0.06620775908231735, 0.01757369190454483, 0.0505894310772419, 0.04698128625750542, -0.052161239087581635, 0.012872428633272648, 0.07019122689962387, 0.04669944569468498, -0.05635438486933708, 0.08530007302761078, 0.06648607552051544, 0.06827013939619064, 0.05289200320839882, 0.06547819823026657, -0.04403699189424515, 0.003665278200060129, 0.010773766785860062, -0.010875917039811611, -0.05634588375687599, 0.017356252297759056, 0.034462280571460724, -0.017835015431046486, 0.04997454583644867, -0.008784228004515171, 0.01858559437096119, -0.0032576778903603554, 0.04761428013443947, -0.0347096212208271, 0.05663042515516281, 0.0119786923751235, -0.008342946879565716, 0.0059952642768621445, -0.017100609838962555, -0.013631721958518028, -0.047772109508514404, 0.04950717091560364, 0.035887688398361206, -0.035024501383304596, 0.030119741335511208, -0.056529950350522995, 0.02392939291894436, -0.006870988290756941, -0.0052431258372962475, -0.030069617554545403, -0.008603082969784737, 0.05108049884438515, -0.057920146733522415, 0.00394971901550889, 0.04902927577495575, 0.03148506209254265, -0.06300660222768784, -0.030975108966231346, 0.08200062811374664, -0.003578564850613475, -0.06572257727384567, 0.020452411845326424, 0.0626109391450882, 0.02201971784234047, 0.03982918709516525, 0.07913175970315933, 0.06756933778524399, 0.0228849146515131, 0.09387274831533432, -0.03125111013650894, 0.0049688201397657394, 0.05664334446191788, 0.03235649690032005, -0.019138038158416748, 0.050537195056676865, 0.04901806637644768, -0.006305172108113766, -0.0017143938457593322, 0.006153393071144819, 0.021631984040141106, 0.06492042541503906, 0.054419104009866714, -0.014281326904892921, -0.0218033604323864, 0.038910139352083206, -0.03348306193947792, 0.009106303565204144, -0.04261103644967079, 0.04110133275389671, 0.02822563238441944, -0.006494826637208462, 0.030145298689603806, 0.054542697966098785, -0.05169631913304329, -0.045030828565359116, -0.051747798919677734, 0.03804079070687294, -0.016052652150392532, -0.06191246584057808, 0.03366158902645111, 0.05954993516206741, -0.04482023045420647, -0.0690123662352562, -0.01889275573194027, -0.031243979930877686, 0.01198083907365799, 0.02812349796295166, -0.029573963955044746, 0.01810118928551674, -0.02069764770567417, -0.04256526753306389, 0.06089501455426216, -0.05118533596396446, 0.06453905254602432, 0.04207763075828552, -0.00045732781291007996, -0.05667228624224663, 0.01781623810529709, 0.0016712236683815718, 0.036332134157419205, -0.015498549677431583, -0.02221185900270939, 0.04577503725886345, -0.06293035298585892, 0.02131364867091179, -0.05994827300310135, 0.015692617744207382, 0.023937687277793884, 0.05797860398888588, -0.026500312611460686, -0.00438830628991127, 0.00841472391039133, 0.06140747666358948, -0.06086161360144615, 0.012330858036875725, 0.003741145133972168, -0.034652408212423325, -1.230907491844846e-05, -0.05244564265012741, -0.0006811685161665082, -0.006246022414416075, -0.039596304297447205, 0.030399661511182785, 0.07604338973760605, 0.049226097762584686, 0.03031894564628601, 0.007720185909420252, 0.012572569772601128, -0.0069768293760716915, 0.05097830295562744, 0.05956590548157692, 0.055959198623895645, -0.03631211072206497, 0.020532680675387383, -0.026298167183995247, -0.010281541384756565, -0.04684670269489288, -0.011609905399382114, -0.012862385250627995, -0.057686831802129745, -0.0006827517063356936, 0.017241574823856354, -0.021849021315574646, -0.05547007918357849, -0.013488784432411194, 0.039666399359703064, 0.037095144391059875, -0.02403401955962181, 0.05580122396349907, 0.08483661711215973, 0.0573844276368618, 0.024044044315814972, 0.06334564089775085, -0.02065400592982769, 0.03047306090593338, -0.008879884146153927, -0.011180414818227291, -0.02049492672085762, -0.02604166604578495, 0.023632021620869637, -0.0007288901251740754, 0.022481627762317657, -0.029669106006622314, 0.010478449985384941, 0.047076281160116196, -0.049332063645124435, -0.015993529930710793, 0.035215962678194046, 0.002726413309574127, 0.0147276995703578, -0.015676654875278473, -0.012715257704257965, 0.052312761545181274, 0.04094319045543671, -0.0038641865830868483, 0.05332544073462486, -0.030919911339879036, -0.008141805417835712, -0.043164223432540894, 0.0026556772645562887, 0.0361933708190918, 0.011195361614227295, -0.026320500299334526, -0.056780941784381866, -0.01249403040856123, -0.04205534607172012, -0.029768751934170723, 0.051722630858421326, 0.07320969551801682, 0.05047329142689705, -0.017800576984882355, 0.05500531941652298, 0.049609411507844925, 0.06529703736305237, 0.0176741611212492, -0.052484575659036636, -0.00677433842793107, 0.01332552544772625, -0.0351824089884758, -0.01407726388424635, -0.061652302742004395, -0.029698820784687996, -0.0486532486975193, 0.01387698668986559, 0.0020761145278811455, 0.005521866492927074, 0.04203365370631218, -0.03149542957544327, 0.0073010786436498165, -0.04670614004135132, 0.013820737600326538, 0.0404864177107811, 0.04203866794705391, 0.04853169992566109, 0.049571067094802856, 0.031500112265348434, 0.04672719165682793, -0.0073555209673941135, 0.04260969161987305, 0.0024456630926579237, -0.0439622588455677, -0.06178077682852745, 0.0071386657655239105, -0.004864817950874567, -0.04234880954027176, -0.02769012562930584, -0.048154041171073914, -0.008468656800687313, -0.010700032114982605, 0.052150338888168335, -0.04390321299433708, -0.06467995792627335, 0.014027959667146206, 0.013718171045184135, 0.06293568015098572, 0.0029461821541190147, -0.012333891354501247, -0.018257811665534973, -0.019792748615145683, -0.024387845769524574, -0.0073562925681471825, 0.05862768366932869, 0.03448959067463875, -0.027064433321356773, 0.05197126418352127, -0.04912661015987396, 0.04129296913743019, 0.044389039278030396, 0.030548080801963806, 0.051268141716718674, 0.007563089486211538, 0.02469903603196144, -0.00955823715776205, 0.00849195197224617, 0.03560059145092964, -0.04874391108751297, -0.025442996993660927, -0.01890629529953003, -0.06160813942551613, -0.026183957234025, 0.004202833399176598, 0.0018004539888352156, 0.0453643798828125, -0.04077976942062378, 0.01776178553700447, -0.05536912754178047, -0.012153469026088715, -0.0003623556694947183, -0.03258958086371422, -0.024273982271552086, 0.0381932370364666, -0.03785708546638489, -0.05269070342183113, 0.024543320760130882, 0.025549685582518578, 0.06733907014131546, 0.08232896775007248, -0.011045354418456554, -0.029222169890999794, -0.047845110297203064, -0.02871682308614254, -0.06254680454730988, -0.05217794328927994, -0.03986669331789017, 0.03485878184437752, 0.04634866863489151, 0.06755837053060532, -0.0199509896337986, 0.0012862349394708872, -0.03267728164792061, 0.027514709159731865, -0.01263601053506136, -0.03561348095536232, -0.05626955255866051, 0.030978020280599594, 0.037398070096969604, 0.013024166226387024, 0.06267166882753372, 0.04943704232573509, 0.06294090300798416, -0.06548603624105453, -0.04490801692008972, 0.062217939645051956, 0.03951646387577057, -0.03983455151319504, -0.05079355835914612, -0.04947710037231445, 0.05724767595529556, -0.0030854393262416124, -0.018378235399723053, -4.295257167541422e-05, -0.04289152845740318, -0.034910839051008224, 0.059598058462142944, -0.026931921020150185, 0.05113745480775833, -0.03905617818236351, 0.05137992277741432, 0.008443445898592472, 0.016295650973916054, 0.01433663722127676, -0.0523499920964241, -0.04969826340675354, 0.03294964134693146, 0.028504064306616783, -0.008818883448839188, -0.011023648083209991, 0.005495897028595209, 0.0005381014780141413, 0.016324268653988838, -0.01501807663589716, 0.050545185804367065, -0.03535493090748787, 0.0007879906333982944, 0.057429514825344086, 0.06113884598016739, -0.05609831213951111, 0.044648315757513046, 0.018622679635882378, -0.009717140346765518, -0.03597391024231911, -0.044682927429676056, 0.048839181661605835, -0.05013803392648697, 0.0641385093331337, -0.03832683712244034, -0.058542970567941666, -0.061620328575372696, 0.046382587403059006, 0.05548945441842079, 0.06349459290504456, 0.04249705746769905, -0.05339298024773598, -0.04987384006381035, -0.02388802543282509, 0.04915850609540939, -0.03859513998031616, -0.013111376203596592, -0.05965439975261688, 0.04526190087199211, -0.0396118089556694, 0.05010050907731056, 0.031196506693959236, 0.05161838233470917, -0.020611459389328957, 0.025257756933569908, 0.05937199294567108, -0.034174252301454544, -0.055003922432661057, 0.06127636134624481, 0.050440482795238495, -0.05163421109318733, 0.002599006751552224, -0.015222173184156418, 0.018050020560622215, 0.05043651908636093, 0.06155053898692131, 0.04179488494992256, 0.04757419973611832, 0.0083958450704813, 0.02665283903479576, -0.03888968750834465, 0.05414840579032898, -0.05655660852789879, 0.04234417900443077, -0.07153482735157013, -0.037665922194719315, 0.018670937046408653, -0.04727804288268089, -0.010266517288982868, -0.0241117924451828, -0.012043164111673832, -0.042922619730234146, -0.021738063544034958, 0.0578838512301445, 0.028008846566081047, -0.06018216535449028, -0.0011895692441612482, -0.057730816304683685, -0.03337569162249565, -0.04732179269194603, 0.019461601972579956, 0.04378877207636833, -0.03196249529719353, -0.05112720653414726, -0.039864953607320786, -0.00371161219663918, -0.027744252234697342, 0.02710113674402237, 0.03694452345371246, -0.032092925161123276, -0.06095739081501961, 0.03180998936295509, 0.03175363689661026, 0.009804126806557178, 0.03354201093316078, -0.04680047556757927, 0.005527197849005461, 0.03499815985560417, -0.0551094152033329, 0.06719096004962921, -0.005053776782006025, 0.04365215450525284, 0.0736767053604126, 0.06022295355796814, 0.03886949643492699, -0.03569545969367027, 0.013995978981256485, -0.0016312134684994817, 0.011494521982967854, 0.011994373053312302, 0.06752215325832367, 0.05322346091270447, -0.013947444036602974, -0.04644744098186493, 0.015792369842529297, 0.007110476493835449, 0.03685718774795532, -0.019978245720267296, 0.019452108070254326, 0.014861633069813251, -0.03495081886649132, -0.005264681298285723, 0.03383252024650574, 0.04967211186885834, -0.06097777187824249, 0.004618639592081308, 0.05892079696059227, -0.048082299530506134, -0.007412751205265522, -0.017138445749878883, 0.02306225709617138, 0.027779005467891693, 0.03521163389086723, -0.009635654278099537, -0.002578070852905512, -0.01818278804421425, 0.008418327197432518, 0.04639063775539398, -0.06313557177782059, -0.02739686332643032, -0.04419679567217827, -0.008399737998843193, 0.061442386358976364, -0.050773490220308304, -0.0359298512339592, 0.01674545183777809, -0.016737835481762886, -0.04982791841030121, -0.021846957504749298, -0.062320809811353683, -0.0011676675640046597, 0.00374228716827929, -0.051485221832990646, 0.03180469572544098, 0.0018183807842433453, 0.011806628666818142, -0.0551099069416523, -0.03229055181145668, 0.06402876228094101, 0.06488595902919769, 0.025079358369112015, -0.019721226766705513, -0.038831986486911774, -0.06366421282291412, -0.02316068299114704, -0.013752564787864685, 0.05968115106225014, 0.054289236664772034, -0.03261182829737663, -0.006322413217276335, -0.029113315045833588, 0.037681445479393005, 0.018777644261717796, -0.04751811921596527, 0.02960788458585739, -0.02306746505200863, 0.024767864495515823, -0.04806504771113396, -0.0468888133764267, 0.04827720299363136, 0.0448867529630661, -0.005385320167988539, -0.031495291739702225, 0.05452638864517212, 0.002979925135150552, -0.004496263340115547, 0.05914647504687309, 0.055402785539627075, -0.03599078580737114, 0.04492424428462982, 0.05511200428009033, 0.0239154864102602, 0.015341237187385559, 0.011216866783797741, -0.01453493069857359, -0.014016302302479744, 0.03289080783724785, -0.006958618760108948, 0.09579118341207504, 0.08975513279438019, 0.04759804159402847, -0.029841141775250435, -0.042728785425424576, 0.025545617565512657, -0.04306067153811455, 0.03318074345588684, 0.009995442815124989, -0.02787153795361519, -0.057897429913282394, -0.052869703620672226, -0.03438155725598335, -0.016739914193749428, 0.06201096251606941, -0.003720097942277789, 0.018511349335312843, -0.04642849788069725, -0.04648547247052193, 0.0563504584133625, -0.002835105638951063, 0.04943688213825226, 0.00894254632294178, -0.04478012025356293, -0.006171585060656071, -0.013328264467418194, 0.012590117752552032, -0.02357487380504608, 0.06755571067333221, 0.0035754875279963017, 0.02200336568057537, 0.04884851351380348, 0.027345117181539536, -0.05021859332919121, 0.0277367252856493, -0.025087350979447365, 0.04821670800447464, 0.011200476437807083, -0.00017460739763919264, 0.060961704701185226, -0.020112115889787674, -0.047223493456840515, 0.027240408584475517, 0.030689474195241928, 0.027966413646936417, -0.04981856048107147, -0.028761617839336395, -0.04803851246833801, 0.01566682942211628, 0.0688830018043518, 0.07103826850652695, 0.02611468732357025, -0.05572438985109329, 0.01002887450158596, 0.011354896239936352, -0.04105764627456665, 0.0149679658934474, 0.03284326568245888, -0.027237968519330025, 0.056990381330251694, 0.06728712469339371, 0.029447143897414207, -0.03514479845762253, 0.024305718019604683, 0.07566239684820175, 0.003593319095671177, 0.005235176533460617, 0.0466662161052227, 0.007368839345872402, 0.0324726402759552, -0.02542569674551487, 0.06762388348579407, 0.046453993767499924, 0.02934499830007553, -0.046868711709976196, 0.0021220664493739605, 0.056576333940029144, -0.013984224759042263, -0.04016545042395592, 0.06528762727975845, -0.028858015313744545, -0.025636667385697365, -0.010614205151796341, 0.021558500826358795, -0.014136520214378834, -0.03285805881023407, -0.017462296411395073, -0.052822791039943695, -0.008011220023036003, -0.07043295353651047, -0.04709197208285332, -0.005499975755810738, -0.0058173565194010735, -0.017804697155952454, -0.0061704847030341625, -0.04270193725824356, 0.047465115785598755, -0.014331030659377575, -0.028955793008208275, -0.05568702891469002, -0.01660720631480217, 0.010297712869942188, 0.05540967360138893, -0.06216026842594147, 0.04531026631593704, 0.04356667771935463, -0.03687037155032158, -0.05187413468956947, 0.0004945233231410384, 0.03706971928477287, -0.010347229428589344, -0.07394396513700485, -0.037896160036325455, 0.00312107615172863, 0.01363504771143198, -0.02190646156668663, 0.03957795351743698, -0.06322035938501358, -0.009191284887492657, -0.036907050758600235, -0.011596448719501495, -0.03057577833533287, 0.02934487722814083, 0.04271494597196579, -0.043710608035326004, 0.007101072929799557, -0.038740385323762894, -0.0026417244225740433, 0.002704570535570383, -0.043607067316770554, 0.03090856596827507, 0.03528231382369995, -0.03694513067603111, 0.012279435992240906, -0.03724421188235283, 0.05467480048537254, -0.01811283826828003, -0.030003810301423073, 0.08174555003643036, 0.021301979199051857, 0.0355154424905777, -0.020914632827043533, 0.017446869984269142, -0.05303544923663139, -0.02157263644039631, -0.0004991173045709729, -0.04243621602654457, 0.03597763553261757, 0.021694442257285118, 0.05256908759474754, 0.029021821916103363, -0.006950273644179106, -0.053609270602464676, -0.08660388737916946, 0.012787521816790104, -0.05175873637199402, 0.011793465353548527, -0.008164320141077042, -0.022438308224081993, 0.05906420573592186, -0.05361846089363098, 0.008934439159929752, -0.03659810870885849, 0.002676629228517413, 0.01197435799986124, 0.02435160055756569, -0.0010681819403544068, -0.008694371208548546, 0.008311102166771889, 0.039546649903059006, -0.029137669131159782, 0.0073119234293699265, -0.057778388261795044, -0.021024782210588455, 0.05501175671815872, 0.0341767817735672, -0.037324707955121994, 0.060071732848882675, -0.019197076559066772, -0.03973358869552612, 0.051233597099781036, 0.037398964166641235, 0.06821444630622864, -0.014444521628320217, 0.047646958380937576, -0.052623432129621506, 0.06626904755830765, -0.05054497346282005, -0.002971490379422903, 0.06617507338523865, -0.0281080212444067, 0.06269047409296036, 0.03861415386199951, 0.07050147652626038, 0.06691846251487732, 0.05148442089557648, 0.0657062828540802, 0.0039277710020542145, 0.04620170220732689, -0.05313011631369591, -0.029029062017798424, -0.0390419065952301, -0.0017857769271358848, -0.015745319426059723, -0.036547377705574036, -0.007900496013462543, -0.0318092480301857, -0.04366707056760788, 0.04649222269654274, -0.05423597991466522, -0.009422368369996548, 0.031253352761268616, -0.0645226463675499, 0.008779780007898808, -0.05890726298093796, -0.007144346833229065, 0.0025516299065202475, 0.035317957401275635, 0.051414985209703445, 0.007946277968585491, 0.020294982939958572, -0.05765867605805397, -0.025017336010932922, 0.024715466424822807, 0.025964293628931046, -0.038660671561956406, -0.0029555323999375105, -0.007470740471035242, -0.015443172305822372, 0.03619006648659706, 0.009295421652495861, -0.025173930451273918, 0.013633524999022484, 0.05942688509821892, -0.03870028629899025, -0.03133548051118851, 0.04482867568731308, -0.002442781813442707, -0.038304585963487625, -0.024001017212867737, -0.004015852697193623, 0.035645321011543274, 0.00995706021785736, -0.029645029455423355, -0.06328804790973663, 0.023786013945937157, -0.06741105765104294, -0.017070867121219635, -0.01491269376128912, 0.03907313570380211, -0.02776249684393406, 0.05575890466570854, -0.026032419875264168, 0.00022033369168639183, 0.004384810104966164, 0.0007562224636785686, 0.05270186439156532, 0.032846953719854355, 0.014780650846660137, -0.047007739543914795, -0.03862682357430458, 0.03564711660146713, 0.04904066026210785, 0.05924392119050026, -0.04915209859609604, -0.049571555107831955, -0.007942521013319492, -0.007522566709667444, -0.030277064070105553, -0.025971222668886185, -0.031110690906643867, 0.00956906471401453, -0.0238372590392828, 0.007343323435634375, -0.026995636522769928, -0.03248288482427597, -0.009385534562170506, 0.015176271088421345, 0.007106130011379719, -0.04620382934808731, 0.006015363615006208, 0.012675502337515354, -0.061883531510829926, 0.05440618842840195, 0.044324442744255066, -0.010416238568723202, -0.025174656882882118, -0.042342301458120346, 0.023048022761940956, 0.029025660827755928, -0.03830033168196678, -0.04486918821930885, -0.005058371927589178, -0.05468534305691719, -0.03712579607963562, -0.012020321562886238, -0.05440050736069679, -0.014297939836978912, 0.017753057181835175, 0.05303478613495827, -0.049765415489673615, 0.045161280781030655, -0.049998827278614044, 0.05502016097307205, 0.014204803854227066, -0.03513786196708679, -0.03321698307991028, 0.04828678444027901, -0.024594523012638092, 0.041687145829200745, 0.015739362686872482, -0.04492250829935074, 0.024316223338246346, -0.03612970933318138, 0.025796469300985336, 0.03941969946026802, -0.0021560483146458864, -0.03525925055146217, 0.03486821800470352, 0.04894907400012016, 0.055745918303728104, 0.012742236256599426, 0.003987459000200033, 0.05155041441321373, -0.061811190098524094, 0.013401612639427185, -0.06447045505046844, 0.00538030406460166, 0.03432224318385124, 0.04196002706885338, 0.05563873425126076, -0.01919080875813961, -0.06331533193588257, 0.009749699383974075, -0.022389505058526993, -0.011723443865776062, 0.06380771845579147, -0.03169615939259529, -0.049074169248342514, 0.05389164760708809, -0.024272305890917778, -0.04790167883038521, 0.024042729288339615, -0.03766279295086861, -0.058340899646282196, 0.04970403015613556, -0.053682733327150345, -0.03355686366558075, 0.06126241758465767, 0.0044138310477137566, 0.03647978976368904, 0.06461538374423981, 0.0469854436814785, -0.05559234693646431, -0.0012271202867850661, 0.01106258574873209, 0.05520341172814369, 0.0642174482345581, 0.06706482172012329, 0.023384684696793556, -0.024124715477228165, 0.05154756084084511, 0.04784637689590454, -0.01957038789987564, 0.03348797559738159, 0.0004776893765665591, -0.05862787365913391, 0.033101003617048264, 0.03170323371887207, -0.04513349011540413, 0.006978635676205158, 0.00010716754331951961, -0.013451267033815384, -0.0549585223197937, -0.029925884678959846, 0.0060740308836102486, -0.05382220074534416, 0.041086651384830475, 0.031142735853791237, 0.04750659689307213, 0.014075332321226597, 0.022178372368216515, -0.06489440053701401, -0.03285882994532585, -0.0077187130227684975, 0.05830999091267586, 0.024435045197606087, -0.007925938814878464, 0.021800249814987183, 0.025286225602030754, -0.045806292444467545, -0.02149943634867668, -0.056331537663936615, -0.018451564013957977, 0.04467448964715004, -0.02968014031648636, 0.040340326726436615, -0.05184609442949295, 0.03477766737341881, 0.042433880269527435, 0.045106250792741776, -0.04034887254238129, -0.027799412608146667, 0.010165156796574593, 0.001729635871015489, -0.04009810462594032, -0.009161769412457943, 0.005265914369374514, -0.03349264711141586, 0.008965682238340378, -0.049696918576955795, -0.014791984111070633, 0.02382930926978588, 0.03193516656756401, -0.03210943192243576, -0.049573514610528946, -0.06227752938866615, -0.02879694476723671, -0.04022037610411644, -0.06472713500261307, -0.047679610550403595, -0.0005792761803604662, -0.05298171937465668, -0.023879433050751686, 0.05423470959067345, 0.014176761731505394, 0.010936323553323746, 0.03197330981492996, 0.031101545318961143, -0.048486676067113876, -0.039845142513513565, 0.010896542109549046, 0.05790165811777115, -0.010434245690703392, -0.033304132521152496, -0.040577199310064316, -0.022506695240736008, -0.01655460335314274, -0.0033294283784925938, -0.01647617667913437, -0.018883144482970238, -0.017202327027916908, 0.06377001106739044, -0.06275459378957748, -0.03541279211640358, -0.05028567463159561, 0.019719772040843964, -0.06454218178987503, -0.030338825657963753, 0.05546634644269943, -0.03001067414879799, 0.03832181915640831, -0.03362274914979935, 0.022950757294893265, -0.008608868345618248, -0.007414038758724928, 0.02870142087340355, 0.011763796210289001, -0.002440681215375662, 0.04488219693303108, -0.03171457722783089, -0.06224779784679413, 0.012445339933037758, 0.056088682264089584, -0.03573446720838547, 0.032973188906908035, 0.04811064153909683, 0.016087563708424568, 0.005143061280250549, -0.03631210699677467, -0.03849692642688751, -0.04301348328590393, -0.06322077661752701, -0.042751677334308624, 0.05414159968495369, 0.0161451306194067, -0.0379609577357769, 0.016082100570201874, 0.026844628155231476, 0.05242397263646126, 0.01573701947927475, -0.035011082887649536, -0.06317351013422012, -0.04765549302101135, -0.016507737338542938, 0.016133470460772514, -0.06053652614355087, -0.05750914290547371, -0.05418597534298897, 0.005520049482584, 0.054219916462898254, 0.009035955183207989, 0.025411639362573624, 0.017773782834410667, -0.05603921040892601, -0.0217572171241045, 0.03032520040869713, 0.0306056197732687, -0.023095864802598953, -0.042316239327192307, -0.030041858553886414, -0.011749438010156155, 0.025266652926802635, -0.002771339612081647, 0.016369856894016266, 0.024616451933979988, 0.050095558166503906, -0.012427270412445068, 0.06444898247718811, 0.057201169431209564, -0.05926017835736275, -0.0165548175573349, 0.06190023571252823, -0.0021589952521026134, -0.016249217092990875, -0.049839697778224945, -0.019624076783657074, 0.015046953223645687, -0.04294651746749878, 0.012745760381221771, 0.008960441686213017, 0.002519488101825118, 0.023333167657256126, 0.022211404517292976, 0.04537294805049896, -0.01935402676463127, 0.019520815461874008, 0.05147168040275574, -0.03165150433778763, 0.05367644131183624, 0.026496870443224907, -0.01693652756512165, -0.06087825074791908, -0.03710354492068291, 0.00314078526571393, 0.012554488144814968, -0.04935813322663307, 0.05797319859266281, -0.002596920123323798, 0.017514267936348915, -0.06285960972309113, 0.006261557340621948, -0.025526462122797966, -0.051013410091400146, 0.03149084374308586, -0.035906463861465454, 0.0585704930126667, -0.042919375002384186, -0.023396164178848267, 0.027517888695001602, 0.009499132633209229, 0.042504552751779556, -0.002794739091768861, 0.014222586527466774, -0.001644057803787291, -0.02729027532041073, -0.002064558444544673, 0.01707952469587326, 0.014931736513972282, -0.015688477084040642, -0.01825363002717495, 0.015673235058784485, 0.044234808534383774, -0.03768198564648628, 0.01284810435026884, -0.05148611217737198, 0.016818588599562645, -0.05536255985498428, -0.0608525425195694, -0.012241343036293983, 0.03217238932847977, 0.05658184736967087, -0.020714718848466873, -0.044689394533634186, -0.024375487118959427, 0.023167699575424194, -0.004452061373740435, 0.022635672241449356, 0.0366494283080101, 0.0426434725522995, 0.04096325486898422, -0.06105253845453262, -0.06006309390068054, -0.03811125457286835, -0.010870530270040035, 0.046660326421260834, 0.0350373275578022, -0.016782088205218315, -0.010643682442605495, 0.04355064406991005, -0.039521314203739166, 0.041857726871967316, 0.027906104922294617, 0.033980581909418106, 0.037245482206344604, -0.059311214834451675, 0.017760220915079117, -0.0633271262049675, -0.046466294676065445, -0.06319978088140488, 0.032740507274866104, -0.056350935250520706, 0.03232308477163315, -0.06270492076873779, 0.05951796472072601, -0.03439171239733696, 0.06117157265543938, -0.05984899401664734, -0.007106685545295477, 0.06417641043663025, -0.016198117285966873, -0.029349299147725105, -0.02939198911190033, -0.062463074922561646, -0.002661690814420581, -0.05895940214395523, 0.06350748240947723, -0.00787878967821598, 0.004034750163555145, 0.028751736506819725, 0.06165848672389984, -0.010695189237594604, -0.0512724332511425, 0.024025268852710724, 0.022301744669675827, -0.03172466531395912, -0.037197891622781754, 0.013325364328920841, 0.047666724771261215, -0.016731832176446915, 0.04053647816181183, 0.059773147106170654, 0.027329977601766586, -0.014904418028891087, -0.027901118621230125, -0.03293939307332039, 0.0029824995435774326, 0.025404570624232292, 0.04969329386949539, -0.0010256681125611067, -0.05340926721692085, 0.019351016730070114, -0.06304538249969482, 0.03125681355595589, 0.010140546597540379, 0.019059106707572937, 0.015130619518458843, -0.0012890177313238382, 0.002885485766455531, -0.010532165877521038, -0.06079762801527977, -0.0545986108481884, -0.020697694271802902, 0.03778375685214996, -0.026816654950380325, -0.018744204193353653, -0.023993175476789474, -0.05746836960315704, 0.04240215942263603, 0.0011169785866513848, -0.04590580612421036, 0.02393111027777195, -0.05251700431108475, 0.0609457902610302, 0.061068736016750336, 0.015013307332992554, -0.053614839911460876, 0.0127428462728858, 0.03389522805809975, -0.04290518909692764, -0.053991809487342834, -0.02754683792591095, 0.0342111736536026, 0.030344538390636444, -0.00831427238881588, -0.013950931839644909, 0.060003623366355896, 0.05988664552569389, 0.03979732468724251, -0.008203468285501003, 0.04844515770673752, -0.002353482414036989, 0.06350100785493851, 0.018147937953472137, 0.015786563977599144, -0.033052634447813034, 0.025008011609315872, 0.03843722864985466, 0.004661617334932089, -0.04432891681790352, 0.02277737483382225, 0.044687408953905106, 0.01151400338858366, 0.05588812753558159, -0.055833157151937485, -0.00764098484069109, -0.010658981278538704, -0.06138177588582039, -0.03415502980351448, -0.04502778872847557, 0.05553242564201355, 0.013592804782092571, 0.039499666541814804, 0.02677925117313862, -0.039648812264204025, 0.039837464690208435, -0.04701622948050499, 0.005991862155497074, 0.0029813144356012344, 0.019520318135619164, -0.06421297788619995, -0.05958966165781021, 0.00975558441132307, -0.02807733044028282, -0.005912506487220526, -0.06686939299106598, 0.008680525235831738, 0.020620126277208328, 0.021947180852293968, -0.0763566717505455, 0.040605075657367706, -0.0474698431789875, -0.06526849418878555, -0.05810129642486572, 0.023389527574181557, -0.040939610451459885, -0.05661321431398392, -0.0008444186532869935, 0.007692322134971619, 0.022366682067513466, -0.05257895216345787, 0.022868743166327477, -0.05589143559336662, -0.028475498780608177, 0.006043297704309225, -0.06090294569730759, 0.02832307666540146, 0.02683844603598118, -0.029755491763353348, -0.020650045946240425, 0.002935329917818308, 0.01019525621086359, -0.048808977007865906, 0.06248469650745392, 0.04008684307336807, -0.019410813227295876, -0.0410383939743042, -0.04989238455891609, -0.065384641289711, -0.007094810251146555, 0.028364622965455055, 0.05656396597623825, -0.06325900554656982, -0.020057525485754013, 0.049325864762067795, -0.017599809914827347, -0.06402120739221573, -0.047298818826675415, 0.009303554892539978, 0.047754377126693726, 0.028403159230947495, -0.044364094734191895, -0.01976477913558483, 0.0016821993049234152, -0.054983336478471756, 0.05233685299754143, -0.0030213152058422565, 0.034863539040088654, 0.0026087374426424503, -0.014614694751799107, -0.06016936153173447, -0.027966879308223724, -0.0048917196691036224, -0.016910506412386894, -0.07241149991750717, 0.0017360113561153412, 0.03899011388421059, -0.04761340469121933, -0.04159293323755264, 0.03863353654742241, -0.01609816588461399, -0.03984369710087776, 0.030467115342617035, 0.049196839332580566, -0.0379619300365448, -0.02472744509577751, -0.03780784085392952, 0.049713026732206345, 0.04829150438308716, 0.02021990343928337, -0.0569068044424057, -0.035126540809869766, -0.04063921049237251, -0.015531416051089764, -0.02535127103328705, 0.005084462929517031, 0.0521366223692894, 0.016267238184809685, -0.04245736822485924, 0.04642045497894287, 0.04505086690187454, 0.06928672641515732, -0.008540650829672813, -0.04951183870434761, -0.03063792735338211, 0.04759778827428818, 0.02960839308798313, 0.050352975726127625, -0.01280747726559639, -0.020371241495013237, -0.013935049995779991, -0.038729943335056305, -0.01467480231076479, 0.0051888590678572655, -0.04280026629567146, 0.0008620779844932258, 0.025463566184043884, -0.05296465754508972, -0.03415801748633385, -0.04758216440677643, -0.01636938564479351, 0.01869022287428379, -0.055711451917886734, 0.054682109504938126, 0.04346469044685364, -0.027554761618375778, 0.024808771908283234, -0.02545786090195179, -0.03125397488474846, 0.05148768424987793, 0.07321549952030182, 0.057934749871492386, 0.0024682204239070415, -0.056057605892419815, -0.025186583399772644, 0.03434175252914429, -0.004584206733852625, -0.01433649379760027, 0.037425536662340164, -0.011616896837949753, -0.02066478691995144, -0.00183483911678195, 0.015011203475296497, -0.006271628197282553, -0.0013764719478785992, 0.000941174163017422, -0.009928066283464432, 0.055358439683914185, -0.023220254108309746, 0.021018289029598236, 0.05761950835585594, 0.008864174596965313, 0.0015872711082920432, -0.061471302062273026, 0.015909811481833458, 0.013305897824466228, -0.00166637625079602, -0.050556380301713943, -0.07670532166957855, -0.07381168007850647, 0.053586527705192566, 0.01294369250535965, -0.030025789514183998, -0.058082468807697296, 0.025370121002197266, 0.029958205297589302, 0.02590174600481987, 0.0075271474197506905, 0.007023622747510672, 0.06709828972816467, -0.04398869350552559, -0.045963771641254425, -0.011327608488500118, -0.03667272999882698, -0.04218418523669243, 0.04077152535319328, -0.04254228249192238, 0.037028826773166656, -0.031509269028902054, 0.06003543362021446, -0.029253631830215454, 0.041044387966394424, -0.05094312131404877, 0.010157596319913864, -0.00935009028762579, 0.013949917629361153, 0.006501680240035057, 0.0669953003525734, -0.008215862326323986, -0.050358012318611145, 0.013363080099225044, -0.050149500370025635, -0.01410736795514822, -0.024309298023581505, -0.004488886799663305, 0.01052856631577015, 0.03482482209801674, -0.04659154266119003, -0.04089854285120964, -0.024633582681417465, 0.044515203684568405, -0.059264831244945526, 0.044239215552806854, -0.03706851974129677, 0.05465184152126312, -0.023352649062871933, -0.05232134088873863, -0.04106537625193596, -0.010936365462839603, 0.0194106288254261, 0.04399345815181732, 0.014911245554685593, 0.023028431460261345, 0.04805096238851547, -0.007282748352736235, 0.027697209268808365, 0.03150966763496399, 0.03512148931622505, -0.025205357000231743, 0.006615556310862303, 0.04540993645787239, 0.058027446269989014, -0.05166308954358101, 0.06327737122774124, 0.015198641456663609, 0.03332972899079323, 0.03979038819670677, 0.03628929704427719, 0.05319386348128319, -0.025601273402571678, 0.010036315768957138, -0.029536021873354912, -0.029496846720576286, -0.0037785398308187723, -0.0005596366245299578, -0.048975635319948196, -0.046850867569446564, -0.021930063143372536, 0.04729511961340904, 0.016745038330554962, -0.01949545554816723, 0.02583461068570614, -0.0455782487988472, 0.042475104331970215, 0.04395011439919472, -0.04736732318997383, 0.035524919629096985, -0.015096250921487808, 0.060934048146009445, -0.056308433413505554, 0.05756044760346413, 0.021793104708194733, 0.04249754548072815, -0.04551118239760399, -0.01492754090577364, 0.019431276246905327, -0.058599259704351425, -0.02948877401649952, -0.0403585210442543, -0.004817768465727568, 0.05364665016531944, 0.0579213947057724, 0.03992661088705063, 0.010386740788817406, 0.018705876544117928, -0.04983058199286461, 0.005341184791177511, -0.01350883487612009, -0.019931720569729805, -0.04973594471812248, 0.004789338912814856, -0.04053019732236862, -0.04380723461508751, 0.05526033416390419, 0.014226558618247509, 0.055183008313179016, -0.006001362577080727, 2.6802639695233665e-05, -0.015410070307552814, -0.0015724331606179476, -0.004650732968002558, -0.052796024829149246, -0.0002783840463962406, -0.06488168239593506, -0.0240846686065197, -0.0562334880232811, 0.001071443664841354, 0.035395216196775436, -0.05471053719520569, -0.003911065869033337, 0.05759616568684578, -0.01419658400118351, 0.015171456150710583, -0.031016357243061066, 0.052298709750175476, 0.007761039771139622, -0.02824605442583561, -0.05566219985485077, 0.01082032173871994, 0.060988958925008774, 0.020109863951802254, 0.021367918699979782, 0.04853708669543266, 0.05374565348029137, 0.021935753524303436, -0.043890178203582764, -0.03491712734103203, -0.05757588893175125, 0.01567402109503746, -0.03980892896652222, 0.014418300241231918, -0.05264672636985779, 0.04572648927569389, -0.04419916495680809, 0.05960207059979439, -0.05417386069893837, -0.008225654251873493, -0.030393555760383606, 0.03564991429448128, 0.03637460991740227, -0.058510251343250275, -0.05688364803791046, -0.030217429623007774, 0.034180209040641785, -0.06284669786691666, -0.061846863478422165, -0.023960599675774574, -0.015120415017008781, -0.035885848104953766, -0.032247185707092285, 0.005310643929988146, 0.0036912488285452127, 0.0055371238850057125, -0.027597829699516296, 0.03635375201702118, 0.05734739825129509, 0.015865372493863106, -0.047038789838552475, -0.0007302373414859176, -0.001814352348446846, -0.0279854703694582, 0.006602490320801735, 0.001220586709678173, -0.06378041952848434, -0.03994329646229744, -0.029406694695353508, -0.04264393448829651, -0.037801507860422134, -0.012738692574203014, 0.03767409548163414, 0.022218214347958565, -0.01178611908107996, -0.048636969178915024, -0.03346545994281769, -0.000948861357755959, 0.022165918722748756, -0.03503675386309624, -0.045209962874650955, -0.02927006222307682, -0.030544187873601913, 0.00992674008011818, 0.056777045130729675, -0.052654244005680084, -0.009677170775830746, -0.02561679482460022, 0.02771812491118908, -0.06245920807123184, 0.015604610554873943, -0.031400732696056366, 0.020959816873073578, 0.05329964682459831, -0.039963334798812866, 0.006006892304867506, 0.05891614407300949, -0.014200099743902683, 0.04496408998966217, -0.002612308133393526, -0.03707846999168396, -0.018567869439721107, 0.057218872010707855, 0.04025866463780403, 0.04563046246767044, 0.034056637436151505, -0.03031139448285103, 0.03922225907444954, 0.026307156309485435, 0.04265281930565834, 0.03416036441922188, -0.04926634207367897, -0.003228230867534876, -0.03457764536142349, -0.03808796405792236, -0.04769257456064224, -0.048900216817855835, -0.020902661606669426, 0.02124646119773388, -0.0276468675583601, 0.0036572921089828014, -0.019291043281555176, 0.052342601120471954, -0.046364180743694305, 0.05949742719531059, 0.01681632548570633, -0.04487990215420723, 0.05824002996087074, -0.0120054567232728, -0.022513747215270996, -0.014808837324380875, 0.05856259912252426, 0.0554487369954586, -0.036757975816726685, 0.04909854009747505, 0.048860739916563034, -0.05998862162232399, -0.058378275483846664, 0.024197813123464584, -0.006823279894888401, 0.015803679823875427, 0.05995303764939308, -0.05569041892886162, -0.02199220471084118, 0.06054406985640526, -0.06251455098390579, 0.05933547019958496, 0.0034232712350785732, 0.05861746519804001, -0.015022056177258492, 0.06275884062051773, 0.046036578714847565, 0.0628359317779541, -0.05294692888855934, -0.00543985003605485, -0.04388970881700516, -0.05255325138568878, 0.021407898515462875, -0.06018703058362007, 0.0382252112030983, 0.050949689000844955, 0.039526261389255524, -0.04848293215036392, 0.031724248081445694, -0.04451073706150055, 0.0009347432060167193, 0.03171154111623764, -0.006551459897309542, 0.0017217915738001466, -0.00016472341667395085, 0.05270947143435478, -0.050854261964559555, -0.021033795550465584, 