#ifndef CONV3_PARAMS_H
#define CONV3_PARAMS_H

#include "constants.h"

// input 12x12x10, ch_num = 12

const float conv3_filter_weight[CONV3_K_NUM * NUM_10CH *  FILTER_SIZE * FILTER_SIZE] ={
	0.009890368208289146, -0.07608503848314285, 0.049333907663822174,
	-0.09381090104579926, 0.053446702659130096, 0.0726265162229538,
	0.05344685912132263, 0.03885103017091751, 0.08957336843013763,
	-0.06837213039398193, 0.061786580830812454, -0.10323160141706467,
	-0.05455118045210838, 0.0768161341547966, -0.06223379075527191,
	-0.012710409238934517, 0.06614068150520325, 0.050586968660354614,
	0.07049153745174408, -0.04443855956196785, -0.02354324422776699,
	0.09812366217374802, 0.03137154132127762, -0.04439668357372284,
	-0.01341844443231821, -0.08552509546279907, 0.0063683269545435905,
	0.016263684257864952, -0.01594776287674904, 0.05921030789613724,
	0.1014709621667862, -0.03545575588941574, -0.039238348603248596,
	0.03645923361182213, -0.011601998470723629, -0.04755859449505806,
	-0.09774426370859146, 0.025593940168619156, 0.02158169262111187,
	0.008857385255396366, 0.036950722336769104, 0.028258346021175385,
	-0.03821766376495361, 0.07526509463787079, -0.0704098790884018,
	-0.01949845626950264, -0.08913645148277283, 0.09195282310247421,
	-0.03843354433774948, -0.10109087824821472, -0.04489489272236824,
	-0.006037864368408918, -0.09763790667057037, 0.08697907626628876,
	-0.07011637836694717, -0.07895655930042267, -0.07865042239427567,
	-0.09616231918334961, 0.0898621529340744, -0.10330022871494293,
	-0.09362522512674332, 0.0934874564409256, 0.08469848334789276,
	-0.019957706332206726, 0.06403621286153793, -0.06137992814183235,
	0.05436159297823906, 0.0658160075545311, -0.016386598348617554,
	-0.016354376450181007, 0.11062895506620407, 0.112160325050354,
	-0.07446204870939255, -0.06238364055752754, 0.0040745544247329235,
	0.03422326222062111, 0.011968349106609821, -0.038317687809467316,
	-0.010575720109045506, -0.03319771960377693, 0.0599028505384922,
	-0.04047608748078346, -0.06863432377576828, 0.009238294325768948,
	0.09375905990600586, -0.024811280891299248, 0.017970828339457512,
	-0.02600145898759365, -0.0019031026167795062, -0.09095325320959091,
	0.04674581065773964, 0.05129367858171463, -0.07363077253103256,
	-0.045036010444164276, -0.04362022131681442, 0.06851927191019058,
	-0.08450109511613846, 0.08473715931177139, -0.05764882266521454,
	-0.007635658141225576, -0.048133596777915955, -0.09536632150411606,
	0.10614476352930069, -0.033728525042533875, -0.07684505730867386,
	-0.008501287549734116, -0.08631845563650131, 0.06176511198282242,
	0.02648788131773472, -0.028684955090284348, 0.06012153998017311,
	-0.007538472302258015, 0.0427294597029686, -0.09385868906974792,
	0.0441361665725708, 0.09864731132984161, -0.08770843595266342,
	0.03486943989992142, 0.05944794416427612, -0.09453202784061432,
	-0.0724446102976799, -0.05086514726281166, 0.04497944563627243,
	0.0013543989043682814, 0.06708919256925583, 0.019708724692463875,
	-0.10375180840492249, -0.049518976360559464, -0.05990239977836609,
	-0.036841198801994324, -0.0077802217565476894, 0.09022641181945801,
	0.04092169925570488, 0.03944830596446991, 0.013658864423632622,
	-0.015489594079554081, 0.09020403772592545, -0.0067866286262869835,
	-0.04477755352854729, -0.10391734540462494, -0.06585845351219177,
	0.05918426066637039, -0.015010769478976727, -0.004194095265120268,
	0.05640806257724762, -0.07995907217264175, -0.0749397873878479,
	-0.006707869935780764, -0.0009537352598272264, -0.033263906836509705,
	0.04358343034982681, -0.05547455698251724, 0.035478025674819946,
	-0.021101709455251694, 0.043202538043260574, -0.020662380382418633,
	0.04750203713774681, -0.08528242260217667, 0.058661021292209625,
	-0.019967276602983475, -0.07206833362579346, -0.05446130782365799,
	-0.054500024765729904, -0.06383775174617767, -0.1022108718752861,
	0.05514185503125191, -0.02873809076845646, -0.020964419469237328,
	-0.09269501268863678, -0.027461636811494827, -0.022274523973464966,
	-0.011222140863537788, 0.0457734651863575, 0.018571455031633377,
	0.053027987480163574, -0.07865767925977707, 0.06959385424852371,
	0.06970104575157166, 0.009819576516747475, 0.056315381079912186,
	0.10985466092824936, 0.06576735526323318, 0.045380935072898865,
	0.11292930692434311, 0.10305687040090561, 0.08157758414745331,
	0.04219214618206024, 0.12900419533252716, -0.011009815149009228,
	0.008095470257103443, 0.10503271222114563, 0.014541451819241047,
	3.55616066372022e-05, 0.02123228646814823, 0.1771770864725113,
	0.21679416298866272, 0.16785746812820435, 0.07240056246519089,
	-0.07414638251066208, 0.051510900259017944, 0.020877256989479065,
	-0.05520741268992424, 0.11823538690805435, -0.030181555077433586,
	-0.053652361035346985, -0.031302109360694885, 0.12607544660568237,
	0.09076772630214691, 0.09514472633600235, 0.09243123978376389,
	0.053848158568143845, 0.1052732765674591, 0.08407960087060928,
	0.09051091223955154, -0.08277951180934906, 0.09223239868879318,
	-0.003123336238786578, 0.09669164568185806, 0.07416187971830368,
	0.048979394137859344, 0.08403899520635605, 0.0062930225394666195,
	0.10656062513589859, -0.0651063546538353, 0.08382617682218552,
	0.06212689355015755, 0.11627285182476044, 0.008413853123784065,
	0.0945918932557106, 0.11120496690273285, -0.05185934156179428,
	-0.0233633890748024, 0.07795035094022751, -0.024245383217930794,
	-0.003262890735641122, -0.009011044166982174, 0.12335366755723953,
	0.02899843640625477, 0.12355329841375351, -0.007109427358955145,
	0.04461131617426872, 0.10906952619552612, 0.13866831362247467,
	0.06477867811918259, -0.07967465370893478, -0.0751139298081398,
	0.012387570925056934, -0.05606936290860176, -0.06529420614242554,
	0.011310499161481857, -0.046198684722185135, -0.08194111287593842,
	0.06127326563000679, -0.004071574658155441, 0.08447461575269699,
	0.024925727397203445, 0.10211687535047531, 0.09364287555217743,
	0.20248883962631226, 0.20407772064208984, 0.16937582194805145,
	0.04958917945623398, -0.08872199058532715, 0.06209230795502663,
	-0.036524493247270584, -0.06481737643480301, 0.010585623793303967,
	0.013988599181175232, -0.01527225598692894, 0.02817646414041519,
	0.0036518708802759647, 0.06409955024719238, -0.004337012302130461,
	0.014274085871875286, -0.06830132752656937, 0.025843027979135513,
	0.01827225647866726, -0.09338943660259247, 0.06714271754026413,
	-0.02025621011853218, 0.014104136265814304, 0.08788444101810455,
	0.04748711362481117, 0.050863612443208694, -0.09113461524248123,
	-0.039329297840595245, -0.07520551979541779, -0.07579357177019119,
	-0.05423532798886299, -0.09428001195192337, 0.012431387789547443,
	-0.05851726979017258, -0.06127540394663811, 0.022016050294041634,
	0.07894466072320938, -0.014059304259717464, -0.11357125639915466,
	0.12418080121278763, 0.012847191654145718, -0.021464798599481583,
	0.08493078500032425, 0.10921414196491241, 0.09261654317378998,
	0.022200504317879677, -0.026469416916370392, 0.052565980702638626,
	-0.06488905102014542, -0.08433645963668823, -0.05786531791090965,
	0.04053211584687233, -0.06304889172315598, 0.10005716234445572,
	-0.02992101199924946, 0.003512465860694647, 0.04265434294939041,
	0.08955502510070801, -0.03467850759625435, -0.05167817696928978,
	0.07424996793270111, 0.027670415118336678, 0.10011490434408188,
	-0.041723497211933136, -0.09900258481502533, -0.03389102593064308,
	-0.0635111853480339, -0.010554488748311996, 0.06929419934749603,
	-0.05250240117311478, -0.05077735707163811, -0.0635959655046463,
	-0.07563720643520355, 0.003274095244705677, 0.03861168771982193,
	0.09017203748226166, 0.132648766040802, 0.029206184670329094,
	0.003495032200589776, 0.16311249136924744, 0.1405121088027954,
	0.12118688970804214, 0.1913500726222992, 0.05539534613490105,
	0.015028686262667179, -0.02309785597026348, -0.05212773382663727,
	0.026490340009331703, -0.06662251800298691, -0.04764045402407646,
	-0.08539456874132156, -0.025876585394144058, -0.06262227892875671,
	-0.048760801553726196, 0.0830903872847557, -0.07566770166158676,
	-0.07852895557880402, -0.006715381518006325, -0.03567342460155487,
	0.002001873916015029, -0.09508588910102844, -0.06656322628259659,
	0.007721545174717903, -0.0841849148273468, 0.04344245418906212,
	-0.03159937635064125, 0.11956362426280975, 0.02003040723502636,
	0.0917949303984642, 0.1398593932390213, 0.0929645299911499,
	0.04291655123233795, -0.0731893926858902, -0.09908934682607651,
	0.05777048319578171, -0.04348701611161232, 0.1288827359676361,
	0.12048064172267914, 0.12111695110797882, -0.042737290263175964,
	0.06567561626434326, 0.0930122435092926, 0.1050066351890564,
	0.011875128373503685, 0.039804380387067795, 0.0483892560005188,
	-0.021687887609004974, 0.0013675026129931211, -0.037052661180496216,
	-0.09340052306652069, 0.0029438643250614405, 0.08876391500234604,
	0.0028298734687268734, -0.060417793691158295, 0.01936483383178711,
	-0.06433448195457458, -0.035755954682826996, 0.09360449016094208,
	0.03731831535696983, 0.09958600997924805, 0.1128881499171257,
	0.10482590645551682, -0.04226776584982872, -0.08987800031900406,
	-0.05652482062578201, -0.028449373319745064, 0.05607084184885025,
	0.11806255578994751, 0.06198251619935036, 0.10778771340847015,
	0.0849347710609436, 0.03739845007658005, -0.03200559690594673,
	0.11202892661094666, 0.1084463968873024, -0.03221634030342102,
	-0.038289107382297516, -0.04561082273721695, 0.019337164238095284,
	0.004651333671063185, -0.052715595811605453, 0.054127562791109085,
	-0.07260189205408096, 0.07318861037492752, 0.01763334311544895,
	0.03927973285317421, 0.04977461323142052, -0.0210304856300354,
	-0.007473063189536333, 0.013447007164359093, 0.03412088379263878,
	-0.05178650841116905, 0.03296758234500885, 0.07062169909477234,
	-0.01448362972587347, 0.08817408978939056, 0.06810604780912399,
	-0.09586606174707413, 0.10999173671007156, -0.04663265123963356,
	-0.009325874038040638, 0.17757540941238403, 0.16845224797725677,
	-0.02517891488969326, 0.03718727454543114, -0.09783870726823807,
	-0.041472457349300385, -0.07544761896133423, -0.10282448679208755,
	-0.0981796458363533, 0.049384914338588715, 0.0941774770617485,
	-0.0921318382024765, 0.0018768968293443322, -0.03197408467531204,
	-0.07516583055257797, 0.02925334870815277, 0.02758157253265381,
	0.06788750737905502, 0.06109355390071869, -0.007962153293192387,
	-0.08513325452804565, -0.04971689358353615, 0.0022153579629957676,
	-0.00880567915737629, -0.046793289482593536, 0.03922254592180252,
	0.012039756402373314, 0.04000450298190117, -0.04564211517572403,
	0.0521261990070343, -0.007468926254659891, -0.05957739055156708,
	-0.006574198603630066, -0.05889870226383209, 0.02011406607925892,
	0.01724960468709469, 0.04814721643924713, 0.025541208684444427,
	-0.03378831967711449, -0.08787846565246582, -0.08204096555709839,
	-0.06661880016326904, -0.05763612315058708, -0.06581102311611176,
	-0.08485403656959534, 0.0034693365450948477, 0.08830391615629196,
	-0.10576999187469482, -0.057881489396095276, -0.07668858766555786,
	0.00035219546407461166, 1.8400020053377375e-05, 0.04384119436144829,
	0.10451706498861313, 0.01918388158082962, 0.03008093126118183,
	-0.1132911965250969, -0.05742048844695091, -0.0761377289891243,
	-0.042917266488075256, 0.006434983108192682, 0.019104354083538055,
	-0.0810798704624176, 0.058621834963560104, -0.03930850327014923,
	-0.04135223850607872, -0.035896915942430496, -0.054660864174366,
	-0.00029613275546580553, 0.03202727064490318, 0.0690276026725769,
	0.006933927070349455, 0.004052325151860714, 0.07486601173877716,
	0.004977414384484291, -0.07098178565502167, -0.056771326810121536,
	0.04913400858640671, 0.04189794510602951, 0.09565413743257523,
	0.10291201621294022, 0.028317438438534737, 0.03733401373028755,
	0.0762474536895752, 0.04038286209106445, -0.052116043865680695,
	0.10055721551179886, -0.076319120824337, 0.0819951668381691,
	0.08011680096387863, 0.021463124081492424, 0.054969288408756256,
	-0.0896151214838028, -0.026006383821368217, 0.02173256315290928,
	0.06634808331727982, -0.09585196524858475, 0.06743523478507996,
	-0.021638259291648865, -0.03418593853712082, 0.10063141584396362,
	-0.08797531574964523, -0.05753514543175697, -0.06789454072713852,
	0.05826618894934654, -0.05849917232990265, 0.05097641423344612,
	0.013965405523777008, 0.036160439252853394, -0.06956911087036133,
	-0.028572507202625275, -0.07761954516172409, 0.02302611991763115,
	-0.034159936010837555, -0.05038735270500183, -0.005290891043841839,
	-0.08990015834569931, -0.12720774114131927, -0.11838844418525696,
	-0.09699459373950958, 0.013694055378437042, 0.03727636858820915,
	0.10083814710378647, -0.01200922578573227, -0.08419031649827957,
	-0.030402231961488724, 0.05583006143569946, -0.003669008379802108,
	0.035195447504520416, -0.039801593869924545, 0.005210483446717262,
	0.06300963461399078, 0.12242676317691803, -0.007338846568018198,
	0.12009859085083008, -0.0816439688205719, 0.0303249042481184,
	0.08452614396810532, -0.01613309420645237, -0.010202177800238132,
	-0.09165705740451813, -0.0628824383020401, 0.023937931284308434,
	0.06186981871724129, 0.030700430274009705, -0.05289655178785324,
	-0.047821979969739914, 0.04959259554743767, 0.01557927019894123,
	0.08449549227952957, 0.0177354384213686, -0.10040219128131866,
	0.08596885204315186, -0.05288795381784439, -0.04788617417216301,
	-0.015236773528158665, 0.062197037041187286, -0.11286244541406631,
	-0.1118960976600647, 0.022082747891545296, 0.05332107096910477,
	-0.08345747739076614, -0.09687341749668121, -0.08857276290655136,
	0.14297454059123993, 0.12622320652008057, -0.017665397375822067,
	0.12267297506332397, 0.15980687737464905, 0.024874581024050713,
	-0.004067618865519762, 0.15658767521381378, 0.14579398930072784,
	0.023582233116030693, 0.0723106861114502, -0.06980634480714798,
	0.014031834900379181, 0.08833083510398865, 0.03885604441165924,
	-0.00924946554005146, -0.03255440294742584, 0.02029922418296337,
	0.0963667556643486, 0.09794437885284424, 0.037601545453071594,
	-0.10148227214813232, -0.02451436221599579, 0.09638030081987381,
	0.005887641571462154, 0.03366430848836899, 0.06153509393334389,
	0.0009066665079444647, -0.018148060888051987, -0.017228255048394203,
	-0.034102365374565125, -0.0019449417013674974, 0.07358214259147644,
	0.0050861467607319355, 0.011177151463925838, 0.03542177379131317,
	-0.002646740060299635, 0.02784166857600212, 0.03786437213420868,
	0.06681030243635178, 0.007782499771565199, -0.0006032030214555562,
	-0.034033920615911484, 0.09271588921546936, -0.0506780780851841,
	-0.0965757668018341, 0.06910447031259537, 0.072401262819767,
	-0.020378679037094116, -0.03122078999876976, 0.00839060265570879,
	0.017881104722619057, -0.08900368213653564, -0.014483927749097347,
	-0.02819698117673397, -0.06981928646564484, 0.03809631988406181,
	0.07762077450752258, 0.0702277198433876, 0.07168595492839813,
	-0.042068369686603546, -0.08272870630025864, -0.015424729324877262,
	-0.08456014841794968, -0.08598090708255768, 0.039608437567949295,
	0.05143003910779953, -0.013774237595498562, 0.03275996074080467,
	-0.04848087206482887, -0.08337957412004471, -0.08528488129377365,
	-0.08087947219610214, 0.07103268057107925, -0.06272382289171219,
	-0.038002774119377136, 0.019923102110624313, -0.017687462270259857,
	-0.027015022933483124, -0.09678801149129868, 0.049250975251197815,
	0.08619415760040283, 0.05182679742574692, 0.059988975524902344,
	-0.08079707622528076, 0.08715929836034775, -0.0880020409822464,
	0.006145782303065062, 0.09660640358924866, -0.07877231389284134,
	0.060876697301864624, -0.06467659771442413, -0.0807858407497406,
	-0.0784783661365509, 0.10341741889715195, -0.10942858457565308,
	-0.01731463149189949, -0.002372634131461382, -0.04044658690690994,
	-0.0991833508014679, 0.07010100781917572, -0.07916869223117828,
	-0.059940043836832047, 0.07554741203784943, 0.0592045933008194,
	-0.05721570923924446, -0.07300834357738495, 0.020512277260422707,
	0.06412312388420105, -0.020420877262949944, 0.05773517116904259,
	0.10475390404462814, -0.04834619164466858, 0.06986121088266373,
	0.08938564360141754, -0.028070056810975075, -0.014912020415067673,
	-0.04886656627058983, -0.010987970978021622, -0.028371037915349007,
	0.08758606761693954, -0.09694807976484299, -0.03167985379695892,
	-0.037170786410570145, 0.04923054575920105, 0.008279362693428993,
	-0.058181583881378174, -0.019631043076515198, -0.02284550666809082,
	-0.1004980131983757, 0.05978664755821228, -0.012229040265083313,
	0.023287950083613396, 0.028410127386450768, -0.03202562406659126,
	0.033897802233695984, 0.08482562750577927, 0.012113215401768684,
	-0.08764122426509857, -0.04986492544412613, -0.10477925091981888,
	0.04960421100258827, -0.004015359561890364, 0.005693557672202587,
	0.0839044451713562, -0.008570178411900997, 0.09045599400997162,
	0.10980337113142014, -0.07918151468038559, -0.03432749956846237,
	-0.0643654391169548, 0.08682283759117126, 0.1147875264286995,
	0.04869112744927406, -0.08273549377918243, 0.048788148909807205,
	0.05849231407046318, -0.01597488485276699, -0.06521239876747131,
	-0.06097947061061859, -0.036054279655218124, -0.09349066019058228,
	-0.10713404417037964, 0.01141886692494154, 0.006208632607012987,
	-0.04922345280647278, -0.0327809676527977, -0.04390375688672066,
	0.01180387381464243, 0.0663500502705574, -0.043511178344488144,
	-0.010803095065057278, -0.01648338884115219, 0.05308297649025917,
	-0.08311007171869278, -0.012922906316816807, 0.039950113743543625,
	0.02803507074713707, -0.1093580573797226, -0.00498625123873353,
	0.0019460845505818725, 0.17302706837654114, 0.17768584191799164,
	0.08842458575963974, 0.0821511521935463, 0.07490655779838562,
	0.1532493233680725, 0.16148419678211212, -0.004968484863638878,
	-0.09332714974880219, -0.0007816872093826532, -0.10055157542228699,
	0.07663887739181519, -0.08592825382947922, -0.06266292929649353,
	0.10175250470638275, -0.05433246120810509, -0.026776546612381935,
	0.09022986143827438, -0.011339905671775341, -0.013806052505970001,
	-0.07430954277515411, -0.1008731871843338, -0.048440467566251755,
	-0.007906236685812473, 0.04799295589327812, -0.04096744582056999,
	0.08338762074708939, 0.09691181033849716, 0.10114327073097229,
	0.08132374286651611, -0.033943820744752884, 0.11434467881917953,
	0.059558119624853134, 0.11039909720420837, 0.08562571555376053,
	0.024191169068217278, 0.026246877387166023, -0.004551543388515711,
	0.06051778048276901, 0.0346803180873394, -0.05214018002152443,
	0.1948973685503006, 0.17941845953464508, 0.03823789581656456,
	-0.08981922268867493, -0.0019672627095133066, 0.15571829676628113,
	0.012971212156116962, 0.12286434322595596, 0.0942884087562561,
	-0.05545591935515404, 0.14568036794662476, 0.021602625027298927,
	0.011156534776091576, -0.05307716131210327, 0.05155365541577339,
	-0.09224933385848999, 0.074408620595932, 0.10744467377662659,
	0.04756472259759903, 0.03897092491388321, 0.03879718482494354,
	0.07655307650566101, 0.03159850835800171, -0.022189917042851448,
	-0.06370928138494492, -0.028922786936163902, -0.059714898467063904,
	-0.03393811360001564, 0.04654000326991081, 0.025888049975037575,
	0.07167743891477585, 0.05819573253393173, -0.006235690321773291,
	0.12074029445648193, 0.09279549866914749, -0.050368987023830414,
	0.0567445307970047, -0.02663882076740265, 0.05040714889764786,
	0.14052996039390564, 0.019772222265601158, -0.06420392543077469,
	0.02894204668700695, 0.04400993511080742, -0.04975809529423714,
	0.01492010522633791, 0.06482797861099243, 0.04482655972242355,
	-0.05465247854590416, -0.07249148190021515, -0.08266597986221313,
	-0.0010596915381029248, -0.09974191337823868, -0.07931868731975555,
	0.05625418946146965, 0.0744788870215416, -0.07146026194095612,
	0.0850282832980156, 0.0009422451839782298, -0.09344795346260071,
	0.025221826508641243, -0.038405440747737885, 0.08141224086284637,
	-0.0340329185128212, 0.07681134343147278, 0.04587055742740631,
	0.05554037168622017, -0.08145545423030853, -0.003966568503528833,
	-0.013087845407426357, 0.06780179589986801, 0.06451363861560822,
	0.052793871611356735, 0.059117961674928665, -0.026567986235022545,
	0.011594736948609352, -0.002910192357376218, -0.041978977620601654,
	0.09650658071041107, 0.026681728661060333, 0.10951168835163116,
	-0.04486117511987686, -0.04629874974489212, 0.03402452915906906,
	0.08378076553344727, -0.054633572697639465, -0.1127372458577156,
	0.0012921594316139817, -0.09924589097499847, -0.12014994770288467,
	0.10089422762393951, -0.09498214721679688, -0.000800861744210124,
	-0.023256691172719002, -0.053272541612386703, 0.04932330921292305,
	-0.04426206648349762, -0.07551420480012894, -0.005289933644235134,
	-0.08065783232450485, 0.09540429711341858, -0.05288906395435333,
	0.02138337306678295, 0.0732373520731926, -0.044327009469270706,
	-0.05537227541208267, -0.03284955769777298, -0.05337882786989212,
	0.04872502386569977, 0.06572879105806351, 0.10337568074464798,
	-0.04666004329919815, -0.09716159105300903, -0.10235714167356491,
	-0.06596845388412476, -0.10606348514556885, 0.029062096029520035,
	-0.08125556260347366, 0.08527877181768417, 0.025661658495664597,
	-0.05625159293413162, -0.07123047858476639, 0.07180828601121902,
	-0.08982908725738525, 0.033045340329408646, 0.043479908257722855,
	0.06144915148615837, -0.03722666949033737, 0.08722972869873047,
	-0.012138020247220993, 0.04329390451312065, 0.07888510823249817,
	-0.08107170462608337, 0.0008040314423851669, -0.06702867150306702,
	0.057430699467659, 0.09572392702102661, -0.05248863250017166,
	0.12756842374801636, 0.1267635077238083, 0.133208230137825,
	-0.02385394461452961, 0.12567469477653503, 0.07916808873414993,
	0.035745926201343536, -0.022160604596138, 0.12835584580898285,
	-0.1162821352481842, 0.0529659278690815, -0.11238305270671844,
	-0.09633921831846237, -0.006901827175170183, 0.10963663458824158,
	0.08766422420740128, 0.05100284516811371, -0.028672821819782257,
	0.014721532352268696, 0.021321535110473633, -0.0189654678106308,
	-0.021246904507279396, 0.08045075088739395, -0.016514917835593224,
	0.006623577326536179, 0.10220658034086227, 0.03440532833337784,
	0.05272604152560234, 0.135752335190773, 0.14754167199134827,
	0.07821162790060043, -0.014339840039610863, -0.05708635598421097,
	0.14639191329479218, 0.10963597893714905, 0.09983665496110916,
	0.02064901776611805, 0.006181030068546534, 0.023942068219184875,
	-0.1168021485209465, -0.06875582039356232, 0.10389624536037445,
	-0.10583344846963882, 0.13708969950675964, 0.11367891728878021,
	0.11731357127428055, 0.018756074830889702, -0.047664910554885864,
	0.018344761803746223, 0.05163281783461571, 0.002806685399264097,
	-0.048917923122644424, -0.01575195975601673, 0.07596468925476074,
	-0.04519802704453468, 0.010633696801960468, -0.10158725827932358,
	0.08811720460653305, 0.05673746392130852, -0.02384285442531109,
	-0.08670183271169662, -0.04235626012086868, 0.07206068933010101,
	0.06439235061407089, -0.03532502055168152, -0.03992777690291405,
	0.017356351017951965, 0.019466500729322433, 0.08606573939323425,
	0.0438237302005291, 0.08984681218862534, 0.0497945137321949,
	0.05474889650940895, 0.06550019979476929, -0.055689502507448196,
	0.1191134974360466, 0.1043674498796463, 0.039928141981363297,
	0.08371507376432419, 0.08060348778963089, -0.04398312047123909,
	-0.025759130716323853, 0.04298507794737816, 0.16072897613048553,
	0.0187266506254673, -0.028506064787507057, 0.11672589927911758,
	-0.04937363415956497, 0.1773340404033661, 0.06090587377548218,
	0.12739615142345428, 0.038260940462350845, 0.07880611717700958,
	0.12787237763404846, 0.1447373926639557, -0.028649048879742622,
	0.09389443695545197, 0.06079814210534096, -0.1005992591381073,
	-0.06053388863801956, 0.16869395971298218, 0.19106930494308472,
	0.1021941751241684, 0.06748350709676743, 0.07651057839393616,
	0.015502979047596455, 0.13923320174217224, -0.018499281257390976,
	0.021459676325321198, 0.061580803245306015, -0.0382341630756855,
	-0.10053390264511108, 0.10212770104408264, 0.038252152502536774,
	-0.03351861983537674, 0.03295118361711502, 0.00016345518815796822,

};


const float conv3_filter_bias[CONV3_K_NUM] = {
	-0.08331427723169327, 0.07290957123041153, 0.10971416532993317,
	0.057534582912921906, -0.06533106416463852, 0.12532690167427063,
	0.11844467371702194, 0.07013773918151855, 0.04815898463129997,
	0.1948375105857849, 0.03983994200825691, 0.11739252507686615,
};

#endif // CONV3_PARAMS_H