#ifndef LIN2_PARAMS_h
#define LIN2_PARAMS_h

// Total params 410

const float lin2_weight[FC02NODENUM * OUTPUT_SIZE] = {
	0.06763376295566559, -0.1781146079301834, -0.16821016371250153,
	0.11467109620571136, -0.15000039339065552, 0.009038013406097889,
	0.31342560052871704, -0.25963714718818665, -0.11048334836959839,
	-0.04797007143497467, 0.07918920367956161, 0.33134371042251587,
	-0.05993190407752991, 0.0997566282749176, 0.19474107027053833,
	-0.020927513018250465, 0.0763430967926979, -0.16655297577381134,
	-0.1175803691148758, -0.15660494565963745, 0.07459260523319244,
	-0.012730126269161701, 0.043727174401283264, 0.09269853681325912,
	-0.1250663846731186, -0.012092429213225842, -0.107428640127182,
	0.15098829567432404, -0.041572410613298416, 0.08832760900259018,
	-0.03994011506438255, 0.030443288385868073, -0.004047031048685312,
	0.34284648299217224, -0.009113507345318794, 0.41564202308654785,
	0.17141978442668915, 0.16887955367565155, -0.08839943259954453,
	0.0564713180065155, -0.2140909731388092, 0.20011034607887268,
	0.07109569758176804, 0.08188226073980331, 0.08871369808912277,
	0.014251267537474632, -0.2487388402223587, 0.1685882806777954,
	0.1433391571044922, 0.1273069530725479, 0.05582078918814659,
	-0.41124191880226135, 0.24870191514492035, -0.13808608055114746,
	-0.04084504768252373, 0.08339820802211761, -0.037897251546382904,
	0.12494714558124542, -0.013202222064137459, -0.007716689258813858,
	0.16820228099822998, 0.2162492275238037, -0.09077295660972595,
	-0.09442473202943802, -0.110550157725811, 0.22371672093868256,
	-0.11164620518684387, -0.14929716289043427, 0.18539391458034515,
	-0.10326380282640457, -0.020957397297024727, -0.016275862231850624,
	0.06949956715106964, -0.3147202432155609, 0.0198415145277977,
	-0.35168492794036865, -0.23417429625988007, -0.014829170890152454,
	-0.10518335551023483, 0.1052691638469696,
};


const float lin2_bias[OUTPUT_SIZE] = {
	-0.23837676644325256, 0.3510981798171997,
};


#endif // LIN2_PARAMS_h